{"learner":{"attributes":{"scikit_learn":"{\"_estimator_type\": \"regressor\"}"},"feature_names":[],"feature_types":[],"gradient_booster":{"model":{"cats":{"enc":[],"feature_segments":[],"sorted_idx":[]},"gbtree_model_param":{"num_parallel_tree":"1","num_trees":"150"},"iteration_indptr":[0,1,2,3,4,5,6,7,8,9,10,11,12,13,14,15,16,17,18,19,20,21,22,23,24,25,26,27,28,29,30,31,32,33,34,35,36,37,38,39,40,41,42,43,44,45,46,47,48,49,50,51,52,53,54,55,56,57,58,59,60,61,62,63,64,65,66,67,68,69,70,71,72,73,74,75,76,77,78,79,80,81,82,83,84,85,86,87,88,89,90,91,92,93,94,95,96,97,98,99,100,101,102,103,104,105,106,107,108,109,110,111,112,113,114,115,116,117,118,119,120,121,122,123,124,125,126,127,128,129,130,131,132,133,134,135,136,137,138,139,140,141,142,143,144,145,146,147,148,149,150],"tree_info":[0,0,0,0,0,0,0,0,0,0,0,0,0,0,0,0,0,0,0,0,0,0,0,0,0,0,0,0,0,0,0,0,0,0,0,0,0,0,0,0,0,0,0,0,0,0,0,0,0,0,0,0,0,0,0,0,0,0,0,0,0,0,0,0,0,0,0,0,0,0,0,0,0,0,0,0,0,0,0,0,0,0,0,0,0,0,0,0,0,0,0,0,0,0,0,0,0,0,0,0,0,0,0,0,0,0,0,0,0,0,0,0,0,0,0,0,0,0,0,0,0,0,0,0,0,0,0,0,0,0,0,0,0,0,0,0,0,0,0,0,0,0,0,0,0,0,0,0,0,0],"trees":[{"base_weights":[1.2037087E-7,-1.7075793E-1,2.9404825E-1,-1.5909419E0,-1.4393318E-1,1.7000541E-1,3.642755E-1,-3.1183347E-1,-1.6951131E0,8.125395E-3,-2.2003113E-1,2.1218507E-1,6.495565E-2,2.3640542E-1,3.7447435E-1,-2.0917067E-2,-6.399698E-1,-1.9029062E0,-1.4160889E0,-2.2403812E-1,1.8608874E-1,-1.3512365E0,-1.1452962E-1,1.5602876E-1,2.439365E-1,-5.2749697E-2,9.303494E-2,9.748738E-2,2.5780496E-1,3.235016E-1,3.8034335E-1,-1.4694055E-2,-7.448596E-2,-1.8237221E0,-2.3680507E-1,-1.2354883E0,-1.5739754E-1,-1.475568E-1,-7.0885885E-1,6.2695764E-2,3.2705238E-1,-1.6554853E0,-9.696496E-1,-8.7906905E-2,-5.636309E-1,7.218662E-2,1.8371676E-1,2.649013E-1,1.9461341E-1,-2.3069343E-2,-1.8281384E-1,5.6550615E-2,1.16689146E-1,-3.6905833E-2,1.13421574E-1,-1.1555827E-2,2.5950694E-2,2.776813E-1,3.4675743E-2,3.8507906E-1,3.3221743E-1,-9.183596E-2,-1.8452268E0,-1.0598108E0,-1.3777487E-1,-1.2286708E-1,-3.0159515E-1,-8.9588535E-1,-5.035955E-1,-3.0774564E-2,1.0719225E-1,2.3880535E-1,3.623276E-1,-1.4612274E-1,-1.7374083E0,-1.7280583E-1,-1.0616993E0,-1.8209785E-1,-1.4214823E-2,-7.618892E-1,-4.0493998E-1,7.6376416E-2,-5.2727398E-2,1.538554E-1,2.1295275E-1,1.6769771E-1,2.7506503E-1,2.0102687E-1,8.200556E-2,-1.7951202E-3,-3.8580817E-1,-1.5113014E-2,-5.3912885E-2,-8.788175E-4,8.941366E-2,1.1313361E-1,2.6800958E-2,1.41919395E-2,1.4797174E-2,2.3887632E-2,3.093485E-2,3.897238E-1,3.313313E-2,3.3505097E-1,6.013012E-3,-1.708582E0,-1.979044E-1,-1.4492346E-1,-9.709767E-1,-1.6206272E-1,-6.2131222E-2,-6.84985E-1,-2.4903671E-1,-7.676857E-1,-1.0183051E0,2.0565748E-2,-5.169952E-1,-1.7076704E-1,-1.2289111E-2,6.1164346E-2,1.5626416E-1,1.6190796E-1,2.6221797E-1,2.6882792E-1,3.7104586E-1,-1.1752986E-1,-4.4555824E-2,-1.7569212E0,3.917457E-2,6.198977E-3,-2.2794312E-1,-1.2810527E0,-1.0177366E0,-1.4520514E-1,-3.0027017E-1,-7.5343736E-2,2.5536438E-2,-8.2518387E-1,-6.2227804E-2,-4.611229E-1,-1.2156294E-1,-2.5894186E-2,1.022559E-1,1.6723853E-2,3.4767315E-2,2.1409845E-1,-2.5270546E-2,2.9950071E-2,1.5358576E-1,2.925256E-1,2.4956726E-1,2.1474043E-1,1.605489E-2,1.860168E-2,-2.6463184E-3,-6.40274E-2,1.8879462E-2,-6.907112E-2,2.7206112E-2,4.570075E-3,1.1197281E-1,8.560098E-2,1.3260339E-2,5.793953E-3,-3.3527408E-2,3.675626E-1,3.9568257E-1,3.3577956E-2,-1.3920546E-2,-1.7180872E-1,-2.3170544E-2,-4.9906652E-2,-1.0278644E-1,-1.3055593E-1,-2.1591316E-1,-1.1264492E-1,-4.9193054E-2,-1.2110728E-1,-4.9131712E-1,-3.0125162E-1,-7.06261E-2,-5.954507E-2,-8.204591E-2,-7.544313E-2,-1.0705417E-1,-5.306925E-1,-4.5587514E-2,-1.47756515E-2,-3.5404343E-2,-5.937239E-3,-1.3067433E-1,3.6901295E-2,9.8546855E-2,6.6991188E-3,1.6585399E-1,3.9913505E-3,1.8411803E-1,1.425302E-2,2.7572802E-1,2.870821E-1,-7.947641E-3,3.402404E-2,3.8643393E-1,-2.8125911E-3,-2.1784681E-1,-2.252421E0,-1.6465167E0,-4.2498466E-2,-1.9683493E-2,-1.4365308E0,-1.1054751E0,-4.1938686E-1,-1.0341715E0,-3.1191128E-1,-1.3680875E-1,-6.392503E-1,-2.6191103E-1,-1.2710091E-1,-4.956725E-2,-2.7372282E-2,5.971215E-2,-1.1469772E0,-7.9539907E-1,4.852353E-2,-4.699197E-1,-9.98274E-2,-9.228958E-2,1.2739163E-2,-3.4925424E-2,1.5582739E-1,7.312578E-2,1.2642428E-1,-1.1327454E-1,2.0764875E-1,3.172579E-2,7.7972594E-3,1.7971994E-2,3.02446E-1,2.1076454E-1,1.4174814E-2,2.542535E-1,1.4299239E-2,2.2249786E-2,4.0374048E-2,-3.746074E-2,3.6302719E-3,-1.6001654E-1,-1.9173453E-2,3.9016515E-2,-1.9330835E-2,1.1653722E-2,-8.2683953E-4,1.08385034E-1,3.541872E-2,3.9849203E-2,3.9969742E-2,3.6967137E-1,-1.9262707E-1,-1.1203115E-1,-3.0470459E-2,-1.9956289E-1,-3.6178082E-1,-1.0530659E-2,-2.7289689E-2,-7.6354876E-2,-1.2274106E-3,-5.123352E-2,-3.5099685E-1,-2.3586348E-1,-1.179123E-2,1.2420092E-3,-7.575913E-1,-4.9943405E-1,1.8819178E-2,-1.9384246E-2,-6.5870546E-2,-4.3398286E-3,-5.0480824E-2,-9.098629E-3,1.302546E-4,5.3722385E-2,-3.462055E-2,1.0044819E-1,1.2250654E-2,1.9783106E-1,7.027088E-3,2.0705258E-2,2.5413677E-2,3.28932E-2,1.5575871E-2,3.1077398E-2,3.0397815E-1,3.931799E-2,-1.2609542E-3,-3.1278357E-2,-2.2861454E0,-7.497288E-2,-1.7837923E0,-1.5153522E0,-6.870556E-3,-1.4605886E0,-3.783522E-2,-1.1851628E-1,-1.6080981E-2,-6.3136536E-1,-9.141269E-1,-1.0923721E0,-7.0525146E-1,-2.0451868E-1,-1.8660793E-1,-1.168468E-1,-5.381484E-1,-7.8764135E-1,-3.2649526E-1,-2.0056717E-1,-1.1121097E-1,-2.2226507E-2,-4.4356164E-2,-3.0475587E-1,-4.9173526E-2,-3.7394285E-3,3.4667112E-2,9.711581E-2,-1.1750453E-1,-2.5070548E-2,-6.337949E-2,-8.167814E-2,-5.7070553E-2,1.9726536E-1,-4.2217946E-1,-5.951558E-1,-1.7570786E-2,-2.177421E-1,-2.4921135E-3,1.2703168E-1,1.1690124E-2,2.912855E-2,7.993998E-3,-3.0630816E-2,2.6680952E-2,-1.3296127E-2,-1.6730137E-1,2.121917E-2,2.1068126E-2,-2.9155826E-2,-1.1280829E-2,3.0384228E-1,-9.566984E-3,2.3601745E-1,3.2416978E-5,2.5600672E-2,7.2445455E-3,-3.807055E-2,-3.9406653E-2,-9.578916E-3,2.1989118E-2,2.459901E-2,-1.1900918E-2,1.1268633E-2,3.7242647E-2,2.0398969E-2,-1.5727244E-2,-2.4204848E-2,-2.7001655E-2,-1.0612852E-1,-1.9731599E-1,-7.9070546E-2,-9.787055E-2,-9.584244E-3,-1.1919531E-2,-2.0423513E-3,-1.0077022E-2,-3.6626991E-3,1.5044165E-2,-3.594395E-1,-1.0361058E-2,-2.6274113E-2,-1.0760737E-2,-7.9870716E-2,-5.8989996E-1,-4.493834E-1,-2.3378732E-2,2.6635062E-3,1.2540768E-3,8.16021E-3,1.0305734E-2,-1.9405818E-2,-2.7620554E-2,1.9929352E-1,-1.4505827E-1,3.209346E-2,-1.857075E-1,-2.3615551E-1,-2.9594055E-1,-1.7914269E0,-1.2625525E0,-1.5946325E0,-2.5920546E-2,-1.4783655E-1,-4.9205543E-3,-6.979846E-2,-1.3754904E0,-8.541186E-1,-1.1899798E0,-1.0123376E0,-8.7737477E-1,-3.520105E-1,-1.5594798E-2,-2.6512542E-1,-1.5478337E-1,-2.2615647E-1,-8.942384E-2,-1.522055E-1,-4.3139112E-1,-7.0580594E-2,-1.0499477E0,-7.001932E-1,-3.0248764E-1,-5.0535214E-1,3.001147E-2,-2.1008039E-1,-1.0738922E-1,-3.4656328E-1,-7.5373404E-2,-3.225119E-2,-4.0092573E-1,4.12066E-3,-2.0998878E-2,-8.9929484E-2,-4.4206485E-2,1.2279243E-2,-8.812838E-2,4.3420903E-2,4.3198153E-2,1.2078322E-1,2.9264769E-2,-2.3520553E-2,-3.1855017E-1,-4.7038767E-1,-6.258242E-1,-6.07346E-2,-8.137067E-2,6.898947E-3,2.0819176E-2,-2.641794E-1,2.125522E-2,-2.4680823E-2,-4.2455822E-2,7.8834124E-2,-2.1838933E-1,1.1719179E-2,2.758268E-2,3.2094926E-2,-3.7970543E-2,2.449052E-2,8.774198E-3,-2.2381565E-2,-8.473481E-3,-1.3065134E-1,-1.7588468E-1,-2.4058306E-1,-2.305569E-2,-4.0318057E-1,-6.083929E-2,-2.5117576E-2,-3.8426495E-1,-5.163003E-2,-1.4405687E-3,-9.871817E-3,1.3722313E-2,2.1380499E-2,-6.577056E-2,2.4505934E-2,2.152946E-2,-6.592055E-2,-8.271759E-2,-1.8029706E-1,-1.3457268E-1,-7.6257277E-1,-1.6336118E-1,-1.3209133E-1,-1.4231788E-1,-2.3470545E-2,-3.0409588E-2,-8.980045E-1,-1.1946147E-1,-2.242055E-2,-2.3960734E-2,-1.01861574E-1,-1.5512876E-2,-9.554849E-1,-1.7256992E-2,-4.722101E-2,-4.378326E-1,-2.2241842E-2,-8.437175E-3,-1.6770501E-1,-5.629404E-1,-2.1594849E-1,-1.1335236E-1,-6.3694835E-2,-1.8459763E-1,-1.2004907E-1,-4.4247653E-2,1.7229462E-2,-1.0985836E-1,-1.602055E-2,-7.156944E-2,-1.8260725E-2,-6.470745E-1,-2.8927702E-1,-6.7103916E-1,-4.2620465E-2,-1.5278788E-1,-2.997608E-1,-1.3970463E-1,-9.728533E-2,-5.203736E-1,-2.3923737E-3,-4.6620637E-2,-1.1592158E-2,-7.6763384E-2,-2.2351155E-2,-4.809919E-1,-7.1698665E-3,1.581052E-3,-3.491308E-2,-7.752543E-2,-1.9778277E-1,-3.5667792E-3,-3.010699E-2,2.0880055E-2,-7.191894E-2,-6.75256E-2,-4.273596E-2,7.048971E-2,1.4549246E-2,5.4668214E-2,-3.6225088E-2,-5.5977207E-2,1.2501904E-1,-3.443058E-1,-1.1366735E-2,-4.2688552E-1,-5.2451797E-2,-8.027403E-3,-6.3439053E-1,2.4247123E-2,-4.2455822E-2,-1.1274189E-2,1.8994177E-2,-9.761012E-3,-3.5924044E-1,-3.0205816E-2,1.751498E-2,-2.8425455E-4,-2.951673E-2,-6.969036E-5,-4.4505823E-2,-1.7891185E-2,-1.15145305E-2,-1.995804E-2,-1.2842225E-2,-3.0879084E-2,-2.0258969E-2,-7.5629346E-2,-3.685497E-1,-4.1265883E-2,-1.557373E-2,-9.689846E-2,-4.943653E-2,-1.2314645E-1,-8.667301E-1,-4.9191904E-1,-1.1212345E-1,-5.3553324E-2,-1.5317579E-2,-1.9747237E-2,-1.5183518E-2,-2.2029342E-1,-9.572542E-2,-2.6630595E-2,-1.8429153E-1,-7.895754E-3,-1.2930842E-1,-1.1600902E-2,-5.778011E-3,-2.893515E-1,-1.718954E-1,-1.3236089E-1,-4.240755E-3,-1.3434239E-2,-7.6854044E-1,-2.981797E-1,-8.7930605E-2,-8.427397E-3,-7.129337E-2,-3.922746E-1,-1.399696E-1,-4.2269886E-1,-2.6090318E-1,-1.2234545E-3,-1.5295266E-1,-1.0267557E-1,-6.104358E-4,-2.1984247E-2,-7.341758E-2,-4.400365E-3,-3.8960736E-2,-6.426489E-2,-2.2567454E-1,-5.1262253E-3,-9.278089E-3,-3.0726916E-1,-6.355103E-2,-6.8534403E-3,-1.644259E-3,-8.6957915E-3,3.597782E-4,-1.523562E-2,-4.5506652E-2,1.9188315E-2,1.7232766E-2,-3.7896507E-3,-2.4454345E-1,-1.4400807E-1,2.0767308E-3,1.5401377E-3,8.194038E-2,-6.495374E-2,2.563646E-2,3.4439057E-2,1.1100894E-2,-1.8987674E-2,5.5536855E-4,-4.1005827E-2,1.4132386E-3,1.0484471E-2,1.5166675E-2,-3.128815E-4,-3.5863824E-2,-4.4325316E-1,-2.2354342E-2,-6.0374975E-2,-8.7755543E-1,-3.9275777E-2,1.3879443E-2,-4.0784456E-2,-2.8451076E-1,-5.4382277E-1,-8.995529E-1,-1.6750913E-2,-7.343425E-2,-2.9276988E-2,9.472593E-3,-2.1762224E-1,-1.4361611E-1,-1.7180841E-2,-1.1822152E-2,-2.2116603E-2,-4.6051452E-1,-1.4302181E-2,-1.8951604E-1,-2.4987454E-2,-1.2811442E-2,-1.1127409E-2,-8.3538815E-2,-2.493179E-1,-3.330489E-1,9.623599E-2,-2.1605479E-2,-1.825876E-2,-4.8021037E-2,-2.082345E-1,-1.2678124E-1,-2.572692E-2,-4.6320063E-1,-3.246282E-1,-1.9070162E-1,-1.4093709E-2,-2.9521033E-2,-1.0087428E-2,-4.255582E-2,-8.336877E-3,-1.152794E-3,-1.3203387E-2,-3.774764E-2,-1.1219709E-2,-4.628791E-4,1.9168854E-5,-3.7316736E-2,1.9408958E-2,-2.037808E-2,-5.1780907E-3,-4.2867586E-2,-4.7510643E-2,-2.31637E-1,4.9838684E-3,9.534884E-2,-1.0458889E-2,2.2284063E-3,-1.0072578E-2,4.294863E-2,-1.602699E-2,4.1394155E-3,-4.4818632E-2,7.929444E-3,-1.452055E-2,-9.362699E-2,-5.4220945E-2,-2.3230071E-1,-2.1434247E-2,-6.741009E-2,-9.04577E-1,-1.2320543E-2,-2.0028107E-2,-3.896904E-1,-1.504194E-1,1.4227124E-2,-2.8232796E-2,-7.459209E-2,-2.218876E-2,-1.5142729E-2,-2.5375265E-1,2.3439264E-2,-3.9346638E-1,-2.889682E-1,2.2599E-2,-4.1160736E-2,-1.584589E-2,-3.160453E-2,-1.851987E-1,-1.03178516E-1,-1.1932879E-2,-4.860399E-2,1.4305926E-2,-3.3325568E-2,-1.22132E-1,-2.709774E-1,-1.837346E-2,2.1716056E-3,-1.8038524E-2,5.5989563E-3,-4.309593E-3,-3.2795455E-2,1.0089555E-2,-2.8122875E-5,-8.173585E-3,2.282555E-3,-2.7921482E-3,5.0512752E-3,-6.5043415E-3,-2.9350027E-2,-9.14455E-2,-3.648082E-2,-2.0400992E-2,-5.549699E-2,-1.4407901E-1,-6.712055E-2,-2.9847872E-1,-2.2085841E-1,-3.4207004E-1,-4.735246E-2,-3.0767826E-2,-1.4968202E-1,1.2667122E-2,-1.9757843E-2,-1.1253992E-2,7.5949766E-3,-2.0226473E-1,-1.9230573E-3,-4.8446987E-2,-2.1751292E-2,-3.0523539E-3,-1.5894465E-2,-3.2208025E-2,-1.2438358E-2,4.9271206E-3,-2.2810064E-2,-4.068069E-2,-2.6316816E-1,-2.2613224E-1,1.6832417E-2,-2.2485638E-2,1.2872617E-2,-2.8420184E-2,1.4005947E-2,-8.576399E-3,-3.7146453E-2],"categories":[],"categories_nodes":[],"categories_segments":[],"categories_sizes":[],"default_left":[0,0,0,0,0,0,0,0,0,0,0,0,0,0,0,0,0,0,0,0,0,0,0,0,0,0,0,0,0,0,0,0,0,0,0,0,0,0,0,0,0,0,0,0,0,0,0,0,0,0,0,0,0,0,0,0,0,0,0,0,0,0,0,0,0,0,0,0,0,0,0,0,0,0,0,0,0,0,0,0,0,0,0,0,0,0,0,0,0,0,0,0,0,0,0,0,0,0,0,0,0,0,0,0,0,0,0,0,0,0,0,0,0,0,0,0,0,0,0,0,0,0,0,0,0,0,0,0,0,0,0,0,0,0,0,0,0,0,0,0,0,0,0,0,0,0,0,0,0,0,0,0,0,0,0,0,0,0,0,0,0,0,0,0,0,0,0,0,0,0,0,0,0,0,0,0,0,0,0,0,0,0,0,0,0,0,0,0,0,0,0,0,0,0,0,0,0,0,0,0,0,0,0,0,0,0,0,0,0,0,0,0,0,0,0,0,0,0,0,0,0,0,0,0,0,0,0,0,0,0,0,0,0,0,0,0,0,0,0,0,0,0,0,0,0,0,0,0,0,0,0,0,0,0,0,0,0,0,0,0,0,0,0,0,0,0,0,0,0,0,0,0,0,0,0,0,0,0,0,0,0,0,0,0,0,0,0,0,0,0,0,0,0,0,0,0,0,0,0,0,0,0,0,0,0,0,0,0,0,0,0,0,0,0,0,0,0,0,0,0,0,0,0,0,0,0,0,0,0,0,0,0,0,0,0,0,0,0,0,0,0,0,0,0,0,0,0,0,0,0,0,0,0,0,0,0,0,0,0,0,0,0,0,0,0,0,0,0,0,0,0,0,0,0,0,0,0,0,0,0,0,0,0,0,0,0,0,0,0,0,0,0,0,0,0,0,0,0,0,0,0,0,0,0,0,0,0,0,0,0,0,0,0,0,0,0,0,0,0,0,0,0,0,0,0,0,0,0,0,0,0,0,0,0,0,0,0,0,0,0,0,0,0,0,0,0,0,0,0,0,0,0,0,0,0,0,0,0,0,0,0,0,0,0,0,0,0,0,0,0,0,0,0,0,0,0,0,0,0,0,0,0,0,0,0,0,0,0,0,0,0,0,0,0,0,0,0,0,0,0,0,0,0,0,0,0,0,0,0,0,0,0,0,0,0,0,0,0,0,0,0,0,0,0,0,0,0,0,0,0,0,0,0,0,0,0,0,0,0,0,0,0,0,0,0,0,0,0,0,0,0,0,0,0,0,0,0,0,0,0,0,0,0,0,0,0,0,0,0,0,0,0,0,0,0,0,0,0,0,0,0,0,0,0,0,0,0,0,0,0,0,0,0,0,0,0,0,0,0,0,0,0,0,0,0,0,0,0,0,0,0,0,0,0,0,0,0,0,0,0,0,0,0,0,0,0,0,0,0,0,0,0,0,0,0,0,0,0,0,0,0,0,0,0,0,0,0,0,0,0,0,0,0,0,0,0,0,0,0,0,0,0,0,0,0,0,0,0,0,0,0,0,0,0,0,0,0,0,0,0,0,0,0,0,0,0,0,0,0,0,0,0,0,0,0,0,0,0,0,0,0,0,0,0,0,0,0,0,0,0,0,0,0,0,0,0,0,0,0,0,0,0,0,0,0,0,0,0,0,0,0,0,0,0,0,0,0,0,0,0,0,0,0,0,0,0,0,0,0,0,0,0,0,0,0,0,0,0,0,0,0,0,0,0,0,0,0,0,0,0,0,0,0,0,0,0,0,0,0,0,0,0,0,0,0,0,0,0,0],"id":0,"left_children":[1,3,5,7,9,11,13,15,17,19,21,23,25,27,29,-1,31,33,35,37,39,41,43,45,47,49,51,53,55,57,59,-1,-1,61,-1,63,-1,65,67,69,71,73,75,77,79,81,83,85,87,89,91,93,95,-1,97,-1,-1,99,-1,101,103,-1,105,107,-1,109,111,113,115,117,119,121,123,125,127,129,131,133,135,137,139,141,-1,143,145,147,149,151,153,-1,155,-1,-1,157,159,161,-1,-1,163,-1,-1,165,-1,167,-1,169,-1,-1,171,173,175,177,179,181,183,-1,185,187,189,191,193,195,197,199,201,203,-1,205,-1,-1,207,209,211,213,215,217,219,221,-1,223,225,227,229,-1,231,233,-1,-1,235,237,239,241,-1,-1,243,-1,-1,245,247,-1,249,251,-1,-1,-1,253,255,-1,-1,-1,-1,-1,-1,257,259,261,263,-1,265,267,269,-1,-1,-1,-1,271,273,-1,-1,275,277,279,281,-1,283,-1,285,-1,287,289,-1,-1,291,-1,293,295,297,-1,-1,299,301,303,305,307,309,311,313,315,317,319,321,323,325,327,329,-1,331,333,-1,335,337,339,341,343,-1,-1,-1,345,347,-1,349,-1,-1,351,-1,-1,353,-1,355,-1,-1,-1,357,-1,-1,-1,359,361,363,-1,365,367,-1,369,371,-1,-1,373,375,-1,-1,377,379,-1,-1,-1,381,-1,-1,-1,383,-1,385,-1,387,-1,-1,-1,-1,-1,-1,389,-1,-1,-1,391,-1,393,395,-1,397,-1,-1,-1,399,401,403,405,407,409,411,413,415,417,419,421,-1,423,425,427,429,431,433,-1,-1,-1,-1,-1,435,437,439,441,443,-1,445,-1,-1,-1,-1,-1,447,449,-1,-1,-1,-1,451,-1,453,-1,-1,-1,-1,-1,-1,455,-1,-1,-1,-1,-1,-1,-1,-1,457,459,-1,-1,-1,-1,-1,-1,-1,-1,461,-1,-1,-1,-1,463,465,467,-1,-1,-1,-1,-1,-1,469,471,-1,-1,-1,473,475,477,479,-1,-1,-1,-1,481,483,485,487,489,491,-1,493,495,497,499,501,503,-1,505,507,509,511,-1,513,515,517,519,521,523,-1,525,527,529,531,533,535,537,539,-1,-1,541,543,545,547,549,-1,-1,551,-1,-1,-1,553,555,-1,-1,-1,-1,-1,-1,557,-1,559,561,563,-1,565,-1,-1,567,-1,-1,-1,-1,-1,-1,-1,-1,-1,-1,-1,-1,569,-1,-1,-1,-1,-1,571,-1,-1,-1,-1,-1,573,-1,-1,575,-1,-1,577,579,581,583,585,587,589,-1,-1,-1,-1,-1,-1,591,593,595,-1,597,599,601,603,605,-1,607,-1,609,611,613,-1,-1,615,617,619,-1,-1,621,623,625,-1,627,629,631,633,635,637,639,-1,641,-1,-1,643,-1,-1,-1,-1,-1,645,-1,-1,-1,-1,-1,-1,-1,-1,-1,-1,-1,-1,-1,647,-1,-1,-1,-1,-1,649,651,-1,-1,-1,-1,-1,653,-1,-1,655,-1,657,-1,-1,659,661,663,-1,-1,665,667,669,-1,-1,671,673,675,677,-1,679,681,-1,-1,-1,-1,-1,683,685,-1,687,689,-1,-1,-1,-1,-1,-1,-1,-1,691,-1,693,695,-1,-1,697,699,701,703,-1,-1,-1,-1,-1,-1,-1,-1,-1,705,-1,-1,707,-1,-1,-1,709,711,713,-1,-1,-1,-1,715,717,-1,-1,-1,719,-1,721,-1,-1,-1,-1,723,725,727,-1,-1,-1,729,731,-1,733,735,737,-1,-1,-1,-1,-1,-1,-1,-1,-1,-1,-1,-1,739,-1,-1,-1,741,743,-1,745,-1,-1,747,749,-1,-1,-1,-1,-1,-1,-1,751,-1,-1,753,-1,-1,755,757,-1,-1,-1,-1,-1,759,-1,761,763,-1,-1,-1,-1,765,767,-1,-1,-1,-1,769,771,-1,-1,-1,-1,-1,-1,-1,-1,-1,-1,-1,-1,-1,-1,-1,-1,-1,-1,773,-1,775,777,779,-1,-1,781,-1,-1,-1,-1,783,-1,-1,-1,-1,-1,-1,-1,-1,-1,-1,785,787,-1,-1,-1,-1,-1,-1,-1],"loss_changes":[2.4322754E3,1.1672261E3,1.5496228E2,7.515527E1,3.4804474E2,2.849945E1,1.4729004E1,1.3483825E0,2.7744385E1,4.1457114E2,2.3922124E3,8.147903E0,6.1027846E0,2.477951E0,3.024414E0,0E0,4.076867E-1,6.6573486E0,4.556671E0,1.6134056E2,9.877698E1,1.9692139E2,2.1919298E2,3.8426132E0,2.9792328E0,1.3700671E0,1.2792826E0,8.893385E-1,4.9323654E-1,1.0683899E0,2.020996E0,0E0,0E0,3.3479614E0,0E0,1.3139496E0,0E0,1.4270447E1,2.2313904E1,1.2605374E1,8.165863E0,1.1721509E2,5.5635315E1,1.2016222E2,3.1971252E1,1.0800803E0,1.056778E0,1.9831238E0,6.1761093E-1,5.333299E-1,6.6362E-1,1.109814E0,4.5551682E-1,0E0,3.0987442E-1,0E0,0E0,3.8446236E-1,0E0,2.012329E0,6.3671875E-1,0E0,1.2265625E0,4.609108E-1,0E0,7.712536E0,1.02874565E1,4.0677643E0,2.814911E0,2.5287936E0,4.6275043E0,1.3258286E0,1.4425201E0,3.7571955E-1,3.812085E1,1.0498097E0,5.2730103E0,3.3085754E1,2.3606472E1,3.5071716E0,9.05072E0,1.0930929E0,0E0,9.839163E-1,3.891487E-1,3.2042074E-1,7.541809E-1,4.2625427E-1,4.3192488E-1,0E0,7.0574737E-1,0E0,0E0,4.13642E-1,3.6369395E-1,4.625206E-1,0E0,0E0,4.1210094E-1,0E0,0E0,8.963623E-1,0E0,3.3802795E-1,0E0,1.454895E0,0E0,0E0,7.487869E-1,3.315918E0,8.270874E-1,5.7219276E0,4.2453136E0,9.203186E-1,1.3288422E0,0E0,1.7837753E0,4.284582E-1,6.4967626E-1,9.587052E-1,8.3901024E-1,4.8036194E-1,9.0016556E-1,1.0718899E0,6.876526E-1,4.154033E-1,0E0,4.514331E1,0E0,0E0,3.147726E-1,1.4147797E0,5.20105E0,8.065956E0,2.3328964E1,5.100704E0,1.0646466E1,2.0589142E0,0E0,2.1613235E0,2.3716407E0,1.0538175E0,5.0202394E-1,0E0,8.8274103E-1,3.5129547E-1,0E0,0E0,3.4168243E-1,8.260422E-1,3.4897614E-1,3.11594E-1,0E0,0E0,4.6317774E-1,0E0,0E0,6.095549E-1,4.0310472E-1,0E0,3.6531115E-1,7.9008603E-1,0E0,0E0,0E0,5.5633545E-1,5.003052E-1,0E0,0E0,0E0,0E0,0E0,0E0,1.4111404E0,9.931717E-1,4.3541646E-1,6.023705E-1,0E0,4.669323E-1,1.0686836E0,4.1379303E-1,0E0,0E0,0E0,0E0,1.5507965E0,3.4840995E-1,0E0,0E0,8.542725E-1,6.074098E-1,3.8616228E-1,3.8740158E-1,0E0,1.2177296E0,0E0,3.8232756E-1,0E0,5.149002E-1,4.400673E-1,0E0,0E0,5.17395E-1,0E0,4.2471623E-1,6.39447E0,1.0513062E1,0E0,0E0,1.7095184E0,2.7963867E0,8.3028746E-1,2.8930054E0,1.1556749E1,5.4625854E0,2.3216095E0,6.372513E0,1.898737E0,3.3868046E0,1.1905025E0,3.3474827E0,3.0916977E-1,4.7406006E-1,9.415278E-1,2.5527954E0,0E0,8.7729824E-1,3.3029187E-1,0E0,5.7232785E-1,5.8037686E-1,7.881348E-1,4.7509778E-1,9.591389E-1,0E0,0E0,0E0,6.001663E-1,9.6666E-1,0E0,3.244629E-1,0E0,0E0,3.7870023E-1,0E0,0E0,4.7335494E-1,0E0,5.0912726E-1,0E0,0E0,0E0,3.0390358E-1,0E0,0E0,0E0,3.0883026E-1,4.5990562E-1,8.684349E-1,0E0,6.6217804E-1,1.0546463E0,0E0,3.5347232E-1,4.3570566E-1,0E0,0E0,8.9653206E-1,5.273018E-1,0E0,0E0,7.425175E-1,8.3065796E-1,0E0,0E0,0E0,4.847893E-1,0E0,0E0,0E0,5.0185823E-1,0E0,3.3965778E-1,0E0,4.1138268E-1,0E0,0E0,0E0,0E0,0E0,0E0,7.394333E-1,0E0,0E0,0E0,6.6192627E-1,0E0,3.4794922E0,5.642761E0,0E0,7.7007294E-1,0E0,0E0,0E0,3.14703E-1,4.03006E0,1.6857605E0,3.2784138E0,6.0332775E-1,1.9498291E0,3.8077393E0,1.7001724E0,9.1638184E-1,3.2393417E0,4.0449905E0,9.4499016E-1,0E0,9.388542E-1,1.7133493E0,1.3783503E0,7.200765E-1,2.3084679E0,1.8246965E0,0E0,0E0,0E0,0E0,0E0,3.9883304E-1,1.5637093E0,2.0435028E0,3.3696577E-1,7.472724E-1,0E0,6.599082E-1,0E0,0E0,0E0,0E0,0E0,8.2915294E-1,3.4534526E-1,0E0,0E0,0E0,0E0,3.7779236E-1,0E0,7.113719E-1,0E0,0E0,0E0,0E0,0E0,0E0,3.9874366E-1,0E0,0E0,0E0,0E0,0E0,0E0,0E0,0E0,4.7631454E-1,5.27956E-1,0E0,0E0,0E0,0E0,0E0,0E0,0E0,0E0,1.0119877E0,0E0,0E0,0E0,0E0,3.6709785E-1,4.98806E-1,3.426742E-1,0E0,0E0,0E0,0E0,0E0,0E0,4.3273735E-1,9.611478E-1,0E0,0E0,0E0,6.9906473E-1,2.4156494E0,2.9660034E0,9.0423584E-1,0E0,0E0,0E0,0E0,7.540169E-1,3.806282E0,4.5283508E-1,7.7471924E-1,2.0519524E0,3.714528E-1,0E0,6.1069584E-1,7.8377724E-1,2.2883873E0,1.3607693E0,1.7694168E0,5.5137634E-1,0E0,5.163765E-1,3.2663155E-1,2.9948044E0,9.2046165E-1,0E0,4.1725082E0,3.3773422E-1,9.4087815E-1,8.14204E-1,7.936976E-1,1.0199118E0,0E0,3.652195E-1,6.415353E-1,6.801441E-1,5.779431E-1,9.705844E-1,1.5635808E0,4.0190482E-1,7.5273037E-1,0E0,0E0,5.5187607E-1,3.2240295E-1,5.0988007E-1,9.8545074E-1,3.1931347E-1,0E0,0E0,4.7163057E-1,0E0,0E0,0E0,7.132516E-1,3.1359667E-1,0E0,0E0,0E0,0E0,0E0,0E0,7.512691E-1,0E0,3.01929E-1,4.4110203E-1,4.5832253E-1,0E0,1.4944153E0,0E0,0E0,4.8728085E-1,0E0,0E0,0E0,0E0,0E0,0E0,0E0,0E0,0E0,0E0,0E0,0E0,4.0674686E-1,0E0,0E0,0E0,0E0,0E0,5.595398E-1,0E0,0E0,0E0,0E0,0E0,2.1376972E0,0E0,0E0,4.1857004E-1,0E0,0E0,3.1959343E-1,2.4913325E0,1.0381413E0,6.2091637E-1,3.2530928E-1,1.0879326E0,8.2220364E-1,0E0,0E0,0E0,0E0,0E0,0E0,1.4537382E0,1.1837311E0,6.282196E-1,0E0,1.4892073E0,1.4136047E0,4.2706585E-1,4.0386677E-1,5.4539347E-1,0E0,3.5356098E-1,0E0,5.959592E-1,5.581444E-1,6.637149E-1,0E0,0E0,3.1993127E-1,3.3852863E-1,5.1504374E-1,0E0,0E0,4.4762653E-1,4.2534244E-1,9.213796E-1,0E0,6.503525E-1,8.566878E-1,4.3383145E-1,3.6053964E-1,6.015825E-1,5.071831E-1,4.8297596E-1,0E0,3.4689713E-1,0E0,0E0,3.4936523E-1,0E0,0E0,0E0,0E0,0E0,3.883686E-1,0E0,0E0,0E0,0E0,0E0,0E0,0E0,0E0,0E0,0E0,0E0,0E0,0E0,3.2647133E-1,0E0,0E0,0E0,0E0,0E0,1.0582123E0,7.420809E-1,0E0,0E0,0E0,0E0,0E0,3.0171078E-1,0E0,0E0,5.4086876E-1,0E0,3.4910393E-1,0E0,0E0,9.6019554E-1,3.6210442E-1,3.407545E-1,0E0,0E0,7.857771E-1,1.017601E0,7.2867805E-1,0E0,0E0,3.7329412E-1,4.0484428E-1,3.833475E-1,1.0341244E0,0E0,3.5153532E-1,4.0898228E-1,0E0,0E0,0E0,0E0,0E0,3.05313E-1,3.0553102E-1,0E0,4.870733E-1,3.445102E-1,0E0,0E0,0E0,0E0,0E0,0E0,0E0,0E0,3.4496123E-1,0E0,4.0372872E-1,6.0628045E-1,0E0,0E0,3.6326933E-1,4.13795E-1,5.271398E-1,3.912324E-1,0E0,0E0,0E0,0E0,0E0,0E0,0E0,0E0,0E0,3.5260963E-1,0E0,0E0,3.370428E-1,0E0,0E0,0E0,4.9294972E-1,5.422964E-1,3.9952087E-1,0E0,0E0,0E0,0E0,6.082401E-1,3.9678E-1,0E0,0E0,0E0,1.0607953E0,0E0,5.483742E-1,0E0,0E0,0E0,0E0,6.4509773E-1,8.8235474E-1,9.4965035E-1,0E0,0E0,0E0,3.5776258E-1,5.3793144E-1,0E0,4.0537453E-1,5.6011486E-1,6.219382E-1,0E0,0E0,0E0,0E0,0E0,0E0,0E0,0E0,0E0,0E0,0E0,0E0,3.334663E-1,0E0,0E0,0E0,5.0519145E-1,6.759393E-1,0E0,3.1934834E-1,0E0,0E0,6.596326E-1,3.0911458E-1,0E0,0E0,0E0,0E0,0E0,0E0,0E0,3.903525E-1,0E0,0E0,3.595276E-1,0E0,0E0,5.005641E-1,5.2736807E-1,0E0,0E0,0E0,0E0,0E0,3.3278275E-1,0E0,4.7579956E-1,5.272789E-1,0E0,0E0,0E0,0E0,4.6902704E-1,4.9484563E-1,0E0,0E0,0E0,0E0,5.4033124E-1,5.109923E-1,0E0,0E0,0E0,0E0,0E0,0E0,0E0,0E0,0E0,0E0,0E0,0E0,0E0,0E0,0E0,0E0,0E0,0E0,3.1250596E-1,0E0,4.2013645E-1,3.2425404E-1,3.9351082E-1,0E0,0E0,7.187895E-1,0E0,0E0,0E0,0E0,3.056172E-1,0E0,0E0,0E0,0E0,0E0,0E0,0E0,0E0,0E0,0E0,4.3842888E-1,4.3734264E-1,0E0,0E0,0E0,0E0,0E0,0E0,0E0],"parents":[2147483647,0,0,1,1,2,2,3,3,4,4,5,5,6,6,7,7,8,8,9,9,10,10,11,11,12,12,13,13,14,14,16,16,17,17,18,18,19,19,20,20,21,21,22,22,23,23,24,24,25,25,26,26,27,27,28,28,29,29,30,30,33,33,35,35,37,37,38,38,39,39,40,40,41,41,42,42,43,43,44,44,45,45,46,46,47,47,48,48,49,49,50,50,51,51,52,52,54,54,57,57,59,59,60,60,62,62,63,63,65,65,66,66,67,67,68,68,69,69,70,70,71,71,72,72,73,73,74,74,75,75,76,76,77,77,78,78,79,79,80,80,81,81,83,83,84,84,85,85,86,86,87,87,88,88,90,90,93,93,94,94,95,95,98,98,101,101,103,103,105,105,108,108,109,109,110,110,111,111,112,112,113,113,114,114,116,116,117,117,118,118,119,119,120,120,121,121,122,122,123,123,124,124,125,125,127,127,130,130,131,131,132,132,133,133,134,134,135,135,136,136,137,137,139,139,140,140,141,141,142,142,144,144,145,145,148,148,149,149,150,150,151,151,154,154,157,157,158,158,160,160,161,161,165,165,166,166,173,173,174,174,175,175,176,176,178,178,179,179,180,180,185,185,186,186,189,189,190,190,191,191,192,192,194,194,196,196,198,198,199,199,202,202,204,204,205,205,206,206,209,209,210,210,211,211,212,212,213,213,214,214,215,215,216,216,217,217,218,218,219,219,220,220,221,221,222,222,223,223,224,224,226,226,227,227,229,229,230,230,231,231,232,232,233,233,237,237,238,238,240,240,243,243,246,246,248,248,252,252,256,256,257,257,258,258,260,260,261,261,263,263,264,264,267,267,268,268,271,271,272,272,276,276,280,280,282,282,284,284,291,291,295,295,297,297,298,298,300,300,304,304,305,305,306,306,307,307,308,308,309,309,310,310,311,311,312,312,313,313,314,314,315,315,317,317,318,318,319,319,320,320,321,321,322,322,328,328,329,329,330,330,331,331,332,332,334,334,340,340,341,341,346,346,348,348,355,355,364,364,365,365,374,374,379,379,380,380,381,381,388,388,389,389,393,393,394,394,395,395,396,396,401,401,402,402,403,403,404,404,405,405,406,406,408,408,409,409,410,410,411,411,412,412,413,413,415,415,416,416,417,417,418,418,420,420,421,421,422,422,423,423,424,424,425,425,427,427,428,428,429,429,430,430,431,431,432,432,433,433,434,434,437,437,438,438,439,439,440,440,441,441,444,444,448,448,449,449,456,456,458,458,459,459,460,460,462,462,465,465,478,478,484,484,490,490,493,493,496,496,497,497,498,498,499,499,500,500,501,501,502,502,509,509,510,510,511,511,513,513,514,514,515,515,516,516,517,517,519,519,521,521,522,522,523,523,526,526,527,527,528,528,531,531,532,532,533,533,535,535,536,536,537,537,538,538,539,539,540,540,541,541,543,543,546,546,552,552,566,566,572,572,573,573,579,579,582,582,584,584,587,587,588,588,589,589,592,592,593,593,594,594,597,597,598,598,599,599,600,600,602,602,603,603,609,609,610,610,612,612,613,613,622,622,624,624,625,625,628,628,629,629,630,630,631,631,641,641,644,644,648,648,649,649,650,650,655,655,656,656,660,660,662,662,667,667,668,668,669,669,673,673,674,674,676,676,677,677,678,678,691,691,695,695,696,696,698,698,701,701,702,702,710,710,713,713,716,716,717,717,723,723,725,725,726,726,731,731,732,732,737,737,738,738,757,757,759,759,760,760,761,761,764,764,769,769,780,780,781,781],"right_children":[2,4,6,8,10,12,14,16,18,20,22,24,26,28,30,-1,32,34,36,38,40,42,44,46,48,50,52,54,56,58,60,-1,-1,62,-1,64,-1,66,68,70,72,74,76,78,80,82,84,86,88,90,92,94,96,-1,98,-1,-1,100,-1,102,104,-1,106,108,-1,110,112,114,116,118,120,122,124,126,128,130,132,134,136,138,140,142,-1,144,146,148,150,152,154,-1,156,-1,-1,158,160,162,-1,-1,164,-1,-1,166,-1,168,-1,170,-1,-1,172,174,176,178,180,182,184,-1,186,188,190,192,194,196,198,200,202,204,-1,206,-1,-1,208,210,212,214,216,218,220,222,-1,224,226,228,230,-1,232,234,-1,-1,236,238,240,242,-1,-1,244,-1,-1,246,248,-1,250,252,-1,-1,-1,254,256,-1,-1,-1,-1,-1,-1,258,260,262,264,-1,266,268,270,-1,-1,-1,-1,272,274,-1,-1,276,278,280,282,-1,284,-1,286,-1,288,290,-1,-1,292,-1,294,296,298,-1,-1,300,302,304,306,308,310,312,314,316,318,320,322,324,326,328,330,-1,332,334,-1,336,338,340,342,344,-1,-1,-1,346,348,-1,350,-1,-1,352,-1,-1,354,-1,356,-1,-1,-1,358,-1,-1,-1,360,362,364,-1,366,368,-1,370,372,-1,-1,374,376,-1,-1,378,380,-1,-1,-1,382,-1,-1,-1,384,-1,386,-1,388,-1,-1,-1,-1,-1,-1,390,-1,-1,-1,392,-1,394,396,-1,398,-1,-1,-1,400,402,404,406,408,410,412,414,416,418,420,422,-1,424,426,428,430,432,434,-1,-1,-1,-1,-1,436,438,440,442,444,-1,446,-1,-1,-1,-1,-1,448,450,-1,-1,-1,-1,452,-1,454,-1,-1,-1,-1,-1,-1,456,-1,-1,-1,-1,-1,-1,-1,-1,458,460,-1,-1,-1,-1,-1,-1,-1,-1,462,-1,-1,-1,-1,464,466,468,-1,-1,-1,-1,-1,-1,470,472,-1,-1,-1,474,476,478,480,-1,-1,-1,-1,482,484,486,488,490,492,-1,494,496,498,500,502,504,-1,506,508,510,512,-1,514,516,518,520,522,524,-1,526,528,530,532,534,536,538,540,-1,-1,542,544,546,548,550,-1,-1,552,-1,-1,-1,554,556,-1,-1,-1,-1,-1,-1,558,-1,560,562,564,-1,566,-1,-1,568,-1,-1,-1,-1,-1,-1,-1,-1,-1,-1,-1,-1,570,-1,-1,-1,-1,-1,572,-1,-1,-1,-1,-1,574,-1,-1,576,-1,-1,578,580,582,584,586,588,590,-1,-1,-1,-1,-1,-1,592,594,596,-1,598,600,602,604,606,-1,608,-1,610,612,614,-1,-1,616,618,620,-1,-1,622,624,626,-1,628,630,632,634,636,638,640,-1,642,-1,-1,644,-1,-1,-1,-1,-1,646,-1,-1,-1,-1,-1,-1,-1,-1,-1,-1,-1,-1,-1,648,-1,-1,-1,-1,-1,650,652,-1,-1,-1,-1,-1,654,-1,-1,656,-1,658,-1,-1,660,662,664,-1,-1,666,668,670,-1,-1,672,674,676,678,-1,680,682,-1,-1,-1,-1,-1,684,686,-1,688,690,-1,-1,-1,-1,-1,-1,-1,-1,692,-1,694,696,-1,-1,698,700,702,704,-1,-1,-1,-1,-1,-1,-1,-1,-1,706,-1,-1,708,-1,-1,-1,710,712,714,-1,-1,-1,-1,716,718,-1,-1,-1,720,-1,722,-1,-1,-1,-1,724,726,728,-1,-1,-1,730,732,-1,734,736,738,-1,-1,-1,-1,-1,-1,-1,-1,-1,-1,-1,-1,740,-1,-1,-1,742,744,-1,746,-1,-1,748,750,-1,-1,-1,-1,-1,-1,-1,752,-1,-1,754,-1,-1,756,758,-1,-1,-1,-1,-1,760,-1,762,764,-1,-1,-1,-1,766,768,-1,-1,-1,-1,770,772,-1,-1,-1,-1,-1,-1,-1,-1,-1,-1,-1,-1,-1,-1,-1,-1,-1,-1,774,-1,776,778,780,-1,-1,782,-1,-1,-1,-1,784,-1,-1,-1,-1,-1,-1,-1,-1,-1,-1,786,788,-1,-1,-1,-1,-1,-1,-1],"split_conditions":[6.855626E0,-9.714319E1,7.7985954E0,7.0003E-1,-8.961138E1,-1.058826E0,1.919803E0,3.1784E-2,-9.6410995E1,-9.459709E1,2.1620946E0,7.125717E0,1.0364885E0,6.38022E-1,5.416119E0,-2.0917067E-2,1.58081E-1,2.180484E0,2.08535E-1,6.51043E-1,-9.15986E1,1.2842396E0,6.34856E-1,-3.25717E-1,-1.166883E0,-7.20459E-1,5.92608E-1,4.3704E-1,5.357732E0,-3.92824E-1,-1.340944E0,-1.4694055E-2,-7.448596E-2,1.80321E-1,-2.3680507E-1,1.0874E-1,-1.5739754E-1,7.13174E-1,-9.609756E1,5.78106E-1,-9.1067604E1,3.27448E-1,3.41534E-1,4.1168084E0,3.6830943E0,-9.73297E-1,7.062131E0,-3.75357E-1,1.94038E-1,5.87715E-1,4.8242E-1,-2.13982E-1,-1.489929E0,-3.6905833E-2,1.97011E-1,-1.1555827E-2,2.5950694E-2,1.087097E0,3.4675743E-2,2.110676E0,1.67004E-1,-9.183596E-2,2.21646E-1,-9.544798E1,-1.3777487E-1,-9.5038666E1,-9.590507E1,1.97011E-1,1.4439E-1,8.23627E-1,-9.2307724E1,7.5235E-1,8.57083E-1,3.35502E-1,1.36992E0,-1.7854E-1,2.1065254E0,5.18595E-1,5.3843E-1,3.4005554E0,4.2516522E0,5.983645E0,-5.2727398E-2,1.319857E0,1.623993E0,-1.476777E0,-1.243394E0,3.8147E-2,-1.19405E0,-1.7951202E-3,7.035956E0,-1.5113014E-2,-5.3912885E-2,-8.46302E-1,5.141665E-1,-2.34963E-1,2.6800958E-2,1.41919395E-2,1.09935E-1,2.3887632E-2,3.093485E-2,-3.9984E-1,3.313313E-2,2.39046E-1,6.013012E-3,5.9845E-2,-1.979044E-1,-1.4492346E-1,3.2799E-2,4.69591E-1,2.82965E-2,6.14876E-1,-9.289386E1,1.7861E-1,1.12773E-1,2.0565748E-2,-9.458327E1,8.3624E-1,2.0675E-1,-9.428449E1,-3.53142E-1,9.74033E-1,-3.9984E-1,1.81636E-1,-3.92824E-1,5.43586E-1,-4.4555824E-2,1.8566857E-1,3.917457E-2,6.198977E-3,-5.2666E-1,4.57132E-1,-2.348E-3,3.9842E-1,3.9629095E0,4.81072E-1,4.5504546E0,1.197289E0,-6.2227804E-2,1.2115E-1,1.1237E0,2.33084E-1,1.60063E-1,1.6723853E-2,1.72593E-1,1.150391E0,-2.5270546E-2,2.9950071E-2,4.949865E0,1.7583E-1,-3.33581E-1,-2.75565E-1,1.605489E-2,1.860168E-2,7.21319E-1,-6.40274E-2,1.8879462E-2,-1.925581E0,-1.17606E0,4.570075E-3,7.78786E-1,1.06018E0,1.3260339E-2,5.793953E-3,-3.3527408E-2,9.963275E0,-1.431064E0,3.3577956E-2,-1.3920546E-2,-1.7180872E-1,-2.3170544E-2,-4.9906652E-2,-1.0278644E-1,-9.561667E1,-9.419078E1,1.30809E-1,5.97453E-1,-1.2110728E-1,-6.456385E-1,5.9645E-2,-2.9874E-1,-5.954507E-2,-8.204591E-2,-7.544313E-2,-1.0705417E-1,-9.370203E1,1.7861E-1,-1.47756515E-2,-3.5404343E-2,-1.012354E0,4.17604E-1,-2.9293E-1,-4.6754E-2,6.6991188E-3,7.57176E-1,3.9913505E-3,-2.9047E-1,1.425302E-2,-9.119403E1,1.0502E0,-7.947641E-3,3.402404E-2,6.65427E-1,-2.8125911E-3,-1.30024E0,-7.328195E-1,1.1659101E0,-4.2498466E-2,-1.9683493E-2,3.09715E-1,5.6719E-1,1.8029E-2,6.59798E-1,-6.98168E-1,3.3139899E0,-2.22094E-1,5.516373E0,-4.64306E-1,5.40514E-1,4.3595557E0,6.47104E-1,3.8603408E0,7.203E-2,3.9412057E0,-2.6931E-1,-9.98274E-2,2.2265E-1,2.0421E0,-3.4925424E-2,8.92413E-1,5.83015E-2,6.1077085E0,1.61726E0,1.44306E0,3.172579E-2,7.7972594E-3,1.7971994E-2,-2.04738E-1,4.949865E0,1.4174814E-2,6.35633E-1,1.4299239E-2,2.2249786E-2,-1.4029E-1,-3.746074E-2,3.6302719E-3,-9.92576E-1,-1.9173453E-2,1.145272E0,-1.9330835E-2,1.1653722E-2,-8.2683953E-4,5.8428E-1,3.541872E-2,3.9849203E-2,3.9969742E-2,1.129502E0,1.10101E0,4.09223E-1,-3.0470459E-2,-6.77192E-1,-9.466484E1,-1.0530659E-2,8.30662E-1,-9.4078064E1,-1.2274106E-3,-5.123352E-2,1.4407E-1,1.171079E0,-1.179123E-2,1.2420092E-3,4.647E-2,-1.51955E-1,1.8819178E-2,-1.9384246E-2,-6.5870546E-2,5.68857E-1,-5.0480824E-2,-9.098629E-3,1.302546E-4,4.016E-2,-3.462055E-2,1.302083E0,1.2250654E-2,-2.65496E-1,7.027088E-3,2.0705258E-2,2.5413677E-2,3.28932E-2,1.5575871E-2,3.1077398E-2,-2.09703E-1,3.931799E-2,-1.2609542E-3,-3.1278357E-2,5.8551E-2,-7.497288E-2,1.01952E-1,6.84073E-1,-6.870556E-3,8.872E-2,-3.783522E-2,-1.1851628E-1,-1.6080981E-2,2.2574E-2,4.93182E-1,2.4943156E0,4.725939E0,-3.822E-3,4.19798E-1,5.261385E-1,6.003E-1,5.55734E-1,6.03421E-1,1.16548E-1,9.8468E-1,-2.2226507E-2,-2.7775E-1,6.6458583E0,6.14645E-1,2.9719E-2,-1.977466E0,-2.7845E-1,-1.1750453E-1,-2.5070548E-2,-6.337949E-2,-8.167814E-2,-5.7070553E-2,-1.347158E0,7.6652E-2,9.0314E-1,6.495805E-1,1.4988E-1,-2.4921135E-3,7.24432E-1,1.1690124E-2,2.912855E-2,7.993998E-3,-3.0630816E-2,2.6680952E-2,5.643314E0,6.957193E0,2.121917E-2,2.1068126E-2,-2.9155826E-2,-1.1280829E-2,7.3812366E0,-9.566984E-3,-1.491895E0,3.2416978E-5,2.5600672E-2,7.2445455E-3,-3.807055E-2,-3.9406653E-2,-9.578916E-3,1.62972E-1,2.459901E-2,-1.1900918E-2,1.1268633E-2,3.7242647E-2,2.0398969E-2,-1.5727244E-2,-2.4204848E-2,-2.7001655E-2,4.91768E-1,5.35823E-1,-7.9070546E-2,-9.787055E-2,-9.584244E-3,-1.1919531E-2,-2.0423513E-3,-1.0077022E-2,-3.6626991E-3,1.5044165E-2,1.118016E0,-1.0361058E-2,-2.6274113E-2,-1.0760737E-2,-7.9870716E-2,-1.134751E0,7.20042E-1,3.386E-2,2.6635062E-3,1.2540768E-3,8.16021E-3,1.0305734E-2,-1.9405818E-2,-2.7620554E-2,-3.1097E-1,-9.204723E1,3.209346E-2,-1.857075E-1,-2.3615551E-1,1.6884352E0,4.05147E-1,2.4248378E0,2.971914E0,-2.5920546E-2,-1.4783655E-1,-4.9205543E-3,-6.979846E-2,3.6888063E0,1.546696E0,-1.184626E0,-1.72514E-1,1.20091E-1,6.8787E-1,-1.5594798E-2,3.359439E0,7.28933E-1,4.581125E-1,3.750739E0,3.5934E-2,7.75697E-1,-7.0580594E-2,-8.82977E-1,4.615017E0,4.95983E-1,5.8455E-1,3.001147E-2,5.80664E-1,4.07928E-1,1.813135E-1,1.3314915E0,4.3386035E0,1.8785E-1,4.12066E-3,4.69591E-1,6.06878E-1,9.55105E-1,1.8551E-1,9.4731E-2,-9.57225E-1,7.57965E-1,-2.044E-3,2.9264769E-2,-2.3520553E-2,6.2190986E0,2.13096E-1,4.4056144E0,5.054E-2,-2.8356E-1,6.898947E-3,2.0819176E-2,-2.971025E-1,2.125522E-2,-2.4680823E-2,-4.2455822E-2,-1.4522E-1,-3.10095E-1,1.1719179E-2,2.758268E-2,3.2094926E-2,-3.7970543E-2,2.449052E-2,8.774198E-3,5.8632E-1,-8.473481E-3,4.845435E-1,6.4968E-1,4.6801E-2,-2.305569E-2,5.51838E-1,-6.083929E-2,-2.5117576E-2,-9.2625725E1,-5.163003E-2,-1.4405687E-3,-9.871817E-3,1.3722313E-2,2.1380499E-2,-6.577056E-2,2.4505934E-2,2.152946E-2,-6.592055E-2,-8.271759E-2,-1.8029706E-1,-1.3457268E-1,-1.243394E0,-1.6336118E-1,-1.3209133E-1,-1.4231788E-1,-2.3470545E-2,-3.0409588E-2,5.743615E-1,-1.1946147E-1,-2.242055E-2,-2.3960734E-2,-1.01861574E-1,-1.5512876E-2,1.1495E-2,-1.7256992E-2,-4.722101E-2,-5.44499E-1,-2.2241842E-2,-8.437175E-3,3.0917377E0,7.4118E-1,-2.86743E-1,3.82573E-1,1.1312E-2,4.74235E-1,5.6123276E0,-4.4247653E-2,1.7229462E-2,-1.0985836E-1,-1.602055E-2,-7.156944E-2,-1.8260725E-2,4.25295E-1,6.03429E-1,-1.30304E-1,-4.2620465E-2,5.57705E-1,7.01093E-1,-7.22126E-1,-1.75551E-1,-7.13742E-1,-2.3923737E-3,2.08749E-1,-1.1592158E-2,5.01382E-1,5.14498E-1,5.53426E-1,-7.1698665E-3,1.581052E-3,6.3092E-1,5.428405E0,-1.164829E0,-3.5667792E-3,-3.010699E-2,-1.220984E0,-2.39731E-1,6.6647773E0,-4.273596E-2,-2.5517E-1,-1.80193E0,4.9932833E0,1.861701E0,-8.94197E-1,4.81599E0,3.7566E-2,-1.1366735E-2,3.9679992E0,-5.2451797E-2,-8.027403E-3,-8.92415E-1,2.4247123E-2,-4.2455822E-2,-1.1274189E-2,1.8994177E-2,-9.761012E-3,7.061388E0,-3.0205816E-2,1.751498E-2,-2.8425455E-4,-2.951673E-2,-6.969036E-5,-4.4505823E-2,-1.7891185E-2,-1.15145305E-2,-1.995804E-2,-1.2842225E-2,-3.0879084E-2,-2.0258969E-2,-7.5629346E-2,-9.449614E1,-4.1265883E-2,-1.557373E-2,-9.689846E-2,-4.943653E-2,-1.2314645E-1,5.65399E-1,-6.23437E-1,-1.1212345E-1,-5.3553324E-2,-1.5317579E-2,-1.9747237E-2,-1.5183518E-2,-7.38543E-1,-9.572542E-2,-2.6630595E-2,3.1585436E0,-7.895754E-3,3.8755805E0,-1.1600902E-2,-5.778011E-3,4.7131E-1,4.79433E-1,3.60573E0,-4.240755E-3,-1.3434239E-2,2.426E-2,5.38963E-1,1.6809E-1,-8.427397E-3,-7.129337E-2,6.53694E-1,6.47402E-1,1.6109E-1,3.8060937E0,-1.2234545E-3,8.26833E-1,5.1564E-1,-6.104358E-4,-2.1984247E-2,-7.341758E-2,-4.400365E-3,-3.8960736E-2,5.47806E-1,-8.74959E-1,-5.1262253E-3,-8.24395E-1,1.043383E0,-6.355103E-2,-6.8534403E-3,-1.644259E-3,-8.6957915E-3,3.597782E-4,-1.523562E-2,-4.5506652E-2,1.9188315E-2,-1.75551E-1,-3.7896507E-3,6.6305E-2,7.57965E-1,2.0767308E-3,1.5401377E-3,4.7805653E0,9.18875E-1,1.3583E-2,1.752E-2,1.1100894E-2,-1.8987674E-2,5.5536855E-4,-4.1005827E-2,1.4132386E-3,1.0484471E-2,1.5166675E-2,-3.128815E-4,-3.5863824E-2,-1.231962E0,-2.2354342E-2,-6.0374975E-2,6.37006E-1,-3.9275777E-2,1.3879443E-2,-4.0784456E-2,5.76737E-1,-1.678108E0,1.099943E0,-1.6750913E-2,-7.343425E-2,-2.9276988E-2,9.472593E-3,-1.293414E0,-1.46464E-1,-1.7180841E-2,-1.1822152E-2,-2.2116603E-2,-7.25809E-1,-1.4302181E-2,5.7165E-1,-2.4987454E-2,-1.2811442E-2,-1.1127409E-2,-8.3538815E-2,9.32658E-1,6.6497E-1,5.4944E-2,-2.1605479E-2,-1.825876E-2,-4.8021037E-2,5.4519E-1,3.8561726E0,-2.572692E-2,-1.33035E-1,-2.214662E0,1.32625E0,-1.4093709E-2,-2.9521033E-2,-1.0087428E-2,-4.255582E-2,-8.336877E-3,-1.152794E-3,-1.3203387E-2,-3.774764E-2,-1.1219709E-2,-4.628791E-4,1.9168854E-5,-3.7316736E-2,-1.193493E0,-2.037808E-2,-5.1780907E-3,-4.2867586E-2,6.5469E-1,1.164684E0,4.9838684E-3,1.8245E-1,-1.0458889E-2,2.2284063E-3,-7.83175E-1,-2.7775E-1,-1.602699E-2,4.1394155E-3,-4.4818632E-2,7.929444E-3,-1.452055E-2,-9.362699E-2,-5.4220945E-2,1.2061105E0,-2.1434247E-2,-6.741009E-2,8.54986E-1,-1.2320543E-2,-2.0028107E-2,1.290939E0,4.3650055E0,1.4227124E-2,-2.8232796E-2,-7.459209E-2,-2.218876E-2,-1.5142729E-2,6.35633E-1,2.3439264E-2,5.65399E-1,-9.07908E-1,2.2599E-2,-4.1160736E-2,-1.584589E-2,-3.160453E-2,3.6543837E0,-2.202E-1,-1.1932879E-2,-4.860399E-2,1.4305926E-2,-3.3325568E-2,4.716759E0,-1.167265E-1,-1.837346E-2,2.1716056E-3,-1.8038524E-2,5.5989563E-3,-4.309593E-3,-3.2795455E-2,1.0089555E-2,-2.8122875E-5,-8.173585E-3,2.282555E-3,-2.7921482E-3,5.0512752E-3,-6.5043415E-3,-2.9350027E-2,-9.14455E-2,-3.648082E-2,-2.0400992E-2,-5.549699E-2,9.41488E-1,-6.712055E-2,6.55914E-1,1.2147E-2,2.6735E-2,-4.735246E-2,-3.0767826E-2,7.1304E-1,1.2667122E-2,-1.9757843E-2,-1.1253992E-2,7.5949766E-3,-2.47822E-1,-1.9230573E-3,-4.8446987E-2,-2.1751292E-2,-3.0523539E-3,-1.5894465E-2,-3.2208025E-2,-1.2438358E-2,4.9271206E-3,-2.2810064E-2,-4.068069E-2,-1.8277E-1,2.391E-2,1.6832417E-2,-2.2485638E-2,1.2872617E-2,-2.8420184E-2,1.4005947E-2,-8.576399E-3,-3.7146453E-2],"split_indices":[2,11,2,19,6,14,45,29,5,11,11,3,44,35,11,0,17,44,17,57,2,11,57,48,14,13,34,35,0,48,14,0,0,17,0,29,0,19,11,34,2,57,57,11,6,61,2,48,17,57,57,48,24,0,17,0,0,34,0,58,32,0,17,2,0,11,11,17,17,44,3,34,34,18,18,71,6,57,34,6,11,5,0,62,44,14,14,74,13,0,2,0,0,61,67,48,0,0,32,0,0,48,0,29,0,74,0,0,74,57,50,35,2,17,32,0,1,59,71,11,48,58,48,32,48,35,0,6,0,0,26,67,29,34,4,35,11,59,0,17,44,71,17,0,17,60,0,0,11,17,48,48,0,0,34,0,0,31,26,0,60,62,0,0,0,2,14,0,0,0,0,0,0,6,3,17,19,0,27,50,48,0,0,0,0,3,17,0,0,13,34,48,29,0,35,0,48,0,2,60,0,0,57,0,61,14,6,0,0,19,57,32,57,26,11,48,2,14,57,11,34,5,32,0,48,0,71,45,0,19,74,5,56,62,0,0,0,28,11,0,35,0,0,48,0,0,13,0,44,0,0,0,35,0,0,0,19,46,34,0,61,6,0,36,0,0,0,17,44,0,0,29,28,0,0,0,35,0,0,0,50,0,56,0,28,0,0,0,0,0,0,28,0,0,0,50,0,17,57,0,17,0,0,0,74,35,6,2,29,57,19,57,34,57,17,36,0,48,3,19,50,73,48,0,0,0,0,0,14,32,34,67,17,0,57,0,0,0,0,0,0,3,0,0,0,0,3,0,14,0,0,0,0,0,0,17,0,0,0,0,0,0,0,0,19,57,0,0,0,0,0,0,0,0,62,0,0,0,0,14,57,74,0,0,0,0,0,0,48,0,0,0,0,2,57,5,4,0,0,0,0,3,49,14,28,17,58,0,1,36,35,11,50,34,0,26,2,34,18,0,57,35,17,38,11,17,0,57,57,54,17,50,13,19,50,0,0,2,71,4,29,48,0,0,48,0,0,0,28,48,0,0,0,0,0,0,57,0,34,35,50,0,35,0,0,2,0,0,0,0,0,0,0,0,0,0,0,0,14,0,0,0,0,0,35,0,0,0,0,0,74,0,0,26,0,0,6,54,48,19,50,34,2,0,0,0,0,0,0,34,18,28,0,34,34,61,48,61,0,50,0,57,35,57,0,0,35,5,13,0,0,26,48,2,0,48,73,9,49,61,11,50,0,11,0,0,61,0,0,0,0,0,10,0,0,0,0,0,0,0,0,0,0,0,0,0,6,0,0,0,0,0,57,61,0,0,0,0,0,14,0,0,11,0,0,0,0,57,57,6,0,0,32,57,17,0,0,19,35,71,11,0,59,57,0,0,0,0,0,35,14,0,61,44,0,0,0,0,0,0,0,0,48,0,32,19,0,0,1,52,50,50,0,0,0,0,0,0,0,0,0,13,0,0,57,0,0,0,18,23,60,0,0,0,0,23,48,0,0,0,61,0,34,0,0,0,0,58,34,29,0,0,0,57,11,0,28,23,44,0,0,0,0,0,0,0,0,0,0,0,0,26,0,0,0,35,44,0,17,0,0,61,48,0,0,0,0,0,0,0,56,0,0,19,0,0,46,5,0,0,0,0,0,35,0,57,61,0,0,0,0,1,48,0,0,0,0,0,28,0,0,0,0,0,0,0,0,0,0,0,0,0,0,0,0,0,0,44,0,19,50,50,0,0,34,0,0,0,0,48,0,0,0,0,0,0,0,0,0,0,48,74,0,0,0,0,0,0,0],"split_type":[0,0,0,0,0,0,0,0,0,0,0,0,0,0,0,0,0,0,0,0,0,0,0,0,0,0,0,0,0,0,0,0,0,0,0,0,0,0,0,0,0,0,0,0,0,0,0,0,0,0,0,0,0,0,0,0,0,0,0,0,0,0,0,0,0,0,0,0,0,0,0,0,0,0,0,0,0,0,0,0,0,0,0,0,0,0,0,0,0,0,0,0,0,0,0,0,0,0,0,0,0,0,0,0,0,0,0,0,0,0,0,0,0,0,0,0,0,0,0,0,0,0,0,0,0,0,0,0,0,0,0,0,0,0,0,0,0,0,0,0,0,0,0,0,0,0,0,0,0,0,0,0,0,0,0,0,0,0,0,0,0,0,0,0,0,0,0,0,0,0,0,0,0,0,0,0,0,0,0,0,0,0,0,0,0,0,0,0,0,0,0,0,0,0,0,0,0,0,0,0,0,0,0,0,0,0,0,0,0,0,0,0,0,0,0,0,0,0,0,0,0,0,0,0,0,0,0,0,0,0,0,0,0,0,0,0,0,0,0,0,0,0,0,0,0,0,0,0,0,0,0,0,0,0,0,0,0,0,0,0,0,0,0,0,0,0,0,0,0,0,0,0,0,0,0,0,0,0,0,0,0,0,0,0,0,0,0,0,0,0,0,0,0,0,0,0,0,0,0,0,0,0,0,0,0,0,0,0,0,0,0,0,0,0,0,0,0,0,0,0,0,0,0,0,0,0,0,0,0,0,0,0,0,0,0,0,0,0,0,0,0,0,0,0,0,0,0,0,0,0,0,0,0,0,0,0,0,0,0,0,0,0,0,0,0,0,0,0,0,0,0,0,0,0,0,0,0,0,0,0,0,0,0,0,0,0,0,0,0,0,0,0,0,0,0,0,0,0,0,0,0,0,0,0,0,0,0,0,0,0,0,0,0,0,0,0,0,0,0,0,0,0,0,0,0,0,0,0,0,0,0,0,0,0,0,0,0,0,0,0,0,0,0,0,0,0,0,0,0,0,0,0,0,0,0,0,0,0,0,0,0,0,0,0,0,0,0,0,0,0,0,0,0,0,0,0,0,0,0,0,0,0,0,0,0,0,0,0,0,0,0,0,0,0,0,0,0,0,0,0,0,0,0,0,0,0,0,0,0,0,0,0,0,0,0,0,0,0,0,0,0,0,0,0,0,0,0,0,0,0,0,0,0,0,0,0,0,0,0,0,0,0,0,0,0,0,0,0,0,0,0,0,0,0,0,0,0,0,0,0,0,0,0,0,0,0,0,0,0,0,0,0,0,0,0,0,0,0,0,0,0,0,0,0,0,0,0,0,0,0,0,0,0,0,0,0,0,0,0,0,0,0,0,0,0,0,0,0,0,0,0,0,0,0,0,0,0,0,0,0,0,0,0,0,0,0,0,0,0,0,0,0,0,0,0,0,0,0,0,0,0,0,0,0,0,0,0,0,0,0,0,0,0,0,0,0,0,0,0,0,0,0,0,0,0,0,0,0,0,0,0,0,0,0,0,0,0,0,0,0,0,0,0,0,0,0,0,0,0,0,0,0,0,0,0,0,0,0,0,0,0,0,0,0,0,0,0,0,0,0,0,0,0,0,0,0,0,0,0,0,0,0,0,0,0,0,0,0,0,0,0,0,0,0,0,0,0,0,0,0,0,0,0,0,0,0,0,0,0,0,0,0,0,0,0,0,0,0,0,0,0,0,0,0,0,0,0,0,0,0,0,0,0,0,0,0,0,0,0,0,0,0,0,0,0,0,0,0,0],"sum_hessian":[4.8439E4,3.0644E4,1.7795E4,5.67E2,3.0077E4,6.434E3,1.1361E4,4.3E1,5.24E2,1.0032E4,2.0045E4,4.59E3,1.844E3,8.41E2,1.052E4,3.4E1,9E0,2.97E2,2.27E2,4.353E3,5.679E3,1.709E3,1.8336E4,1.66E3,2.93E3,3.55E2,1.489E3,1.13E2,7.28E2,1.092E3,9.428E3,2E0,7E0,2.58E2,3.9E1,1.1E2,1.17E2,3.761E3,5.92E2,3.029E3,2.65E3,9.49E2,7.6E2,1.7311E4,1.025E3,4.13E2,1.247E3,2.053E3,8.77E2,2.9E2,6.5E1,5.87E2,9.02E2,3E0,1.1E2,3E0,7.25E2,3.72E2,7.2E2,8.577E3,8.51E2,7E0,2.51E2,5.3E1,5.7E1,3.243E3,5.18E2,3.08E2,2.84E2,9.77E2,2.052E3,7.59E2,1.891E3,4.9E1,9E2,7.9E1,6.81E2,7.598E3,9.713E3,4.54E2,5.71E2,4.11E2,2E0,6.2E2,6.27E2,1.96E2,1.857E3,8.29E2,4.8E1,2.87E2,3E0,6.1E1,4E0,2.14E2,3.73E2,8.83E2,1.9E1,8.5E1,2.5E1,1.71E2,2.01E2,7.889E3,6.88E2,8.42E2,9E0,1.31E2,1.2E2,7E0,4.6E1,1.97E3,1.273E3,6.1E1,4.57E2,1.54E2,1.54E2,5E0,2.79E2,1.13E2,8.64E2,1.06E3,9.92E2,1.79E2,5.8E2,1.64E2,1.727E3,4.6E1,3E0,8.92E2,8E0,1.5E1,6.4E1,1.09E2,5.72E2,5.792E3,1.806E3,3.827E3,5.886E3,3.09E2,1.45E2,4.76E2,9.5E1,8.3E1,3.28E2,5.57E2,6.3E1,6.26E2,1E0,1.7E1,1.79E2,1.096E3,7.61E2,6.16E2,2.13E2,2.1E1,2.7E1,2E0,1E0,6.2E1,1.52E2,1.28E2,2.45E2,3.68E2,5.15E2,2.3E1,2E0,1.685E3,6.204E3,8.41E2,1E0,1.3E2,1E0,6E0,4E1,1.245E3,7.25E2,2.58E2,1.015E3,1.5E1,4.6E1,3.53E2,1.04E2,3.9E1,1.15E2,2.8E1,1.26E2,2.71E2,8E0,1.02E2,1.1E1,8.21E2,4.3E1,6.44E2,4.16E2,9.7E1,8.95E2,2.8E1,1.51E2,6E1,5.2E2,1.56E2,8E0,5.83E2,1.144E3,2.5E1,2.1E1,1.59E2,7.33E2,7E0,5.7E1,5.4E1,5.5E1,1.6E1,5.56E2,2.76E2,5.516E3,1.82E2,1.624E3,1.271E3,2.556E3,2.31E3,3.576E3,2.3E1,2.86E2,8E0,4.68E2,2E0,9.3E1,7.5E1,8E0,1.14E2,2.14E2,3.9E1,2.4E1,5.92E2,3.4E1,4.7E1,1.32E2,9.75E2,1.21E2,3.3E1,7.28E2,6.2E1,5.54E2,2.5E1,2E0,2.9E1,3.3E1,7E0,1.45E2,3E0,2.42E2,7.2E1,2.96E2,1.185E3,5E2,5.362E3,8.42E2,2.84E2,9.61E2,1.1E2,6.15E2,6E0,2.52E2,5.63E2,4.52E2,2E0,4.4E1,1.98E2,1.55E2,6.6E1,3.8E1,3E1,2.41E2,3E0,5E0,1E0,8.2E2,3E0,4E1,2.07E2,4.37E2,1E0,4.15E2,3.82E2,5.13E2,2.6E1,1.25E2,3.74E2,1.46E2,2.5E1,1.31E2,9E1,1.054E3,7E0,1.4E1,1.55E2,4E0,3.52E2,3.81E2,1E0,5.3E1,6E0,4.9E1,8E0,8E0,1.87E2,3.69E2,5.8E1,2.18E2,1.576E3,3.94E3,1.11E2,7.1E1,7.89E2,8.35E2,1.091E3,1.8E2,2.506E3,5E1,1.201E3,1.109E3,2.143E3,1.433E3,2.2E1,1E0,3.7E1,2.49E2,1E0,7E0,3.42E2,1.26E2,5.9E1,3.4E1,5.7E1,1.8E1,9E1,2.4E1,2.11E2,3E0,1.9E1,2E1,2.1E1,3E0,5.89E2,3E0,3E0,9.72E2,9E0,1.12E2,5E0,7.23E2,2.4E1,1E0,6E0,2.7E1,1.35E2,1E1,5E0,2.91E2,8.27E2,1.5E1,1.68E2,1.16E2,3.3E1,9.28E2,6.14E2,1E0,1E0,5E0,3.8E1,5.25E2,2.79E2,1.73E2,3E0,1.95E2,2.7E1,1.28E2,2E0,2.8E1,8.2E1,1.59E2,5.08E2,3.12E2,1.77E2,2.6E2,4.12E2,3E0,1E0,5.12E2,3E0,8.7E1,2.7E1,1.28E2,2E0,3.5E2,9.5E1,2.86E2,1E0,5.2E1,1E0,7E0,1.9E1,1.68E2,1.6E2,2.09E2,3.8E1,2E1,1.23E2,9.5E1,8.76E2,7E2,2.221E3,1.719E3,7E1,4.1E1,1.5E1,5.6E1,6.98E2,9.1E1,1.5E1,8.2E2,1.075E3,1.6E1,7.02E2,1.804E3,3.9E1,1.1E1,7.11E2,4.9E2,3.14E2,7.95E2,1.42E2,2.001E3,4.38E2,9.95E2,6E0,1E0,1.11E2,2.31E2,1.19E2,7E0,3.4E1,2.5E1,3E0,3.1E1,1.5E1,3E0,3E0,1.7E1,1.8E1,3E0,3.75E2,5.97E2,1E0,1.11E2,5.4E1,8.1E1,4.98E2,4.3E2,4.14E2,2E2,5.1E1,1.44E2,7.7E1,5E0,8.4E1,7.5E1,4.55E2,5.3E1,9.9E1,4.13E2,1E0,2E0,1E0,1E0,5E0,3.45E2,8E1,1.5E1,2.46E2,4E1,1.8E1,1E0,1.3E1,1.55E2,1.59E2,1E0,2E0,2.07E2,4E0,3.4E1,9E0,1.1E1,1.7E1,7.8E1,1.37E2,7.39E2,1.9E1,6.81E2,1.149E3,1.072E3,8.54E2,8.65E2,6.9E1,1E0,1.4E1,1E0,5.4E1,2E0,2.4E1,6.74E2,2.7E1,6.4E1,5.02E2,3.18E2,2.53E2,8.22E2,1E1,6E0,4.12E2,2.9E2,3.27E2,1.477E3,3.1E1,8E0,1.95E2,5.16E2,4.41E2,4.9E1,3.05E2,9E0,7.22E2,7.3E1,1.35E2,7E0,1.032E3,9.69E2,3.83E2,5.5E1,2.3E1,9.72E2,9.8E1,1.3E1,1.33E2,9.8E1,2E0,1.17E2,4E0,3E0,3.1E1,3E0,1.2E1,1.9E1,3E0,1.4E1,5E0,1.3E1,7.8E1,3E0,1.02E2,3.28E2,2.74E2,1.4E2,6.9E1,1.31E2,1.1E1,1.33E2,7.4E1,1E1,7E0,8E0,1E1,1.45E2,1E1,2.4E1,1.2E1,5E0,2.53E2,4.86E2,1.1E1,8E0,2.6E2,4.21E2,3.66E2,7.83E2,1.07E2,9.65E2,9E1,7.64E2,7.46E2,1.19E2,5E0,1.9E1,6.45E2,2.9E1,2E0,2.5E1,2.4E1,4.78E2,7.4E1,2.44E2,2.4E1,2.29E2,7.76E2,4.6E1,5E0,5E0,4.1E2,2E0,3.03E2,2.4E1,4.59E2,1.018E3,1.6E1,1.5E1,1.82E2,3.34E2,3.95E2,4.6E1,4.3E1,6E0,1.4E1,7.08E2,6.2E1,1.1E1,7.2E1,6.3E1,1.78E2,8.54E2,1.18E2,8.51E2,2.83E2,1E2,1.1E1,4.4E1,3E0,2E1,5.56E2,4.16E2,4E0,9.4E1,1.22E2,1.1E1,1.07E2,1E1,1.8E1,1E0,8.8E1,4.5E1,1.5E1,1.3E2,5E0,5E0,9E0,2E0,2.29E2,1.92E2,1.59E2,6.24E2,6.6E1,2.4E1,2.93E2,4.71E2,2.4E1,7.22E2,2E0,1.7E1,2.72E2,3.73E2,1.2E1,1.7E1,8E0,1.6E1,7.5E1,4.03E2,1.6E1,5.8E1,1.26E2,1.18E2,2.13E2,1.6E1,7.73E2,3E0,2.22E2,8.1E1,1.6E1,8E0,4.3E1,9.75E2,3E0,1.3E1,7.02E2,6E0,6E0,5E0,3.5E1,3.7E1,2.53E2,6.01E2,8.1E1,3.7E1,2.78E2,5.73E2,9E0,2.74E2,1.21E2,1E0,1E0,9E0,6E0,3.9E1,5E0,1E1,1.29E2,1E0,2.1E2,1.9E1,1.88E2,4E0,1.6E1,8E0,2.52E2,2.19E2,2.7E2,2E0,1.54E2,2.19E2,1E1,2E0,5.3E1,2.2E1,1.14E2,2.89E2,4E0,5.4E1,2E0,1.24E2,6.5E1,5.3E1,7E0,6.95E2,1.5E1,2E1,1.3E1,2.4E1,5.68E2,3.3E1,8.7E1,1.91E2,5.5E1,5.18E2,1.1E1,2.8E1,1.26E2,3E0,1E1,9E0,1.87E2,1E0,1.11E2,1.59E2,9.7E1,5.7E1,1.92E2,2.7E1,4E0,1.1E2,2.75E2,1.4E1,3.6E1,2.9E1,9E0,4.4E1,2.2E1,1.65E2,9.7E1,1.4E1,4E0,1.55E2,5.1E1,4.6E1,2.2E1,5E0,3.4E1,2E0,4.4E1,2E0,1.2E1,1E1],"tree_param":{"num_deleted":"0","num_feature":"78","num_nodes":"789","size_leaf_vector":"1"}},{"base_weights":[-1.8817853E-4,-1.5225305E-1,2.6608944E-1,-1.4374888E0,-1.2804155E-1,1.5535495E-1,3.3025917E-1,-1.5313357E0,-2.8078762E-1,7.625094E-3,-1.9530195E-1,1.949668E-1,4.3657452E-2,2.4508147E-1,3.398813E-1,-1.8347772E0,-1.3659412E0,-5.739518E-2,-2.0981193E-2,-2.0134611E-1,1.6751394E-1,-1.2212578E0,-1.0052218E-1,1.6253039E-1,2.3836903E-1,-7.8064896E-2,6.752408E-2,2.0182E-1,2.7021155E-1,2.7970228E-1,3.4365353E-1,-1.658455E-1,-2.0665684E-1,-1.5074196E-1,-1.1987234E0,-1.347293E-1,-6.481722E-1,7.091327E-2,3.1330058E-1,-1.5742413E0,-9.401796E-1,-2.1495381E-1,-1.8126324E-2,8.676075E-2,1.7484231E-1,2.6425347E-1,1.967162E-1,-2.0046064E-1,-4.2734936E-2,8.709748E-2,2.0102246E-2,-1.1221047E-2,2.0817462E-1,7.6453597E-3,2.7341017E-1,1.9405019E-2,2.9203592E-2,3.184535E-1,3.5262036E-1,-1.2951657E-1,-9.913221E-1,-1.119702E-1,-2.883103E-1,-8.497059E-1,-5.0374E-1,-1.4435098E-3,1.2341099E-1,2.4321175E-1,3.3898696E-1,-1.4590845E-1,-1.6432797E0,-1.638564E-1,-1.0247446E0,-1.5972963E-1,-5.188308E-1,-7.7905044E-2,5.8155013E-3,-5.8634188E-2,9.004912E-2,1.9211574E-1,1.2907915E-1,2.0898224E-1,2.7672845E-1,1.9841138E-1,-1.074133E-2,-4.020135E-1,-1.5864952E-1,-1.6700402E-2,-2.9271048E-2,3.3240512E-2,1.0401668E-1,7.011269E-3,7.747548E-3,2.2075619E-1,1.1241726E-1,2.2765787E-2,2.8572371E-2,2.6988974E-2,3.235796E-1,3.2357078E-2,3.567765E-1,-1.2419555E-1,-8.693353E-1,-1.5609962E-1,-6.608169E-2,-6.056087E-1,-2.3898788E-1,-7.959779E-1,-1.0140588E-1,-6.004025E-1,-4.119881E-1,-1.3152662E-1,1.5507228E-2,6.39542E-2,1.7063844E-1,-1.7280344E-2,2.4831922E-1,2.529181E-2,3.4240273E-1,-7.029053E-3,-5.1228292E-2,-1.6661909E0,3.569239E-2,-5.7154946E-2,-2.5874464E-2,-1.2984072E-1,-9.5304E-1,-3.494912E-1,-1.4735673E-1,-7.0117724E-1,-4.1463566E-1,-1.5209928E-1,-6.1680008E-2,-6.1002452E-2,3.608064E-2,1.308456E-2,6.2042557E-2,1.6074058E-1,2.0471957E-1,8.078624E-2,1.4709416E-2,2.3205467E-2,4.3585602E-2,2.7885473E-1,6.8917277E-4,1.4018807E-1,2.0704974E-1,7.79382E-3,-6.1884113E-2,-1.7451983E-2,1.6402882E-2,-2.1426666E-3,-2.7541284E-2,2.4389803E-2,2.879687E-2,3.7115034E-2,1.1269654E-2,7.37426E-3,-9.69734E-3,2.0234235E-1,3.0234685E-2,-1.3720293E-1,2.1330297E-2,3.3237267E-1,2.8304064E-1,3.5938454E-1,3.1674217E-2,-1.8590821E-2,-9.183978E-2,-1.1882106E-1,-2.0581192E-1,-9.025743E-2,-4.182436E-2,-4.3943565E-2,-9.8479426E-1,-2.800916E-1,-6.413943E-2,-8.036849E-2,-2.5402427E-2,-9.831616E-2,-5.6246866E-2,-4.8456848E-1,-3.3292928E-1,-2.0739032E-2,-9.703891E-3,-1.98017E-2,3.71646E-2,2.5972265E-3,8.299816E-2,1.9140354E-1,1.3167211E-1,1.893882E-1,2.6686072E-1,3.0549487E-2,3.502007E-2,-2.038844E0,-1.5600704E0,-2.5697146E-2,-2.0758181E-3,-9.3280417E-1,-1.3505132E-1,-6.6032976E-1,-2.8176E-1,-1.2735815E-1,-2.2754031E-1,-8.4772384E-1,-6.704977E-1,-4.7765255E-1,-3.4985965E-1,-9.6485905E-2,-1.473895E-1,-5.5845395E-2,-1.8948074E-1,-4.3879002E-2,-1.7836474E-1,-1.1968437E-2,6.176599E-2,-1.0199204E-1,7.65194E-2,1.9336939E-4,1.6572002E-2,-1.314621E-3,2.0636041E-1,9.491163E-3,-1.4229107E-1,-2.2691166E-2,8.204499E-3,2.5284305E-1,3.0288333E-1,-3.4539368E-2,1.7472722E-1,1.5360929E-1,2.166845E-1,1.5323798E-2,6.8432377E-3,6.2416852E-3,-1.1560459E-2,-1.7819624E-1,-1.9131099E-4,2.0577798E-2,-1.0333854E-2,2.1788185E-2,-2.0859149E-1,3.2098204E-1,3.5511274E-2,2.8780926E-2,-2.6815802E-1,3.6183026E-1,3.2319583E-2,-1.5750049E-1,-9.7746834E-2,-3.1673265E-1,-1.8984084E-1,-5.8670174E-3,-1.1655454E-2,-2.5573641E-2,-7.963747E-2,-1.1128395E-1,-2.2641474E-2,-5.841752E-1,-2.6634234E-1,-2.0728547E-2,-2.0640779E-3,-1.7970627E-2,-5.08696E-1,-3.5635927E-1,2.3647523E-2,-3.9878797E-2,-1.422194E-3,3.9393265E-2,-1.406107E-1,3.4125585E-3,9.5013276E-2,1.5619797E-2,2.0999113E-2,1.3478443E-1,-2.0002836E-2,-2.260133E-2,1.9375157E-2,2.714268E-1,9.003285E-3,-1.857107E0,-2.3107648E-1,-9.257841E-1,-1.5675858E0,-2.8087837E-1,-9.6359795E-1,-5.38813E-1,-8.3840114E-1,-2.2764544E-1,-4.80278E-1,-1.6566938E-1,-1.0801199E-1,-4.28385E-1,-2.1110336E-1,-7.3152125E-1,-9.7406524E-1,-6.580406E-1,-1.0431864E-1,-4.2375198E-1,-5.7464874E-1,-2.4909176E-1,-4.2000142E-1,-1.1928365E-1,-1.9338478E-1,-9.643445E-2,-4.771198E-2,-4.1709015E-1,-1.4338988E-1,-1.8291928E-2,-7.551526E-2,-3.3918417E-1,-1.2990828E-1,-5.0423006E-3,-1.6880742E-1,2.5316583E-2,8.4066644E-2,-3.1463243E-2,2.0352162E-3,2.0967003E-2,5.5841487E-3,1.663158E-2,2.162195E-2,4.3547233E-3,-3.0441418E-2,-3.488951E-3,2.5527302E-2,2.9800734E-3,3.0547172E-2,-2.0244034E-1,1.20025445E-2,-1.7045684E-3,1.9436304E-2,1.6372485E-2,-1.47797465E-2,2.1900771E-2,-1.679622E-2,-1.10652946E-1,3.222637E-2,-2.5179071E-2,1.2651746E-2,1.3088918E-2,-3.2352462E-1,2.896419E-2,3.3347365E-2,-8.14772E-2,1.856373E-2,3.596278E-2,4.0445857E-2,-2.21185E-2,-1.6594553E-2,-9.239627E-3,-2.404443E-2,-2.9490906E-1,-8.440395E-2,-7.5117014E-2,-1.877575E-1,-1.7655471E-2,-1.3873291E-2,-1.486785E-1,-5.816701E-3,4.1674855E-3,-6.3552335E-2,-3.006302E-1,-1.950336E-1,-3.316722E-2,-5.505356E-2,-3.7529267E-2,1.113987E-2,-1.5570793E-3,4.657465E-2,-5.744005E-2,3.9636823E-3,5.6565576E-3,1.20535E-2,1.2375179E-2,2.2920772E-2,2.8734747E-2,2.0543583E-2,-1.8853177E0,-7.228284E-2,2.0452976E-2,-1.0926396E-1,-1.6744755E-1,-1.5045103E-1,-1.6015036E-2,-4.5868513E-1,-9.175899E-1,-1.0951915E0,-2.4133716E-2,-7.108041E-1,-3.9002884E-2,-9.2257535E-1,-7.1278155E-1,-2.0150778E-1,-3.9627805E-1,-7.00929E-2,-1.0768147E-1,-1.8223737E-1,-1.05132386E-1,-3.1753522E-1,-4.4806126E-1,1.1650825E-2,1.9901775E-1,-2.1787229E-1,-7.6335795E-2,-2.4619265E-2,-1.0689813E-1,-6.2327266E-2,-7.1361214E-2,-6.0489357E-2,-5.313244E-1,-3.6511573E-1,-5.4064405E-1,-1.0426424E-1,-2.64567E-1,2.7736416E-2,1.8766213E-2,-4.2360017E-1,-1.2540391E-1,6.0493867E-3,-1.9663732E-2,2.3831917E-2,-1.8485057E-1,-8.133454E-2,-7.0659365E-3,-2.8573627E-2,-6.582731E-3,-6.346367E-2,-6.709569E-2,-1.1834924E-1,-1.1458572E-2,-1.1902733E-2,-1.01330705E-1,-4.214879E-2,-1.533171E-2,-4.5944515E-1,-1.0533432E-1,-3.1622773E-1,-5.1111557E-2,1.5967913E-2,-5.6838103E-2,-1.0168805E-1,-1.2556888E-3,4.550606E-2,3.466923E-2,1.0067535E-1,-2.923584E-3,-5.3910404E-2,2.9393323E-3,-1.9717647E-2,5.0067108E-2,-9.0879865E-2,1.0893154E-2,-3.836788E-2,1.0992177E-2,-2.1038573E-2,-4.734802E-4,-3.088363E-2,-1.641821E-2,-2.1465746E-1,-6.631688E-3,-1.2687931E-4,-3.9032333E-2,-1.179372E-2,-2.1633962E-2,-3.4074422E-2,-6.388545E-2,-1.8089937E-1,2.4383694E-2,6.800069E-2,-2.2851048E-1,-1.7553037E-1,-8.883829E-2,-2.8390734E-2,-1.0801417E0,-8.8977444E-1,-1.181073E-1,-9.6854456E-2,-8.9443433E-1,-4.6328568E-1,-9.544199E-2,-1.2692082E-2,-4.006809E-3,-9.1058874E-1,-1.6622037E-1,-3.3933303E-1,-4.2613646E-1,-9.13643E-3,-4.837452E-4,-1.2083578E-2,-3.314495E-1,-1.77301E-1,-8.351812E-2,-1.3164276E-1,-2.0394396E-2,-6.397687E-1,-2.2101482E-2,-4.7084134E-2,-2.5597597E-2,3.0032758E-2,-2.4807665E-1,-1.5043493E-1,-6.5398383E-1,-4.4652652E-2,1.3740308E-2,-3.752698E-1,-5.6444254E-2,3.3365488E-3,-2.832883E-1,-1.942408E-2,-4.144453E-1,-8.166399E-2,-9.592224E-3,-1.6740365E-2,-4.8739906E-2,-1.5341367E-2,-1.0364734E-2,-2.6183228E-3,-6.425019E-3,-1.9037996E-3,-2.6526852E-2,-7.529664E-2,-6.8122344E-3,-1.5624979E-3,-1.4056318E-1,-8.321862E-3,-4.6412395E-3,2.099431E-2,1.2076235E-2,-4.9147457E-2,-1.7075898E-1,-6.036265E-2,-4.9132753E-2,-1.6513868E-1,-5.1957827E-2,-4.847295E-2,-8.090425E-3,4.792293E-2,-1.4015767E-1,1.3545147E-2,2.7553087E-2,-6.213771E-3,1.895833E-2,9.2686325E-2,3.8053803E-2,-3.3509057E-2,5.7642728E-2,1.136994E-1,-1.4055296E-3,9.297155E-2,-1.7769076E-2,1.2052788E-2,-1.851641E-1,-2.7173525E-2,-2.84913E-1,-1.3532358E-2,6.0676486E-4,7.463582E-3,2.061167E-3,8.733029E-3,-1.1258816E0,-4.503429E-2,-9.455544E-1,-7.4683166E-1,1.9136191E-3,-9.610563E-2,-5.8857604E-5,-5.4035284E-2,-1.3544905E-2,-9.816655E-2,-1.1401354E-2,-2.019759E-2,-2.3208347E-1,-6.596164E-1,-5.296928E-3,-4.498372E-2,-6.292079E-2,-1.8136706E-2,-2.1557756E-1,-1.5847604E-1,-1.0001847E-1,-6.500527E-2,-1.6302684E-1,-1.07080504E-1,-7.912281E-2,2.7865728E-3,-2.8663513E-1,-2.1541762E-1,-3.166562E-2,-1.3438156E-1,-7.903362E-3,-6.88528E-2,-3.0319372E-1,-4.490031E-2,1.7395735E-2,-2.8773341E-2,-3.9639127E-2,9.560848E-3,-4.183245E-1,2.1367097E-2,-4.7422186E-3,-3.6936617E-1,-3.4168147E-2,1.3882037E-3,-1.1839285E-2,-2.8695052E-2,-5.982481E-3,-2.3333552E-1,2.2560272E-2,-7.1587764E-2,9.964204E-4,-3.9169442E-2,-1.0673347E-1,-3.0633137E-2,-3.4136456E-3,2.2106035E-2,6.0699537E-2,-9.4055414E-4,-1.976402E-2,-3.4498845E-3,-2.8310264E-3,-3.797791E-2,2.3233695E-2,-2.7203175E-1,8.302848E-3,2.3960805E-2,-9.6147554E-4,5.1097744E-3,6.7215644E-2,-7.307225E-2,5.6711067E-3,1.20569475E-1,1.06390575E-2,-1.5642997E-2,-2.3166217E-2,-1.43102305E-2,-1.2438334E-2,-3.5222724E-1,-1.1415695E0,-1.0798836E-2,-1.0153778E0,-8.3266795E-1,-7.850791E-1,-4.7116585E-2,-2.6293612E-1,1.0361123E-2,-9.177493E-2,-2.485252E-2,-2.1167234E-1,-6.7222446E-2,-1.8669619E-1,-1.3677277E-1,-1.2237798E-2,-8.310503E-3,-6.081313E-3,-1.7686484E-2,-1.4153182E-2,-1.8770693E-2,-1.1874846E-2,-2.4011843E-3,-2.2522105E-1,-3.602282E-2,-2.3195262E-1,-8.775825E-2,-1.2152655E-1,-2.3558596E-2,-3.3730872E-2,-4.302844E-3,-3.4709612E-1,-4.56585E-2,-6.1069585E-2,-9.602738E-3,1.7710988E-3,-5.655923E-3,-3.0691637E-2,-8.163839E-3,-3.820234E-2,-2.5056124E-1,-2.1159386E-3,-1.4091914E-2,-7.6302923E-3,2.3366241E-5,-3.045214E-2,4.4235896E-2,6.8171867E-3,-5.7168766E-3,1.6335893E-2,-3.764791E-2,-1.9520203E-2,3.835762E-3,-4.062862E-2,4.2402907E-3,1.3620924E-3,8.496038E-3,-1.741628E-2,4.1415435E-3,1.2142851E-1,-2.3259616E-2,-1.0203342E-2,-4.198117E-2,-1.1537735E0,-2.2297025E-2,-1.1243433E0,-9.417584E-2,-8.426548E-2,-1.7561467E-2,-4.6419125E-2,-8.303402E-2,-1.3276162E-2,-3.6043763E-2,-2.5317824E-2,-1.8131029E-2,-3.1587952E-1,-1.7861934E-2,-1.425152E-2,6.3727684E-3,-7.68865E-3,-2.3633106E-2,-2.5635588E-1,-1.680656E-2,-3.0894702E-2,-2.8655676E-2,-1.3230005E-2,7.4182183E-4,-3.562924E-2,1.897037E-2,-1.01121165E-1,9.62348E-4,1.1731327E-2,-3.268698E-2,-2.5657574E-2,-1.2526393E-3,1.2039046E-3,8.574254E-3,-3.8596026E-3,3.4653877E-3,-5.796243E-2,9.818842E-3,-4.2915203E-2,-1.2700822E-3,1.1273219E-2,1.5662167E-2,-2.359872E-2,-1.1659485E-1,-8.53129E-1,-1.2026248E-1,-5.659599E-2,-1.9478874E-2,-2.6105283E-2,4.291477E-3,-2.7541501E-2,2.9319149E-2,-2.791777E-3,-2.0937528E-2,-4.4336873E-3,-2.7426276E-2,-8.8913865E-2,-1.2048281E-2,-7.382754E-3,2.1597816E-2],"categories":[],"categories_nodes":[],"categories_segments":[],"categories_sizes":[],"default_left":[0,0,0,0,0,0,0,0,0,0,0,0,0,0,0,0,0,0,0,0,0,0,0,0,0,0,0,0,0,0,0,0,0,0,0,0,0,0,0,0,0,0,0,0,0,0,0,0,0,0,0,0,0,0,0,0,0,0,0,0,0,0,0,0,0,0,0,0,0,0,0,0,0,0,0,0,0,0,0,0,0,0,0,0,0,0,0,0,0,0,0,0,0,0,0,0,0,0,0,0,0,0,0,0,0,0,0,0,0,0,0,0,0,0,0,0,0,0,0,0,0,0,0,0,0,0,0,0,0,0,0,0,0,0,0,0,0,0,0,0,0,0,0,0,0,0,0,0,0,0,0,0,0,0,0,0,0,0,0,0,0,0,0,0,0,0,0,0,0,0,0,0,0,0,0,0,0,0,0,0,0,0,0,0,0,0,0,0,0,0,0,0,0,0,0,0,0,0,0,0,0,0,0,0,0,0,0,0,0,0,0,0,0,0,0,0,0,0,0,0,0,0,0,0,0,0,0,0,0,0,0,0,0,0,0,0,0,0,0,0,0,0,0,0,0,0,0,0,0,0,0,0,0,0,0,0,0,0,0,0,0,0,0,0,0,0,0,0,0,0,0,0,0,0,0,0,0,0,0,0,0,0,0,0,0,0,0,0,0,0,0,0,0,0,0,0,0,0,0,0,0,0,0,0,0,0,0,0,0,0,0,0,0,0,0,0,0,0,0,0,0,0,0,0,0,0,0,0,0,0,0,0,0,0,0,0,0,0,0,0,0,0,0,0,0,0,0,0,0,0,0,0,0,0,0,0,0,0,0,0,0,0,0,0,0,0,0,0,0,0,0,0,0,0,0,0,0,0,0,0,0,0,0,0,0,0,0,0,0,0,0,0,0,0,0,0,0,0,0,0,0,0,0,0,0,0,0,0,0,0,0,0,0,0,0,0,0,0,0,0,0,0,0,0,0,0,0,0,0,0,0,0,0,0,0,0,0,0,0,0,0,0,0,0,0,0,0,0,0,0,0,0,0,0,0,0,0,0,0,0,0,0,0,0,0,0,0,0,0,0,0,0,0,0,0,0,0,0,0,0,0,0,0,0,0,0,0,0,0,0,0,0,0,0,0,0,0,0,0,0,0,0,0,0,0,0,0,0,0,0,0,0,0,0,0,0,0,0,0,0,0,0,0,0,0,0,0,0,0,0,0,0,0,0,0,0,0,0,0,0,0,0,0,0,0,0,0,0,0,0,0,0,0,0,0,0,0,0,0,0,0,0,0,0,0,0,0,0,0,0,0,0,0,0,0,0,0,0,0,0,0,0,0,0,0,0,0,0,0,0,0,0,0,0,0,0,0,0,0,0,0,0,0,0,0,0,0,0,0,0,0,0,0,0,0,0,0,0,0,0,0,0,0,0,0,0,0,0,0,0,0,0,0,0,0,0,0,0,0,0,0,0,0,0,0,0,0,0,0,0,0,0,0,0,0,0,0,0,0,0,0,0,0,0,0,0,0,0,0,0,0,0,0,0,0,0,0,0,0,0,0,0,0,0,0,0,0,0,0,0,0,0,0,0,0,0,0,0,0,0,0,0,0,0,0,0,0,0,0,0,0,0,0,0,0,0,0,0,0,0,0,0,0,0,0,0,0,0,0,0,0,0,0,0,0,0,0,0,0,0,0,0,0,0,0,0,0,0,0,0,0,0,0,0,0,0,0,0,0,0,0],"id":1,"left_children":[1,3,5,7,9,11,13,15,17,19,21,23,25,27,29,31,33,-1,-1,35,37,39,41,43,45,47,49,51,53,55,57,-1,-1,-1,59,61,63,65,67,69,71,73,75,77,79,81,83,85,87,89,91,-1,93,-1,95,-1,-1,97,99,-1,101,103,105,107,109,111,113,115,117,119,121,123,125,127,129,131,133,-1,135,137,139,141,143,145,-1,147,149,-1,151,153,155,157,-1,159,161,-1,-1,-1,163,-1,165,-1,167,169,171,173,175,177,-1,179,181,183,185,187,189,-1,191,-1,193,-1,-1,195,-1,197,-1,-1,199,201,203,205,207,209,211,213,215,-1,217,219,221,223,-1,-1,225,227,-1,229,231,-1,-1,-1,-1,-1,-1,233,-1,235,-1,-1,237,239,-1,241,-1,243,245,247,-1,-1,-1,249,251,253,255,-1,257,259,261,-1,-1,-1,-1,263,265,-1,-1,267,269,-1,271,273,275,277,279,-1,-1,281,283,-1,-1,285,-1,287,289,291,293,295,297,299,301,-1,303,305,307,309,311,313,315,317,319,-1,-1,-1,321,-1,323,-1,-1,325,327,329,331,333,335,-1,337,-1,-1,339,-1,-1,-1,-1,341,343,-1,-1,345,347,-1,349,351,353,355,-1,-1,357,359,-1,-1,361,363,-1,-1,-1,365,367,-1,-1,-1,369,371,-1,373,-1,-1,375,-1,-1,-1,377,-1,379,-1,381,383,385,387,389,391,393,395,397,399,401,403,405,407,409,-1,411,413,415,417,419,421,423,425,427,429,431,433,435,437,439,441,443,445,-1,-1,-1,-1,-1,-1,-1,-1,-1,-1,-1,-1,447,-1,-1,-1,-1,-1,-1,-1,449,451,-1,-1,-1,453,-1,-1,-1,-1,-1,-1,455,-1,-1,-1,457,-1,-1,459,461,-1,463,-1,-1,-1,465,467,-1,-1,-1,-1,-1,469,-1,-1,-1,-1,-1,-1,-1,-1,471,-1,-1,-1,-1,-1,-1,473,475,477,-1,479,-1,481,483,485,487,-1,489,491,493,495,497,-1,499,501,-1,-1,-1,-1,-1,-1,503,505,507,-1,509,-1,-1,511,513,-1,-1,-1,515,517,-1,519,-1,-1,-1,521,-1,523,525,527,-1,529,531,533,535,537,-1,539,541,543,545,547,-1,-1,-1,-1,549,551,-1,-1,-1,-1,-1,-1,-1,553,-1,-1,-1,-1,-1,-1,-1,555,557,559,-1,-1,-1,-1,561,563,-1,-1,565,567,-1,-1,-1,569,571,573,575,-1,-1,-1,577,579,581,583,-1,585,-1,-1,-1,-1,587,589,591,-1,-1,593,-1,-1,595,597,599,-1,-1,-1,-1,-1,-1,-1,-1,-1,-1,601,-1,603,605,-1,-1,-1,-1,-1,607,609,-1,611,-1,613,615,617,619,-1,-1,621,623,625,627,-1,629,631,-1,633,-1,-1,635,-1,637,-1,-1,-1,-1,-1,639,-1,641,643,-1,-1,-1,-1,-1,-1,-1,-1,645,647,-1,-1,-1,-1,649,651,653,655,657,659,-1,-1,661,663,-1,665,-1,-1,667,-1,-1,-1,-1,-1,669,-1,-1,671,673,-1,-1,-1,-1,675,-1,677,-1,-1,679,681,-1,683,685,-1,-1,-1,687,-1,689,691,-1,-1,-1,-1,693,695,-1,697,-1,-1,-1,-1,-1,699,701,-1,703,705,707,-1,709,-1,-1,-1,711,-1,713,715,-1,-1,-1,-1,-1,-1,-1,-1,717,-1,719,721,723,-1,-1,-1,725,-1,-1,-1,-1,-1,-1,-1,727,729,-1,-1,-1,-1,731,733,-1,-1,735,737,739,-1,-1,-1,-1,-1,-1,-1,741,-1,-1,-1,743,-1,745,-1,-1,-1,-1,-1,-1,-1,-1,-1,747,-1,-1,-1,-1,-1,749,-1,751,-1,-1,-1,-1,-1,753,-1,-1,-1,-1,-1,-1,-1,-1,-1,755,-1,-1,-1,-1,-1,-1,-1,757,-1,-1,-1,-1,-1,-1,759,-1,-1,-1,-1,-1,-1,-1,-1],"loss_changes":[1.9614473E3,9.5926105E2,1.2506763E2,6.144519E1,2.7616028E2,2.8582886E1,9.052734E0,2.3942627E1,7.951095E-1,3.3522455E2,1.9673313E3,6.676529E0,4.9236107E0,1.1793976E0,2.17688E0,4.05188E0,6.3549194E0,0E0,0E0,1.2936555E2,8.002605E1,1.6827832E2,1.7464377E2,2.5343628E0,2.1453094E0,1.1935712E0,1.3125892E0,8.634834E-1,4.2222595E-1,5.7294846E-1,2.0158691E0,0E0,0E0,0E0,1.9764252E0,1.3201164E1,1.5988846E1,1.2991274E1,3.9953003E0,7.440796E1,6.252765E1,1.300398E2,1.5414603E1,9.027481E-1,1.8328476E0,8.0680084E-1,4.2601967E-1,4.5870423E-1,3.58184E-1,9.0958214E-1,3.1115153E-1,0E0,4.7275543E-1,0E0,3.310089E-1,0E0,0E0,5.305481E-1,7.2216797E-1,0E0,6.3246536E-1,6.670269E0,7.492428E0,1.2591248E0,2.6882706E0,3.1750412E0,5.554533E0,1.3411522E0,3.9996338E-1,9.613524E-1,3.368164E1,9.4705915E-1,1.5657898E1,1.5357758E1,2.2356812E1,3.6983376E0,1.555536E1,0E0,4.294858E-1,6.409378E-1,5.5100536E-1,8.8666916E-1,5.83313E-1,3.6378288E-1,0E0,1.0888991E0,3.000393E-1,0E0,3.7447247E-1,5.36317E-1,4.3830776E-1,3.7869594E-1,0E0,4.856949E-1,1.2884214E0,0E0,0E0,0E0,7.043915E-1,0E0,5.187988E-1,0E0,1.2040176E0,3.0907784E0,9.4566965E-1,3.6629238E0,3.029293E0,5.5184174E-1,0E0,1.7556038E0,8.313675E-1,4.1419172E-1,9.749619E-1,6.3364816E-1,8.6808777E-1,0E0,6.094322E-1,0E0,3.503418E-1,0E0,0E0,2.5055298E1,0E0,3.2920873E-1,0E0,0E0,4.2578125E0,8.25639E0,9.8537445E0,1.3738708E0,2.9392853E0,1.9708023E0,1.8752117E0,4.811308E0,6.5343685E0,0E0,5.516116E-1,3.8952827E-1,4.3598557E-1,5.7439244E-1,0E0,0E0,3.3071172E-1,5.559387E-1,0E0,6.336684E-1,3.1580734E-1,0E0,0E0,0E0,0E0,0E0,0E0,5.279887E-1,0E0,3.5111916E-1,0E0,0E0,3.564236E-1,3.363266E-1,0E0,4.2568314E-1,0E0,3.6132812E-1,1.1443367E0,3.8586426E-1,0E0,0E0,0E0,7.695837E-1,1.2135983E0,6.659908E-1,4.9570036E-1,0E0,1.5930672E0,1.2784672E0,5.063076E-1,0E0,0E0,0E0,0E0,5.558739E-1,1.2316084E0,0E0,0E0,1.0199349E0,3.1853843E-1,0E0,3.402753E-1,4.3704987E-1,4.2648268E-1,3.1204748E-1,3.4454727E-1,0E0,0E0,3.3684692E0,1.2182617E0,0E0,0E0,1.2898743E1,0E0,1.0846081E0,3.4465065E0,3.6398087E0,3.966835E0,3.298111E-1,9.941864E-1,1.7588654E0,2.5741692E0,0E0,6.879368E-1,7.943077E-1,1.0941722E0,1.6936684E0,2.3327236E0,2.0033505E0,2.8021889E0,5.006945E-1,5.692332E-1,0E0,0E0,0E0,4.3898773E-1,0E0,3.4467196E-1,0E0,0E0,3.5290146E-1,3.591652E-1,4.9142647E-1,3.3092165E-1,3.5043E-1,5.4792976E-1,0E0,6.209271E-1,0E0,0E0,3.0095887E-1,0E0,0E0,0E0,0E0,5.495744E-1,3.8611603E-1,0E0,0E0,1.1434556E0,3.5333252E-1,0E0,3.8276672E-1,4.5574236E-1,7.752733E-1,5.9687424E-1,0E0,0E0,5.064868E-1,3.5156107E-1,0E0,0E0,4.7639275E-1,7.4822426E-1,0E0,0E0,0E0,4.1733742E-1,7.7687645E-1,0E0,0E0,0E0,3.089999E-1,8.0466276E-1,0E0,4.533887E-1,0E0,0E0,3.7166262E-1,0E0,0E0,0E0,4.0849686E-1,0E0,1.7731018E0,0E0,1.9208689E0,1.2023926E0,5.919955E-1,2.7850952E0,2.1308002E0,6.591854E-1,3.1786127E0,1.0196648E0,1.5694466E0,1.9467888E0,1.038578E0,3.2025337E0,4.4557E-1,3.6590385E-1,6.1091614E-1,0E0,1.3829193E0,1.568779E0,1.3606119E0,5.649719E-1,3.8608456E-1,3.3751774E-1,5.2300096E-1,8.8423634E-1,1.3337121E0,1.14918E0,7.116991E-1,8.019719E-1,1.4942379E0,1.0472424E0,1.7121074E0,2.034094E0,7.0338297E-1,1.752224E0,0E0,0E0,0E0,0E0,0E0,0E0,0E0,0E0,0E0,0E0,0E0,0E0,5.0904393E-1,0E0,0E0,0E0,0E0,0E0,0E0,0E0,4.5413572E-1,3.801185E-1,0E0,0E0,0E0,3.0193532E-1,0E0,0E0,0E0,0E0,0E0,0E0,5.451619E-1,0E0,0E0,0E0,3.5013342E-1,0E0,0E0,3.6428833E-1,4.2413208E-1,0E0,3.7738943E-1,0E0,0E0,0E0,6.735382E-1,5.744686E-1,0E0,0E0,0E0,0E0,0E0,3.2688785E-1,0E0,0E0,0E0,0E0,0E0,0E0,0E0,0E0,9.2684937E-1,0E0,0E0,0E0,0E0,0E0,0E0,6.490011E-1,1.1640015E0,5.6370544E-1,0E0,8.582754E-1,0E0,4.362812E-1,1.6933932E0,1.1594706E0,4.4359112E-1,0E0,4.9996662E-1,8.87722E-1,1.8449593E0,1.4800515E0,3.5625648E-1,0E0,9.5268786E-1,2.2440147E0,0E0,0E0,0E0,0E0,0E0,0E0,6.0248566E-1,8.9349365E-1,1.7537231E0,0E0,7.012644E-1,0E0,0E0,4.5675278E-1,3.9627028E-1,0E0,0E0,0E0,4.768752E-1,4.2306685E-1,0E0,3.7367558E-1,0E0,0E0,0E0,5.4929924E-1,0E0,6.3237405E-1,3.6277866E-1,4.5041972E-1,0E0,8.398676E-1,6.075661E-1,6.3316536E-1,6.5961397E-1,9.344611E-1,0E0,6.3932574E-1,7.798235E-1,9.313767E-1,6.885496E-1,8.9074135E-1,0E0,0E0,0E0,0E0,4.139771E-1,4.251716E-1,0E0,0E0,0E0,0E0,0E0,0E0,0E0,4.3955898E-1,0E0,0E0,0E0,0E0,0E0,0E0,0E0,4.7341895E-1,3.1341043E-1,3.1971955E-1,0E0,0E0,0E0,0E0,1.3366089E0,2.5390015E0,0E0,0E0,9.3134785E-1,4.98904E-1,0E0,0E0,0E0,4.179783E-1,3.5217524E-1,1.564426E0,4.0070057E-1,0E0,0E0,0E0,1.6734147E0,8.636513E-1,5.393696E-1,1.1026096E0,0E0,1.1343627E0,0E0,0E0,0E0,0E0,9.1041946E-1,8.88721E-1,6.010008E-1,0E0,0E0,7.247982E-1,0E0,0E0,3.407011E-1,5.582602E-1,6.205635E-1,0E0,0E0,0E0,0E0,0E0,0E0,0E0,0E0,0E0,0E0,5.644728E-1,0E0,4.6376702E-1,5.0152755E-1,0E0,0E0,0E0,0E0,0E0,5.7610035E-1,4.206097E-1,0E0,6.386319E-1,0E0,5.704553E-1,5.465842E-1,3.829167E-1,3.5152042E-1,0E0,0E0,7.04056E-1,6.009947E-1,3.603835E-1,3.3376855E-1,0E0,4.7290647E-1,4.7394085E-1,0E0,3.178479E-1,0E0,0E0,3.482275E-1,0E0,3.019786E-1,0E0,0E0,0E0,0E0,0E0,8.188782E-1,0E0,1.4324341E0,8.8477325E-1,0E0,0E0,0E0,0E0,0E0,0E0,0E0,0E0,4.311688E-1,1.045311E0,0E0,0E0,0E0,0E0,5.8529663E-1,4.8832703E-1,3.4644985E-1,3.8549185E-1,3.1082916E-1,7.899885E-1,0E0,0E0,1.5052643E0,8.7042236E-1,0E0,3.8768482E-1,0E0,0E0,7.399068E-1,0E0,0E0,0E0,0E0,0E0,4.3289566E-1,0E0,0E0,3.3714503E-1,3.4484422E-1,0E0,0E0,0E0,0E0,5.7769203E-1,0E0,7.1939075E-1,0E0,0E0,3.7439573E-1,5.977223E-1,0E0,3.7586695E-1,3.7997794E-1,0E0,0E0,0E0,3.7031716E-1,0E0,3.0594707E-1,3.127275E-1,0E0,0E0,0E0,0E0,3.307501E-1,3.0812722E-1,0E0,3.6044598E-1,0E0,0E0,0E0,0E0,0E0,3.2916808E-1,3.929596E-1,0E0,3.3695984E-1,6.131897E-1,1.1105156E0,0E0,4.0906715E-1,0E0,0E0,0E0,4.657402E-1,0E0,3.212862E-1,5.59433E-1,0E0,0E0,0E0,0E0,0E0,0E0,0E0,0E0,3.0154037E-1,0E0,5.384407E-1,5.563663E-1,3.9828873E-1,0E0,0E0,0E0,4.6251297E-1,0E0,0E0,0E0,0E0,0E0,0E0,0E0,3.1392413E-1,5.717137E-1,0E0,0E0,0E0,0E0,3.8591573E-1,3.0232674E-1,0E0,0E0,3.615721E-1,5.493027E-1,3.4093538E-1,0E0,0E0,0E0,0E0,0E0,0E0,0E0,3.1685638E-1,0E0,0E0,0E0,3.6177826E-1,0E0,3.5401154E-1,0E0,0E0,0E0,0E0,0E0,0E0,0E0,0E0,0E0,4.954058E-1,0E0,0E0,0E0,0E0,0E0,3.879223E-1,0E0,5.970153E-1,0E0,0E0,0E0,0E0,0E0,3.507603E-1,0E0,0E0,0E0,0E0,0E0,0E0,0E0,0E0,0E0,4.9476063E-1,0E0,0E0,0E0,0E0,0E0,0E0,0E0,3.6775494E-1,0E0,0E0,0E0,0E0,0E0,0E0,6.5130264E-1,0E0,0E0,0E0,0E0,0E0,0E0,0E0,0E0],"parents":[2147483647,0,0,1,1,2,2,3,3,4,4,5,5,6,6,7,7,8,8,9,9,10,10,11,11,12,12,13,13,14,14,15,15,16,16,19,19,20,20,21,21,22,22,23,23,24,24,25,25,26,26,27,27,28,28,29,29,30,30,34,34,35,35,36,36,37,37,38,38,39,39,40,40,41,41,42,42,43,43,44,44,45,45,46,46,47,47,48,48,49,49,50,50,52,52,54,54,57,57,58,58,60,60,61,61,62,62,63,63,64,64,65,65,66,66,67,67,68,68,69,69,70,70,71,71,72,72,73,73,74,74,75,75,76,76,78,78,79,79,80,80,81,81,82,82,83,83,85,85,86,86,88,88,89,89,90,90,91,91,93,93,94,94,98,98,100,100,102,102,103,103,104,104,105,105,106,106,107,107,109,109,110,110,111,111,112,112,113,113,114,114,116,116,118,118,121,121,123,123,126,126,127,127,128,128,129,129,130,130,131,131,132,132,133,133,134,134,136,136,137,137,138,138,139,139,142,142,143,143,145,145,146,146,153,153,155,155,158,158,159,159,161,161,163,163,164,164,165,165,169,169,170,170,171,171,172,172,174,174,175,175,176,176,181,181,182,182,185,185,186,186,188,188,189,189,190,190,191,191,192,192,195,195,196,196,199,199,201,201,202,202,203,203,204,204,205,205,206,206,207,207,208,208,210,210,211,211,212,212,213,213,214,214,215,215,216,216,217,217,218,218,222,222,224,224,227,227,228,228,229,229,230,230,231,231,232,232,234,234,237,237,242,242,243,243,246,246,247,247,249,249,250,250,251,251,252,252,255,255,256,256,259,259,260,260,264,264,265,265,269,269,270,270,272,272,275,275,279,279,281,281,283,283,284,284,285,285,286,286,287,287,288,288,289,289,290,290,291,291,292,292,293,293,294,294,295,295,296,296,297,297,299,299,300,300,301,301,302,302,303,303,304,304,305,305,306,306,307,307,308,308,309,309,310,310,311,311,312,312,313,313,314,314,315,315,316,316,329,329,337,337,338,338,342,342,349,349,353,353,356,356,357,357,359,359,363,363,364,364,370,370,379,379,386,386,387,387,388,388,390,390,392,392,393,393,394,394,395,395,397,397,398,398,399,399,400,400,401,401,403,403,404,404,411,411,412,412,413,413,415,415,418,418,419,419,423,423,424,424,426,426,430,430,432,432,433,433,434,434,436,436,437,437,438,438,439,439,440,440,442,442,443,443,444,444,445,445,446,446,451,451,452,452,460,460,468,468,469,469,470,470,475,475,476,476,479,479,480,480,484,484,485,485,486,486,487,487,491,491,492,492,493,493,494,494,496,496,501,501,502,502,503,503,506,506,509,509,510,510,511,511,522,522,524,524,525,525,531,531,532,532,534,534,536,536,537,537,538,538,539,539,542,542,543,543,544,544,545,545,547,547,548,548,550,550,553,553,555,555,561,561,563,563,564,564,573,573,574,574,579,579,580,580,581,581,582,582,583,583,584,584,587,587,588,588,590,590,593,593,599,599,602,602,603,603,608,608,610,610,613,613,614,614,616,616,617,617,621,621,623,623,624,624,629,629,630,630,632,632,638,638,639,639,641,641,642,642,643,643,645,645,649,649,651,651,652,652,661,661,663,663,664,664,665,665,669,669,677,677,678,678,683,683,684,684,687,687,688,688,689,689,697,697,701,701,703,703,713,713,719,719,721,721,727,727,737,737,745,745,752,752],"right_children":[2,4,6,8,10,12,14,16,18,20,22,24,26,28,30,32,34,-1,-1,36,38,40,42,44,46,48,50,52,54,56,58,-1,-1,-1,60,62,64,66,68,70,72,74,76,78,80,82,84,86,88,90,92,-1,94,-1,96,-1,-1,98,100,-1,102,104,106,108,110,112,114,116,118,120,122,124,126,128,130,132,134,-1,136,138,140,142,144,146,-1,148,150,-1,152,154,156,158,-1,160,162,-1,-1,-1,164,-1,166,-1,168,170,172,174,176,178,-1,180,182,184,186,188,190,-1,192,-1,194,-1,-1,196,-1,198,-1,-1,200,202,204,206,208,210,212,214,216,-1,218,220,222,224,-1,-1,226,228,-1,230,232,-1,-1,-1,-1,-1,-1,234,-1,236,-1,-1,238,240,-1,242,-1,244,246,248,-1,-1,-1,250,252,254,256,-1,258,260,262,-1,-1,-1,-1,264,266,-1,-1,268,270,-1,272,274,276,278,280,-1,-1,282,284,-1,-1,286,-1,288,290,292,294,296,298,300,302,-1,304,306,308,310,312,314,316,318,320,-1,-1,-1,322,-1,324,-1,-1,326,328,330,332,334,336,-1,338,-1,-1,340,-1,-1,-1,-1,342,344,-1,-1,346,348,-1,350,352,354,356,-1,-1,358,360,-1,-1,362,364,-1,-1,-1,366,368,-1,-1,-1,370,372,-1,374,-1,-1,376,-1,-1,-1,378,-1,380,-1,382,384,386,388,390,392,394,396,398,400,402,404,406,408,410,-1,412,414,416,418,420,422,424,426,428,430,432,434,436,438,440,442,444,446,-1,-1,-1,-1,-1,-1,-1,-1,-1,-1,-1,-1,448,-1,-1,-1,-1,-1,-1,-1,450,452,-1,-1,-1,454,-1,-1,-1,-1,-1,-1,456,-1,-1,-1,458,-1,-1,460,462,-1,464,-1,-1,-1,466,468,-1,-1,-1,-1,-1,470,-1,-1,-1,-1,-1,-1,-1,-1,472,-1,-1,-1,-1,-1,-1,474,476,478,-1,480,-1,482,484,486,488,-1,490,492,494,496,498,-1,500,502,-1,-1,-1,-1,-1,-1,504,506,508,-1,510,-1,-1,512,514,-1,-1,-1,516,518,-1,520,-1,-1,-1,522,-1,524,526,528,-1,530,532,534,536,538,-1,540,542,544,546,548,-1,-1,-1,-1,550,552,-1,-1,-1,-1,-1,-1,-1,554,-1,-1,-1,-1,-1,-1,-1,556,558,560,-1,-1,-1,-1,562,564,-1,-1,566,568,-1,-1,-1,570,572,574,576,-1,-1,-1,578,580,582,584,-1,586,-1,-1,-1,-1,588,590,592,-1,-1,594,-1,-1,596,598,600,-1,-1,-1,-1,-1,-1,-1,-1,-1,-1,602,-1,604,606,-1,-1,-1,-1,-1,608,610,-1,612,-1,614,616,618,620,-1,-1,622,624,626,628,-1,630,632,-1,634,-1,-1,636,-1,638,-1,-1,-1,-1,-1,640,-1,642,644,-1,-1,-1,-1,-1,-1,-1,-1,646,648,-1,-1,-1,-1,650,652,654,656,658,660,-1,-1,662,664,-1,666,-1,-1,668,-1,-1,-1,-1,-1,670,-1,-1,672,674,-1,-1,-1,-1,676,-1,678,-1,-1,680,682,-1,684,686,-1,-1,-1,688,-1,690,692,-1,-1,-1,-1,694,696,-1,698,-1,-1,-1,-1,-1,700,702,-1,704,706,708,-1,710,-1,-1,-1,712,-1,714,716,-1,-1,-1,-1,-1,-1,-1,-1,718,-1,720,722,724,-1,-1,-1,726,-1,-1,-1,-1,-1,-1,-1,728,730,-1,-1,-1,-1,732,734,-1,-1,736,738,740,-1,-1,-1,-1,-1,-1,-1,742,-1,-1,-1,744,-1,746,-1,-1,-1,-1,-1,-1,-1,-1,-1,748,-1,-1,-1,-1,-1,750,-1,752,-1,-1,-1,-1,-1,754,-1,-1,-1,-1,-1,-1,-1,-1,-1,756,-1,-1,-1,-1,-1,-1,-1,758,-1,-1,-1,-1,-1,-1,760,-1,-1,-1,-1,-1,-1,-1,-1],"split_conditions":[6.808544E0,-9.714604E1,7.01127E-1,-2.00476E0,-8.953848E1,-1.067325E0,7.59854E0,-9.864785E1,-1.789144E0,-9.46016E1,2.156682E0,7.4341984E0,4.70969E-1,7.3301215E0,5.4531E-1,3.46385E-1,-9.788207E1,-5.739518E-2,-2.0981193E-2,6.57967E-1,6.90794E-1,8.506916E-1,4.037362E0,4.969012E0,-1.957884E0,4.1492E-1,-9.28083E-1,1.22618E0,7.015E-1,2.036531E0,-3.908E-1,-1.658455E-1,-2.0665684E-1,-1.5074196E-1,-3.578745E-1,7.21782E-1,-9.6349785E1,1.205371E0,7.41706E-1,7.77308E-1,3.35163E-1,6.03421E-1,5.21549E-1,5.34966E-1,-1.164829E0,5.377102E0,-1.747063E0,-1.038678E0,6.3962026E0,-2.29228E-1,-1.80603E-1,-1.1221047E-2,7.04932E-1,7.6453597E-3,-3.38436E-1,1.9405019E-2,2.9203592E-2,5.390589E0,5.4651155E0,-1.2951657E-1,1.627E-2,-9.515256E1,-9.590507E1,3.09884E-1,-9.5777275E1,4.57737E-1,-9.407486E1,-9.2307724E1,-1.257222E0,2.76729E-1,1.596656E0,2.888E-1,1.2818859E0,-1.91005E-2,2.7907202E0,3.78776E-1,4.421361E0,-5.8634188E-2,6.37006E-1,-2.971025E-1,-2.42085E-1,2.449E-1,2.62354E-1,3.7134E-1,-1.074133E-2,-9.23037E-1,5.40144E-1,-1.6700402E-2,5.82705E-1,8.3759E-2,8.30498E-1,-9.50156E-1,7.747548E-3,5.63927E-1,1.74156E-1,2.2765787E-2,2.8572371E-2,2.6988974E-2,1.614866E0,3.2357078E-2,-5.96032E-1,-1.2419555E-1,2.429559E0,4.4877E-1,-9.488205E1,-1.053623E0,-9.296279E1,-2.6706E-1,-1.0140588E-1,3.368E-3,1.45775E-1,3.32472E-1,5.18514E-1,-9.438669E1,-1.104033E0,-1.7280344E-2,-9.386171E1,2.529181E-2,7.7476E-1,-7.029053E-3,-5.1228292E-2,3.3733806E-1,3.569239E-2,9.987924E-1,-2.5874464E-2,-1.2984072E-1,-7.18031E-1,2.878748E0,5.1713E-1,5.5939E-2,1.40121E-1,-7.6314E-1,5.12499E-1,1.73021E-1,2.4965E-2,1.308456E-2,1.13227E-1,5.622E-1,5.57945E-1,1.090234E0,1.4709416E-2,2.3205467E-2,7.6674814E0,4.86894E-1,6.8917277E-4,-2.062953E0,-2.9293E-1,7.79382E-3,-6.1884113E-2,-1.7451983E-2,1.6402882E-2,-2.1426666E-3,-2.7541284E-2,1.106038E0,2.879687E-2,8.76274E-1,1.1269654E-2,7.37426E-3,-1.6876324E0,2.046428E0,3.0234685E-2,-1.535522E0,2.1330297E-2,7.626253E0,-3.92824E-1,2.050333E0,3.1674217E-2,-1.8590821E-2,-9.183978E-2,-9.5777275E1,-9.59176E1,5.58101E-1,3.04583E-1,-4.3943565E-2,-2.52957E-1,-2.6558E-2,-9.482259E1,-8.036849E-2,-2.5402427E-2,-9.831616E-2,-5.6246866E-2,-3.86594E-1,-2.858E-1,-2.0739032E-2,-9.703891E-3,-4.4859E-1,5.84455E-1,2.5972265E-3,6.43112E-1,-9.3852936E1,-1.36076E-1,-9.4651726E1,3.9209E-1,3.0549487E-2,3.502007E-2,1.21488E-1,4.39615E-1,-2.5697146E-2,-2.0758181E-3,5.0538E-1,-1.3505132E-1,5.14024E-1,5.18595E-1,3.348797E0,4.8250294E0,6.34856E-1,8.18994E-1,6.54564E-1,6.69203E-1,-9.6485905E-2,-4.64306E-1,-2.218E-3,5.95244E-1,1.01973E-1,6.878E-3,7.6406E-1,4.6730723E0,-9.417415E-1,-2.90481E-1,1.9336939E-4,1.6572002E-2,-1.314621E-3,7.3302E-2,9.491163E-3,-1.923378E0,-2.2691166E-2,8.204499E-3,1.28813E0,6.07519E-1,7.231E-2,5.8679E-1,-1.861065E0,9.589E-1,1.5323798E-2,5.2706E-1,6.2416852E-3,-1.1560459E-2,-1.012622E0,-1.9131099E-4,2.0577798E-2,-1.0333854E-2,2.1788185E-2,1.95577E-1,-9.84555E-1,3.5511274E-2,2.8780926E-2,1.596656E0,1.028808E1,3.2319583E-2,2.9335E-1,-6.78509E-1,5.4128E-1,3.9423E-1,-5.8670174E-3,-1.1655454E-2,-6.88198E-1,1.1599E0,-1.1128395E-1,-2.2641474E-2,-9.497819E1,-9.5092445E1,-2.0728547E-2,-2.0640779E-3,-1.7970627E-2,6.14624E-1,-9.4711784E1,2.3647523E-2,-3.9878797E-2,-1.422194E-3,-1.675E-2,6.28479E-1,3.4125585E-3,-2.93907E-1,1.5619797E-2,2.0999113E-2,1.56748E-1,-2.0002836E-2,-2.260133E-2,1.9375157E-2,-1.248516E0,9.003285E-3,-7.328195E-1,-2.3107648E-1,4.5451E-1,1.2740383E-1,1.1425E-2,7.6322E-1,-7.22774E-1,-8.40366E-1,4.12853E-1,-1.630375E0,3.09715E-1,-6.1191E-1,1.34446E-1,-5.95961E-1,5.7053E-1,-5.19641E-1,2.4386737E0,-1.0431864E-1,5.552192E0,-8.82641E-1,5.5961E-1,-1.071186E0,1.4946E-1,6.137701E0,4.2582703E0,4.41624E-1,2.57175E-1,-4.53072E-1,-3.2899E-1,4.2706428E0,5.40514E-1,6.9683E-1,-2.30807E-1,-4.0333E-2,-2.74884E-1,5.5926E-1,-3.1463243E-2,2.0352162E-3,2.0967003E-2,5.5841487E-3,1.663158E-2,2.162195E-2,4.3547233E-3,-3.0441418E-2,-3.488951E-3,2.5527302E-2,2.9800734E-3,3.0547172E-2,1.9308E-1,1.20025445E-2,-1.7045684E-3,1.9436304E-2,1.6372485E-2,-1.47797465E-2,2.1900771E-2,-1.679622E-2,1.87156E-1,9.87586E-1,-2.5179071E-2,1.2651746E-2,1.3088918E-2,6.987503E0,2.896419E-2,3.3347365E-2,-8.14772E-2,1.856373E-2,3.596278E-2,4.0445857E-2,-1.180272E0,-1.6594553E-2,-9.239627E-3,-2.404443E-2,5.02629E-1,-8.440395E-2,-7.5117014E-2,5.14024E-1,2.5736E-2,-1.3873291E-2,-4.05868E-1,-5.816701E-3,4.1674855E-3,-6.3552335E-2,-3.38436E-1,3.66557E-1,-3.316722E-2,-5.505356E-2,-3.7529267E-2,1.113987E-2,-1.5570793E-3,-9.428449E1,-5.744005E-2,3.9636823E-3,5.6565576E-3,1.20535E-2,1.2375179E-2,2.2920772E-2,2.8734747E-2,2.0543583E-2,-6.0538E-2,-7.228284E-2,2.0452976E-2,-1.0926396E-1,-1.6744755E-1,-1.5045103E-1,-1.6015036E-2,1.5591434E0,-1.91005E-2,3.3020246E0,-2.4133716E-2,4.8291E-1,-3.9002884E-2,6.71422E-1,-2.75565E-1,2.71275E-2,-8.50705E-1,-7.00929E-2,2.69723E-1,3.78776E-1,5.10023E-1,4.41606E-1,8.156E-2,1.1650825E-2,-2.6854E-1,3.832036E0,-7.6335795E-2,-2.4619265E-2,-1.0689813E-1,-6.2327266E-2,-7.1361214E-2,-6.0489357E-2,3.4291E-2,-1.347158E0,-1.90682E-1,-1.0426424E-1,-9.27014E-1,2.7736416E-2,1.8766213E-2,-9.50072E-1,2.233685E-1,6.0493867E-3,-1.9663732E-2,2.3831917E-2,-9.48647E-1,-2.09339E-1,-7.0659365E-3,-1.504939E0,-6.582731E-3,-6.346367E-2,-6.709569E-2,4.5504546E0,-1.1458572E-2,1E-2,1.9647E-2,6.22974E-1,-1.533171E-2,-1.05794E0,4.20693E0,6.8942633E0,4.24395E-1,2.276E-3,-5.6838103E-2,6.5706E-1,-7.0462E-1,6.41248E-1,6.34301E-1,-2.82803E-1,-2.923584E-3,-5.3910404E-2,2.9393323E-3,-1.9717647E-2,5.05134E-1,5.01474E-1,1.0893154E-2,-3.836788E-2,1.0992177E-2,-2.1038573E-2,-4.734802E-4,-3.088363E-2,-1.641821E-2,-1.02401E0,-6.631688E-3,-1.2687931E-4,-3.9032333E-2,-1.179372E-2,-2.1633962E-2,-3.4074422E-2,-6.388545E-2,3.2215E-2,-3.97453E-1,-2.47822E-1,-2.2851048E-1,-1.7553037E-1,-8.883829E-2,-2.8390734E-2,2.71959E-1,-5.45433E-1,-1.181073E-1,-9.6854456E-2,2.2759445E0,1.12408E-1,-9.544199E-2,-1.2692082E-2,-4.006809E-3,-7.25946E-1,1.1542E-1,-7.55778E-1,2.970121E0,-9.13643E-3,-4.837452E-4,-1.2083578E-2,5.5939E-2,-8.18931E-1,3.7222989E0,2.7944E-2,-2.0394396E-2,5.20907E-1,-2.2101482E-2,-4.7084134E-2,-2.5597597E-2,3.0032758E-2,5.9074E-2,1.5503E-2,4.1443E-1,-4.4652652E-2,1.3740308E-2,-2.64285E-1,-5.6444254E-2,3.3365488E-3,1.4614565E0,4.4056144E0,-2.0559E-1,-8.166399E-2,-9.592224E-3,-1.6740365E-2,-4.8739906E-2,-1.5341367E-2,-1.0364734E-2,-2.6183228E-3,-6.425019E-3,-1.9037996E-3,-2.6526852E-2,-6.57641E-1,-6.8122344E-3,4.160028E0,1.08207E0,-8.321862E-3,-4.6412395E-3,2.099431E-2,1.2076235E-2,-4.9147457E-2,5.77369E-1,-6.51699E-1,-4.9132753E-2,2.299E-1,-5.1957827E-2,-2.6854E-1,5.821059E0,-3.39679E-1,5.643314E0,1.3545147E-2,2.7553087E-2,9.63913E-1,5.89167E-1,6.81206E-1,-2.75565E-1,-3.3509057E-2,8.38249E-1,6.00467E-1,-1.4055296E-3,6.56161E-1,-1.7769076E-2,1.2052788E-2,-9.542182E1,-2.7173525E-2,5.38963E-1,-1.3532358E-2,6.0676486E-4,7.463582E-3,2.061167E-3,8.733029E-3,2.820353E0,-4.503429E-2,1.67496E-1,3.96493E-1,1.9136191E-3,-9.610563E-2,-5.8857604E-5,-5.4035284E-2,-1.3544905E-2,-9.816655E-2,-1.1401354E-2,-2.019759E-2,-1.78151E-1,3.7279E-2,-5.296928E-3,-4.498372E-2,-6.292079E-2,-1.8136706E-2,9.0471E-1,3.097809E0,5.0146E-2,-5.41194E-1,4.79433E-1,-2.50072E-1,-7.912281E-2,2.7865728E-3,5.43708E-1,-2.54428E-1,-3.166562E-2,2.22243E-1,-7.903362E-3,-6.88528E-2,3.9991062E0,-4.490031E-2,1.7395735E-2,-2.8773341E-2,-3.9639127E-2,9.560848E-3,1.71139E-1,2.1367097E-2,-4.7422186E-3,-8.64167E-1,5.46398E-1,1.3882037E-3,-1.1839285E-2,-2.8695052E-2,-5.982481E-3,1.19278E-1,2.2560272E-2,6.79346E-1,9.964204E-4,-3.9169442E-2,1.27982E-1,1.268E-3,-3.4136456E-3,1.459956E0,1.52924E-1,-9.4055414E-4,-1.976402E-2,-3.4498845E-3,7.09979E-1,-3.797791E-2,3.7747E-2,4.6112213E0,8.302848E-3,2.3960805E-2,-9.6147554E-4,5.1097744E-3,1.760625E-1,4.76184E-1,5.6711067E-3,6.02512E-1,1.06390575E-2,-1.5642997E-2,-2.3166217E-2,-1.43102305E-2,-1.2438334E-2,-9.321109E1,-8.13464E-1,-1.0798836E-2,2.4961061E0,-2.21359E-1,5.5513E-1,-4.7116585E-2,3.4736E-2,1.0361123E-2,-9.177493E-2,-2.485252E-2,4.5927E-2,-6.7222446E-2,-1.1189E-2,-2.01536E-1,-1.2237798E-2,-8.310503E-3,-6.081313E-3,-1.7686484E-2,-1.4153182E-2,-1.8770693E-2,-1.1874846E-2,-2.4011843E-3,-1.04016E0,-3.602282E-2,3.6672192E0,4.8268313E0,-2.37358E-1,-2.3558596E-2,-3.3730872E-2,-4.302844E-3,7.69745E-1,-4.56585E-2,-6.1069585E-2,-9.602738E-3,1.7710988E-3,-5.655923E-3,-3.0691637E-2,-8.163839E-3,7.25425E-1,1.83315E-1,-2.1159386E-3,-1.4091914E-2,-7.6302923E-3,2.3366241E-5,-8.83882E-1,-1.72987E-1,6.8171867E-3,-5.7168766E-3,6.02258E-1,6.6952E-1,-1.079934E0,3.835762E-3,-4.062862E-2,4.2402907E-3,1.3620924E-3,8.496038E-3,-1.741628E-2,4.1415435E-3,4.965806E0,-2.3259616E-2,-1.0203342E-2,-4.198117E-2,1.2842396E0,-2.2297025E-2,6.57967E-1,-9.417584E-2,-8.426548E-2,-1.7561467E-2,-4.6419125E-2,-8.303402E-2,-1.3276162E-2,-3.6043763E-2,-2.5317824E-2,-1.8131029E-2,4.932675E-1,-1.7861934E-2,-1.425152E-2,6.3727684E-3,-7.68865E-3,-2.3633106E-2,7.43006E-1,-1.680656E-2,3.9412057E0,-2.8655676E-2,-1.3230005E-2,7.4182183E-4,-3.562924E-2,1.897037E-2,5.29858E-1,9.62348E-4,1.1731327E-2,-3.268698E-2,-2.5657574E-2,-1.2526393E-3,1.2039046E-3,8.574254E-3,-3.8596026E-3,3.4653877E-3,6.59798E-1,9.818842E-3,-4.2915203E-2,-1.2700822E-3,1.1273219E-2,1.5662167E-2,-2.359872E-2,-1.1659485E-1,-2.02875E-1,-1.2026248E-1,-5.659599E-2,-1.9478874E-2,-2.6105283E-2,4.291477E-3,-2.7541501E-2,3.61583E-1,-2.791777E-3,-2.0937528E-2,-4.4336873E-3,-2.7426276E-2,-8.8913865E-2,-1.2048281E-2,-7.382754E-3,2.1597816E-2],"split_indices":[3,8,42,73,0,13,3,8,73,8,8,3,42,3,63,68,8,0,0,57,42,8,11,8,24,43,14,36,43,38,48,0,0,0,72,19,8,36,42,36,57,57,43,42,13,11,70,25,4,48,48,0,57,0,48,0,0,11,11,0,33,11,11,71,8,43,8,3,15,12,12,42,8,33,8,43,11,0,57,48,48,68,29,65,0,13,18,0,57,29,60,13,0,63,33,0,0,0,64,0,15,0,38,57,8,13,3,72,0,33,33,43,42,8,14,0,11,0,42,0,0,0,0,0,0,0,55,8,57,33,33,14,57,71,33,0,33,57,42,54,0,0,10,65,0,31,48,0,0,0,0,0,0,44,0,58,0,0,75,47,0,14,0,0,48,58,0,0,0,8,8,19,65,0,72,33,8,0,0,0,0,48,48,0,0,15,57,0,43,8,72,11,71,0,0,29,57,0,0,57,0,57,57,8,10,57,42,57,57,0,14,33,22,68,33,19,8,55,72,0,0,0,33,0,24,0,0,44,20,33,43,23,22,0,57,0,0,25,0,0,0,0,68,15,0,0,12,10,0,43,55,64,42,0,0,55,36,0,0,0,11,0,0,0,20,8,0,0,0,33,12,0,48,0,0,29,0,0,0,14,0,14,0,12,8,29,42,55,55,42,70,19,55,33,27,20,15,8,0,10,55,63,15,33,0,8,42,65,15,48,11,57,57,48,33,48,42,0,0,0,0,0,0,0,0,0,0,0,0,68,0,0,0,0,0,0,0,76,60,0,0,0,10,0,0,0,0,0,0,75,0,0,0,43,0,0,57,33,0,15,0,0,0,48,42,0,0,0,0,0,11,0,0,0,0,0,0,0,0,33,0,0,0,0,0,0,8,33,5,0,43,0,12,48,29,13,0,42,43,19,12,68,0,48,11,0,0,0,0,0,0,33,14,48,0,55,0,0,55,63,0,0,0,25,48,0,75,0,0,0,11,0,33,33,64,0,55,11,10,42,33,0,42,27,43,18,48,0,0,0,0,20,63,0,0,0,0,0,0,0,13,0,0,0,0,0,0,0,33,27,48,0,0,0,0,76,15,0,0,0,71,0,0,0,13,71,13,11,0,0,0,33,55,8,33,0,12,0,0,0,0,33,33,20,0,0,48,0,0,36,4,48,0,0,0,0,0,0,0,0,0,0,55,0,11,56,0,0,0,0,0,57,15,0,71,0,48,5,15,0,0,0,22,57,42,48,0,22,43,0,43,0,0,8,0,57,0,0,0,0,0,0,0,33,65,0,0,0,0,0,0,0,0,48,29,0,0,0,0,58,8,33,13,57,48,0,0,57,48,0,76,0,0,8,0,0,0,0,0,68,0,0,14,22,0,0,0,0,33,0,42,0,0,71,33,0,38,68,0,0,0,19,0,33,11,0,0,0,0,76,63,0,20,0,0,0,0,0,3,13,0,0,72,57,0,29,0,0,0,33,0,33,48,0,0,0,0,0,0,0,0,14,0,8,5,48,0,0,0,18,0,0,0,0,0,0,0,19,71,0,0,0,0,13,48,0,0,43,64,13,0,0,0,0,0,0,0,11,0,0,0,11,0,57,0,0,0,0,0,0,0,0,0,12,0,0,0,0,0,12,0,0,0,0,0,0,0,57,0,0,0,0,0,0,0,0,0,57,0,0,0,0,0,0,0,48,0,0,0,0,0,0,65,0,0,0,0,0,0,0,0],"split_type":[0,0,0,0,0,0,0,0,0,0,0,0,0,0,0,0,0,0,0,0,0,0,0,0,0,0,0,0,0,0,0,0,0,0,0,0,0,0,0,0,0,0,0,0,0,0,0,0,0,0,0,0,0,0,0,0,0,0,0,0,0,0,0,0,0,0,0,0,0,0,0,0,0,0,0,0,0,0,0,0,0,0,0,0,0,0,0,0,0,0,0,0,0,0,0,0,0,0,0,0,0,0,0,0,0,0,0,0,0,0,0,0,0,0,0,0,0,0,0,0,0,0,0,0,0,0,0,0,0,0,0,0,0,0,0,0,0,0,0,0,0,0,0,0,0,0,0,0,0,0,0,0,0,0,0,0,0,0,0,0,0,0,0,0,0,0,0,0,0,0,0,0,0,0,0,0,0,0,0,0,0,0,0,0,0,0,0,0,0,0,0,0,0,0,0,0,0,0,0,0,0,0,0,0,0,0,0,0,0,0,0,0,0,0,0,0,0,0,0,0,0,0,0,0,0,0,0,0,0,0,0,0,0,0,0,0,0,0,0,0,0,0,0,0,0,0,0,0,0,0,0,0,0,0,0,0,0,0,0,0,0,0,0,0,0,0,0,0,0,0,0,0,0,0,0,0,0,0,0,0,0,0,0,0,0,0,0,0,0,0,0,0,0,0,0,0,0,0,0,0,0,0,0,0,0,0,0,0,0,0,0,0,0,0,0,0,0,0,0,0,0,0,0,0,0,0,0,0,0,0,0,0,0,0,0,0,0,0,0,0,0,0,0,0,0,0,0,0,0,0,0,0,0,0,0,0,0,0,0,0,0,0,0,0,0,0,0,0,0,0,0,0,0,0,0,0,0,0,0,0,0,0,0,0,0,0,0,0,0,0,0,0,0,0,0,0,0,0,0,0,0,0,0,0,0,0,0,0,0,0,0,0,0,0,0,0,0,0,0,0,0,0,0,0,0,0,0,0,0,0,0,0,0,0,0,0,0,0,0,0,0,0,0,0,0,0,0,0,0,0,0,0,0,0,0,0,0,0,0,0,0,0,0,0,0,0,0,0,0,0,0,0,0,0,0,0,0,0,0,0,0,0,0,0,0,0,0,0,0,0,0,0,0,0,0,0,0,0,0,0,0,0,0,0,0,0,0,0,0,0,0,0,0,0,0,0,0,0,0,0,0,0,0,0,0,0,0,0,0,0,0,0,0,0,0,0,0,0,0,0,0,0,0,0,0,0,0,0,0,0,0,0,0,0,0,0,0,0,0,0,0,0,0,0,0,0,0,0,0,0,0,0,0,0,0,0,0,0,0,0,0,0,0,0,0,0,0,0,0,0,0,0,0,0,0,0,0,0,0,0,0,0,0,0,0,0,0,0,0,0,0,0,0,0,0,0,0,0,0,0,0,0,0,0,0,0,0,0,0,0,0,0,0,0,0,0,0,0,0,0,0,0,0,0,0,0,0,0,0,0,0,0,0,0,0,0,0,0,0,0,0,0,0,0,0,0,0,0,0,0,0,0,0,0,0,0,0,0,0,0,0,0,0,0,0,0,0,0,0,0,0,0,0,0,0,0,0,0,0,0,0,0,0,0,0,0,0,0,0,0,0,0,0,0,0,0,0,0,0,0,0,0,0,0,0,0,0,0,0,0,0,0,0,0,0,0,0,0,0,0,0,0,0,0,0,0,0,0,0,0,0,0,0,0,0,0,0,0,0,0,0],"sum_hessian":[4.8439E4,3.0832E4,1.7607E4,5.69E2,3.0263E4,6.461E3,1.1146E4,5.26E2,4.3E1,1.0031E4,2.0232E4,4.769E3,1.692E3,1.134E3,1.0012E4,1.82E2,3.44E2,7E0,3.6E1,4.348E3,5.683E3,1.71E3,1.8522E4,2.732E3,2.037E3,2.77E2,1.415E3,4.2E2,7.14E2,5.95E2,9.417E3,1.08E2,7.4E1,1.82E2,1.62E2,3.785E3,5.63E2,3.419E3,2.264E3,7.56E2,9.54E2,7.753E3,1.0769E4,3.83E2,2.349E3,1.253E3,7.84E2,6.1E1,2.16E2,1.001E3,4.14E2,8E0,4.12E2,1.2E1,7.02E2,7.7E1,5.18E2,2.481E3,6.936E3,1.07E2,5.5E1,3.298E3,4.87E2,2.33E2,3.3E2,1.438E3,1.981E3,6.1E2,1.654E3,3.5E1,7.21E2,9.4E1,8.6E2,6.562E3,1.191E3,3.079E3,7.69E3,1E0,3.82E2,1.703E3,6.46E2,2.34E2,1.019E3,7.8E2,4E0,9E0,5.2E1,2E1,1.96E2,2.4E2,7.61E2,3.38E2,7.6E1,3.63E2,4.9E1,1.53E2,5.49E2,2.42E2,2.239E3,8.78E2,6.058E3,1.5E1,4E1,1.68E3,1.618E3,6.4E1,4.23E2,1.8E2,5.3E1,1.58E2,1.72E2,1.65E2,1.273E3,8.78E2,1.103E3,7E0,6.03E2,6.6E1,1.588E3,3E1,5E0,7.13E2,8E0,4.5E1,4.9E1,1.75E2,6.85E2,4E2,6.162E3,4.31E2,7.6E2,5.51E2,2.528E3,2.397E3,5.293E3,1.54E2,2.28E2,4.92E2,1.211E3,1.77E2,4.69E2,2.05E2,2.9E1,1.011E3,8E0,1.03E2,6.77E2,3E0,6E0,5E1,2E0,1.91E2,5E0,2.33E2,7E0,8.8E1,6.73E2,6.7E1,2.71E2,2.99E2,6.4E1,1.4E1,3.5E1,1.834E3,4.05E2,5.68E3,3.78E2,3E0,3.7E1,9.62E2,7.18E2,8.09E2,8.09E2,4.6E1,1.8E1,3.42E2,8.1E1,1.77E2,3E0,1.2E1,1.46E2,8.7E1,8.5E1,5E1,1.15E2,4.84E2,7.89E2,2.94E2,5.84E2,7.17E2,3.86E2,1.47E2,4.56E2,2.84E2,1.304E3,1.54E2,5.59E2,6E0,3.9E1,6.55E2,3E1,7E1,3.3E2,4.934E3,1.228E3,7E1,3.61E2,3.82E2,3.78E2,2E0,5.49E2,2.419E3,1.09E2,2.093E3,3.04E2,1.844E3,3.449E3,1.8E1,2.1E2,1.5E1,4.77E2,9E0,1.202E3,1.67E2,1E1,3E0,2.6E1,4.91E2,5.2E2,1.7E1,8.6E1,1.06E2,5.71E2,2.7E1,2.06E2,7.6E1,1.2E1,1.1E1,2.6E2,2.96E2,3E0,2E0,1.2E1,1.232E3,6.02E2,4.02E2,3E0,5.312E3,3.68E2,3.37E2,6.25E2,8.8E1,6.3E2,3.69E2,4.4E2,5.67E2,2.42E2,1.5E1,3E0,1.3E1,3.29E2,1.8E1,6.3E1,7E0,8E1,8.2E1,3E0,6E0,4.78E2,7.8E2,9E0,1.16E2,4.68E2,2.51E2,4.66E2,3.83E2,3E0,1E0,1.46E2,4.44E2,1.2E1,9.7E1,5.7E1,8E0,5.51E2,3E1,6.25E2,4.4E1,2.6E1,2.61E2,6.9E1,1.653E3,3.281E3,9.1E1,1.137E3,4E1,3E1,3.52E2,9E0,2.49E2,1.33E2,1.57E2,2.21E2,3.43E2,2.06E2,4.02E2,2.017E3,1.7E1,9.2E1,1.158E3,9.35E2,6.9E1,2.35E2,1.767E3,7.7E1,1.31E3,2.139E3,6E0,1.2E1,2.7E1,1.83E2,2.41E2,9.61E2,5E0,5E0,4E0,4.87E2,5E0,5.15E2,8E0,9E0,8E0,7.8E1,1.03E2,3E0,5.68E2,3E0,3.6E1,1.7E2,9E0,2E0,3E0,9E0,3.58E2,8.74E2,1E0,2E0,5.06E3,2.52E2,2E1,3.17E2,6.04E2,2.1E1,8.6E1,2E0,1E0,6.29E2,5.31E2,3.6E1,5.6E1,1.86E2,1E0,1.2E1,2.2E2,1.09E2,1.7E1,6.3E1,7.9E1,3E0,9E1,6.9E2,2E0,7E0,1.88E2,2.8E2,3.45E2,3.8E1,3.55E2,8.9E1,9.4E1,3E0,1E0,7E0,1.95E2,3.56E2,1.9E1,1.1E1,4.69E2,1.56E2,1.7E1,2.7E1,5E0,2.1E1,1.2E1,2.49E2,5.2E1,1.7E1,3.69E2,1.284E3,3.238E3,4.3E1,8.8E1,3E0,1.8E1,1.119E3,3.7E1,3E0,2.2E1,8E0,1.66E2,1.86E2,8.5E1,1.64E2,1.26E2,7E0,1.53E2,4E0,1E0,2.2E2,3.32E2,1.1E1,2.05E2,1E0,5.7E1,3.45E2,9.16E2,1.101E3,7E0,1E1,3E0,8.9E1,7.1E1,1.087E3,5.26E2,4.09E2,2.8E1,4.1E1,2.09E2,2.6E1,5.53E2,1.214E3,1E1,6.7E1,5.66E2,7.44E2,5.39E2,1.6E3,6E0,2E0,1.4E1,2.2E1,1.49E2,2.1E1,1E0,8E0,1.2E1,8E0,4E0,8.2E1,3.39E2,2.9E2,1.33E2,3.98E2,5E0,5.1E1,7.3E1,1.47E2,2E0,1.07E2,3.4E2,3.5E2,1.9E1,7.5E1,2E0,9E0,6.3E1,4.06E2,8.8E1,6.8E1,1.4E1,1.3E1,2E1,1E0,3E0,9E0,2E2,4.9E1,4.7E1,5E0,4.2E1,3.27E2,3.9E1,1.245E3,1.786E3,1.452E3,3.3E1,1E1,9E0,7.9E1,3E0,1.5E1,7.71E2,3.48E2,3.2E1,5.3E1,3E0,1.61E2,1.21E2,5E0,1.42E2,1.1E1,2.17E2,3E0,1.97E2,1.35E2,4E0,5.3E1,2.45E2,1E2,2.31E2,8.7E2,1.9E1,7E1,1.68E2,9.19E2,1.64E2,3.62E2,4.03E2,6E0,2E0,3.9E1,8.4E1,1.25E2,1.1E1,1.5E1,2E0,5.51E2,6.93E2,5.21E2,5.8E1,9E0,9E0,5.57E2,4.77E2,2.67E2,5.35E2,4E0,3.73E2,1.227E3,6E1,8.9E1,1.5E1,6E0,1.94E2,9.6E1,3.1E1,7.6E1,2.5E2,9E1,1.02E2,2.48E2,5.8E1,5E0,2.88E2,1.18E2,1E0,1.3E1,2E0,1.1E1,1E0,8E0,8.3E1,1.17E2,3.8E1,1.1E1,3E0,4.4E1,1.2E1,2.7E1,4.07E2,8.38E2,9.42E2,8.44E2,6.35E2,8.17E2,8E0,2E0,3.5E2,4.21E2,2.9E1,3.19E2,2E0,3E1,8.4E1,7.7E1,1E0,1.41E2,2E0,9E0,2.16E2,1E0,6.5E1,5E0,2.95E2,6.24E2,1.44E2,2E1,3.1E1,5.3E1,4E0,1.21E2,9E0,6E0,1.28E2,4.23E2,3.72E2,3.21E2,4.26E2,9.5E1,3.7E1,2.1E1,5.53E2,4E0,4.71E2,6E0,2.52E2,1.5E1,1.15E2,4.2E2,3.48E2,2.5E1,1.33E2,1.094E3,8.5E1,4E0,9E1,1.04E2,1E1,2.1E1,5.7E1,1E0,1.73E2,1.15E2,1.02E2,1.6E1,3.5E1,3E0,6E0,5E0,4.05E2,2E0,3.61E2,4.77E2,4.03E2,5.39E2,8.15E2,2.9E1,3.43E2,2.92E2,7.16E2,1.01E2,1.93E2,1.57E2,3.72E2,4.9E1,2.85E2,3.4E1,7.4E1,1E1,7.9E1,1.37E2,2E0,3E0,8.9E1,2.06E2,3.5E1,1.8E1,1.03E2,1.8E1,3.7E1,9.1E1,1.7E2,2.53E2,9.5E1,2.26E2,4.01E2,2.5E1,3.57E2,1.96E2,1.23E2,3.48E2,4E0,2E0,8.7E1,2.61E2,1.3E1,1.2E1,1.092E3,2E0,5E0,1.6E1,5.6E1,1E0,6.4E1,1.09E2,1.13E2,2E0,1.4E1,8.8E1,1.6E1,1.9E1,1.68E2,2.37E2,1.9E1,3.42E2,4.64E2,1.3E1,1.4E1,1.79E2,2.67E2,1.05E2,3.9E1,1E1,2.63E2,2.2E1,7.8E1,1E0,4.4E1,5.9E1,3E0,1.5E1,6E0,8.9E1,1.28E2,9.8E1,8.9E1,2.68E2,1.71E2,2.5E1,1E0,1.22E2,8.79E2,2.13E2,1E0,5.5E1,1.7E1,4.7E1,5E0,1.4E1,2.63E2,4E0,7E0,3.2E1,2.7E1,1.7E1,1.62E2,9E0,1.6E1,1E0,2.1E1,1.1E1],"tree_param":{"num_deleted":"0","num_feature":"78","num_nodes":"761","size_leaf_vector":"1"}},{"base_weights":[-3.325503E-4,-1.3889179E-1,2.3826872E-1,-1.2954341E0,-1.1696839E-1,1.3769539E-1,2.952086E-1,-2.5449008E-1,-1.3798859E0,6.718561E-3,-1.7885539E-1,1.725854E-1,5.3638957E-2,1.9204426E-1,3.0343685E-1,-1.6070865E-2,-4.4397112E-2,-1.6533351E0,-1.2308394E0,-1.8152311E-1,1.5077211E-1,-1.099905E0,-9.284417E-2,1.074362E-1,1.9006063E-1,7.808333E-2,-2.703825E-2,8.090168E-2,2.0916113E-1,2.619475E-1,3.0821407E-1,-1.8296949E0,-1.446509E0,-1.3170766E0,-1.0063875E0,-1.22944705E-1,-5.842392E-1,4.3688845E-2,2.578777E-1,-1.4161929E0,-8.4771013E-1,-1.9590904E-1,-2.046434E-2,8.927485E-2,2.1641551E-1,1.4567268E-1,2.0834649E-1,2.916339E-2,1.05983265E-1,1.2347959E-3,-1.3254343E-1,-2.4339838E-2,9.801085E-3,-1.0302973E-2,2.105931E-2,2.752835E-2,2.2577845E-2,3.112082E-1,2.57657E-1,-1.9476311E-1,-1.3498324E0,-5.3147264E-2,-1.4614354E-1,-1.4017992E-1,-1.1815661E0,-8.0496335E-1,-1.17683746E-1,-1.0123897E-1,-2.6657456E-1,-7.6949465E-1,-4.4344878E-1,-2.9182538E-2,7.839925E-2,1.7235349E-1,2.8886113E-1,-1.3293582E-1,-1.4781307E0,-1.3924916E-1,-9.2216694E-1,-4.347405E-1,-1.4599714E-1,-6.1620742E-2,2.3126652E-2,-1.3417925E-1,9.611201E-2,-5.893906E-3,2.4092217E-1,1.4895785E-1,-1.2758828E-2,1.8829125E-1,2.3041244E-1,-3.1920724E-2,4.4946738E-2,1.1070596E-2,-2.8973728E-2,-7.2450335E-3,2.3144E-2,-5.4374266E-2,-1.1753089E-2,3.1684119E-1,2.773163E-1,2.4428757E-2,3.1523205E-2,-1.371975E-2,-1.4010438E-1,-1.356264E0,-1.0546647E0,-8.27414E-2,-1.8491538E-2,-1.3407414E-1,-5.0012987E-2,-3.8781396E-1,-1.8792897E-1,-9.07199E-1,-6.8652046E-1,-5.4789835E-1,-3.493542E-1,-1.0136482E-1,-6.01324E-3,4.1217346E-2,1.0892892E-1,8.250512E-4,1.8245474E-1,2.1561868E-1,2.9800874E-1,-4.6959247E-2,-6.348822E-3,-1.4982885E0,2.8753608E-2,-1.694471E-2,5.729578E-3,-1.0829183E0,-8.198129E-1,-5.900172E-1,-3.2220584E-1,-3.5207367E-1,-1.3668229E-1,-8.982438E-2,-4.0152784E-2,-4.6040624E-2,4.6524398E-2,1.1130705E-2,-4.0939834E-2,4.3832283E-2,1.177567E-1,2.8808255E-2,1.705299E-1,1.9874623E-1,1.3599889E-1,1.9394578E-1,1.4166817E-2,2.3940851E-1,1.6415888E-2,-1.5942276E-3,-2.6247209E-2,4.8487835E-2,-2.586619E-2,-1.3055986E-1,6.8341084E-3,-1.3995644E-3,6.8008944E-2,3.2524484E-1,3.0655205E-2,2.8083295E-2,1.4059588E-1,-2.5324835E-2,-1.3786264E-1,-4.8853967E-2,-1.105686E-1,-9.9461436E-2,-1.7239605E-1,-9.383718E-3,-3.8870286E-2,-9.519661E-2,-3.648675E-1,-3.0484134E-1,-1.5359156E-1,-4.9233288E-1,-9.4929594E-1,-2.3935556E-2,-6.939174E-2,-8.2969433E-1,-4.9476916E-1,2.0387254E-3,-3.6075112E-1,-3.418091E-1,-8.485252E-2,-7.758877E-3,5.568159E-3,-1.31245265E-2,5.385926E-2,4.2461925E-3,1.1961923E-1,1.3760358E-2,1.9344617E-1,2.2502467E-1,-1.2289382E-2,2.4143513E-2,3.046432E-1,-1.7980701E0,-1.3985472E0,-1.199735E0,-9.6245855E-1,-8.3675444E-1,-3.6772314E-1,-6.9630975E-1,-5.224318E-1,-3.3739182E-1,-5.456506E-2,-5.9476507E-1,-2.8139332E-1,-1.1147537E-1,-1.8491876E-1,-8.4786154E-2,-2.240504E-1,-3.5596468E-2,-1.9282381E-1,-2.7262151E-2,-1.4322785E-1,5.8306605E-2,-4.822166E-2,-5.797533E-2,6.9994934E-2,-2.5404533E-2,1.1951933E-1,-1.4064322E-2,2.1324655E-2,-3.7689876E-2,2.0326067E-2,-1.0055001E-2,1.3785236E-2,2.1390298E-2,1.7854337E-2,2.5636888E-1,2.0350996E-2,1.0430848E-2,7.982241E-3,9.887076E-3,-2.4383476E-2,2.6909484E-2,5.342898E-3,3.2547385E-2,4.857898E-4,2.2831462E-1,2.764264E-3,-1.4590076E-1,-7.897384E-2,-2.709791E-1,-1.6000074E-1,-2.3706323E-2,-7.680272E-3,-6.6729166E-2,-3.442444E-1,-9.068756E-3,-3.4911203E-1,-1.8795201E-1,-4.1787453E-2,-6.0241807E-2,-3.4661533E-3,-9.5905356E-2,-1.0386062E-2,-1.418813E-2,-8.913816E-2,-4.3064497E-2,-5.7088364E-2,-3.7233365E-1,-8.834994E-3,-1.9215822E-2,-6.678967E-2,-5.635613E-3,-1.4897932E-2,8.5542287E-4,-5.915112E-2,-3.4934778E-2,-4.7417027E-3,4.870873E-2,2.1954525E-1,9.415727E-3,1.3373913E-1,1.9958997E-2,9.365562E-3,2.3309143E-2,2.5053264E-3,3.0896693E-2,2.3214495E-2,-2.189604E0,-1.6328479E0,-1.5511756E0,-1.314209E0,-1.315371E-1,-9.966945E-1,-1.049971E-1,-7.8150374E-1,-1.1737756E0,-8.064847E-1,-1.4356123E-2,-9.042011E-2,-9.077713E-1,-6.587894E-1,-4.1416952E-1,-5.5007493E-1,-4.5519304E-1,-3.1135136E-1,2.0808002E-2,-4.3440294E-1,-3.8479128E-1,-7.787795E-1,-2.5766534E-1,-7.3255914E-1,-4.4174737E-1,-1.08398914E-1,-3.0719092E-1,-1.6910514E-1,-7.54641E-2,-1.299036E-1,-4.4655877E-1,-1.5858409E-1,-1.0175989E-1,-2.5198048E-2,-3.8447902E-1,-1.1024668E-1,-6.1139353E-2,-1.2032659E-2,-3.6956415E-1,-9.690753E-2,3.485126E-2,7.985283E-2,-1.7767064E-2,-3.1240745E-2,-2.3543345E-2,-4.1026193E-5,1.24797195E-1,4.309553E-4,1.3170339E-1,7.1118213E-3,2.5757968E-2,-1.1645031E-2,1.2131506E-2,-7.2119585E-3,3.8358998E-2,1.0577151E-2,-2.0606042E-1,-1.1839242E-2,-1.983393E-2,-7.3980086E-2,-6.7720205E-2,-2.4389593E-2,-1.5850636E-1,-7.136116E-2,-5.3264573E-3,-5.3100684E-4,-4.293668E-2,-3.009547E-1,-3.8552144E-1,-1.1613825E-2,-1.689719E-1,-3.0507311E-2,-8.327963E-3,1.0505372E-2,-4.830262E-2,-3.2904553E-1,2.2060901E-4,-2.7973104E-2,2.3591935E-3,7.434865E-3,2.700833E-2,-1.737109E-2,1.3702102E-1,-9.079703E-3,-1.1854966E-1,-2.3021424E-1,2.6603151E-2,-1.6500297E0,-1.5895382E-1,-9.154359E-1,-8.5222363E-1,-1.3511612E0,-4.9426666E-1,-1.1150728E0,-7.993241E-2,-1.8241685E-2,-1.1985832E0,-1.031363E-2,-6.712311E-1,-8.6601174E-1,-5.609417E-3,-9.36185E-1,-6.9539917E-1,-5.2019972E-2,-4.2430673E-2,1.5785431E-2,-6.0190987E-2,-4.8819456E-1,-4.7907653E-1,1.1028409E-2,-2.4936326E-1,-3.7085524E-1,6.7001104E-2,-5.096498E-2,-6.57861E-2,-1.02344155E-2,-8.911303E-3,-4.8826003E-1,-4.0094122E-2,-8.5342306E-1,-1.8551375E-1,-4.2533222E-1,-1.03425466E-1,-2.2401271E-2,-2.5631253E-2,-8.982467E-2,-1.4557934E-1,-9.1283746E-2,-4.3809912E-1,-2.7542573E-1,-1.5219581E-1,-2.2638392E-1,-9.752255E-2,-5.434058E-2,-1.2421587E-1,-5.475654E-2,-2.962637E-2,-8.081323E-2,-1.8206972E-1,1.7374888E-2,-4.9606055E-2,-9.671546E-2,-7.270513E-2,-1.3644307E-2,-4.6008408E-2,-1.4740643E-2,-6.4735073E-3,-2.873135E-2,-5.3484337E-3,-2.3775874E-2,-5.33244E-2,-1.0656086E-2,-4.066252E-2,2.8580427E-3,-3.0071148E-1,-7.643332E-2,9.003122E-3,4.5326766E-2,4.650256E-2,9.869286E-2,2.473998E-2,-3.7070677E-2,2.4038412E-2,7.625119E-3,-1.23386815E-1,1.3426211E-1,-5.9379485E-2,3.2267895E-2,-1.9047124E-2,-4.6416055E-2,-9.041277E-3,-4.576947E-3,-1.42809E-1,-1.9485865E-2,-3.2590218E-2,-8.5224155E-3,-1.0315827E-2,-4.1595533E-2,-2.160096E-2,-1.1537845E-2,-3.4684133E-2,-1.2764558E-2,1.1405968E-2,1.6217995E-2,-1.442335E-1,-1.847699E-1,1.9430328E-2,-1.0241061E0,-3.659791E-2,-9.631579E-1,-1.4140828E-1,-1.2422904E0,-6.6327065E-1,-1.583829E-2,-1.15565896E-1,-8.047422E-3,-2.118218E-2,-1.2189765E-1,-8.573325E-1,-6.0657424E-1,-1.0092292E-1,-8.0336386E-1,-9.9406645E-2,-3.403799E-2,-7.782336E-2,-6.14314E-1,-4.6534055E-1,-7.090523E-2,-5.7256915E-2,-4.0253875E-1,-2.5667396E-1,1.4311099E-2,-3.2794327E-1,-4.229861E-1,-1.6000953E-2,1.4300475E-1,-6.8409587E-3,-5.7775963E-2,-1.2057483E-2,-8.789345E-2,-1.4440971E-2,-3.2358056E-1,-2.0904785E-2,-5.959574E-1,-3.9949542E-1,-1.3975462E-1,-1.1749647E-1,-7.305957E-2,-3.6802925E-2,-6.395338E-2,-3.784212E-1,-2.429445E-1,-1.7639686E-1,-1.17096394E-1,-3.1700692E-1,-1.5639287E-1,-1.4598633E-1,-8.207048E-3,-1.0001928E-2,-4.4090483E-2,-1.1331978E-2,-2.1179967E-2,-4.0176995E-2,-9.405539E-2,-1.826757E-2,-8.092116E-2,-4.9980357E-2,-1.8142673E-1,-1.9880855E-2,1.898247E-2,-1.3509649E-1,-6.275375E-3,1.4521773E-2,-3.7478834E-2,-1.05636224E-1,4.269444E-3,1.9673798E-2,-5.1051397E-2,4.9567167E-2,-5.623873E-3,-4.0473375E-3,5.6464974E-2,1.0130346E-1,-1.0681423E-2,-1.796533E-3,-2.1754172E-1,6.69775E-3,-4.4242203E-2,-1.2162491E-2,1.3684715E-2,-1.0421611E-2,7.842927E-3,-1.4817659E-3,1.1206405E-2,-1.6992733E-2,-1.1856742E-1,-1.1634733E-1,-4.545036E-2,-1.0566036E-1,-5.222947E-2,-1.0590847E0,-1.319448E-1,2.3501038E-3,-7.520547E-2,-8.759655E-2,-1.025889E-2,-3.0211708E-2,-6.427706E-1,-8.38994E-2,-6.3744836E-2,-7.054152E-2,-4.1198824E-2,2.0147849E-2,-4.727619E-2,-5.141885E-1,-3.3068147E-2,-2.7011117E-2,-1.1677667E-2,-3.321902E-2,1.927724E-2,-4.2854008E-1,1.5229392E-2,-1.9050414E-2,1.9478869E-2,-6.673558E-1,-1.8118234E-2,-1.4089632E-2,-6.5386593E-1,-1.8074537E-2,-6.578709E-1,-1.627377E-1,-9.9868E-3,-8.505928E-3,-1.421183E-1,-1.4625198E-2,-6.650662E-2,-2.3012018E-2,-4.549461E-2,-2.5980651E-2,-8.759493E-3,-1.8660504E-1,-9.122251E-2,-3.1524956E-2,-1.11257054E-1,-3.6372346E-1,-2.2737991E-2,-1.8250996E-1,2.8157575E-2,-1.2069754E-2,-3.3490068E-1,-6.380384E-3,-2.037863E-3,-1.6153285E-1,1.3886803E-3,1.9853057E-3,-8.943282E-2,-1.7084839E-3,-7.6557803E-3,-3.0831024E-1,-1.3770816E-2,2.8325844E-4,-3.0631348E-2,-2.5722146E-2,2.2185517E-3,-4.288431E-2,-7.813636E-3,-2.2488134E-3,-1.1691933E-2,-4.318489E-3,-1.5707921E-2,2.5440298E-3,-1.0732111E-2,-1.7532406E-2,-1.588909E-3,3.756016E-2,7.4321404E-3,5.8245007E-2,-3.1064978E-2,1.1336974E-2,7.4200355E-3,-4.9148887E-1,-6.008945E-2,-3.327382E-2,-1.12676965E-2,-4.439661E-2,-1.0941195E-1,-6.7503795E-2,-3.9403513E-2,-5.4159373E-2,8.547044E-3,-4.831795E-2,-3.53672E-1,-7.7691756E-2,-1.8925961E-2,-7.490265E-2,-3.5917267E-2,-9.259215E-2,-4.0810544E-2,-4.3379718E-1,-1.5964592E-1,-1.6190957E-1,-1.04789E-1,-7.432996E-2,-3.8374558E-3,-1.8130888E-1,-3.312468E-2,-2.1054235E-1,-2.9089106E-2,-1.4817297E-2,-9.144714E-3,7.18832E-3,-3.7199625E-1,-2.2748007E-2,-1.2202092E-2,1.9597156E-2,-3.1436745E-3,-4.5180075E-2,-1.3441873E-2,-1.3179389E-3,-2.3891997E-2,-7.92178E-3,-1.9386133E-2,-5.0856005E-2,-2.0143153E-2,-5.3763278E-2,-1.290166E-2,-6.599989E-4,1.0903119E-2,7.442475E-4,5.2312743E-3,4.774846E-2,1.3036636E-2,-6.2145074E-3,-5.6390185E-2,-1.7361388E-2,6.7902803E-3,-3.6555506E-2,1.677723E-2,-1.7703038E-2,-6.463064E-2,-1.7489602E-1,-1.2060076E-1,1.716031E-2,-1.6483262E-1,-9.38718E-3,-2.6972393E-2,-6.409414E-3,-1.1030836E-2,-1.5175163E-2,-2.0647982E-2,-1.4536087E-2,-5.2041393E-2,7.163778E-3,-1.0102827E-2,-3.9578006E-1,-1.8863788E-2,-4.708149E-3,-1.6665183E-2,5.1203542E-3,-4.4102925E-3,5.0323955E-3,-4.0771876E-2,-2.0716881E-2,-1.5575635E-2,-1.3763181E-2,-3.4947828E-3,-1.613364E-2,-5.748858E-2,-3.7455108E-2,-6.659417E-2,-2.6121898E-2,8.184041E-4],"categories":[],"categories_nodes":[],"categories_segments":[],