{"learner":{"attributes":{"scikit_learn":"{\"_estimator_type\": \"regressor\"}"},"feature_names":[],"feature_types":[],"gradient_booster":{"model":{"cats":{"enc":[],"feature_segments":[],"sorted_idx":[]},"gbtree_model_param":{"num_parallel_tree":"1","num_trees":"150"},"iteration_indptr":[0,1,2,3,4,5,6,7,8,9,10,11,12,13,14,15,16,17,18,19,20,21,22,23,24,25,26,27,28,29,30,31,32,33,34,35,36,37,38,39,40,41,42,43,44,45,46,47,48,49,50,51,52,53,54,55,56,57,58,59,60,61,62,63,64,65,66,67,68,69,70,71,72,73,74,75,76,77,78,79,80,81,82,83,84,85,86,87,88,89,90,91,92,93,94,95,96,97,98,99,100,101,102,103,104,105,106,107,108,109,110,111,112,113,114,115,116,117,118,119,120,121,122,123,124,125,126,127,128,129,130,131,132,133,134,135,136,137,138,139,140,141,142,143,144,145,146,147,148,149,150],"tree_info":[0,0,0,0,0,0,0,0,0,0,0,0,0,0,0,0,0,0,0,0,0,0,0,0,0,0,0,0,0,0,0,0,0,0,0,0,0,0,0,0,0,0,0,0,0,0,0,0,0,0,0,0,0,0,0,0,0,0,0,0,0,0,0,0,0,0,0,0,0,0,0,0,0,0,0,0,0,0,0,0,0,0,0,0,0,0,0,0,0,0,0,0,0,0,0,0,0,0,0,0,0,0,0,0,0,0,0,0,0,0,0,0,0,0,0,0,0,0,0,0,0,0,0,0,0,0,0,0,0,0,0,0,0,0,0,0,0,0,0,0,0,0,0,0,0,0,0,0,0,0],"trees":[{"base_weights":[-6.9538104E-9,1.00010805E-1,-4.219874E-1,1.7098178E-1,-3.0208763E-2,-1.1605122E0,-3.0640092E-1,-2.9024258E-2,2.2466253E-1,2.0903576E-2,-1.3764529E-1,-9.9243957E-1,-1.449943E0,-2.518567E-1,-4.800713E-1,-2.883437E-1,1.5077462E-2,1.1565317E-1,2.966626E-1,-1.22853994E-1,5.103965E-2,-6.4193234E-2,-1.8893243E-1,-8.66429E-1,-1.1286445E0,-2.9585516E-1,-1.4681269E0,-1.9025517E-1,-3.2260275E-1,-6.25838E-1,-4.190748E-1,-4.861721E-1,-1.8122122E-1,8.430586E-2,-1.1499938E-1,-3.7246853E-2,1.4870198E-1,-1.425215E-1,3.075672E-1,-7.901564E-3,-1.937995E-1,1.3863622E-1,-1.9753896E-2,-2.1468706E-1,-2.3162557E-2,-3.0771866E-1,-1.4624791E-1,-5.827056E-1,-9.2749166E-1,-1.5482113E-1,-1.150337E0,2.6683843E-1,-6.86839E-2,-1.614546E0,-1.339837E0,-3.0712336E-1,-1.2720042E-1,-4.4975576E-1,-2.7590886E-1,-5.252091E-1,-7.5067776E-1,-3.351668E-1,-5.059183E-1,-9.2156893E-1,-3.1683838E-1,-1.4214368E-1,-3.3249214E-1,-1.5982486E-2,1.6019957E-1,-1.0428682E-1,-9.078713E-1,-3.9287323E-1,3.2498722E-3,4.8786864E-2,2.1298455E-1,-4.0069807E-1,-5.4949965E-2,3.986341E-1,2.4146745E-1,-6.7816967E-1,6.0518486E-3,-1.7026387E-1,-4.921785E-1,7.121961E-2,1.8414135E-1,-9.335357E-2,1.820761E-2,-1.6289538E-2,-3.7622902E-1,-7.6424E-2,5.5278637E-2,-2.82227E-1,-6.6455925E-1,-9.15154E-2,-1.8290259E-1,-3.7816164E-1,-7.5132954E-1,-1.1144412E0,-8.430683E-1,2.999675E-2,-3.2761324E-2,-9.7452325E-1,-1.2591584E0,5.666342E-2,-3.162744E-2,-6.206992E-2,-1.6216289E-1,-1.2282898E0,-1.5046649E-1,-4.4314453E-1,-2.714205E-1,-8.796653E-2,-1.7265439E-1,-4.224301E-1,-7.389332E-1,-2.4117433E-1,-3.7125057E-1,-1.1216938E0,-5.028296E-1,-5.791525E-1,-8.1386316E-1,-4.0127474E-1,-2.5586587E-1,-5.4667604E-1,-3.042381E-1,1.8058842E-2,-9.7210604E-1,-1.104581E0,-2.5200847E-1,-3.733552E-1,-1.1567145E-1,2.9310107E-1,-3.7647757E-1,-1.6980353E-1,5.027426E-3,-7.246468E-2,1.700032E-1,-1.933531E-1,-3.408223E-2,-1.0482019E-1,-2.7723903E-2,-5.9746337E-1,-2.0532206E-1,7.0737705E-2,-5.2111372E-2,7.915552E-2,-2.2573657E-1,2.704358E-1,1.0920035E-1,-8.718494E-2,-4.9961388E-1,5.5874735E-2,-1.9529279E-1,3.0278432E-1,4.6003985E-1,3.0068454E-1,1.7623463E-1,-8.7282114E-2,-7.0661567E-3,-1.3086079E-1,3.6078982E-2,-2.5712165E-1,-1.4260896E-1,-8.8204555E-2,-3.769024E-1,1.4539208E-1,3.1698383E-3,7.525203E-2,2.1595293E-1,-6.092866E-2,-2.6419172E-1,-5.515033E-2,6.5332636E-2,-9.670756E-2,7.7740334E-2,-4.8901737E-1,-1.8238579E-1,-1.6144687E-2,-1.6213046E-1,1.1843851E-1,-5.398408E-3,-2.258742E-1,-3.2879263E-1,-9.264939E-1,-5.679738E-1,-1.2577233E-1,3.4600284E-2,-2.5682938E-1,-9.7600624E-2,-5.418464E-3,-4.4332293E-1,-3.8019888E-2,-9.021951E-2,-9.969321E-1,-1.3475637E0,-7.2815084E-1,-9.662165E-1,-1.3320183E0,-9.1379017E-1,-1.3414929E0,-1.1044794E0,-5.7223897E-2,-1.2428428E-1,-1.1441847E0,-4.1860127E-1,-2.3662579E-1,-3.7127027E-1,-1.208994E-1,-2.770358E-2,-2.1356735E-1,-9.260696E-2,-5.299249E-1,-3.8331655E-1,-6.666165E-2,-1.0070443E0,-2.838343E-1,-1.9318007E-1,-3.4056783E-1,-5.3054214E-1,-2.2916156E-1,-1.4714704E-1,-3.606804E-2,-5.295341E-1,-6.5661566E-3,-6.0219646E-2,-7.3840255E-1,-9.754596E-2,-3.384855E-1,-4.4535193E-1,1.9983843E-2,-2.611241E-1,-5.1584643E-1,-1.0183375E-1,-3.5900614E-1,8.91333E-3,-1.3812041E0,-8.0063605E-1,-2.710325E-2,-1.2209197E0,-6.310096E-1,-2.1769969E-1,-6.022939E-2,-2.8459713E-2,-2.029964E-1,-7.6782994E-2,3.9304268E-2,-1.5327439E-2,-3.2313365E-1,-5.928106E-1,-2.565547E-1,-7.587447E-2,5.5799805E-2,-6.556971E-2,-1.2346811E-2,2.825771E-3,2.0146617E-1,9.0676464E-2,-1.6435702E-1,-2.9551023E-1,3.2474633E-2,-1.11960314E-1,-4.1953214E-2,-7.572897E-1,-4.6204433E-2,-1.5723845E-2,3.0511472E-1,5.3493746E-2,-3.73545E-2,-3.977877E-1,-1.468048E-2,1.2857383E-1,-1.4730793E-1,-3.1545457E-1,1.7803477E-1,3.0917463E-1,-2.2254318E-2,1.380619E-1,-3.3093225E-2,1.4090611E-1,-7.075165E-1,-3.90588E-1,-7.943554E-3,1.3861887E-1,-3.459691E-1,-1.1304796E-1,4.3609998E-1,8.240428E-2,2.0900637E-1,4.8644486E-1,2.1805988E-1,3.4719142E-1,1.14485525E-1,2.3758861E-1,-6.211616E-1,-1.1014728E-1,1.0531799E-1,-1.06137255E-2,-2.6689088E-1,-3.3093884E-3,-1.00776136E-1,-1.9940598E-1,1.2630083E-2,-3.9827425E-2,1.6823204E-1,4.7356606E-2,-7.036132E-2,1.0387811E-2,2.0640813E-1,-2.3298824E-1,2.7952737E-1,1.7855328E-1,-8.2892915E-3,-1.0151896E-1,-2.4267593E-1,-5.8812195E-1,-1.2643525E-1,1.1633068E-2,3.297281E-2,1.306504E-1,1.1463655E-3,-1.4485124E-2,1.2724304E-1,-3.8942553E-3,-7.07478E-1,-4.0014934E-2,1.9091366E-2,-2.4749499E-2,3.5381917E-2,-9.8221466E-2,-1.2439677E-1,-2.1670648E-1,1.6142794E-1,1.5606169E-2,-6.265031E-2,7.0668854E-2,-1.85982E-1,-3.0325567E-2,-4.0840733E-1,-2.845554E-1,-9.949323E-2,-1.5527439E-2,-6.900462E-1,-3.875145E-2,-1.8322618E-1,-8.820061E-2,4.753006E-3,2.6648173E-2,-2.0762762E-1,-3.1096554E-1,-2.5629798E-2,-1.4471905E-1,-7.0661567E-3,-4.836046E-2,-8.254662E-1,-1.233084E-1,-1.3892435E-1,-5.0936587E-2,-4.5848423E-1,-7.8616947E-1,-1.4527437E-2,-9.7259074E-2,6.1225626E-3,-1.4175753E-1,-7.992775E-2,-1.0117173E-1,-2.6527438E-2,-1.3475446E-1,-1.1214391E-1,-2.9536584E-2,-3.6636584E-2,-1.382039E-1,-3.457019E-1,-5.146841E-1,-6.886052E-1,-2.3055892E-1,-3.6018E-1,-5.9248783E-2,-4.2597264E-2,-1.3902138E-1,6.068673E-2,-5.8620516E-2,-2.0631707E-1,-4.3051988E-2,-7.792315E-2,-2.2556333E-2,-5.019226E-1,-6.840259E-1,-3.7215722E-1,-5.217091E-1,-1.06689386E-1,-2.042744E-2,-2.3960693E-1,-3.1169778E-1,-1.6106063E-1,-2.4225304E-1,-4.4527E-2,-3.0672464E-1,-3.7507758E-1,-6.207341E-2,1.3722563E-2,-3.970325E-2,-4.8655108E-1,-6.88905E-2,-9.513305E-1,-6.600922E-1,-2.541988E-2,-3.8018968E-2,-4.206323E-2,-6.329784E-2,-2.360862E-1,-3.565063E-2,-4.095896E-1,-5.644218E-1,-3.0785915E-1,-6.3293815E-1,-1.4209072E-1,-3.3327438E-2,-9.2306066E-1,-4.1115243E-2,-1.340694E-1,-4.1469917E-2,-3.8940796E-1,-1.13766156E-1,-1.4268601E-1,-3.2744803E-2,1.1233843E-2,-2.1327158E-2,-1.4265371E-2,-4.8984145E-3,-3.7311833E-2,-5.219885E-3,-7.0966974E-2,-2.6029063E-2,-1.2020135E-1,-3.8974485E-1,1.4748784E-2,-1.323324E-1,-2.8197048E-2,8.812574E-2,-2.2775467E-2,-1.1773817E-1,1.5937752E-1,2.562878E-1,1.0118923E-1,-3.7359387E-1,-2.337225E-1,-1.3319708E-1,-5.8883637E-2,-2.6682281E-1,8.18912E-2,-4.377601E-2,-7.66649E-2,-2.1454315E-1,-1.0051697E-1,-5.876602E-2,-1.2369916E-2,3.3315264E-2,7.327104E-2,-1.0709253E-1,1.2232211E-2,-1.1100755E-1,-5.505753E-1,-1.2549887E-2,-1.7104368E-1,1.1402708E-2,9.01024E-2,2.046878E-1,-6.2035136E-3,-2.6401151E-2,-3.3206218E-1,1.06361E-2,2.095348E-1,-1.238809E-2,3.5913E-1,2.5308684E-1,-7.795836E-2,1.1112553E-1,2.0020396E-1,1.0446176E-1,3.18161E-2,-3.0290636E-3,-4.5869388E-2,-9.3010515E-2,-2.577213E-2,-5.165183E-1,-3.1102683E-2,3.6458846E-2,-2.750303E-3,1.8498996E-2,-2.7137382E-2,-5.7361323E-2,-4.6045738E-4,-1.8822795E-1,2.4212722E-1,4.7736344E-1,-8.8829935E-2,1.772637E-1,8.6931475E-2,3.0852824E-1,5.276337E-1,3.5689372E-1,2.62003E-1,1.6798449E-1,3.6030436E-1,8.168958E-2,1.5151253E-1,1.976733E-2,1.5460435E-1,2.7721834E-1,-9.6577436E-2,-1.8436583E-2,1.2802868E-3,-1.598467E-2,2.193371E-2,7.5565944E-3,-4.2981138E-3,2.8610535E-3,-2.4609978E-1,-6.8771E-2,-5.945721E-3,-1.2562915E-2,-1.8870369E-2,-4.4786252E-2,1.7037809E-1,-4.652744E-2,7.990966E-3,-6.893584E-3,3.6087435E-2,-6.2461896E-3,2.4579129E-1,1.5084176E-1,-3.808642E-1,-7.710105E-2,2.461967E-1,3.2280353E-1,1.2593494E-1,2.4891828E-1,-2.3825109E-1,2.137558E-3,-1.7459324E-1,-7.1571134E-2,-5.06045E-2,-2.2396943E-1,-3.762939E-2,-9.706616E-2,-1.0075492E-1,-3.8784766E-1,2.9987471E-2,-2.9188588E-1,-7.704553E-2,5.3200483E-2,4.4733215E-2,1.7947319E-1,4.291601E-3,-2.2463901E-2,7.535008E-3,3.0691365E-2,-7.376503E-2,-1.2969918E-2,-3.1238012E-3,5.9472207E-2,-1.668047E-2,-4.9943767E-2,-7.5635402E-3,-1.5947506E-2,-2.8779779E-2,-1.7335854E-2,1.0538861E-1,2.2446865E-2,-2.6231166E-2,2.8422842E-2,-2.159681E-2,-4.89451E-3,1.2512952E-1,-1.8898785E-3,1.7330311E-3,-1.9871516E-2,-4.288307E-1,-1.4699389E-2,-2.2349279E-1,-3.5180807E-1,-7.5526446E-2,-2.566616E-2,-2.0820254E-1,-1.046444E-2,-1.2462772E-2,-2.6544597E-2,4.739263E-3,-7.627226E-2,-2.5627187E-1,-1.217457E-1,-3.9479575E-1,-2.628641E-1,-1.0086488E-1,3.3991143E-2,-2.6618174E-1,-4.9649052E-2,-8.72929E-2,-3.8729064E-2,-5.109036E-2,-6.8661566E-3,-6.391285E-1,-8.60048E-2,-3.0709335E-1,-5.7745766E-2,-4.421388E-1,-6.061396E-2,-1.9591158E-2,-9.45039E-2,-2.1327808E-1,-2.8501177E-2,-3.9030883E-2,-2.9305521E-2,-1.5566289E-2,4.267545E-4,-1.260309E-1,-2.4300765E-2,1.51379155E-2,1.375794E-2,-1.0429203E-4,-8.6504236E-2,-2.011879E-1,-4.877939E-2,-8.4514156E-2,8.016365E-3,-2.4310516E-2,-5.128158E-1,-7.373798E-1,-2.3291158E-2,-2.9333863E-2,-3.8641417E-1,-1.8563902E-2,-5.6033045E-2,-1.911836E-2,-2.7127195E-2,7.042701E-4,-3.1517014E-1,-1.0625419E-1,-1.9986749E-1,-2.7602738E-2,-1.8601464E-2,2.6230082E-2,-3.1089237E-1,-2.7100315E-2,-5.5858977E-2,-4.9047855E-1,1.3572562E-2,-2.8169919E-2,-9.8910056E-2,-4.4222385E-2,-6.90734E-2,-1.9561138E-2,-2.7394092E-1,-1.2151218E-2,-4.367533E-2,-6.8599004E-1,-5.082588E-1,-2.6025432E-1,-4.4242132E-2,-7.4919395E-2,-2.73839E-2,5.663417E-3,-9.7906135E-2,-4.808211E-2,1.4634172E-2,-3.4889388E-1,-1.1791338E-2,-4.410922E-3,-2.2682697E-2,-3.1963047E-2,-5.8015447E-2,3.1354495E-3,-1.851272E-1,-1.08560035E-2,-4.353545E-4,3.7369449E-3,1.1047529E-1,-1.6074982E-2,-4.291616E-2,-1.03007285E-2,-2.3425108E-2,1.9101495E-2,1.183702E-2,2.9136458E-1,2.214535E-2,1.4724098E-1,1.847399E-2,-5.4445725E-2,-9.383901E-3,-1.7604807E-2,-2.7759934E-2,-6.63254E-3,-1.5582488E-1,-3.9423692E-1,-2.4078285E-2,9.027035E-4,1.1867404E-1,3.1109995E-3,-7.840491E-3,-1.3112247E-1,-2.842831E-2,-5.519116E-2,-1.9807982E-1,9.1612376E-2,-1.17935045E-2,-2.090068E-2,-2.4125357E-3,-4.988788E-2,7.560229E-2,-2.366169E-1,-5.3607803E-2,-9.90325E-3,-6.0417887E-2,2.4273446E-2,-2.0657329E-2,1.1571799E-1,-2.9275632E-2,-6.5631546E-2,1.06220394E-1,1.4451982E-1,2.4094974E-1,-3.481022E-1,-5.0898935E-3,2.6225916E-1,9.322211E-2,1.8116655E-2,-2.9789388E-2,2.4006128E-1,3.956439E-1,1.4288615E-1,2.9433292E-1,-2.2136793E-2,-1.4654162E-2,-6.6953413E-3,1.4092783E-2,2.052799E-1,-2.27639E-2,2.8083617E-2,1.3948895E-1,-6.416604E-2,-1.5929064E-2,6.7561194E-3,-1.667953E-2,-4.35839E-2,-1.4365661E-2,-5.264681E-2,2.8216782E-1,2.7859673E-1,5.004578E-1,1.143285E-1,-1.7979117E-1,1.0400033E-1,2.9516622E-1,5.886373E-2,2.601306E-2,1.0489542E-1,3.4841564E-2,6.043357E-1,4.7872633E-1,3.9958984E-1,2.2256593E-1,2.675985E-1,-2.886132E-2,1.1497513E-1,2.3225957E-1,2.9607937E-1,3.985993E-1,-5.8889255E-2,2.9570854E-1,2.3664681E-2,1.9461696E-1,-1.9983831E-1,4.3929573E-2,3.0974522E-1,-3.333929E-2,3.3924067E-1,2.0114602E-1,-2.2859651E-1,-3.962041E-2,2.6121406E-2,1.5270078E-1,-2.9264648E-2,7.568083E-2,2.9665072E-2,1.835292E-1,1.589324E-2,-2.5003253E-2,-4.9663046E-1,-2.8204752E-2,1.024275E-2,-1.4655816E-2,2.9933373E-2,1.8162504E-1,3.4046747E-2,1.3229437E-2,1.6125216E-1,4.692229E-2,2.8029224E-1,1.4681399E-1,-3.679197E-2,-7.513523E-3,6.3875E-2,-5.885264E-2,-1.2510336E-2,-2.3824938E-1,-2.0485333E-1,-4.5140702E-2,1.4437603E-2,-2.3436788E-1,-4.527534E-2,-1.7677158E-1,-6.7545734E-2,-3.3501003E-2,-1.816815E-1,4.12265E-2,-5.1662397E-2,-2.2879688E-2,-1.8473649E-1,-1.6625585E-2,7.810264E-2,-5.4442156E-2,-3.9640028E-4,1.7742222E-2,1.2494318E-2,2.3787275E-1,-1.2702039E-3,8.377736E-3,2.13161E-2,-6.1883205E-3,2.2398174E-2,7.934134E-3,-1.5704645E-2,2.8148282E-3,6.991142E-3,2.1729229E-2,-6.448912E-2,-3.9510554E-1,-2.9768422E-1,-1.5517497E-2,-4.840238E-2,-3.1155432E-2,-1.7706791E-2,-2.9213656E-2,3.948161E-3,-6.7285965E-3,-2.516807E-2,-2.484238E-2,-2.6955122E-1,-7.7178837E-3,4.994264E-4,-1.7795953E-1,-3.0137107E-2,-5.570188E-1,-2.7942657E-1,-1.1722132E-2,-7.335733E-3,-2.3351219E-2,1.6897084E-2,-9.8413E-4,-3.9308503E-1,-2.1053262E-1,2.9559992E-2,-1.4751609E-1,-4.135066E-2,-7.308868E-2,-2.4752725E-2,-4.0663507E-2,-7.44124E-2,-3.970578E-2,-2.6024768E-2,-1.9409446E-2,-1.136003E-1,-2.3036858E-1,-2.36639E-2,3.3412334E-3,-5.0079036E-3,-1.3797219E-1,-2.46119E-2,-1.7392835E-1,-1.1100223E-1,-3.9639636E-3,-4.8537534E-2,-7.164455E-1,-4.1875612E-2,-8.3691224E-2,-3.917698E-1,-1.696807E-2,-6.23624E-2,-3.1042036E-1,-2.1499714E-2,-8.3181985E-2,-2.3123002E-2,-1.2790996E-1,-3.0452302E-2,-6.716391E-2,-4.333473E-2,-5.4848846E-2,-2.8776515E-2,-6.993223E-3,-7.02624E-2,-2.1943903E-2,-4.9420425E-1,-9.5762394E-2,-2.764414E-2,1.5563415E-2,-3.1577438E-2,3.3772565E-2,-5.9016157E-2,-1.6118465E-2,-2.060357E-2,1.6930083E-2,1.3602458E-2,5.6815795E-3,-1.9350955E-2,-5.3446847E-3,1.4309642E-1,3.0443063E-1,1.2235674E-1,2.530387E-2,6.820194E-3,-2.1749348E-3,-1.1515091E-2,-1.8651178E-2,-5.5893224E-1,-2.4989117E-2,1.9924631E-2,8.66448E-3,-5.4369915E-2,-1.2083034E-2,8.413454E-2,-5.864262E-3,-1.8123504E-2,-4.65039E-2,-3.263713E-2,1.1794259E-1,-1.0095409E-1,3.7333865E-2,1.4204352E-1,-9.313119E-2,-2.0737049E-1,-6.33839E-1,-2.1483907E-1,-1.2354751E-2,2.4081284E-2,7.646945E-2,-3.1179604E-1,-1.790976E-2,-1.7355727E-1,8.662358E-3,1.472132E-1,5.362111E-2,-1.85639E-2,1.5293476E-1,1.7870476E-2,2.6454726E-2,-4.53254E-2,-3.0218998E-2,1.8686111E-1,3.568178E-1,4.73536E-2,2.356757E-1,-2.5066897E-2,2.4722116E-2,3.424181E-2,1.8463953E-1,4.4829932E-1,3.3510417E-1,9.649528E-2,2.016734E-2,3.0874732E-1,8.387557E-2,-7.4345903E-3,3.8685661E-3,2.134988E-1,-2.6009563E-2,7.7332794E-3,-2.8864334E-3,1.2829894E-1,2.7362823E-2,-6.5865465E-3,1.3253276E-2,8.14275E-3,-4.090418E-1,3.048642E-1,-2.9352696E-3,4.0715232E-1,1.7031819E-1,5.6039166E-1,4.3743324E-1,3.478207E-2,2.3124313E-2,-5.094258E-1,-8.811506E-2,1.4281126E-2,2.66814E-1,-3.599116E-2,3.0908927E-1,1.0355549E-1,-7.904695E-3,2.5433961E-2,-4.136671E-3,4.7021255E-1,6.2738365E-1,5.248585E-1,4.105323E-1,3.0161035E-1,4.6488225E-1,2.2814993E-2,2.6712764E-2,-5.0936587E-2,2.708224E-1,5.8755465E-3,1.5344349E-1,2.4144547E-2,-8.498017E-3,-6.714939E-2,3.083564E-1,4.346062E-1,3.5409763E-1,2.3055744E-1,-2.3108503E-1,3.839132E-2,1.4860118E-2,5.8842286E-2,-1.3475368E-2,-1.7161186E-1,2.0487711E-1,2.029675E-2,-2.244378E-2,-8.66669E-2,7.738227E-2,3.6724433E-1,2.3617116E-1,-1.1961839E-1,4.323264E-2,3.775559E-1,2.924648E-1,1.4830045E-1,2.6260194E-1,-3.5566017E-2,-2.0921191E-2,1.3229178E-1,2.4336854E-2,-1.1815026E-2,-1.0073606E-3,9.314845E-3,-2.3787324E-3,2.7829094E-2,1.1675612E-2,-8.8029064E-2,-3.846868E-2,1.9245509E-2,-1.6443899E-2,4.7862217E-2,1.7794381E-1,-3.3377192E-3,7.4158655E-3,2.1724142E-2,3.118344E-2,7.3750257E-3,2.2452675E-2,-8.040274E-3,9.030758E-2,-4.302163E-3,-2.0978576E-2,6.933844E-3,-2.5080765E-2,-2.6900157E-2,-5.1984224E-3,-9.447472E-3,-1.7279498E-3,-3.7670225E-2,-2.0760673E-1,-1.016786E-1,-5.252544E-4,-1.4588289E-1,-2.68329E-2,-2.9688945E-2,2.4102278E-4,1.5101383E-2,1.071871E-1,-2.3158176E-2,-5.9962715E-3,1.8040612E-2,-3.5969067E-2,1.1933902E-1,2.9608898E-2,-2.807341E-2,-1.5836164E-2,1.3464901E-2,-2.5044402E-2,-2.2403251E-2,2.4491473E-1,5.828583E-3,-9.412681E-3,-3.2025542E-2,-4.762863E-2,-3.2193016E-2,9.160996E-4,1.2416364E-2,-8.781488E-3,-1.1999356E-2,-2.8513938E-2,-1.0433174E-1,-2.6300574E-2,-5.9059274E-1,-2.0325083E-4,-3.0459104E-2,-1.6925035E-2,-5.0337132E-2,-2.6933214E-2,-1.8589479E-1,-4.2804334E-2,-5.6263436E-2,1.5326497E-2,-3.0752262E-1,-8.70393E-2,-1.5882337E-2,-8.057687E-3,-2.6355837E-2,2.538678E-3,-1.5452783E-2,8.920937E-3,-1.1518992E-2,-1.9898074E-2,-7.830958E-3,-1.6684163E-2,-8.025864E-2,-2.7891157E-2,-9.329064E-3,-3.955717E-2,-3.3418413E-2,-2.6961494E-2,-1.0712752E-1,2.632342E-3,-8.974285E-3,-2.4590716E-2,-2.9365837E-3,-4.9818793E-1,1.1451578E-2,-1.9017572E-2,1.1864763E-3,2.6131932E-2,3.4649298E-2,2.5916004E-1,5.759382E-3,1.5721008E-2,2.2725628E-3,-6.344802E-2,-6.8498873E-3,1.5347511E-2,-2.987716E-2,1.4348844E-2,1.8331958E-2,1.5633559E-1,1.9426985E-2,-1.2061355E-1,8.924222E-2,-7.71336E-3,-1.3038746E-1,1.9292559E-1,-1.452181E-2,1.2368294E-2,-3.3621997E-2,-1.3761643E-1,-7.609116E-2,-6.277438E-3,-3.4891218E-2,-1.1366018E-2,-1.2760058E-2,1.5812537E-2,9.965412E-3,-6.762132E-3,-4.207373E-2,-2.3790628E-3,-8.327062E-2,1.007007E-2,-2.2085446E-1,5.1906123E-3,1.543308E-1,-2.4637666E-1,6.505054E-2,-1.2661186E-1,1.7139027E-1,3.2393194E-3,2.86991E-1,7.165257E-2,1.9926344E-1,4.0390262E-1,-1.6639447E-2,8.599528E-2,3.3118512E-2,9.017869E-3,3.925917E-3,-1.00885285E-2,-4.68455E-3,2.1052644E-1,4.722954E-2,3.3654755E-1,1.8242976E-2,3.4454843E-1,1.1377814E-2,1.452956E-1,3.7486944E-2,2.71557E-1,1.2986693E-2,-2.54839E-2,2.5097797E-2,1.7318356E-1,-1.1049888E-2,2.1283843E-2,1.7857984E-1,8.025358E-2,-6.1516155E-2,-1.0066158E-2,2.0352967E-2,3.5598838E-1,4.8420288E-2,2.3723556E-2,4.6524066E-3,3.5952162E-2,3.5436046E-1,5.7286656E-1,4.8256072E-1,3.416391E-2,2.3620346E-1,-1.3698919E-1,-8.172953E-1,-3.0860922E-1,-2.456363E-1,-4.646034E-2,5.0576985E-2,-8.661845E-3,2.246272E-1,4.023398E-2,2.2018476E-1,4.030206E-2,-8.532128E-3,1.7546222E-2,5.0310636E-1,2.7753276E-1,-7.032509E-4,6.293741E-1,4.4405597E-1,5.5561477E-1,3.3894697E-1,4.690022E-2,3.1897053E-1,-8.682112E-3,5.302341E-2,4.2189438E-2,-1.7573018E-2,9.3976185E-3,3.215749E-2,2.3997499E-1,1.8289952E-2,5.3554624E-3,3.4997907E-1,2.2632644E-1,3.9667344E-1,4.6675774E-1,3.7548572E-1,2.7776077E-1,-1.50911575E-2,2.9223928E-2,-2.892195E-2,-7.133636E-3,1.0688624E-1,-4.203267E-3,-2.7429605E-2,1.6504271E-2,1.3912094E-1,2.4205114E-1,-1.5766606E-2,6.6856965E-2,1.03449516E-1,-5.7538E-3,3.9611395E-2,2.7343968E-2,-2.3855162E-3,2.5206804E-2,-1.3088323E-2,1.3636099E-2,2.4564296E-2,2.2768294E-2,4.1828167E-1,3.344099E-2,2.1652482E-2,3.296268E-2,1.6289848E-1,-3.137132E-3,2.8968764E-2,1.2373635E-2,1.6006844E-2,8.712678E-2,-4.2394465E-3,1.2029227E-2,2.0204599E-1,1.1434962E-2,-1.0576667E-3,1.2378597E-1,2.7234027E-2,-8.134253E-3,7.938678E-3,-2.190803E-2,6.824891E-2,-1.38788065E-2,2.8208572E-2,-7.3349946E-3,-2.1326572E-2,-9.618613E-3,5.5012375E-2,-6.9092573E-3,1.4931134E-2,3.0062217E-2,-1.44136315E-2,5.445147E-4,9.3276866E-2,2.1216204E-2,-7.497966E-3,7.3297466E-3,-8.440426E-3,3.2812252E-3,-3.2042727E-4,-1.5590715E-2,1.9739E-2,2.9804522E-2,-1.3713173E-4,-1.8252682E-2,-6.082816E-2,-1.2274384E-3,-2.056284E-2,3.714484E-3,-1.3715053E-2,2.3802865E-2,-1.3037667E-2,-4.0650655E-2,-1.1528309E-2,1.03894835E-2,-1.4392634E-2,-3.788483E-3,-4.5587134E-1,-5.6560237E-2,-7.297169E-3,9.066702E-4,-1.1736584E-2,2.6737152E-2,5.032718E-3,-1.4275302E-2,-4.3937783E-3,8.418633E-3,-7.478769E-2,1.839901E-1,-3.6633638E-1,-9.110117E-2,2.4126269E-2,3.488674E-3,-2.2889117E-2,1.0706125E-3,3.235201E-2,1.2931895E-1,-8.982806E-3,-3.0322615E-2,2.1722116E-2,-1.4256194E-2,-4.090207E-2,-2.3019714E-2,-4.1795325E-2,6.286238E-2,-3.9857882E-1,-1.2463046E-2,1.6464795E-1,3.0807788E-3,-5.4223903E-2,9.8761E-3,1.0036035E-1,1.868553E-2,-3.962938E-2,-3.664573E-2,2.7954495E-3,1.8543387E-2,1.2972775E-2,3.8090122E-1,-5.0150263E-3,1.2316705E-1,1.258362E-1,3.2448556E-2,2.9162465E-2,4.3237578E-2,-1.9673018E-2,1.04279384E-1,1.7674973E-2,3.1857364E-2,3.860146E-2,9.757037E-3,3.6977913E-2,2.885679E-2,7.609339E-3,-1.1876446E-2,1.8005041E-2,3.2028684E-3,2.868602E-1,1.7013593E-2,1.4490649E-2,2.4640122E-2,1.8566836E-1,-2.5416156E-2,3.4697063E-2,1.1806491E-2,3.6349375E-2,-3.0365845E-3,3.928732E-2,-8.469918E-3,5.9791714E-1,4.6651974E-1,5.0125104E-1,3.2804366E-2,2.9830309E-2,4.3986477E-2,-2.8948778E-2,-5.312938E-3,-1.0495989E0,-3.3262398E-2,4.4300826E-3,-3.4270566E-2,-3.112468E-1,2.2583842E-2,1.01895435E-2,-9.237347E-3,-2.1997131E-2,1.9016922E-2,1.611885E-2,3.665621E-2,5.035696E-2,2.867774E-1,1.8189484E-2,-6.6796886E-3,1.38561E-2,5.1729586E-2,-2.5027439E-2,3.2075953E-2,6.552819E-1,5.768174E-1,4.483133E-2,1.3634166E-3,5.7715625E-2,4.8372987E-1,1.9367999E-1,3.6227086E-1,6.628783E-2,3.3938977E-1,2.5979125E-1,1.455422E-2,-2.0469917E-2,3.5259148E-1,2.4913673E-1,8.211472E-3,4.0278015E-1,-8.2039006E-2,6.35427E-3,4.7200646E-2,-1.5877439E-2,3.7702578E-1,-8.317054E-3,3.014723E-1,-2.4336584E-2,1.1426022E-1,-7.936685E-3,3.7490458E-3,1.7155254E-1,7.513673E-2,2.573708E-1,1.955562E-3,-2.0018264E-3,2.3317888E-2,3.5878666E-2,1.8503216E-1,-8.65638E-3,6.492135E-3,3.6727246E-2,4.8404433E-2,1.7502323E-2,3.0429754E-3,1.5960092E-3,1.4403741E-2,2.2641955E-2,1.3645944E-2,1.4041173E-1,-1.8457655E-3,-4.4238906E-2,9.564807E-3,2.2751985E-2,-2.1245505E-3,-1.1302132E-2,5.9279567E-3,-1.2541969E-2,6.4308285E-3,-1.6385516E-2,6.5440754E-3,-1.2949673E-2,1.1554078E-1,-1.5042241E-2,2.618032E-2,6.3863695E-3,-3.5803255E-2,-3.7087135E-2,-4.9713865E-1,-1.429329E-1,1.8754272E-2,3.068298E-2,1.4792536E-1,-6.0325064E-4,-4.3779388E-2,-1.304169E-2,3.835319E-3,2.4874426E-1,2.8668264E-2,-1.0379713E-2,2.3250533E-2,-5.1757023E-3,2.4883842E-2,-2.8547037E-2,-3.0447789E-2,7.838739E-2,-1.7319389E-2,7.4300836E-3,-4.77045E-2,1.7566893E-1,7.0983507E-3,1.13064654E-1,-7.922384E-3,3.5698023E-3,-1.2251648E-2,1.2839484E-2,-1.5822615E-2,4.6631828E-2,2.813371E-2,7.3043043E-3,2.285132E-2,-4.5508145E-6,2.3598555E-2,1.3609299E-2,2.403835E-3,2.663233E-2,3.5258766E-2,1.5169235E-2,2.3744594E-2,-2.3941157E-2,4.480885E-3,6.014467E-2,1.6783843E-2,-1.8427437E-2,4.769581E-1,4.063416E-3,5.0484534E-2,2.7333844E-2,-8.1710005E-3,-3.9036583E-2,-1.18218474E-1,-8.415445E-3,-4.1316354E-1,-5.095628E-3,6.347836E-3,1.3054236E-2,-9.099389E-3,1.4461256E-2,3.544167E-2,1.7983845E-2,6.5825686E-2,5.842362E-2,1.4096099E-2,5.0132778E-2,1.6589483E-2,-1.9241158E-2,2.3870287E-2,2.5495255E-1,3.8555157E-1,-1.52439E-2,1.5968295E-2,-9.839007E-4,3.4786418E-1,2.6980174E-1,1.4182799E-2,3.8080543E-2,2.8857496E-1,2.6053873E-1,4.4031918E-2,4.2241875E-2,3.2176815E-2,-3.4269918E-2,2.059675E-2,-1.16274385E-2,3.7838344E-2,-2.24839E-2,1.4752964E-2,-9.136585E-3,3.0884242E-1,1.7048929E-2,5.165364E-3,9.426752E-3,1.944144E-2,9.483944E-3,-7.725303E-3,3.1757453E-1,2.1655037E-1,1.3414785E-1,-6.704807E-2,2.5680223E-1,1.3034326E-2,1.512674E-1,-1.2362396E-2,-1.8830935E-2,3.7193237E-4,-1.0894439E-2,1.2951858E-2,6.233898E-3,1.48325E-1,-4.2038206E-3,6.070172E-3,-1.1441157E-2,-5.084988E-1,-1.9946724E-2,1.6133843E-2,3.6220666E-2,1.9737183E-1,-9.839007E-4,2.8137464E-2,-1.6482696E-2,1.3443568E-1,-8.052765E-3,8.016505E-3,-1.2924737E-2,-1.3775157E-3,1.0383834E-2,-8.047501E-3,2.2211963E-2,1.5343098E-1,8.211264E-3,2.2017859E-2,4.840405E-2,-4.1274386E-3,-5.0758637E-2,-1.5545729E-2,1.5160553E-2,3.9642118E-2,3.9093196E-2,-1.7365844E-3,3.5473242E-2,5.5761E-3,2.7177319E-2,-1.6377438E-2,3.0000824E-2,6.595667E-3,2.126415E-2,3.0732313E-2,-2.0529063E-2,2.2551984E-2,2.3442101E-1,3.541672E-2,3.3070984E-1,9.408032E-3,6.826327E-2,2.322572E-1,-2.9256716E-3,1.871932E-2,-1.1789879E-2,3.1233195E-3,3.054661E-2,1.0984758E-2,4.620287E-3,1.8011998E-2,-1.2845334E-4,1.6940582E-1,-5.8846623E-2,-4.2794574E-2,1.4084912E-2,-4.595041E-3,-1.9519571E-4,2.2613922E-2,1.7185697E-2,-1.4241156E-2,5.927292E-3,-4.8628924E-3,5.761097E-2,1.6991653E-2,3.0143622E-2,1.162696E-2,3.4651056E-2,1.8697869E-2,1.5090989E-2,-2.1304179E-2,2.4206299E-1,-3.7093878E-2,3.6071762E-3,1.8605083E-2,1.3476578E-2,-4.846271E-3,1.240309E-2,2.58131E-2,-2.3512397E-2,2.07961E-2],"categories":[],"categories_nodes":[],"categories_segments":[],"categories_sizes":[],"default_left":[0,0,0,0,0,0,0,0,0,0,0,0,0,0,0,0,0,0,0,0,0,0,0,0,0,0,0,0,0,0,0,0,0,0,0,0,0,0,0,0,0,0,0,0,0,0,0,0,0,0,0,0,0,0,0,0,0,0,0,0,0,0,0,0,0,0,0,0,0,0,0,0,0,0,0,0,0,0,0,0,0,0,0,0,0,0,0,0,0,0,0,0,0,0,0,0,0,0,0,0,0,0,0,0,0,0,0,0,0,0,0,0,0,0,0,0,0,0,0,0,0,0,0,0,0,0,0,0,0,0,0,0,0,0,0,0,0,0,0,0,0,0,0,0,0,0,0,0,0,0,0,0,0,0,0,0,0,0,0,0,0,0,0,0,0,0,0,0,0,0,0,0,0,0,0,0,0,0,0,0,0,0,0,0,0,0,0,0,0,0,0,0,0,0,0,0,0,0,0,0,0,0,0,0,0,0,0,0,0,0,0,0,0,0,0,0,0,0,0,0,0,0,0,0,0,0,0,0,0,0,0,0,0,0,0,0,0,0,0,0,0,0,0,0,0,0,0,0,0,0,0,0,0,0,0,0,0,0,0,0,0,0,0,0,0,0,0,0,0,0,0,0,0,0,0,0,0,0,0,0,0,0,0,0,0,0,0,0,0,0,0,0,0,0,0,0,0,0,0,0,0,0,0,0,0,0,0,0,0,0,0,0,0,0,0,0,0,0,0,0,0,0,0,0,0,0,0,0,0,0,0,0,0,0,0,0,0,0,0,0,0,0,0,0,0,0,0,0,0,0,0,0,0,0,0,0,0,0,0,0,0,0,0,0,0,0,0,0,0,0,0,0,0,0,0,0,0,0,0,0,0,0,0,0,0,0,0,0,0,0,0,0,0,0,0,0,0,0,0,0,0,0,0,0,0,0,0,0,0,0,0,0,0,0,0,0,0,0,0,0,0,0,0,0,0,0,0,0,0,0,0,0,0,0,0,0,0,0,0,0,0,0,0,0,0,0,0,0,0,0,0,0,0,0,0,0,0,0,0,0,0,0,0,0,0,0,0,0,0,0,0,0,0,0,0,0,0,0,0,0,0,0,0,0,0,0,0,0,0,0,0,0,0,0,0,0,0,0,0,0,0,0,0,0,0,0,0,0,0,0,0,0,0,0,0,0,0,0,0,0,0,0,0,0,0,0,0,0,0,0,0,0,0,0,0,0,0,0,0,0,0,0,0,0,0,0,0,0,0,0,0,0,0,0,0,0,0,0,0,0,0,0,0,0,0,0,0,0,0,0,0,0,0,0,0,0,0,0,0,0,0,0,0,0,0,0,0,0,0,0,0,0,0,0,0,0,0,0,0,0,0,0,0,0,0,0,0,0,0,0,0,0,0,0,0,0,0,0,0,0,0,0,0,0,0,0,0,0,0,0,0,0,0,0,0,0,0,0,0,0,0,0,0,0,0,0,0,0,0,0,0,0,0,0,0,0,0,0,0,0,0,0,0,0,0,0,0,0,0,0,0,0,0,0,0,0,0,0,0,0,0,0,0,0,0,0,0,0,0,0,0,0,0,0,0,0,0,0,0,0,0,0,0,0,0,0,0,0,0,0,0,0,0,0,0,0,0,0,0,0,0,0,0,0,0,0,0,0,0,0,0,0,0,0,0,0,0,0,0,0,0,0,0,0,0,0,0,0,0,0,0,0,0,0,0,0,0,0,0,0,0,0,0,0,0,0,0,0,0,0,0,0,0,0,0,0,0,0,0,0,0,0,0,0,0,0,0,0,0,0,0,0,0,0,0,0,0,0,0,0,0,0,0,0,0,0,0,0,0,0,0,0,0,0,0,0,0,0,0,0,0,0,0,0,0,0,0,0,0,0,0,0,0,0,0,0,0,0,0,0,0,0,0,0,0,0,0,0,0,0,0,0,0,0,0,0,0,0,0,0,0,0,0,0,0,0,0,0,0,0,0,0,0,0,0,0,0,0,0,0,0,0,0,0,0,0,0,0,0,0,0,0,0,0,0,0,0,0,0,0,0,0,0,0,0,0,0,0,0,0,0,0,0,0,0,0,0,0,0,0,0,0,0,0,0,0,0,0,0,0,0,0,0,0,0,0,0,0,0,0,0,0,0,0,0,0,0,0,0,0,0,0,0,0,0,0,0,0,0,0,0,0,0,0,0,0,0,0,0,0,0,0,0,0,0,0,0,0,0,0,0,0,0,0,0,0,0,0,0,0,0,0,0,0,0,0,0,0,0,0,0,0,0,0,0,0,0,0,0,0,0,0,0,0,0,0,0,0,0,0,0,0,0,0,0,0,0,0,0,0,0,0,0,0,0,0,0,0,0,0,0,0,0,0,0,0,0,0,0,0,0,0,0,0,0,0,0,0,0,0,0,0,0,0,0,0,0,0,0,0,0,0,0,0,0,0,0,0,0,0,0,0,0,0,0,0,0,0,0,0,0,0,0,0,0,0,0,0,0,0,0,0,0,0,0,0,0,0,0,0,0,0,0,0,0,0,0,0,0,0,0,0,0,0,0,0,0,0,0,0,0,0,0,0,0,0,0,0,0,0,0,0,0,0,0,0,0,0,0,0,0,0,0,0,0,0,0,0,0,0,0,0,0,0,0,0,0,0,0,0,0,0,0,0,0,0,0,0,0,0,0,0,0,0,0,0,0,0,0,0,0,0,0,0,0,0,0,0,0,0,0,0,0,0,0,0,0,0,0,0,0,0,0,0,0,0,0,0,0,0,0,0,0,0,0,0,0,0,0,0,0,0,0,0,0,0,0,0,0,0,0,0,0,0,0,0,0,0,0,0,0,0,0,0,0,0,0,0,0,0,0,0,0,0,0,0,0,0,0,0,0,0,0,0,0,0,0,0,0,0,0,0,0,0,0,0,0,0,0,0,0,0,0,0,0,0,0,0,0,0,0,0,0,0,0,0,0,0,0,0,0,0,0,0,0,0,0,0,0,0,0,0,0,0,0,0,0,0,0,0,0,0,0,0,0,0,0,0,0,0,0,0,0,0,0,0,0,0,0,0,0,0,0,0,0,0,0,0,0,0,0,0,0,0,0,0,0,0,0,0,0,0,0,0,0,0,0,0,0,0,0,0,0,0,0,0,0,0,0,0,0,0,0,0,0,0,0,0,0,0,0,0,0,0,0,0,0,0,0,0,0,0,0,0,0,0,0,0,0,0,0,0,0,0,0,0,0,0,0,0,0,0,0,0,0,0,0,0,0,0,0,0,0,0,0,0,0,0,0,0,0,0,0,0,0,0,0,0,0,0,0,0,0,0,0,0,0,0,0,0,0,0,0,0,0,0,0,0,0,0,0,0,0,0,0,0,0,0,0,0,0,0,0,0,0,0,0,0,0,0,0,0,0,0,0,0,0,0,0,0,0,0,0,0,0,0,0,0,0,0,0,0,0,0,0,0,0,0,0,0,0,0,0,0,0,0,0,0,0,0,0,0,0,0,0,0,0,0,0,0,0,0,0,0,0,0,0,0,0,0,0,0,0,0,0,0,0,0,0,0,0,0,0,0,0,0,0,0,0,0,0,0,0,0,0,0,0,0,0,0,0,0,0,0,0,0,0,0,0,0,0,0,0,0,0,0,0,0,0,0,0,0,0,0,0,0,0,0,0,0,0,0,0,0,0,0,0,0,0,0,0,0,0,0,0,0,0,0,0,0,0,0,0,0,0,0,0,0,0,0,0,0,0,0,0,0,0,0,0,0,0,0,0,0,0,0,0,0,0,0,0,0,0,0,0,0,0,0,0,0,0,0,0,0,0,0,0,0,0,0,0,0,0,0,0,0,0,0,0,0,0],"id":0,"left_children":[1,3,5,7,9,11,13,15,17,19,21,23,25,27,29,31,33,35,37,39,41,43,45,47,49,51,53,55,57,59,61,63,65,67,69,71,73,75,77,79,81,83,85,87,89,91,93,95,97,99,101,103,-1,105,107,109,111,113,115,117,119,121,123,125,127,129,131,133,135,137,139,141,143,145,147,149,151,153,155,157,159,161,163,165,167,169,171,173,175,177,179,181,183,185,187,189,191,193,195,-1,-1,197,199,-1,-1,-1,-1,201,-1,203,205,207,209,211,213,215,217,219,221,223,225,227,229,231,233,-1,235,237,239,241,243,245,247,249,251,253,255,257,259,-1,-1,261,263,265,267,269,271,273,275,277,279,281,283,285,287,289,291,-1,-1,293,295,297,299,-1,301,303,305,307,309,311,313,315,317,319,321,323,325,327,329,331,333,335,337,339,341,343,345,347,349,-1,351,-1,-1,353,355,357,359,361,363,365,367,-1,-1,369,371,373,375,377,379,381,383,385,387,-1,389,391,393,395,397,399,-1,-1,401,-1,-1,403,-1,405,407,-1,409,411,-1,413,-1,415,417,-1,419,421,423,-1,-1,425,427,-1,-1,429,431,433,435,437,439,-1,-1,441,443,445,447,449,451,-1,453,-1,-1,455,457,459,461,463,465,467,469,471,473,475,477,-1,479,481,483,485,487,489,491,493,495,497,499,501,503,505,507,509,511,513,515,517,-1,519,521,-1,-1,523,525,-1,527,529,531,533,535,537,539,541,543,545,547,549,551,553,-1,555,-1,557,-1,-1,-1,559,561,563,565,567,569,571,573,575,-1,577,579,-1,-1,581,-1,583,585,587,-1,589,591,593,595,-1,-1,597,-1,-1,-1,599,601,-1,-1,-1,-1,-1,-1,-1,-1,-1,-1,-1,-1,603,605,607,609,611,-1,613,615,617,619,621,-1,623,-1,625,627,629,631,-1,-1,633,635,637,639,-1,641,643,-1,-1,-1,645,-1,647,649,-1,-1,-1,-1,651,-1,653,655,657,659,-1,-1,661,-1,-1,-1,663,-1,665,-1,-1,-1,-1,-1,-1,-1,-1,-1,667,669,-1,671,673,675,677,679,681,683,685,687,689,691,-1,693,695,697,699,701,-1,-1,-1,-1,703,705,707,709,711,-1,713,715,717,719,-1,-1,721,-1,723,725,727,729,731,733,735,737,-1,-1,-1,-1,-1,739,741,-1,-1,-1,-1,-1,-1,743,745,747,749,751,753,755,757,759,761,763,765,767,769,771,773,775,-1,-1,-1,-1,-1,-1,-1,-1,777,-1,-1,-1,-1,-1,779,-1,-1,-1,781,-1,783,785,787,789,791,793,795,797,799,801,803,805,-1,807,-1,-1,809,811,813,815,817,819,821,823,-1,-1,-1,-1,-1,-1,-1,825,-1,827,-1,-1,-1,-1,829,-1,831,-1,-1,-1,833,-1,-1,-1,835,-1,837,839,-1,-1,841,-1,-1,843,-1,845,847,849,851,853,855,857,859,861,-1,-1,-1,-1,863,-1,865,-1,867,-1,-1,-1,869,-1,-1,-1,-1,-1,871,-1,-1,873,-1,875,877,-1,879,-1,-1,881,883,-1,-1,885,-1,-1,-1,-1,-1,887,889,891,-1,-1,-1,893,-1,-1,895,-1,-1,-1,-1,-1,-1,897,-1,-1,899,901,903,-1,-1,-1,-1,-1,-1,905,907,-1,-1,-1,-1,-1,-1,909,-1,-1,-1,911,913,-1,-1,-1,-1,-1,915,-1,917,919,-1,-1,-1,-1,-1,921,923,-1,-1,925,-1,-1,927,929,-1,931,933,-1,-1,-1,935,937,939,941,-1,-1,-1,-1,943,945,947,949,951,953,955,-1,957,959,961,-1,963,965,967,969,971,-1,-1,-1,973,-1,975,977,-1,-1,979,-1,-1,-1,981,983,985,987,989,991,993,995,997,-1,999,-1,1001,1003,1005,1007,1009,-1,1011,1013,1015,1017,1019,1021,1023,1025,1027,1029,1031,1033,1035,1037,1039,-1,-1,1041,1043,1045,-1,1047,-1,-1,1049,-1,-1,-1,-1,1051,-1,-1,1053,1055,1057,1059,-1,-1,1061,1063,-1,1065,1067,1069,-1,1071,1073,1075,-1,-1,1077,1079,-1,-1,1081,1083,1085,1087,1089,-1,-1,1091,1093,-1,-1,-1,-1,-1,-1,-1,-1,-1,-1,1095,1097,-1,-1,-1,-1,-1,-1,-1,-1,1099,1101,-1,-1,1103,-1,1105,1107,-1,-1,-1,-1,-1,1109,1111,1113,1115,-1,-1,-1,-1,-1,-1,-1,-1,1117,1119,-1,-1,-1,1121,-1,1123,1125,-1,-1,1127,-1,-1,1129,-1,-1,1131,-1,1133,-1,1135,-1,-1,-1,-1,-1,-1,-1,-1,1137,-1,-1,-1,-1,-1,-1,-1,-1,-1,-1,-1,-1,1139,1141,1143,1145,-1,-1,-1,-1,-1,1147,-1,-1,-1,-1,-1,1149,-1,-1,-1,1151,1153,1155,1157,1159,1161,1163,1165,1167,1169,-1,1171,1173,1175,1177,-1,1179,1181,-1,1183,-1,-1,-1,-1,1185,1187,1189,1191,1193,-1,-1,1195,1197,1199,1201,-1,1203,1205,-1,-1,1207,1209,-1,-1,1211,-1,-1,-1,-1,1213,1215,-1,1217,1219,1221,1223,1225,-1,1227,1229,1231,1233,-1,1235,1237,-1,-1,-1,1239,1241,1243,1245,1247,1249,1251,-1,-1,1253,-1,1255,-1,-1,-1,1257,1259,1261,1263,1265,-1,-1,1267,-1,1269,1271,-1,-1,1273,1275,1277,1279,1281,1283,1285,1287,1289,1291,-1,-1,1293,-1,-1,-1,-1,-1,-1,-1,-1,-1,-1,-1,1295,1297,-1,-1,-1,-1,-1,-1,-1,1299,-1,-1,-1,-1,-1,-1,-1,1301,-1,1303,1305,1307,1309,-1,-1,-1,1311,1313,-1,-1,-1,1315,1317,1319,1321,-1,-1,1323,-1,1325,-1,-1,-1,-1,-1,-1,-1,-1,-1,-1,1327,-1,1329,-1,-1,-1,-1,-1,1331,-1,1333,-1,1335,1337,-1,-1,-1,-1,-1,-1,-1,-1,-1,-1,-1,-1,-1,-1,-1,-1,1339,-1,-1,-1,-1,1341,-1,1343,-1,-1,-1,1345,-1,-1,-1,-1,-1,-1,-1,1347,1349,1351,-1,1353,1355,-1,1357,1359,-1,-1,-1,1361,-1,-1,-1,-1,-1,1363,-1,-1,-1,-1,1365,1367,1369,-1,1371,1373,1375,1377,1379,-1,1381,1383,1385,1387,-1,1389,-1,-1,-1,-1,-1,1391,-1,1393,-1,1395,1397,1399,-1,1401,-1,-1,-1,1403,-1,-1,1405,1407,-1,-1,-1,1409,-1,-1,-1,-1,1411,1413,1415,-1,1417,1419,1421,1423,1425,1427,-1,1429,1431,-1,1433,-1,1435,-1,1437,1439,-1,1441,1443,1445,1447,-1,1449,-1,-1,-1,-1,-1,-1,1451,-1,-1,1453,1455,1457,1459,1461,1463,-1,-1,-1,-1,1465,1467,-1,-1,1469,1471,-1,1473,1475,-1,-1,-1,-1,-1,-1,-1,1477,-1,1479,-1,-1,-1,1481,-1,-1,-1,-1,1483,-1,-1,1485,-1,-1,1487,1489,-1,-1,-1,1491,-1,1493,-1,-1,-1,1495,-1,-1,1497,-1,-1,1499,-1,1501,-1,-1,-1,-1,-1,-1,-1,-1,-1,-1,-1,-1,-1,-1,1503,-1,-1,-1,-1,-1,-1,1505,-1,-1,-1,-1,-1,-1,-1,-1,-1,1507,1509,1511,1513,-1,-1,-1,-1,-1,1515,-1,-1,-1,1517,1519,-1,1521,1523,1525,-1,1527,-1,-1,-1,1529,1531,1533,-1,-1,-1,-1,1535,-1,1537,1539,-1,-1,-1,-1,1541,-1,-1,-1,-1,-1,-1,-1,-1,-1,-1,1543,-1,-1,-1,1545,-1,1547,-1,-1,-1,-1,-1,1549,1551,1553,-1,1555,-1,-1,-1,1557,-1,-1,-1,1559,-1,-1,-1,-1,1561,-1,-1,1563,1565,-1,-1,-1,-1,-1,-1,1567,1569,-1,-1,-1,1571,1573,1575,1577,1579,1581,-1,-1,1583,1585,-1,1587,1589,-1,-1,-1,1591,1593,1595,-1,1597,-1,-1,1599,1601,1603,-1,-1,-1,1605,1607,-1,-1,-1,-1,-1,-1,-1,-1,-1,-1,1609,-1,1611,-1,-1,-1,-1,-1,-1,-1,-1,-1,1613,1615,-1,1617,-1,-1,-1,1619,1621,-1,-1,1623,-1,-1,-1,-1,1625,1627,-1,1629,-1,-1,-1,1631,1633,-1,-1,-1,1635,-1,1637,-1,-1,-1,-1,-1,-1,-1,-1,-1,-1,-1,-1,-1,-1,-1,-1,-1,-1,-1,-1,-1,-1,1639,-1,-1,-1,-1,-1,-1,-1,1641,-1,-1,-1,-1,-1,-1,-1,-1,-1,-1,-1,-1,-1,-1,1643,1645,-1,-1,-1,1647,1649,-1,-1,1651,1653,1655,-1,-1,-1,-1,-1,-1,-1,-1,-1,1657,-1,-1,-1,-1,-1,-1,1659,1661,1663,1665,1667,-1,1669,-1,-1,-1,-1,-1,-1,1671,-1,-1,-1,1673,-1,-1,1675,1677,-1,-1,-1,1679,-1,-1,-1,1681,-1,-1,-1,1683,-1,-1,-1,-1,-1,-1,-1,-1,-1,-1,-1,-1,-1,-1,-1,-1,-1,-1,-1,-1,1685,-1,1687,-1,1689,1691,-1,-1,-1,-1,-1,-1,-1,-1,-1,1693,-1,-1,-1,-1,-1,-1,-1,-1,-1,-1,1695,-1,-1,-1,-1,-1,-1,-1,1697,1699,-1,-1,-1,-1,-1,-1,-1,-1],"loss_changes":[1.9375537E3,3.4300568E2,7.5050146E2,2.5791803E2,7.190089E1,5.6449097E1,7.193805E1,5.8147175E1,1.4861188E2,3.8446667E1,1.5888992E1,1.1997437E1,8.69458E0,2.5176178E1,1.5893127E1,1.5572689E1,3.9145477E1,3.8081123E1,5.466382E1,1.2541412E1,4.549527E1,1.0720764E1,1.2554779E1,6.337555E0,7.426819E0,1.9433079E0,5.876404E0,2.279039E1,1.5870911E1,6.314102E0,9.186768E0,1.8803398E1,2.796071E0,2.1595694E1,1.2730801E1,1.9299559E1,3.978528E1,6.2406516E0,6.6894775E1,5.503391E0,6.594631E0,1.0046207E1,1.1339567E1,1.1916294E1,5.7112246E0,5.7797127E0,3.6546135E0,2.2337208E0,4.1898804E0,8.0552834E-1,5.5075073E0,8.784708E-1,0E0,3.6608887E-1,2.4541626E0,5.148857E0,3.5764503E0,5.393051E0,6.444351E0,3.4273453E0,2.08638E0,3.336357E0,5.004074E0,4.1859474E0,9.32266E0,2.307156E0,2.8070107E0,3.953304E0,3.6960602E0,9.316425E0,1.4793377E0,5.1341743E0,4.502084E0,2.0251543E1,2.2449219E1,2.1272392E0,3.2460303E0,2.7400024E1,2.4866577E1,1.3573527E0,2.3768227E0,2.0843353E0,2.7685757E0,6.677275E0,6.76268E0,7.633832E0,9.2614355E0,1.277883E0,4.3927765E0,4.202772E0,2.1199315E0,1.5369339E0,5.61636E-1,3.1841197E0,6.8801155E0,7.148547E-1,1.8406277E0,1.3411942E0,2.5230713E0,0E0,0E0,1.8007507E0,1.2437134E0,0E0,0E0,0E0,0E0,6.7318726E-1,0E0,3.3751373E0,2.906948E0,2.1460075E0,3.0324993E0,2.5802536E0,5.114136E-1,2.9119034E0,2.3852463E0,2.7846632E0,9.098587E-1,7.5325966E-1,1.3527298E0,8.34507E-1,7.734394E-1,7.0651855E0,2.3587694E0,0E0,3.7343674E0,1.0267258E0,2.1381674E0,6.2107563E-1,1.1594062E0,3.725239E-1,8.701277E-1,1.1783571E0,3.8640413E0,3.4254318E-1,3.8503036E0,1.8975677E0,4.3317094E0,0E0,0E0,1.5307655E0,8.284707E-1,2.1782603E0,3.3620698E0,1.01388445E1,1.656353E0,8.628845E0,5.105982E0,1.0473688E0,9.249916E-1,6.1893E-1,1.100985E0,5.372966E1,1.8789734E1,1.2912323E1,1.1611244E1,0E0,0E0,9.877889E-1,1.5335393E0,4.551468E-1,1.5765638E0,0E0,6.417928E-1,1.409399E0,3.532474E0,1.7997942E1,3.5498657E0,2.4819431E0,1.3905926E0,4.9906316E0,3.4430904E0,4.288714E-1,4.5549247E-1,2.2213287E0,1.9187522E0,2.0292323E0,6.6498566E-1,1.1954911E0,1.2368912E0,8.110237E-1,1.060112E0,3.733225E-1,4.815874E-1,1.2336922E0,1.0922563E0,1.4962997E0,1.7257786E0,0E0,4.011593E-1,0E0,0E0,1.7760696E0,3.4044266E-1,1.5483246E0,4.1862488E-1,2.2324238E0,5.5944824E-1,5.218048E-1,7.665558E-1,0E0,0E0,7.887211E-1,1.3490295E0,1.6016617E0,3.2879066E-1,9.873705E-1,1.0529364E0,8.8012505E-1,6.013043E-1,4.0750885E-1,5.610428E-1,0E0,3.1056023E-1,8.68042E-1,1.0406761E0,1.4331741E0,9.3097305E-1,3.005061E-1,0E0,0E0,1.3225632E0,0E0,0E0,1.372963E0,0E0,4.3413734E-1,6.891899E-1,0E0,6.2750816E-1,2.308258E0,0E0,1.1361694E0,0E0,3.16967E-1,2.0522842E0,0E0,6.027889E-1,1.2706966E0,1.2869625E0,0E0,0E0,3.674116E-1,4.343146E-1,0E0,0E0,1.0097609E0,4.758649E-1,1.3333821E0,9.274787E-1,1.7049637E0,1.0041803E0,0E0,0E0,2.5180244E0,2.1951015E0,1.0798407E0,1.0546131E0,1.7029732E0,1.377523E0,0E0,7.968788E-1,0E0,0E0,4.8606324E-1,1.6180596E0,2.3241649E0,1.0541673E0,3.0811806E0,4.174757E0,1.2872872E0,8.199196E-1,4.3153915E0,4.6947327E0,1.8141037E0,2.2821312E0,0E0,3.1309187E-1,5.149126E-1,4.8596382E-1,5.893833E-1,3.979537E-1,3.8773417E-1,4.964524E-1,9.008972E0,1.1239784E1,3.2898893E0,1.3568054E1,2.6405602E0,7.49411E0,5.373438E0,5.0216446E0,4.240458E-1,6.192119E-1,6.313553E-1,3.617926E-1,1.6068592E0,0E0,3.9199424E-1,6.706581E-1,0E0,0E0,7.767172E-1,4.6357515E-1,0E0,1.2847179E0,6.456995E-1,3.0365467E0,7.26841E-1,3.5082302E0,1.2161822E0,1.4231038E0,9.11417E-1,6.8817043E-1,3.3644934E0,3.028186E0,2.4342523E0,2.2571182E0,3.0200085E-1,0E0,4.896742E-1,0E0,5.3191376E-1,0E0,0E0,0E0,4.753013E-1,6.042117E-1,3.317418E-1,3.6921406E-1,6.5110064E-1,9.177692E-1,3.2983226E-1,5.974701E-1,4.90139E-1,0E0,5.616207E-1,8.166199E-1,0E0,0E0,3.4317875E-1,0E0,4.257059E-1,7.8726625E-1,4.9075377E-1,0E0,1.263874E0,1.0131836E0,9.1400254E-1,3.5434008E0,0E0,0E0,5.561962E-1,0E0,0E0,0E0,4.553423E-1,5.257797E-1,0E0,0E0,0E0,0E0,0E0,0E0,0E0,0E0,0E0,0E0,0E0,0E0,9.5903206E-1,3.4239006E-1,8.256023E-1,5.3673935E-1,3.1638718E-1,0E0,7.054045E-1,7.366457E-1,4.2352593E-1,4.574709E-1,7.6522064E-1,0E0,3.0581486E-1,0E0,3.010559E-1,4.0590572E-1,3.9906693E-1,3.372841E-1,0E0,0E0,4.0813446E-1,5.1797867E-1,8.6566544E-1,4.595995E-1,0E0,8.831253E-1,4.7888517E-1,0E0,0E0,0E0,5.407028E-1,0E0,4.8013496E-1,3.020439E-1,0E0,0E0,0E0,0E0,3.1260204E-1,0E0,1.1833191E0,1.9386063E0,4.1013432E-1,3.7930393E-1,0E0,0E0,2.1402588E0,0E0,0E0,0E0,4.133191E-1,0E0,4.5947528E-1,0E0,0E0,0E0,0E0,0E0,0E0,0E0,0E0,0E0,3.0641627E-1,3.2188177E-1,0E0,5.0703E-1,3.348511E-1,5.097456E-1,6.711245E-1,3.242874E-1,7.9472923E-1,5.219765E-1,1.6466556E0,4.2690718E-1,3.5095978E-1,5.298624E-1,0E0,3.4634972E-1,7.332902E-1,4.6403238E-1,7.5280464E-1,4.349904E-1,0E0,0E0,0E0,0E0,1.5959573E0,4.6846777E-1,1.5035993E0,1.833061E0,3.5163975E-1,0E0,1.6378901E0,2.7530932E0,2.3991156E0,1.0124474E0,0E0,0E0,4.6934605E-1,0E0,3.7593098E0,9.024528E-1,3.822258E0,3.6305847E0,6.552452E-1,3.9155132E-1,8.8500786E-1,1.916956E0,0E0,0E0,0E0,0E0,0E0,7.0246553E-1,3.299051E-1,0E0,0E0,0E0,0E0,0E0,0E0,3.3469772E-1,2.399045E0,4.1709595E0,4.5850015E0,3.8131876E0,5.8749E-1,1.1818104E0,7.0407104E0,3.4956055E0,2.0737E0,1.9256096E0,4.9460754E0,3.1163273E0,6.068306E0,2.3010423E0,1.4589196E1,4.8433914E0,0E0,0E0,0E0,0E0,0E0,0E0,0E0,0E0,4.217577E-1,0E0,0E0,0E0,0E0,0E0,7.8224945E-1,0E0,0E0,0E0,1.3140827E0,0E0,5.18713E-1,4.6785688E-1,6.3782215E-1,8.380008E-1,1.0436001E0,7.625923E-1,1.5244217E0,1.2658443E0,4.3767846E-1,1.8337331E0,5.68758E-1,1.6358562E0,0E0,7.8456116E-1,0E0,0E0,1.9446397E0,4.5756245E-1,1.225514E0,3.2133126E-1,1.1030643E0,2.4783852E0,1.1797464E0,1.0657568E0,0E0,0E0,0E0,0E0,0E0,0E0,0E0,3.2047528E-1,0E0,3.5873654E-1,0E0,0E0,0E0,0E0,3.003987E-1,0E0,5.0949055E-1,0E0,0E0,0E0,3.715769E-1,0E0,0E0,0E0,5.321617E-1,0E0,5.4683256E-1,3.920622E-1,0E0,0E0,3.977518E-1,0E0,0E0,3.577363E-1,0E0,4.357881E-1,4.4771004E-1,8.130863E-1,1.3325386E0,3.9902878E-1,3.1126243E-1,6.761428E-1,8.706207E-1,1.3532004E0,0E0,0E0,0E0,0E0,4.6377277E-1,0E0,5.574999E-1,0E0,4.5329762E-1,0E0,0E0,0E0,3.8739777E-1,0E0,0E0,0E0,0E0,0E0,6.3139915E-1,0E0,0E0,3.376405E-1,0E0,3.530388E-1,6.786003E-1,0E0,3.2366455E-1,0E0,0E0,4.5688248E-1,3.1551838E-1,0E0,0E0,3.780899E-1,0E0,0E0,0E0,0E0,0E0,4.8181915E-1,4.2118073E-1,5.1881886E-1,0E0,0E0,0E0,5.675087E-1,0E0,0E0,4.0195084E-1,0E0,0E0,0E0,0E0,0E0,0E0,3.2112694E-1,0E0,0E0,6.451607E-1,9.982872E-1,4.6714067E-1,0E0,0E0,0E0,0E0,0E0,0E0,4.2690164E-1,3.5775673E-1,0E0,0E0,0E0,0E0,0E0,0E0,3.6094654E-1,0E0,0E0,0E0,4.2275405E-1,4.6733147E-1,0E0,0E0,0E0,0E0,0E0,4.1363525E-1,0E0,7.0092916E-1,3.135183E-1,0E0,0E0,0E0,0E0,0E0,3.1053305E-1,3.595624E-1,0E0,0E0,4.524181E-1,0E0,0E0,5.075538E-1,5.286892E-1,0E0,3.4292126E-1,1.3549852E0,0E0,0E0,0E0,8.6340725E-1,2.1320808E0,7.9794645E-1,1.1746225E0,0E0,0E0,0E0,0E0,8.7516737E-1,1.4939953E0,1.4939363E0,1.8550568E0,5.368135E-1,3.9043427E-1,3.5546207E-1,0E0,2.9562473E0,1.2564617E0,9.361905E-1,0E0,1.150754E0,2.0429459E0,5.859761E-1,1.754837E0,3.0772275E-1,0E0,0E0,0E0,7.3171616E-1,0E0,6.388854E-1,7.0339584E-1,0E0,0E0,4.7456834E-1,0E0,0E0,0E0,1.2278925E0,1.267479E0,1.3226357E0,2.9277954E0,7.080679E-1,5.122667E0,4.027863E0,1.6617556E0,6.738407E-1,0E0,5.788298E-1,0E0,2.0450745E0,3.5533752E0,2.885727E0,1.3557944E0,1.746067E0,0E0,6.743908E-1,7.7236366E-1,9.389473E0,1.908371E0,3.1932929E0,4.7494793E-1,1.5627345E0,3.1313915E0,4.7163284E-1,1.7105398E0,1.0724087E0,1.5048599E0,9.147339E-1,1.487463E0,3.6155605E-1,0E0,0E0,7.653427E-1,3.2632482E-1,5.51257E-1,0E0,4.990201E-1,0E0,0E0,9.4981337E-1,0E0,0E0,0E0,0E0,5.8258677E-1,0E0,0E0,7.088032E-1,3.7646353E-1,5.5076027E-1,5.3988385E-1,0E0,0E0,9.3016016E-1,5.763834E-1,0E0,3.3413744E-1,7.411001E-1,8.372514E-1,0E0,6.4931774E-1,6.789162E-1,5.1233244E-1,0E0,0E0,5.521451E-1,8.3759356E-1,0E0,0E0,3.4266233E-1,4.2572972E-1,1.4962463E0,4.723537E-1,4.9600494E-1,0E0,0E0,5.9156895E-1,3.53887E-1,0E0,0E0,0E0,0E0,0E0,0E0,0E0,0E0,0E0,0E0,4.3080044E-1,4.1213512E-1,0E0,0E0,0E0,0E0,0E0,0E0,0E0,0E0,3.7685135E-1,3.9241886E-1,0E0,0E0,4.6723962E-1,0E0,6.509571E-1,3.9205265E-1,0E0,0E0,0E0,0E0,0E0,4.1035557E-1,4.3489218E-1,1.0384514E0,7.280148E-1,0E0,0E0,0E0,0E0,0E0,0E0,0E0,0E0,6.6670895E-1,4.5657945E-1,0E0,0E0,0E0,3.109151E-1,0E0,5.215492E-1,3.0275273E-1,0E0,0E0,3.4149265E-1,0E0,0E0,3.8637543E-1,0E0,0E0,3.5207748E-1,0E0,3.8565612E-1,0E0,3.2020605E-1,0E0,0E0,0E0,0E0,0E0,0E0,0E0,0E0,4.075699E-1,0E0,0E0,0E0,0E0,0E0,0E0,0E0,0E0,0E0,0E0,0E0,0E0,3.8402718E-1,3.2270575E-1,3.215084E-1,5.0333095E-1,0E0,0E0,0E0,0E0,0E0,4.099064E-1,0E0,0E0,0E0,0E0,0E0,3.5977453E-1,0E0,0E0,0E0,9.171219E-1,1.3012376E0,7.3151255E-1,4.3469447E-1,1.9103668E0,6.277927E-1,6.3680124E-1,3.150673E-1,4.486959E-1,4.629728E-1,0E0,4.744364E-1,5.547527E-1,8.237921E-1,5.766442E-1,0E0,1.3967094E0,7.910212E-1,0E0,3.9266205E-1,0E0,0E0,0E0,0E0,2.7249613E0,1.3067608E0,1.2367277E0,6.2326217E-1,3.9412853E-1,0E0,0E0,8.547945E-1,8.198242E-1,4.0431976E-1,5.217205E-1,0E0,1.248249E0,6.406349E-1,0E0,0E0,5.1408577E-1,3.0603984E-1,0E0,0E0,1.0872564E0,0E0,0E0,0E0,0E0,3.830197E-1,7.8753376E-1,0E0,4.742775E-1,1.2949208E0,8.944855E-1,1.6248474E0,1.6584824E0,0E0,2.0353107E0,8.743907E-1,2.0228226E0,4.6992874E-1,0E0,1.3058662E0,6.6240513E-1,0E0,0E0,0E0,5.89241E-1,8.16391E-1,1.5202332E0,1.8835907E0,1.3223953E0,5.685272E-1,4.2624703E-1,0E0,0E0,9.248047E-1,0E0,5.4042006E-1,0E0,0E0,0E0,2.5293198E0,6.7710876E-1,8.442993E-1,6.088153E-1,3.5084414E-1,0E0,0E0,6.9408053E-1,0E0,8.4036005E-1,1.926754E0,0E0,0E0,8.825463E-1,1.099739E0,3.0331802E-1,5.1444674E-1,3.2638896E-1,4.1105625E-1,4.0659332E-1,6.680126E-1,6.739378E-1,7.7658844E-1,0E0,0E0,4.3015766E-1,0E0,0E0,0E0,0E0,0E0,0E0,0E0,0E0,0E0,0E0,0E0,3.3196452E-1,4.8270702E-1,0E0,0E0,0E0,0E0,0E0,0E0,0E0,6.9368505E-1,0E0,0E0,0E0,0E0,0E0,0E0,0E0,4.8412654E-1,0E0,5.5412483E-1,7.5987625E-1,3.1804144E-1,4.750955E-1,0E0,0E0,0E0,1.1798934E0,4.4384956E-1,0E0,0E0,0E0,4.5323056E-1,9.5997286E-1,5.6146586E-1,4.829332E-1,0E0,0E0,3.5961592E-1,0E0,3.52746E-1,0E0,0E0,0E0,0E0,0E0,0E0,0E0,0E0,0E0,0E0,3.5399354E-1,0E0,3.3011723E-1,0E0,0E0,0E0,0E0,0E0,3.949592E-1,0E0,3.788917E-1,0E0,3.152275E-1,3.247542E-1,0E0,0E0,0E0,0E0,0E0,0E0,0E0,0E0,0E0,0E0,0E0,0E0,0E0,0E0,0E0,0E0,3.0031323E-1,0E0,0E0,0E0,0E0,3.8687897E-1,0E0,3.188667E-1,0E0,0E0,0E0,3.6529827E-1,0E0,0E0,0E0,0E0,0E0,0E0,0E0,3.6327702E-1,3.9736947E-1,1.5860944E0,0E0,8.0059063E-1,4.0474036E-1,0E0,3.0821186E-1,9.134307E-1,0E0,0E0,0E0,3.7638694E-1,0E0,0E0,0E0,0E0,0E0,6.995484E-1,0E0,0E0,0E0,0E0,8.3096796E-1,8.678651E-1,7.0278454E-1,0E0,6.0281944E-1,9.725711E-1,5.842205E-1,4.6531153E-1,3.0704117E-1,0E0,1.8262024E0,7.089332E-1,3.7293017E-1,3.3106613E-1,0E0,6.7185694E-1,0E0,0E0,0E0,0E0,0E0,4.0717602E-1,0E0,7.6619816E-1,0E0,3.2266998E-1,4.0488207E-1,3.091588E-1,0E0,5.021782E-1,0E0,0E0,0E0,3.390336E-1,0E0,0E0,7.2817373E-1,4.007033E-1,0E0,0E0,0E0,3.2710838E-1,0E0,0E0,0E0,0E0,4.8982906E-1,7.8933716E-1,6.4131165E-1,0E0,9.115435E-1,3.1712076E-1,1.2271519E0,3.0397344E-1,9.3643475E-1,7.45052E-1,0E0,1.0101743E0,6.342349E-1,0E0,9.8077536E-1,0E0,3.7829095E-1,0E0,4.300747E-1,5.137701E-1,0E0,4.9482727E-1,3.6220932E-1,5.1208496E-1,6.854019E-1,0E0,9.268646E-1,0E0,0E0,0E0,0E0,0E0,0E0,7.1445465E-1,0E0,0E0,8.039551E-1,8.34816E-1,1.0006714E0,7.678757E-1,4.3094254E-1,8.911257E-1,0E0,0E0,0E0,0E0,3.6356497E-1,3.1636047E-1,0E0,0E0,5.930424E-1,1.7367401E0,0E0,3.8034847E-1,1.4321525E0,0E0,0E0,0E0,0E0,0E0,0E0,0E0,5.034329E-1,0E0,3.4552574E-1,0E0,0E0,0E0,3.737259E-1,0E0,0E0,0E0,0E0,5.525706E-1,0E0,0E0,3.495636E-1,0E0,0E0,3.6678767E-1,7.572531E-1,0E0,0E0,0E0,3.1841865E-1,0E0,4.8500854E-1,0E0,0E0,0E0,4.072584E-1,0E0,0E0,3.537484E-1,0E0,0E0,7.535722E-1,0E0,9.0886664E-1,0E0,0E0,0E0,0E0,0E0,0E0,0E0,0E0,0E0,0E0,0E0,0E0,0E0,0E0,4.8176458E-1,0E0,0E0,0E0,0E0,0E0,0E0,3.2073593E-1,0E0,0E0,0E0,0E0,0E0,0E0,0E0,0E0,0E0,5.094732E-1,9.2925215E-1,3.0631614E-1,5.3431946E-1,0E0,0E0,0E0,0E0,0E0,9.424677E-1,0E0,0E0,0E0,3.4161046E-1,3.4626174E-1,0E0,4.3372583E-1,5.889458E-1,5.920205E-1,0E0,4.417305E-1,0E0,0E0,0E0,4.721005E-1,3.7911645E-1,3.790037E-1,0E0,0E0,0E0,0E0,5.4066086E-1,0E0,4.0045798E-1,4.159844E-1,0E0,0E0,0E0,0E0,3.005067E-1,0E0,0E0,0E0,0E0,0E0,0E0,0E0,0E0,0E0,0E0,3.2049942E-1,0E0,0E0,0E0,3.4924507E-1,0E0,3.1007433E-1,0E0,0E0,0E0,0E0,0E0,3.8633728E-1,6.3814354E-1,3.884163E-1,0E0,3.4826615E-1,0E0,0E0,0E0,3.2515907E-1,0E0,0E0,0E0,5.4384303E-1,0E0,0E0,0E0,0E0,4.7923428E-1,0E0,0E0,3.0656967E-1,5.5455065E-1,0E0,0E0,0E0,0E0,0E0,0E0,4.7850037E-1,6.290283E-1,0E0,0E0,0E0,6.103935E-1,6.1956656E-1,3.7890625E-1,3.3076218E-1,5.065403E-1,3.52602E-1,0E0,0E0,7.9860306E-1,5.1237583E-1,0E0,3.8432312E-1,4.45944E-1,0E0,0E0,0E0,3.4537125E-1,4.0435693E-1,3.7854385E-1,0E0,4.417932E-1,0E0,0E0,3.2268095E-1,3.0757558E-1,1.1059322E0,0E0,0E0,0E0,1.465486E0,4.2968035E-1,0E0,0E0,0E0,0E0,0E0,0E0,0E0,0E0,0E0,0E0,4.1424704E-1,0E0,5.2581203E-1,0E0,0E0,0E0,0E0,0E0,0E0,0E0,0E0,0E0,7.799774E-1,4.494729E-1,0E0,3.6286667E-1,0E0,0E0,0E0,3.5051537E-1,4.106209E-1,0E0,0E0,9.428761E-1,0E0,0E0,0E0,0E0,3.0652452E-1,9.226402E-1,0E0,4.317224E-1,0E0,0E0,0E0,4.4213003E-1,6.0674995E-1,0E0,0E0,0E0,3.7187672E-1,0E0,6.1184525E-1,0E0,0E0,0E0,0E0,0E0,0E0,0E0,0E0,0E0,0E0,0E0,0E0,0E0,0E0,0E0,0E0,0E0,0E0,0E0,0E0,0E0,0E0,3.1360245E-1,0E0,0E0,0E0,0E0,0E0,0E0,0E0,3.3475924E-1,0E0,0E0,0E0,0E0,0E0,0E0,0E0,0E0,0E0,0E0,0E0,0E0,0E0,0E0,4.8085356E-1,3.4280586E-1,0E0,0E0,0E0,3.132553E-1,3.0436134E-1,0E0,0E0,3.8236237E-1,4.0970993E-1,6.345345E-1,0E0,0E0,0E0,0E0,0E0,0E0,0E0,0E0,0E0,3.1837845E-1,0E0,0E0,0E0,0E0,0E0,0E0,5.2959824E-1,6.54933E-1,6.4689755E-1,3.585171E-1,3.240142E-1,0E0,3.9485168E-1,0E0,0E0,0E0,0E0,0E0,0E0,5.111475E-1,0E0,0E0,0E0,3.3436012E-1,0E0,0E0,4.7073343E-1,6.8279076E-1,0E0,0E0,0E0,3.2491374E-1,0E0,0E0,0E0,3.4678057E-1,0E0,0E0,0E0,4.1513538E-1,0E0,0E0,0E0,0E0,0E0,0E0,0E0,0E0,0E0,0E0,0E0,0E0,0E0,0E0,0E0,0E0,0E0,0E0,0E0,0E0,3.4501314E-1,0E0,3.4399986E-1,0E0,7.0636845E-1,6.956911E-1,0E0,0E0,0E0,0E0,0E0,0E0,0E0,0E0,0E0,3.0843687E-1,0E0,0E0,0E0,0E0,0E0,0E0,0E0,0E0,0E0,0E0,3.4207898E-1,0E0,0E0,0E0,0E0,0E0,0E0,0E0,4.440155E-1,5.34179E-1,0E0,0E0,0E0,0E0,0E0,0E0,0E0,0E0],"parents":[2147483647,0,0,1,1,2,2,3,3,4,4,5,5,6,6,7,7,8,8,9,9,10,10,11,11,12,12,13,13,14,14,15,15,16,16,17,17,18,18,19,19,20,20,21,21,22,22,23,23,24,24,25,25,26,26,27,27,28,28,29,29,30,30,31,31,32,32,33,33,34,34,35,35,36,36,37,37,38,38,39,39,40,40,41,41,42,42,43,43,44,44,45,45,46,46,47,47,48,48,49,49,50,50,51,51,53,53,54,54,55,55,56,56,57,57,58,58,59,59,60,60,61,61,62,62,63,63,64,64,65,65,66,66,67,67,68,68,69,69,70,70,71,71,72,72,73,73,74,74,75,75,76,76,77,77,78,78,79,79,80,80,81,81,82,82,83,83,84,84,85,85,86,86,87,87,88,88,89,89,90,90,91,91,92,92,93,93,94,94,95,95,96,96,97,97,98,98,101,101,102,102,107,107,109,109,110,110,111,111,112,112,113,113,114,114,115,115,116,116,117,117,118,118,119,119,120,120,121,121,122,122,123,123,124,124,126,126,127,127,128,128,129,129,130,130,131,131,132,132,133,133,134,134,135,135,136,136,137,137,138,138,141,141,142,142,143,143,144,144,145,145,146,146,147,147,148,148,149,149,150,150,151,151,152,152,153,153,154,154,155,155,156,156,159,159,160,160,161,161,162,162,164,164,165,165,166,166,167,167,168,168,169,169,170,170,171,171,172,172,173,173,174,174,175,175,176,176,177,177,178,178,179,179,180,180,181,181,182,182,183,183,184,184,185,185,186,186,187,187,188,188,190,190,193,193,194,194,195,195,196,196,197,197,198,198,199,199,200,200,203,203,204,204,205,205,206,206,207,207,208,208,209,209,210,210,211,211,212,212,214,214,215,215,216,216,217,217,218,218,219,219,222,222,225,225,227,227,228,228,230,230,231,231,233,233,235,235,236,236,238,238,239,239,240,240,243,243,244,244,247,247,248,248,249,249,250,250,251,251,252,252,255,255,256,256,257,257,258,258,259,259,260,260,262,262,265,265,266,266,267,267,268,268,269,269,270,270,271,271,272,272,273,273,274,274,275,275,276,276,278,278,279,279,280,280,281,281,282,282,283,283,284,284,285,285,286,286,287,287,288,288,289,289,290,290,291,291,292,292,293,293,294,294,295,295,296,296,297,297,299,299,300,300,303,303,304,304,306,306,307,307,308,308,309,309,310,310,311,311,312,312,313,313,314,314,315,315,316,316,317,317,318,318,319,319,321,321,323,323,327,327,328,328,329,329,330,330,331,331,332,332,333,333,334,334,335,335,337,337,338,338,341,341,343,343,344,344,345,345,347,347,348,348,349,349,350,350,353,353,357,357,358,358,371,371,372,372,373,373,374,374,375,375,377,377,378,378,379,379,380,380,381,381,383,383,385,385,386,386,387,387,388,388,391,391,392,392,393,393,394,394,396,396,397,397,401,401,403,403,404,404,409,409,411,411,412,412,413,413,414,414,417,417,421,421,423,423,433,433,434,434,436,436,437,437,438,438,439,439,440,440,441,441,442,442,443,443,444,444,445,445,446,446,448,448,449,449,450,450,451,451,452,452,457,457,458,458,459,459,460,460,461,461,463,463,464,464,465,465,466,466,469,469,471,471,472,472,473,473,474,474,475,475,476,476,477,477,478,478,484,484,485,485,492,492,493,493,494,494,495,495,496,496,497,497,498,498,499,499,500,500,501,501,502,502,503,503,504,504,505,505,506,506,507,507,508,508,517,517,523,523,527,527,529,529,530,530,531,531,532,532,533,533,534,534,535,535,536,536,537,537,538,538,539,539,540,540,542,542,545,545,546,546,547,547,548,548,549,549,550,550,551,551,552,552,560,560,562,562,567,567,569,569,573,573,577,577,579,579,580,580,583,583,586,586,588,588,589,589,590,590,591,591,592,592,593,593,594,594,595,595,596,596,601,601,603,603,605,605,609,609,615,615,618,618,620,620,621,621,623,623,626,626,627,627,630,630,636,636,637,637,638,638,642,642,645,645,652,652,655,655,656,656,657,657,664,664,665,665,672,672,676,676,677,677,683,683,685,685,686,686,692,692,693,693,696,696,699,699,700,700,702,702,703,703,707,707,708,708,709,709,710,710,715,715,716,716,717,717,718,718,719,719,720,720,721,721,723,723,724,724,725,725,727,727,728,728,729,729,730,730,731,731,735,735,737,737,738,738,741,741,745,745,746,746,747,747,748,748,749,749,750,750,751,751,752,752,753,753,755,755,757,757,758,758,759,759,760,760,761,761,763,763,764,764,765,765,766,766,767,767,768,768,769,769,770,770,771,771,772,772,773,773,774,774,775,775,776,776,777,777,780,780,781,781,782,782,784,784,787,787,792,792,795,795,796,796,797,797,798,798,801,801,802,802,804,804,805,805,806,806,808,808,809,809,810,810,813,813,814,814,817,817,818,818,819,819,820,820,821,821,824,824,825,825,836,836,837,837,846,846,847,847,850,850,852,852,853,853,859,859,860,860,861,861,862,862,871,871,872,872,876,876,878,878,879,879,882,882,885,885,888,888,890,890,892,892,901,901,914,914,915,915,916,916,917,917,923,923,929,929,933,933,934,934,935,935,936,936,937,937,938,938,939,939,940,940,941,941,942,942,944,944,945,945,946,946,947,947,949,949,950,950,952,952,957,957,958,958,959,959,960,960,961,961,964,964,965,965,966,966,967,967,969,969,970,970,973,973,974,974,977,977,982,982,983,983,985,985,986,986,987,987,988,988,989,989,991,991,992,992,993,993,994,994,996,996,997,997,1001,1001,1002,1002,1003,1003,1004,1004,1005,1005,1006,1006,1007,1007,1010,1010,1012,1012,1016,1016,1017,1017,1018,1018,1019,1019,1020,1020,1023,1023,1025,1025,1026,1026,1029,1029,1030,1030,1031,1031,1032,1032,1033,1033,1034,1034,1035,1035,1036,1036,1037,1037,1038,1038,1041,1041,1053,1053,1054,1054,1062,1062,1070,1070,1072,1072,1073,1073,1074,1074,1075,1075,1079,1079,1080,1080,1084,1084,1085,1085,1086,1086,1087,1087,1090,1090,1092,1092,1103,1103,1105,1105,1111,1111,1113,1113,1115,1115,1116,1116,1133,1133,1138,1138,1140,1140,1144,1144,1152,1152,1153,1153,1154,1154,1156,1156,1157,1157,1159,1159,1160,1160,1164,1164,1170,1170,1175,1175,1176,1176,1177,1177,1179,1179,1180,1180,1181,1181,1182,1182,1183,1183,1185,1185,1186,1186,1187,1187,1188,1188,1190,1190,1196,1196,1198,1198,1200,1200,1201,1201,1202,1202,1204,1204,1208,1208,1211,1211,1212,1212,1216,1216,1221,1221,1222,1222,1223,1223,1225,1225,1226,1226,1227,1227,1228,1228,1229,1229,1230,1230,1232,1232,1233,1233,1235,1235,1237,1237,1239,1239,1240,1240,1242,1242,1243,1243,1244,1244,1245,1245,1247,1247,1254,1254,1257,1257,1258,1258,1259,1259,1260,1260,1261,1261,1262,1262,1267,1267,1268,1268,1271,1271,1272,1272,1274,1274,1275,1275,1283,1283,1285,1285,1289,1289,1294,1294,1297,1297,1300,1300,1301,1301,1305,1305,1307,1307,1311,1311,1314,1314,1317,1317,1319,1319,1334,1334,1341,1341,1351,1351,1352,1352,1353,1353,1354,1354,1360,1360,1364,1364,1365,1365,1367,1367,1368,1368,1369,1369,1371,1371,1375,1375,1376,1376,1377,1377,1382,1382,1384,1384,1385,1385,1390,1390,1401,1401,1405,1405,1407,1407,1413,1413,1414,1414,1415,1415,1417,1417,1421,1421,1425,1425,1430,1430,1433,1433,1434,1434,1441,1441,1442,1442,1446,1446,1447,1447,1448,1448,1449,1449,1450,1450,1451,1451,1454,1454,1455,1455,1457,1457,1458,1458,1462,1462,1463,1463,1464,1464,1466,1466,1469,1469,1470,1470,1471,1471,1475,1475,1476,1476,1487,1487,1489,1489,1499,1499,1500,1500,1502,1502,1506,1506,1507,1507,1510,1510,1515,1515,1516,1516,1518,1518,1522,1522,1523,1523,1527,1527,1529,1529,1552,1552,1560,1560,1575,1575,1576,1576,1580,1580,1581,1581,1584,1584,1585,1585,1586,1586,1596,1596,1603,1603,1604,1604,1605,1605,1606,1606,1607,1607,1609,1609,1616,1616,1620,1620,1623,1623,1624,1624,1628,1628,1632,1632,1636,1636,1657,1657,1659,1659,1661,1661,1662,1662,1672,1672,1683,1683,1691,1691,1692,1692],"right_children":[2,4,6,8,10,12,14,16,18,20,22,24,26,28,30,32,34,36,38,40,42,44,46,48,50,52,54,56,58,60,62,64,66,68,70,72,74,76,78,80,82,84,86,88,90,92,94,96,98,100,102,104,-1,106,108,110,112,114,116,118,120,122,124,126,128,130,132,134,136,138,140,142,144,146,148,150,152,154,156,158,160,162,164,166,168,170,172,174,176,178,180,182,184,186,188,190,192,194,196,-1,-1,198,200,-1,-1,-1,-1,202,-1,204,206,208,210,212,214,216,218,220,222,224,226,228,230,232,234,-1,236,238,240,242,244,246,248,250,252,254,256,258,260,-1,-1,262,264,266,268,270,272,274,276,278,280,282,284,286,288,290,292,-1,-1,294,296,298,300,-1,302,304,306,308,310,312,314,316,318,320,322,324,326,328,330,332,334,336,338,340,342,344,346,348,350,-1,352,-1,-1,354,356,358,360,362,364,366,368,-1,-1,370,372,374,376,378,380,382,384,386,388,-1,390,392,394,396,398,400,-1,-1,402,-1,-1,404,-1,406,408,-1,410,412,-1,414,-1,416,418,-1,420,422,424,-1,-1,426,428,-1,-1,430,432,434,436,438,440,-1,-1,442,444,446,448,450,452,-1,454,-1,-1,456,458,460,462,464,466,468,470,472,474,476,478,-1,480,482,484,486,488,490,492,494,496,498,500,502,504,506,508,510,512,514,516,518,-1,520,522,-1,-1,524,526,-1,528,530,532,534,536,538,540,542,544,546,548,550,552,554,-1,556,-1,558,-1,-1,-1,560,562,564,566,568,570,572,574,576,-1,578,580,-1,-1,582,-1,584,586,588,-1,590,592,594,596,-1,-1,598,-1,-1,-1,600,602,-1,-1,-1,-1,-1,-1,-1,-1,-1,-1,-1,-1,604,606,608,610,612,-1,614,616,618,620,622,-1,624,-1,626,628,630,632,-1,-1,634,636,638,640,-1,642,644,-1,-1,-1,646,-1,648,650,-1,-1,-1,-1,652,-1,654,656,658,660,-1,-1,662,-1,-1,-1,664,-1,666,-1,-1,-1,-1,-1,-1,-1,-1,-1,668,670,-1,672,674,676,678,680,682,684,686,688,690,692,-1,694,696,698,700,702,-1,-1,-1,-1,704,706,708,710,712,-1,714,716,718,720,-1,-1,722,-1,724,726,728,730,732,734,736,738,-1,-1,-1,-1,-1,740,742,-1,-1,-1,-1,-1,-1,744,746,748,750,752,754,756,758,760,762,764,766,768,770,772,774,776,-1,-1,-1,-1,-1,-1,-1,-1,778,-1,-1,-1,-1,-1,780,-1,-1,-1,782,-1,784,786,788,790,792,794,796,798,800,802,804,806,-1,808,-1,-1,810,812,814,816,818,820,822,824,-1,-1,-1,-1,-1,-1,-1,826,-1,828,-1,-1,-1,-1,830,-1,832,-1,-1,-1,834,-1,-1,-1,836,-1,838,840,-1,-1,842,-1,-1,844,-1,846,848,850,852,854,856,858,860,862,-1,-1,-1,-1,864,-1,866,-1,868,-1,-1,-1,870,-1,-1,-1,-1,-1,872,-1,-1,874,-1,876,878,-1,880,-1,-1,882,884,-1,-1,886,-1,-1,-1,-1,-1,888,890,892,-1,-1,-1,894,-1,-1,896,-1,-1,-1,-1,-1,-1,898,-1,-1,900,902,904,-1,-1,-1,-1,-1,-1,906,908,-1,-1,-1,-1,-1,-1,910,-1,-1,-1,912,914,-1,-1,-1,-1,-1,916,-1,918,920,-1,-1,-1,-1,-1,922,924,-1,-1,926,-1,-1,928,930,-1,932,934,-1,-1,-1,936,938,940,942,-1,-1,-1,-1,944,946,948,950,952,954,956,-1,958,960,962,-1,964,966,968,970,972,-1,-1,-1,974,-1,976,978,-1,-1,980,-1,-1,-1,982,984,986,988,990,992,994,996,998,-1,1000,-1,1002,1004,1006,1008,1010,-1,1012,1014,1016,1018,1020,1022,1024,1026,1028,1030,1032,1034,1036,1038,1040,-1,-1,1042,1044,1046,-1,1048,-1,-1,1050,-1,-1,-1,-1,1052,-1,-1,1054,1056,1058,1060,-1,-1,1062,1064,-1,1066,1068,1070,-1,1072,1074,1076,-1,-1,1078,1080,-1,-1,1082,1084,1086,1088,1090,-1,-1,1092,1094,-1,-1,-1,-1,-1,-1,-1,-1,-1,-1,1096,1098,-1,-1,-1,-1,-1,-1,-1,-1,1100,1102,-1,-1,1104,-1,1106,1108,-1,-1,-1,-1,-1,1110,1112,1114,1116,-1,-1,-1,-1,-1,-1,-1,-1,1118,1120,-1,-1,-1,1122,-1,1124,1126,-1,-1,1128,-1,-1,1130,-1,-1,1132,-1,1134,-1,1136,-1,-1,-1,-1,-1,-1,-1,-1,1138,-1,-1,-1,-1,-1,-1,-1,-1,-1,-1,-1,-1,1140,1142,1144,1146,-1,-1,-1,-1,-1,1148,-1,-1,-1,-1,-1,1150,-1,-1,-1,1152,1154,1156,1158,1160,1162,1164,1166,1168,1170,-1,1172,1174,1176,1178,-1,1180,1182,-1,1184,-1,-1,-1,-1,1186,1188,1190,1192,1194,-1,-1,1196,1198,1200,1202,-1,1204,1206,-1,-1,1208,1210,-1,-1,1212,-1,-1,-1,-1,1214,1216,-1,1218,1220,1222,1224,1226,-1,1228,1230,1232,1234,-1,1236,1238,-1,-1,-1,1240,1242,1244,1246,1248,1250,1252,-1,-1,1254,-1,1256,-1,-1,-1,1258,1260,1262,1264,1266,-1,-1,1268,-1,1270,1272,-1,-1,1274,1276,1278,1280,1282,1284,1286,1288,1290,1292,-1,-1,1294,-1,-1,-1,-1,-1,-1,-1,-1,-1,-1,-1,1296,1298,-1,-1,-1,-1,-1,-1,-1,1300,-1,-1,-1,-1,-1,-1,-1,1302,-1,1304,1306,1308,1310,-1,-1,-1,1312,1314,-1,-1,-1,1316,1318,1320,1322,-1,-1,1324,-1,1326,-1,-1,-1,-1,-1,-1,-1,-1,-1,-1,1328,-1,1330,-1,-1,-1,-1,-1,1332,-1,1334,-1,1336,1338,-1,-1,-1,-1,-1,-1,-1,-1,-1,-1,-1,-1,-1,-1,-1,-1,1340,-1,-1,-1,-1,1342,-1,1344,-1,-1,-1,1346,-1,-1,-1,-1,-1,-1,-1,1348,1350,1352,-1,1354,1356,-1,1358,1360,-1,-1,-1,1362,-1,-1,-1,-1,-1,1364,-1,-1,-1,-1,1366,1368,1370,-1,1372,1374,1376,1378,1380,-1,1382,1384,1386,1388,-1,1390,-1,-1,-1,-1,-1,1392,-1,1394,-1,1396,1398,1400,-1,1402,-1,-1,-1,1404,-1,-1,1406,1408,-1,-1,-1,1410,-1,-1,-1,-1,1412,1414,1416,-1,1418,1420,1422,1424,1426,1428,-1,1430,1432,-1,1434,-1,1436,-1,1438,1440,-1,1442,1444,1446,1448,-1,1450,-1,-1,-1,-1,-1,-1,1452,-1,-1,1454,1456,1458,1460,1462,1464,-1,-1,-1,-1,1466,1468,-1,-1,1470,1472,-1,1474,1476,-1,-1,-1,-1,-1,-1,-1,1478,-1,1480,-1,-1,-1,1482,-1,-1,-1,-1,1484,-1,-1,1486,-1,-1,1488,1490,-1,-1,-1,1492,-1,1494,-1,-1,-1,1496,-1,-1,1498,-1,-1,1500,-1,1502,-1,-1,-1,-1,-1,-1,-1,-1,-1,-1,-1,-1,-1,-1,1504,-1,-1,-1,-1,-1,-1,1506,-1,-1,-1,-1,-1,-1,-1,-1,-1,1508,1510,1512,1514,-1,-1,-1,-1,-1,1516,-1,-1,-1,1518,1520,-1,1522,1524,1526,-1,1528,-1,-1,-1,1530,1532,1534,-1,-1,-1,-1,1536,-1,1538,1540,-1,-1,-1,-1,1542,-1,-1,-1,-1,-1,-1,-1,-1,-1,-1,1544,-1,-1,-1,1546,-1,1548,-1,-1,-1,-1,-1,1550,1552,1554,-1,1556,-1,-1,-1,1558,-1,-1,-1,1560,-1,-1,-1,-1,1562,-1,-1,1564,1566,-1,-1,-1,-1,-1,-1,1568,1570,-1,-1,-1,1572,1574,1576,1578,1580,1582,-1,-1,1584,1586,-1,1588,1590,-1,-1,-1,1592,1594,1596,-1,1598,-1,-1,1600,1602,1604,-1,-1,-1,1606,1608,-1,-1,-1,-1,-1,-1,-1,-1,-1,-1,1610,-1,1612,-1,-1,-1,-1,-1,-1,-1,-1,-1,1614,1616,-1,1618,-1,-1,-1,1620,1622,-1,-1,1624,-1,-1,-1,-1,1626,1628,-1,1630,-1,-1,-1,1632,1634,-1,-1,-1,1636,-1,1638,-1,-1,-1,-1,-1,-1,-1,-1,-1,-1,-1,-1,-1,-1,-1,-1,-1,-1,-1,-1,-1,-1,1640,-1,-1,-1,-1,-1,-1,-1,1642,-1,-1,-1,-1,-1,-1,-1,-1,-1,-1,-1,-1,-1,-1,1644,1646,-1,-1,-1,1648,1650,-1,-1,1652,1654,1656,-1,-1,-1,-1,-1,-1,-1,-1,-1,1658,-1,-1,-1,-1,-1,-1,1660,1662,1664,1666,1668,-1,1670,-1,-1,-1,-1,-1,-1,1672,-1,-1,-1,1674,-1,-1,1676,1678,-1,-1,-1,1680,-1,-1,-1,1682,-1,-1,-1,1684,-1,-1,-1,-1,-1,-1,-1,-1,-1,-1,-1,-1,-1,-1,-1,-1,-1,-1,-1,-1,1686,-1,1688,-1,1690,1692,-1,-1,-1,-1,-1,-1,-1,-1,-1,1694,-1,-1,-1,-1,-1,-1,-1,-1,-1,-1,1696,-1,-1,-1,-1,-1,-1,-1,1698,1700,-1,-1,-1,-1,-1,-1,-1,-1],"split_conditions":[-7.94287E-1,-2.6435E-1,4.08796E-1,6.32212E-1,-2.12455E-1,-4.97363E-1,-7.26292E-1,4.7811E-1,-1.40146E-1,6.16835E-1,1.771E-1,-6.66708E-1,2.77186E-1,1.25338E-1,4.42764E-1,3.1285295E0,4.1751E-1,9.52806E-1,-9.669777E1,4.46612E-1,1.62004E-1,3.4748738E0,6.89255E-1,-5.893E-3,8.7944E-2,1.4645E-1,5.508E-1,5.04967E-1,4.95125E-1,1.08738E-1,1.2336E-1,4.42764E-1,1.2467E-1,5.56535E-1,1.24033E0,-9.704906E1,-1.92915E-1,-9.609587E1,-3.25602E-1,-9.8714E-1,2.11357E-1,6.76996E-1,7.35384E-1,-9.253863E1,7.10153E-1,7.90951E-1,2.25844E-1,-6.10042E-1,4.4249153E0,-2.47894E0,1.02546E-1,1.7245882E0,-6.86839E-2,-7.64885E-1,8.7772E-2,4.38981E-1,1.02546E-1,6.95762E-1,6.72969E-1,-3.9897E-1,-7.067535E-1,4.7811E-1,5.54302E-1,-1.008214E0,-8.64885E-1,5.88101E-1,-1.342018E0,-5.0453E-1,1.251E-3,5.80621E-1,5.62112E-1,8.38977E-1,6.6893E-2,6.780841E0,-3.36866E-1,2.34985E-1,-4.1826E-1,3.4701204E0,1.602615E-1,2.0614748E0,5.62148E-1,5.35589E-1,-9.4221146E1,9.4163E-1,3.2273614E0,2.28827E-1,-1.4444E-1,6.6364E-1,4.1539254E0,5.139541E0,5.4427347E0,2.00283E-1,-1.73705E-1,1.532439E0,6.7375E-1,5.46244E-1,6.0432E-2,-9.2877075E1,-6.21562E-1,2.999675E-2,-3.2761324E-2,3.26601E-1,3.74061E-1,5.666342E-2,-3.162744E-2,-6.206992E-2,-1.6216289E-1,2.45973E-1,-1.5046649E-1,-4.69575E-1,1.06193E-1,5.450605E-1,5.63982E-1,4.56314E-1,6.424E-2,5.62148E-1,6.479285E0,1.7501E-1,6.327E-2,-8.517E-3,4.60458E-1,8.7772E-2,-1.039065E0,7.38679E-1,6.97903E-1,1.8058842E-2,-7.52847E-1,5.00542E-1,-5.38922E-1,-5.38922E-1,-6.62975E-1,7.6566544E0,4.274E-2,-4.425E-3,4.55758E-1,-1.022489E0,5.22295E-1,1.540375E0,9.63186E-1,-1.0482019E-1,-2.7723903E-2,3.1882E-1,-1.590996E0,7.5941E-1,8.51825E-1,2.265334E0,6.7545886E0,1.084152E0,6.90334E-1,-1.3756E-2,8.73826E-1,-9.475191E1,-9.5486336E1,-9.171974E1,5.8056E-2,4.9181E-2,9.13905E-1,-8.7282114E-2,-7.0661567E-3,-2.63684E-1,5.47139E-1,9.59766E-1,6.408005E-1,-8.8204555E-2,8.96887E-1,5.529662E0,-1.143358E0,-9.130116E1,1.2398E-1,3.7195E-2,1.551188E0,7.00209E-1,9.46601E-1,4.9675E-1,1.65136E-1,5.91933E-1,1.12919E-1,1.36409E-1,5.6336145E0,5.72368E-1,1.401294E0,-8.3067E-1,6.12672E-1,6.61987E-1,7.0616E-1,1.54119E-1,1.73305E0,2.58633E-1,1.2704E-1,-5.418464E-3,-8.10386E-1,-3.8019888E-2,-9.021951E-2,1.38372E-1,2.8126E-2,9.9713E-2,3.803583E0,-9.33689E1,-5.6504E-1,-9.589401E1,5.1146E-1,-5.7223897E-2,-1.2428428E-1,1.01709E-1,9.5836E-2,5.02E-1,8.26267E-1,4.144975E-1,4.85327E-1,5.531819E0,5.1964245E0,-6.95614E-1,1.5273885E0,-6.666165E-2,1.9787E-1,1.75985E-2,6.33046E-1,5.32068E-1,-7.73911E-1,4.9308735E-1,-1.4714704E-1,-3.606804E-2,-6.10042E-1,-6.5661566E-3,-6.0219646E-2,7.84994E-1,-9.754596E-2,-7.11264E-1,2.7352E-2,1.9983843E-2,6.499464E0,1.7256E-2,-1.0183375E-1,2.0533E-1,8.91333E-3,1.0850185E0,-4.24285E-1,-2.710325E-2,4.9308735E-1,4.66907E-1,3.5086E-1,-6.022939E-2,-2.8459713E-2,-9.17602E-1,4.90415E-1,3.9304268E-2,-1.5327439E-2,1.0321645E0,4.66907E-1,-4.05178E-1,-8.54616E-3,5.26873E-1,1.03504E-1,-1.2346811E-2,2.825771E-3,5.86486E-1,5.2159E-1,5.4303E-1,-9.560511E1,-8.49379E-1,1.118546E0,-4.1953214E-2,7.09222E-1,-4.6204433E-2,-1.5723845E-2,-2.369658E0,6.0935597E0,-3.14796E-1,1.28639E0,7.25636E-1,-2.11661E-1,-3.77555E0,1.503477E0,8.19149E-1,3.0516E-1,-8.21049E-1,2.79699E-1,-3.3093225E-2,6.021E-3,1.877406E0,2.0404E-1,-1.354521E0,1.24605E0,-2.051875E0,1.6382E-1,6.5233E-2,3.6239955E0,-1.04789E-1,5.460639E0,1.2398E-1,6.62869E-1,1.26967E0,4.024684E0,1.422811E0,1.04485E-1,4.88825E-1,5.98215E-1,1.527841E0,-3.3093884E-3,1.343915E-1,1.21447E0,1.2630083E-2,-3.9827425E-2,1.227666E0,4.56996E-1,-7.036132E-2,6.558065E-1,5.3492E-2,3.0356812E0,7.3262E-1,7.77144E-1,-1.18863E0,6.79605E-1,5.78052E-1,-9.0702484E1,6.7744617E0,6.6866474E0,-1.294894E0,1.35738E-1,-9.06791E-1,-1.4485124E-2,7.62762E-1,-3.8942553E-3,-1.002622E0,-4.0014934E-2,1.9091366E-2,-2.4749499E-2,5.91933E-1,6.25694E-1,-8.23191E-1,6.43596E-1,4.5405E-2,1.473656E0,-5.81438E-1,6.165086E0,-9.226275E1,-3.0325567E-2,1.063768E0,5.3635736E0,-9.949323E-2,-1.5527439E-2,-2.1135755E0,-3.875145E-2,8.50233E-1,7.54089E-1,7.74617E-1,2.6648173E-2,1.532439E0,8.38977E-1,1.02944E0,7.27635E-1,-7.0661567E-3,-4.836046E-2,8.2935E-1,-1.233084E-1,-1.3892435E-1,-5.0936587E-2,-5.45887E-1,3.8506E-2,-1.4527437E-2,-9.7259074E-2,6.1225626E-3,-1.4175753E-1,-7.992775E-2,-1.0117173E-1,-2.6527438E-2,-1.3475446E-1,-1.1214391E-1,-2.9536584E-2,-3.6636584E-2,-1.382039E-1,-4.97363E-1,-7.0206E-1,8.2033E-2,4.737295E-1,4.3936E-1,-5.9248783E-2,-3.39173E-1,5.5056763E0,-1.0361E-2,-7.81101E-1,8.26356E-1,-4.3051988E-2,3.6341E-2,-2.2556333E-2,4.16495E-1,4.785E-2,-7.81101E-1,1.3481E-2,-1.06689386E-1,-2.042744E-2,-7.7056E-1,5.1267E-1,-7.81101E-1,6.00011E-1,-4.4527E-2,-1.526192E0,4.2248E-2,-6.207341E-2,1.3722563E-2,-3.970325E-2,5.95305E-1,-6.88905E-2,-1.0361E-2,4.85327E-1,-2.541988E-2,-3.8018968E-2,-4.206323E-2,-6.329784E-2,7.728E-3,-3.565063E-2,1.26822E-1,4.84484E-1,7.26167E0,1.231793E0,-1.4209072E-1,-3.3327438E-2,-6.142E-3,-4.1115243E-2,-1.340694E-1,-4.1469917E-2,4.696E-3,-1.13766156E-1,6.78911E-1,-3.2744803E-2,1.1233843E-2,-2.1327158E-2,-1.4265371E-2,-4.8984145E-3,-3.7311833E-2,-5.219885E-3,-7.0966974E-2,-2.6029063E-2,9.5921E-2,-1.89E-3,1.4748784E-2,-6.17282E-1,2.3338E-2,-9.467931E1,1.054184E0,5.8695436E0,7.9218E-2,-8.75383E-1,-8.402145E-1,6.1029E-1,1.8864E-2,1.3232E-2,-5.8883637E-2,-9.57939E-1,6.02016E-1,1.0874E-2,6.06186E-1,-9.6310234E1,-1.0051697E-1,-5.876602E-2,-1.2369916E-2,3.3315264E-2,7.45217E-1,1.381684E0,-1.383594E0,7.85015E-1,1.21374E-1,-1.2549887E-2,6.919E-2,9.9454E-2,-3.03617E-1,2.328745E0,-6.2035136E-3,-2.6401151E-2,9.0432E-2,1.06361E-2,6.5495667E0,1.36041E-1,7.32149E-1,7.7011E-1,2.88835E-1,6.520735E-1,8.00443E-1,7.29859E-1,3.18161E-2,-3.0290636E-3,-4.5869388E-2,-9.3010515E-2,-2.577213E-2,-4.415E-2,3.17184E0,3.6458846E-2,-2.750303E-3,1.8498996E-2,-2.7137382E-2,-5.7361323E-2,-4.6045738E-4,7.60689E-1,6.43596E-1,-9.577914E1,1.511175E-1,2.6508095E0,6.98174E-1,2.7844E-2,-3.8371E-1,5.8627124E0,6.00992E-1,7.10153E-1,6.89255E-1,5.2358737E0,7.07517E-1,7.59062E-1,-9.206685E1,6.239848E0,-9.6577436E-2,-1.8436583E-2,1.2802868E-3,-1.598467E-2,2.193371E-2,7.5565944E-3,-4.2981138E-3,2.8610535E-3,7.05352E-1,-6.8771E-2,-5.945721E-3,-1.2562915E-2,-1.8870369E-2,-4.4786252E-2,8.38356E-1,-4.652744E-2,7.990966E-3,-6.893584E-3,6.395125E-1,-6.2461896E-3,-8.9963E-1,1.335927E0,7.14606E-1,5.628E-1,9.50116E-1,5.92191E0,5.2449646E0,5.301127E0,5.91195E-1,-8.87158E-1,6.1091E-1,-1.167041E0,-5.06045E-2,1.14727E0,-3.762939E-2,-9.706616E-2,7.5015E-2,8.50233E-1,-2.37825E-1,-2.61069E-1,8.88914E-1,6.300769E0,1.810406E0,-1.2466E-1,4.291601E-3,-2.2463901E-2,7.535008E-3,3.0691365E-2,-7.376503E-2,-1.2969918E-2,-3.1238012E-3,-9.6657E-1,-1.668047E-2,1.32125E-1,-7.5635402E-3,-1.5947506E-2,-2.8779779E-2,-1.7335854E-2,1.07133E-1,2.2446865E-2,5.0457697E0,2.8422842E-2,-2.159681E-2,-4.89451E-3,8.59992E-1,-1.8898785E-3,1.7330311E-3,-1.9871516E-2,5.23185E-1,-1.4699389E-2,6.1896024E0,5.7081E-1,-7.5526446E-2,-2.566616E-2,6.6421976E0,-1.046444E-2,-1.2462772E-2,6.2145033E0,4.739263E-3,8.43299E-1,5.9857E-2,8.17891E-1,9.83102E-1,1.36728E-1,1.589238E0,6.417969E0,1.055264E0,3.68365E-1,-8.72929E-2,-3.8729064E-2,-5.109036E-2,-6.8661566E-3,-7.19093E-1,-8.60048E-2,-2.94E-3,-5.7745766E-2,-8.17562E-1,-6.061396E-2,-1.9591158E-2,-9.45039E-2,4.50272E-1,-2.8501177E-2,-3.9030883E-2,-2.9305521E-2,-1.5566289E-2,4.267545E-4,5.27733E-1,-2.4300765E-2,1.51379155E-2,8.56364E-1,-1.0429203E-4,1.5344E-2,4.988E-1,-4.877939E-2,5.98215E-1,8.016365E-3,-2.4310516E-2,1.330317E0,1.2927E-1,-2.3291158E-2,-2.9333863E-2,-7.0095E-2,-1.8563902E-2,-5.6033045E-2,-1.911836E-2,-2.7127195E-2,7.042701E-4,4.8784E-1,1.054184E0,5.76003E-1,-2.7602738E-2,-1.8601464E-2,2.6230082E-2,6.86868E-1,-2.7100315E-2,-5.5858977E-2,3.27056E-1,1.3572562E-2,-2.8169919E-2,-9.8910056E-2,-4.4222385E-2,-6.90734E-2,-1.9561138E-2,5.62112E-1,-1.2151218E-2,-4.367533E-2,4.3041E-2,5.959716E0,6.11548E-1,-4.4242132E-2,-7.4919395E-2,-2.73839E-2,5.663417E-3,-9.7906135E-2,-4.808211E-2,-9.761402E1,-1.82418E-1,-1.1791338E-2,-4.410922E-3,-2.2682697E-2,-3.1963047E-2,-5.8015447E-2,3.1354495E-3,2.84752E-1,-1.08560035E-2,-4.353545E-4,3.7369449E-3,-8.2031E-1,5.13389E-1,-4.291616E-2,-1.03007285E-2,-2.3425108E-2,1.9101495E-2,1.183702E-2,8.29188E-1,2.214535E-2,-1.591834E0,-8.2612E-1,-5.4445725E-2,-9.383901E-3,-1.7604807E-2,-2.7759934E-2,-6.63254E-3,-8.32161E-1,4.6488833E0,-2.4078285E-2,9.027035E-4,5.74489E-1,3.1109995E-3,-7.840491E-3,-1.011033E0,-3.13819E-1,-5.519116E-2,-1.543999E0,7.55804E-1,-1.17935045E-2,-2.090068E-2,-2.4125357E-3,9.2382E-1,5.522053E0,7.5061674E0,-8.4433E-1,-9.90325E-3,-6.0417887E-2,2.4273446E-2,-2.0657329E-2,-4.09041E-1,-2.783715E-1,1.503477E0,-2.336005E0,9.27656E-1,8.19149E-1,2.238317E0,-5.0898935E-3,5.578031E0,1.9568E0,1.4649017E0,-2.9789388E-2,2.64836E-1,-4.03773E-1,2.15812E-1,1.818E-1,1.856152E0,-1.4654162E-2,-6.6953413E-3,1.4092783E-2,-1.11793E0,-2.27639E-2,3.0226E-1,2.316684E0,-6.416604E-2,-1.5929064E-2,1.302039E0,-1.667953E-2,-4.35839E-2,-1.4365661E-2,-9.40466E1,2.10075E-1,7.27635E-1,-3.67464E-1,1.1942E0,8.77937E-1,1.204406E0,6.3627E-2,6.424E-2,2.601306E-2,-9.57939E-1,3.4841564E-2,1.0662E-1,1.80007E-1,1.893174E0,1.692075E0,-1.00502E0,-2.886132E-2,3.331E-2,6.46866E-1,-1.147172E0,-2.9244E-1,-9.171974E1,8.020233E0,5.0755286E0,-1.245756E0,-1.323908E0,-1.277039E0,2.11357E-1,2.2194178E0,5.349299E0,6.88673E-1,5.2126E-1,-3.962041E-2,2.6121406E-2,6.60867E-1,1.0947E0,5.091825E0,2.9665072E-2,8.93131E-1,1.589324E-2,-2.5003253E-2,-1.277039E0,-2.8204752E-2,1.024275E-2,-1.4655816E-2,2.9933373E-2,6.80369E-1,3.4046747E-2,1.3229437E-2,4.249197E0,1.189212E0,5.5197E-2,1.478948E0,-3.679197E-2,-7.513523E-3,1.52712E-1,5.6653175E0,-1.2510336E-2,-9.42885E-1,5.1077476E0,1.71149E-1,1.4437603E-2,-9.257812E1,6.5914E-1,9.5924E-2,-6.7545734E-2,-3.3501003E-2,2.290972E0,7.73548E-1,-5.1662397E-2,-2.2879688E-2,7.36763E-1,-9.2325714E1,4.3185E-2,8.76207E-1,7.60374E-1,1.7742222E-2,1.2494318E-2,5.99036E-1,-1.88656E-1,8.377736E-3,2.13161E-2,-6.1883205E-3,2.2398174E-2,7.934134E-3,-1.5704645E-2,2.8148282E-3,6.991142E-3,2.1729229E-2,-6.448912E-2,1.035873E0,-1.7985775E0,-1.5517497E-2,-4.840238E-2,-3.1155432E-2,-1.7706791E-2,-2.9213656E-2,3.948161E-3,-6.7285965E-3,-2.516807E-2,6.413462E0,-9.3445496E1,-7.7178837E-3,4.994264E-4,5.96834E0,-3.0137107E-2,3.333815E-1,1.060448E0,-1.1722132E-2,-7.335733E-3,-2.3351219E-2,1.6897084E-2,-9.8413E-4,-1.73705E-1,3.9329E-1,2.12443E0,7.6156E-1,-4.135066E-2,-7.308868E-2,-2.4752725E-2,-4.0663507E-2,-7.44124E-2,-3.970578E-2,-2.6024768E-2,-1.9409446E-2,4.91445E-1,1.69025E-1,-2.36639E-2,3.3412334E-3,-5.0079036E-3,-9.07146E-1,-2.46119E-2,5.25185E-1,-2.06895E-1,-3.9639636E-3,-4.8537534E-2,-1.80792E-1,-4.1875612E-2,-8.3691224E-2,1.15447E-1,-1.696807E-2,-6.23624E-2,1.032823E0,-2.1499714E-2,-1.700581E0,-2.3123002E-2,6.969246E0,-3.0452302E-2,-6.716391E-2,-4.333473E-2,-5.4848846E-2,-2.8776515E-2,-6.993223E-3,-7.02624E-2,-2.1943903E-2,-2.286E-2,-9.5762394E-2,-2.764414E-2,1.5563415E-2,-3.1577438E-2,3.3772565E-2,-5.9016157E-2,-1.6118465E-2,-2.060357E-2,1.6930083E-2,1.3602458E-2,5.6815795E-3,-1.9350955E-2,1.108778E0,1.8625E-2,7.5594E-2,5.92547E-1,2.530387E-2,6.820194E-3,-2.1749348E-3,-1.1515091E-2,-1.8651178E-2,-9.4341934E1,-2.4989117E-2,1.9924631E-2,8.66448E-3,-5.4369915E-2,-1.2083034E-2,8.12437E-1,-5.864262E-3,-1.8123504E-2,-4.65039E-2,-1.932582E0,1.511175E-1,-1.611688E0,1.68116E0,-9.480628E1,1.367193E0,-9.5108925E1,-3.0306E-1,6.69939E-1,-9.198848E1,2.4081284E-2,6.3832936E0,-1.880127E0,7.67299E-1,-1.920454E0,8.662358E-3,1.9787E-1,2.1784E-1,-1.85639E-2,6.33586E0,1.7870476E-2,2.6454726E-2,-4.53254E-2,-3.0218998E-2,-9.2687096E1,7.00209E-1,-9.78512E-1,1.111686E0,-4.21195E-1,2.4722116E-2,3.424181E-2,6.77718E-1,9.4627E-2,1.26879E-1,7.37452E-1,2.016734E-2,-4.34574E-1,1.353806E0,-7.4345903E-3,3.8685661E-3,-3.04724E-1,1.51686E-1,7.7332794E-3,-2.8864334E-3,3.12069E-1,2.7362823E-2,-6.5865465E-3,1.3253276E-2,8.14275E-3,-3.72467E-1,4.811E-2,-2.9352696E-3,1.89274E-1,1.893174E0,8.64966E-1,1.9895E-1,7.03366E-1,2.3124313E-2,1.8034288E0,4.9308735E-1,5.3905E-2,3.16586E-1,-3.599116E-2,-9.7545E-2,1.20707E0,-7.904695E-3,2.5433961E-2,-4.136671E-3,6.073378E0,6.61987E-1,7.827E-2,1.11164E-1,-1.040349E0,-4.09041E-1,7.6737E-1,2.6712764E-2,-5.0936587E-2,-9.09247E-1,5.8755465E-3,-8.7705E-1,2.4144547E-2,-8.498017E-3,-6.714939E-2,1.2673E-1,7.0843E-2,6.10198E-1,-9.508121E1,1.8303926E0,3.839132E-2,1.4860118E-2,5.87099E-1,-1.3475368E-2,3.0128706E0,5.3473E-2,2.029675E-2,-2.244378E-2,5.0196223E0,6.5619926E0,-2.8356E-1,-9.5380936E1,8.18017E-1,-1.300194E0,-2.98906E-1,9.82307E-1,2.42902E-1,5.9785895E0,-3.5566017E-2,-2.0921191E-2,-2.38841E-1,2.4336854E-2,-1.1815026E-2,-1.0073606E-3,9.314845E-3,-2.3787324E-3,2.7829094E-2,1.1675612E-2,-8.8029064E-2,-3.846868E-2,1.9245509E-2,-1.6443899E-2,4.08695E-2,-8.7339E-1,-3.3377192E-3,7.4158655E-3,2.1724142E-2,3.118344E-2,7.3750257E-3,2.2452675E-2,-8.040274E-3,3.889E-2,-4.302163E-3,-2.0978576E-2,6.933844E-3,-2.5080765E-2,-2.6900157E-2,-5.1984224E-3,-9.447472E-3,5.1292124E0,-3.7670225E-2,-9.392574E1,7.60374E-1,1.13457E-1,6.66408E-1,-2.68329E-2,-2.9688945E-2,2.4102278E-4,3.22118E-1,1.66051E-1,-2.3158176E-2,-5.9962715E-3,1.8040612E-2,3.552713E0,8.8393E-1,7.88529E-1,8.5479E-1,-1.5836164E-2,1.3464901E-2,7.5410433E0,-2.2403251E-2,1.56449E-1,5.828583E-3,-9.412681E-3,-3.2025542E-2,-4.762863E-2,-3.2193016E-2,9.160996E-4,1.2416364E-2,-8.781488E-3,-1.1999356E-2,-2.8513938E-2,-1.526192E0,-2.6300574E-2,1.9334E-1,-2.0325083E-4,-3.0459104E-2,-1.6925035E-2,-5.0337132E-2,-2.6933214E-2,2.096216E0,-4.2804334E-2,-1.82394E-1,1.5326497E-2,1.206685E-1,6.608E-2,-1.5882337E-2,-8.057687E-3,-2.6355837E-2,2.538678E-3,-1.5452783E-2,8.920937E-3,-1.1518992E-2,-1.9898074E-2,-7.830958E-3,-1.6684163E-2,-8.025864E-2,-2.7891157E-2,-9.329064E-3,-3.955717E-2,-3.3418413E-2,-2.6961494E-2,5.8203E-1,2.632342E-3,-8.974285E-3,-2.4590716E-2,-2.9365837E-3,-7.02389E-1,1.1451578E-2,1.133438E0,1.1864763E-3,2.6131932E-2,3.4649298E-2,-5.0453E-1,5.759382E-3,1.5721008E-2,2.2725628E-3,-6.344802E-2,-6.8498873E-3,1.5347511E-2,-2.987716E-2,-8.9963E-1,1.659568E0,-9.392119E1,1.9426985E-2,1.09323E-1,-2.660133E0,-7.71336E-3,8.5016E-2,-1.526192E0,-1.452181E-2,1.2368294E-2,-3.3621997E-2,9.9649E-2,-7.609116E-2,-6.277438E-3,-3.4891218E-2,-1.1366018E-2,-1.2760058E-2,-9.201482E1,9.965412E-3,-6.762132E-3,-4.207373E-2,-2.3790628E-3,3.9329E-1,-2.15542E-1,1.419021E0,5.1906123E-3,6.51888E0,1.243384E0,1.570652E0,9.50685E-1,7.6156E-1,3.2393194E-3,-9.277642E1,2.0614748E0,-7.79564E-1,1.132773E0,-1.6639447E-2,1.72506E0,3.3118512E-2,9.017869E-3,3.925917E-3,-1.00885285E-2,-4.68455E-3,2.0845E-1,4.722954E-2,-8.78964E-1,1.8242976E-2,5.845478E0,3.25756E-1,7.258904E0,3.7486944E-2,3.49088E-1,1.2986693E-2,-2.54839E-2,2.5097797E-2,-1.46244E-1,-1.1049888E-2,2.1283843E-2,8.2482E-1,7.6429E-1,-6.1516155E-2,-1.0066158E-2,2.0352967E-2,-8.12539E-1,4.8420288E-2,2.3723556E-2,4.6524066E-3,3.5952162E-2,8.59992E-1,-9.325167E1,-9.2795616E1,3.416391E-2,6.58219E-1,5.2277E-2,-3.65783E-1,2.6717E-2,3.06817E-1,-4.47096E-1,5.0576985E-2,8.31178E-1,2.2448654E0,4.023398E-2,8.87185E-1,4.030206E-2,1.6672E-2,1.7546222E-2,6.37749E-1,6.08931E0,-7.032509E-4,2.11357E-1,1.478208E0,5.669089E0,1.44366E-1,4.690022E-2,-7.91998E-1,-8.682112E-3,5.302341E-2,4.2189438E-2,-1.7573018E-2,9.3976185E-3,3.215749E-2,9.63186E-1,1.8289952E-2,5.3554624E-3,-1.109191E0,4.663713E0,6.46866E-1,2.9309E-1,9.5085E-2,6.85415E-1,-1.50911575E-2,2.9223928E-2,-2.892195E-2,-7.133636E-3,-1.105587E0,6.6364E-1,-2.7429605E-2,1.6504271E-2,7.353E-2,5.6653175E0,-1.5766606E-2,1.6135E-1,6.44628E0,-5.7538E-3,3.9611395E-2,2.7343968E-2,-2.3855162E-3,2.5206804E-2,-1.3088323E-2,1.3636099E-2,1.636646E0,2.2768294E-2,9.8148E-2,3.344099E-2,2.1652482E-2,3.296268E-2,6.0142274E0,-3.137132E-3,2.8968764E-2,1.2373635E-2,1.6006844E-2,3.897392E0,-4.2394465E-3,1.2029227E-2,5.373875E0,1.1434962E-2,-1.0576667E-3,6.39202E-1,4.6396E-2,-8.134253E-3,7.938678E-3,-2.190803E-2,-1.55882E-1,-1.38788065E-2,5.7605E-2,-7.3349946E-3,-2.1326572E-2,-9.618613E-3,-9.361864E1,-6.9092573E-3,1.4931134E-2,2.165593E0,-1.44136315E-2,5.445147E-4,-1.226489E0,2.1216204E-2,-1.236154E0,7.3297466E-3,-8.440426E-3,3.2812252E-3,-3.2042727E-4,-1.5590715E-2,1.9739E-2,2.9804522E-2,-1.3713173E-4,-1.8252682E-2,-6.082816E-2,-1.2274384E-3,-2.056284E-2,3.714484E-3,-1.3715053E-2,-1.33585E-1,-1.3037667E-2,-4.0650655E-2,-1.1528309E-2,1.03894835E-2,-1.4392634E-2,-3.788483E-3,1.3965E-1,-5.6560237E-2,-7.297169E-3,9.066702E-4,-1.1736584E-2,2.6737152E-2,5.032718E-3,-1.4275302E-2,-4.3937783E-3,8.418633E-3,8.61242E-1,-9.214454E1,1.451039E0,2.7167156E0,2.4126269E-2,3.488674E-3,-2.2889117E-2,1.0706125E-3,3.235201E-2,-9.3445496E1,-8.982806E-3,-3.0322615E-2,2.1722116E-2,1.40303E-1,1.36261E-1,-2.3019714E-2,-9.688898E1,8.92522E-1,1.0377E0,-1.2463046E-2,-3.34662E-1,3.0807788E-3,-5.4223903E-2,9.8761E-3,9.25984E-1,1.266442E0,1.156555E0,-3.664573E-2,2.7954495E-3,1.8543387E-2,1.2972775E-2,-9.325167E1,-5.0150263E-3,7.99115E-1,1.28798E-1,3.2448556E-2,2.9162465E-2,4.3237578E-2,-1.9673018E-2,1.108523E0,1.7674973E-2,3.1857364E-2,3.860146E-2,9.757037E-3,3.6977913E-2,2.885679E-2,7.609339E-3,-1.1876446E-2,1.8005041E-2,3.2028684E-3,2.77424E-1,1.7013593E-2,1.4490649E-2,2.4640122E-2,7.5845E-1,-2.5416156E-2,1.117184E0,1.1806491E-2,3.6349375E-2,-3.0365845E-3,3.928732E-2,-8.469918E-3,1.143476E0,8.87185E-1,-9.547694E1,3.2804366E-2,6.41596E-1,4.3986477E-2,-2.8948778E-2,-5.312938E-3,9.1881E-2,-3.3262398E-2,4.4300826E-3,-3.4270566E-2,-8.9335E-2,2.2583842E-2,1.01895435E-2,-9.237347E-3,-2.1997131E-2,4.3650637E0,1.611885E-2,3.665621E-2,9.149E-2,1.6008E-1,1.8189484E-2,-6.6796886E-3,1.38561E-2,5.1729586E-2,-2.5027439E-2,3.2075953E-2,5.343601E0,1.05001E-1,4.483133E-2,1.3634166E-3,5.7715625E-2,-1.063772E0,2.275E-3,5.0196223E0,6.71883E-1,-1.37879E-1,5.529662E0,1.455422E-2,-2.0469917E-2,-9.05643E-1,5.822735E-1,8.211472E-3,7.05352E-1,1.422811E0,6.35427E-3,4.7200646E-2,-1.5877439E-2,1.137956E0,1.422811E0,-1.42897E0,-2.4336584E-2,-8.9963E-1,-7.936685E-3,3.7490458E-3,1.59876E-1,-9.15332E-1,-2.94994E-1,1.955562E-3,-2.0018264E-3,2.3317888E-2,-9.177721E1,5.254632E0,-8.65638E-3,6.492135E-3,3.6727246E-2,4.8404433E-2,1.7502323E-2,3.0429754E-3,1.5960092E-3,1.4403741E-2,2.2641955E-2,1.3645944E-2,-2.14711E-1,-1.8457655E-3,-2.164585E0,9.564807E-3,2.2751985E-2,-2.1245505E-3,-1.1302132E-2,5.9279567E-3,-1.2541969E-2,6.4308285E-3,-1.6385516E-2,6.5440754E-3,4.660614E0,1.6008E-1,-1.5042241E-2,1.62442E-1,6.3863695E-3,-3.5803255E-2,-3.7087135E-2,-9.422916E1,-1.167041E0,1.8754272E-2,3.068298E-2,5.343601E0,-6.0325064E-4,-4.3779388E-2,-1.304169E-2,3.835319E-3,4.8838E-2,1.7245882E0,-1.0379713E-2,5.448796E0,-5.1757023E-3,2.4883842E-2,-2.8547037E-2,7.8403E-1,6.4856915E0,-1.7319389E-2,7.4300836E-3,-4.77045E-2,-9.243318E1,7.0983507E-3,6.6196E-2,-7.922384E-3,3.5698023E-3,-1.2251648E-2,1.2839484E-2,-1.5822615E-2,4.6631828E-2,2.813371E-2,7.3043043E-3,2.285132E-2,-4.5508145E-6,2.3598555E-2,1.3609299E-2,2.403835E-3,2.663233E-2,3.5258766E-2,1.5169235E-2,2.3744594E-2,-2.3941157E-2,4.480885E-3,6.014467E-2,1.6783843E-2,-1.8427437E-2,1.03431E0,4.063416E-3,5.0484534E-2,2.7333844E-2,-8.1710005E-3,-3.9036583E-2,-1.18218474E-1,-8.415445E-3,1.1085044E0,-5.095628E-3,6.347836E-3,1.3054236E-2,-9.099389E-3,1.4461256E-2,3.544167E-2,1.7983845E-2,6.5825686E-2,5.842362E-2,1.4096099E-2,5.0132778E-2,1.6589483E-2,-1.9241158E-2,2.3870287E-2,-1.26321E0,-1.162767E0,-1.52439E-2,1.5968295E-2,-9.839007E-4,1.62242E0,8.7333E-1,1.4182799E-2,3.8080543E-2,5.2703676E0,7.0151E-1,2.0614748E0,4.2241875E-2,3.2176815E-2,-3.4269918E-2,2.059675E-2,-1.16274385E-2,3.7838344E-2,-2.24839E-2,1.4752964E-2,-9.136585E-3,4.2810388E0,1.7048929E-2,5.165364E-3,9.426752E-3,1.944144E-2,9.483944E-3,-7.725303E-3,6.76565E-1,6.7999E-1,-9.270156E1,-1.15606E-1,-9.82604E-1,1.3034326E-2,6.57492E-1,-1.2362396E-2,-1.8830935E-2,3.7193237E-4,-1.0894439E-2,1.2951858E-2,6.233898E-3,2.6328E-2,-4.2038206E-3,6.070172E-3,-1.1441157E-2,2.1049E-2,-1.9946724E-2,1.6133843E-2,-9.283654E1,5.14E-2,-9.839007E-4,2.8137464E-2,-1.6482696E-2,-9.47904E-1,-8.052765E-3,8.016505E-3,-1.2924737E-2,7.5061674E0,1.0383834E-2,-8.047501E-3,2.2211963E-2,4.9308735E-1,8.211264E-3,2.2017859E-2,4.840405E-2,-4.1274386E-3,-5.0758637E-2,-1.5545729E-2,1.5160553E-2,3.9642118E-2,3.9093196E-2,-1.7365844E-3,3.5473242E-2,5.5761E-3,2.7177319E-2,-1.6377438E-2,3.0000824E-2,6.595667E-3,2.126415E-2,3.0732313E-2,-2.0529063E-2,2.2551984E-2,-9.3044975E1,3.541672E-2,5.793723E0,9.408032E-3,1.044696E0,6.45219E-1,-2.9256716E-3,1.871932E-2,-1.1789879E-2,3.1233195E-3,3.054661E-2,1.0984758E-2,4.620287E-3,1.8011998E-2,-1.2845334E-4,-1.26434E-1,-5.8846623E-2,-4.2794574E-2,1.4084912E-2,-4.595041E-3,-1.9519571E-4,2.2613922E-2,1.7185697E-2,-1.4241156E-2,5.927292E-3,-4.8628924E-3,-4.381081E0,1.6991653E-2,3.0143622E-2,1.162696E-2,3.4651056E-2,1.8697869E-2,1.5090989E-2,-2.1304179E-2,1.53465E-1,3.552713E0,3.6071762E-3,1.8605083E-2,1.3476578E-2,-4.846271E-3,1.240309E-2,2.58131E-2,-2.3512397E-2,2.07961E-2],"split_indices":[61,48,34,35,48,14,61,34,28,35,71,61,56,71,34,2,67,34,11,67,71,11,34,29,17,28,44,35,34,71,71,34,71,35,44,1,28,2,48,14,71,35,34,0,35,67,71,14,2,13,71,0,0,61,71,34,71,19,19,48,61,34,34,14,14,44,14,48,50,35,34,34,29,1,48,67,48,9,71,0,35,34,6,59,11,71,28,35,2,1,9,71,28,36,57,59,71,0,14,0,0,34,34,0,0,0,0,19,0,48,71,35,35,34,29,35,6,18,71,29,67,71,13,19,34,0,13,35,48,48,26,0,29,28,19,61,19,46,59,0,0,71,14,19,57,36,11,34,57,50,35,10,2,0,50,50,35,0,0,48,19,54,19,0,36,5,14,2,71,29,62,57,35,67,71,34,71,71,9,67,36,61,34,34,18,17,36,71,32,0,14,0,0,71,74,71,0,0,14,0,57,0,0,17,71,44,52,19,19,9,1,14,46,0,17,29,19,34,61,0,0,0,14,0,0,44,0,61,29,0,10,29,0,71,0,0,48,0,0,34,67,0,0,14,35,0,0,44,34,14,9,35,71,0,0,35,57,35,1,61,59,0,34,0,0,23,1,48,19,57,28,23,35,57,71,27,71,0,28,45,71,31,35,23,32,50,10,28,11,71,57,59,11,0,71,19,35,45,0,71,44,0,0,36,67,0,19,32,4,35,35,14,35,34,0,9,1,14,17,13,0,35,0,14,0,0,0,34,35,61,35,50,36,27,6,2,0,60,1,0,0,31,0,35,34,67,0,36,34,35,57,0,0,44,0,0,0,13,50,0,0,0,0,0,0,0,0,0,0,0,0,14,13,17,19,57,0,48,4,29,61,54,0,74,0,34,29,61,74,0,0,61,19,61,35,0,13,50,0,0,0,19,0,29,19,0,0,0,0,29,0,17,35,10,36,0,0,18,0,0,0,29,0,44,0,0,0,0,0,0,0,0,0,67,71,0,13,50,6,36,3,71,61,61,35,29,29,0,14,35,29,35,0,0,0,0,0,57,44,14,34,32,0,29,29,28,36,0,0,17,0,6,29,57,57,71,57,57,57,0,0,0,0,0,74,46,0,0,0,0,0,0,34,35,11,17,11,57,50,48,11,57,35,34,2,35,35,0,6,0,0,0,0,0,0,0,0,19,0,0,0,0,0,59,0,0,0,35,0,61,59,34,57,59,0,9,11,18,61,67,14,0,59,0,0,29,35,28,48,35,6,36,28,0,0,0,0,0,0,0,26,0,17,0,0,0,0,71,0,9,0,0,0,35,0,0,0,34,0,2,57,0,0,0,0,0,0,0,34,74,67,19,17,59,6,35,71,0,0,0,0,61,0,29,0,14,0,0,0,34,0,0,0,0,0,19,0,0,44,0,29,34,0,35,0,0,45,71,0,0,28,0,0,0,0,0,35,36,34,0,0,0,57,0,0,67,0,0,0,0,0,0,34,0,0,74,1,18,0,0,0,0,0,0,0,27,0,0,0,0,0,0,19,0,0,0,61,35,0,0,0,0,0,36,0,73,61,0,0,0,0,0,61,1,0,0,19,0,0,13,48,0,24,35,0,0,0,34,11,0,27,0,0,0,0,48,28,35,13,18,57,36,0,2,36,1,0,71,48,50,17,36,0,0,0,61,0,71,36,0,0,35,0,0,0,0,71,57,48,19,34,35,54,29,0,14,0,50,71,36,36,61,0,50,57,14,48,0,2,1,14,14,14,71,11,1,57,35,0,0,35,44,1,0,58,0,0,14,0,0,0,0,19,0,0,6,44,50,36,0,0,17,1,0,61,0,17,0,2,57,29,0,0,36,57,0,0,67,0,29,19,67,0,0,18,48,0,0,0,0,0,0,0,0,0,0,58,23,0,0,0,0,0,0,0,0,0,1,0,0,11,0,71,34,0,0,0,0,0,28,71,36,57,0,0,0,0,0,0,0,0,34,28,0,0,0,23,0,19,48,0,0,48,0,0,17,0,0,36,0,73,0,10,0,0,0,0,0,0,0,0,74,0,0,0,0,0,0,0,0,0,0,0,0,38,28,71,35,0,0,0,0,0,0,0,0,0,0,0,60,0,0,0,24,17,14,44,6,58,1,48,57,2,0,1,14,57,14,0,17,32,0,11,0,0,0,0,9,57,27,67,48,0,0,57,29,50,57,0,48,19,0,0,48,17,0,0,71,0,0,0,0,48,50,0,17,36,35,71,34,0,2,0,32,50,0,28,44,0,0,0,0,34,50,50,61,48,34,0,0,61,0,61,0,0,0,71,50,57,0,9,0,0,67,0,0,50,0,0,0,0,48,1,18,14,48,35,71,1,0,0,48,0,0,0,0,0,0,0,0,0,0,0,50,61,0,0,0,0,0,0,0,50,0,0,0,0,0,0,0,11,0,1,67,32,57,0,0,0,71,32,0,0,0,0,35,34,35,0,0,5,0,17,0,0,0,0,0,0,0,0,0,0,13,0,17,0,0,0,0,0,36,0,28,0,29,74,0,0,0,0,0,0,0,0,0,0,0,0,0,0,0,0,34,0,0,0,0,61,0,45,0,0,0,48,0,0,0,0,0,0,0,61,36,0,0,17,23,0,50,13,0,0,0,50,0,0,0,0,0,5,0,0,0,0,71,28,35,0,11,34,67,57,57,0,2,0,27,35,0,36,0,0,0,0,0,50,0,27,0,11,71,6,0,71,0,0,0,28,0,0,57,57,0,0,0,13,0,0,0,0,35,9,0,0,35,32,48,50,32,48,0,34,9,0,34,0,29,0,34,0,0,71,44,6,17,0,27,0,0,0,0,0,0,59,0,0,14,1,57,18,17,19,0,0,0,0,14,35,0,0,32,1,0,17,2,0,0,0,0,0,0,0,36,0,50,0,0,0,1,0,0,0,0,11,0,0,6,0,0,67,50,0,0,0,28,0,50,0,0,0,0,0,0,36,0,0,14,0,14,0,0,0,0,0,0,0,0,0,0,0,0,0,0,28,0,0,0,0,0,0,71,0,0,0,0,0,0,0,0,0,34,5,44,0,0,0,0,0,0,1,0,0,0,17,17,0,0,57,34,0,48,0,0,0,57,34,34,0,0,0,0,9,0,18,50,0,0,0,0,19,0,0,0,0,0,0,0,0,0,0,50,0,0,0,57,0,35,0,0,0,0,0,19,34,6,0,35,0,0,0,50,0,0,0,28,0,0,0,0,2,0,0,32,17,0,0,0,0,0,0,2,29,0,0,0,61,74,0,57,28,5,0,0,61,57,0,19,0,0,0,0,44,0,14,0,61,0,0,17,61,48,0,0,0,5,1,0,0,0,0,0,0,0,0,0,0,48,0,73,0,0,0,0,0,0,0,0,0,0,17,0,17,0,0,0,0,14,0,0,2,0,0,0,0,50,0,0,0,0,0,0,57,1,0,0,0,11,0,17,0,0,0,0,0,0,0,0,0,0,0,0,0,0,0,0,0,0,0,0,0,0,18,0,0,0,0,0,0,0,4,0,0,0,0,0,0,0,0,0,0,0,0,0,0,26,13,0,0,0,44,34,0,0,0,35,0,0,0,0,0,0,0,0,0,0,0,0,0,0,0,0,0,67,34,3,28,61,0,34,0,0,0,0,0,0,50,0,0,0,74,0,0,1,50,0,0,0,61,0,0,0,0,0,0,0,0,0,0,0,0,0,0,0,0,0,0,0,0,0,0,0,0,0,0,0,0,6,0,0,0,54,57,0,0,0,0,0,0,0,0,0,28,0,0,0,0,0,0,0,0,0,0,73,0,0,0,0,0,0,0,17,0,0,0,0,0,0,0,0,0],"split_type":[0,0,0,0,0,0,0,0,0,0,0,0,0,0,0,0,0,0,0,0,0,0,0,0,0,0,0,0,0,0,0,0,0,0,0,0,0,0,0,0,0,0,0,0,0,0,0,0,0,0,0,0,0,0,0,0,0,0,0,0,0,0,0,0,0,0,0,0,0,0,0,0,0,0,0,0,0,0,0,0,0,0,0,0,0,0,0,0,0,0,0,0,0,0,0,0,0,0,0,0,0,0,0,0,0,0,0,0,0,0,0,0,0,0,0,0,0,0,0,0,0,0,0,0,0,0,0,0,0,0,0,0,0,0,0,0,0,0,0,0,0,0,0,0,0,0,0,0,0,0,0,0,0,0,0,0,0,0,0,0,0,0,0,0,0,0,0,0,0,0,0,0,0,0,0,0,0,0,0,0,0,0,0,0,0,0,0,0,0,0,0,0,0,0,0,0,0,0,0,0,0,0,0,0,0,0,0,0,0,0,0,0,0,0,0,0,0,0,0,0,0,0,0,0,0,0,0,0,0,0,0,0,0,0,0,0,0,0,0,0,0,0,0,0,0,0,0,0,0,0,0,0,0,0,0,0,0,0,0,0,0,0,0,0,0,0,0,0,0,0,0,0,0,0,0,0,0,0,0,0,0,0,0,0,0,0,0,0,0,0,0,0,0,0,0,0,0,0,0,0,0,0,0,0,0,0,0,0,0,0,0,0,0,0,0,0,0,0,0,0,0,0,0,0,0,0,0,0,0,0,0,0,0,0,0,0,0,0,0,0,0,0,0,0,0,0,0,0,0,0,0,0,0,0,0,0,0,0,0,0,0,0,0,0,0,0,0,0,0,0,0,0,0,0,0,0,0,0,0,0,0,0,0,0,0,0,0,0,0,0,0,0,0,0,0,0,0,0,0,0,0,0,0,0,0,0,0,0,0,0,0,0,0,0,0,0,0,0,0,0,0,0,0,0,0,0,0,0,0,0,0,0,0,0,0,0,0,0,0,0,0,0,0,0,0,0,0,0,0,0,0,0,0,0,0,0,0,0,0,0,0,0,0,0,0,0,0,0,0,0,0,0,0,0,0,0,0,0,0,0,0,0,0,0,0,0,0,0,0,0,0,0,0,0,0,0,0,0,0,0,0,0,0,0,0,0,0,0,0,0,0,0,0,0,0,0,0,0,0,0,0,0,0,0,0,0,0,0,0,0,0,0,0,0,0,0,0,0,0,0,0,0,0,0,0,0,0,0,0,0,0,0,0,0,0,0,0,0,0,0,0,0,0,0,0,0,0,0,0,0,0,0,0,0,0,0,0,0,0,0,0,0,0,0,0,0,0,0,0,0,0,0,0,0,0,0,0,0,0,0,0,0,0,0,0,0,0,0,0,0,0,0,0,0,0,0,0,0,0,0,0,0,0,0,0,0,0,0,0,0,0,0,0,0,0,0,0,0,0,0,0,0,0,0,0,0,0,0,0,0,0,0,0,0,0,0,0,0,0,0,0,0,0,0,0,0,0,0,0,0,0,0,0,0,0,0,0,0,0,0,0,0,0,0,0,0,0,0,0,0,0,0,0,0,0,0,0,0,0,0,0,0,0,0,0,0,0,0,0,0,0,0,0,0,0,0,0,0,0,0,0,0,0,0,0,0,0,0,0,0,0,0,0,0,0,0,0,0,0,0,0,0,0,0,0,0,0,0,0,0,0,0,0,0,0,0,0,0,0,0,0,0,0,0,0,0,0,0,0,0,0,0,0,0,0,0,0,0,0,0,0,0,0,0,0,0,0,0,0,0,0,0,0,0,0,0,0,0,0,0,0,0,0,0,0,0,0,0,0,0,0,0,0,0,0,0,0,0,0,0,0,0,0,0,0,0,0,0,0,0,0,0,0,0,0,0,0,0,0,0,0,0,0,0,0,0,0,0,0,0,0,0,0,0,0,0,0,0,0,0,0,0,0,0,0,0,0,0,0,0,0,0,0,0,0,0,0,0,0,0,0,0,0,0,0,0,0,0,0,0,0,0,0,0,0,0,0,0,0,0,0,0,0,0,0,0,0,0,0,0,0,0,0,0,0,0,0,0,0,0,0,0,0,0,0,0,0,0,0,0,0,0,0,0,0,0,0,0,0,0,0,0,0,0,0,0,0,0,0,0,0,0,0,0,0,0,0,0,0,0,0,0,0,0,0,0,0,0,0,0,0,0,0,0,0,0,0,0,0,0,0,0,0,0,0,0,0,0,0,0,0,0,0,0,0,0,0,0,0,0,0,0,0,0,0,0,0,0,0,0,0,0,0,0,0,0,0,0,0,0,0,0,0,0,0,0,0,0,0,0,0,0,0,0,0,0,0,0,0,0,0,0,0,0,0,0,0,0,0,0,0,0,0,0,0,0,0,0,0,0,0,0,0,0,0,0,0,0,0,0,0,0,0,0,0,0,0,0,0,0,0,0,0,0,0,0,0,0,0,0,0,0,0,0,0,0,0,0,0,0,0,0,0,0,0,0,0,0,0,0,0,0,0,0,0,0,0,0,0,0,0,0,0,0,0,0,0,0,0,0,0,0,0,0,0,0,0,0,0,0,0,0,0,0,0,0,0,0,0,0,0,0,0,0,0,0,0,0,0,0,0,0,0,0,0,0,0,0,0,0,0,0,0,0,0,0,0,0,0,0,0,0,0,0,0,0,0,0,0,0,0,0,0,0,0,0,0,0,0,0,0,0,0,0,0,0,0,0,0,0,0,0,0,0,0,0,0,0,0,0,0,0,0,0,0,0,0,0,0,0,0,0,0,0,0,0,0,0,0,0,0,0,0,0,0,0,0,0,0,0,0,0,0,0,0,0,0,0,0,0,0,0,0,0,0,0,0,0,0,0,0,0,0,0,0,0,0,0,0,0,0,0,0,0,0,0,0,0,0,0,0,0,0,0,0,0,0,0,0,0,0,0,0,0,0,0,0,0,0,0,0,0,0,0,0,0,0,0,0,0,0,0,0,0,0,0,0,0,0,0,0,0,0,0,0,0,0,0,0,0,0,0,0,0,0,0,0,0,0,0,0,0,0,0,0,0,0,0,0,0,0,0,0,0,0,0,0,0,0,0,0,0,0,0,0,0,0,0,0,0,0,0,0,0,0,0,0,0,0,0,0,0,0,0,0,0,0,0,0,0,0,0,0,0,0,0,0,0,0,0,0,0,0,0,0,0,0,0,0,0,0,0,0,0,0,0,0,0,0,0,0,0,0,0,0,0,0,0,0,0,0,0,0,0,0,0,0,0,0,0,0,0,0,0,0,0,0,0,0,0,0,0,0,0,0,0,0,0,0,0,0,0,0,0,0,0,0,0,0,0,0,0,0,0,0,0,0,0,0,0,0,0,0,0,0,0,0,0,0,0,0,0,0,0,0,0,0,0,0,0,0,0,0,0,0,0,0,0,0,0,0,0,0,0,0,0,0,0,0,0,0,0,0,0,0,0,0,0,0,0,0,0,0,0,0,0,0,0,0,0,0,0,0,0,0,0,0,0,0,0,0,0,0,0,0,0,0,0,0,0,0,0,0,0,0,0,0,0,0,0,0,0,0,0,0,0,0,0,0,0,0,0,0,0,0,0,0,0,0,0,0,0,0,0,0,0,0,0,0,0,0,0,0,0,0,0,0,0,0,0,0,0,0,0,0,0,0,0,0,0,0,0,0,0,0,0,0,0,0,0,0,0,0,0,0,0,0,0,0,0,0,0,0,0,0,0,0,0,0,0,0,0,0,0,0,0,0,0,0,0,0,0,0,0,0,0,0,0,0,0,0,0,0,0,0,0,0,0,0,0,0,0,0,0,0,0,0,0,0,0,0],"sum_hessian":[4.5908E4,3.7113E4,8.795E3,2.4021E4,1.3092E4,1.189E3,7.606E3,5.083E3,1.8938E4,8.872E3,4.22E3,7.55E2,4.34E2,5.79E3,1.816E3,7.38E2,4.345E3,7.534E3,1.1404E4,1.537E3,7.335E3,1.736E3,2.484E3,3.96E2,3.59E2,7E0,4.27E2,3.097E3,2.693E3,5.33E2,1.283E3,2.58E2,4.8E2,2.836E3,1.509E3,1.339E3,6.195E3,2.76E2,1.1128E4,5.87E2,9.5E2,3.278E3,4.057E3,3.71E2,1.365E3,6.55E2,1.829E3,7.2E1,3.24E2,8E0,3.51E2,3E0,4E0,1.94E2,2.33E2,1.084E3,2.013E3,7.21E2,1.972E3,2.98E2,2.35E2,6.55E2,6.28E2,7.1E1,1.87E2,3.83E2,9.7E1,1.222E3,1.614E3,1.49E3,1.9E1,1.36E2,1.203E3,2.426E3,3.769E3,6.9E1,2.07E2,4.678E3,6.45E3,1.1E1,5.76E2,8.82E2,6.8E1,1.322E3,1.956E3,1.38E3,2.677E3,1.67E2,2.04E2,8.13E2,5.52E2,6.13E2,4.2E1,7.35E2,1.094E3,3.4E1,3.8E1,9.7E1,2.27E2,2E0,6E0,1.38E2,2.13E2,2E0,1E0,2E0,1.92E2,1.44E2,8.9E1,2.23E2,8.61E2,1.082E3,9.31E2,6.61E2,6E1,1.448E3,5.24E2,9E0,2.89E2,6.6E1,1.69E2,3.55E2,3E2,5.21E2,1.07E2,3E0,6.8E1,1.3E1,1.74E2,3.8E1,3.45E2,6E0,9.1E1,1.46E2,1.076E3,6.5E1,1.549E3,6.56E2,8.34E2,1.5E1,4E0,6.4E1,7.2E1,5.42E2,6.61E2,2.185E3,2.41E2,2.425E3,1.344E3,1.7E1,5.2E1,1.16E2,9.1E1,1.829E3,2.849E3,3.379E3,3.071E3,8E0,3E0,1.03E2,4.73E2,2.11E2,6.71E2,1.4E1,5.4E1,6.32E2,6.9E2,4.43E2,1.513E3,1.161E3,2.19E2,1.047E3,1.63E3,9E1,7.7E1,1.28E2,7.6E1,4.78E2,3.35E2,2.7E2,2.82E2,2.8E2,3.33E2,9E0,3.3E1,5.78E2,1.57E2,5.85E2,5.09E2,6E0,2.8E1,1.2E1,2.6E1,6.8E1,2.9E1,1.21E2,1.06E2,1.7E1,1.21E2,1.34E2,7.9E1,4E0,1.4E2,6E0,2.17E2,6.41E2,2.2E2,6.99E2,3.83E2,6.15E2,3.16E2,1.73E2,4.88E2,5E1,1E1,7.64E2,6.84E2,4.42E2,8.2E1,3E0,6E0,4.8E1,2.41E2,3E0,6.3E1,1.19E2,5E1,1.5E2,2.05E2,3E0,2.97E2,4.91E2,3E1,9.4E1,1.3E1,1.8E1,5E1,2E0,1.1E1,1.3E1,1.61E2,9E0,2.9E1,1.05E2,2.4E2,5E0,1E0,7.5E1,1.6E1,7.5E1,7.1E1,6.26E2,4.5E2,4.3E1,2.2E1,1.108E3,4.41E2,5.13E2,1.43E2,4.5E2,3.84E2,3.2E1,3.2E1,1E1,6.2E1,3.6E1,5.06E2,6.35E2,2.6E1,7.54E2,1.431E3,1.3E2,1.11E2,7.18E2,1.707E3,2.42E2,1.102E3,8E0,9E0,1.6E1,3.6E1,6.6E1,5E1,3.1E1,6E1,1.139E3,6.9E2,2.72E2,2.577E3,1.219E3,2.16E3,1.532E3,1.539E3,3E0,1E2,1.9E2,2.83E2,2.02E2,9E0,3.88E2,2.83E2,2E0,5.2E1,5.12E2,1.2E2,6E0,6.84E2,3.11E2,1.32E2,5.58E2,9.55E2,5.06E2,6.55E2,2.07E2,1.2E1,5.06E2,5.41E2,1.091E3,5.39E2,3E1,6E1,5.4E1,2.3E1,3.5E1,9.3E1,1.1E1,6.5E1,2.94E2,1.84E2,2E2,1.35E2,1.9E2,8E1,1.61E2,1.21E2,1.87E2,9.3E1,1.16E2,2.17E2,8E0,1E0,1.8E1,1.5E1,2.27E2,3.51E2,1.4E2,1.7E1,3.09E2,2.76E2,2.02E2,3.07E2,3E0,2.5E1,4.2E1,2.6E1,2.7E1,2E0,2.3E1,9.8E1,1E0,1.05E2,1E0,1.6E1,6E1,6.1E1,1E0,1.33E2,7.7E1,2E0,2E0,4E0,1.26E2,9.1E1,7E0,6.34E2,2.12E2,8E0,1.32E2,5.67E2,9.9E1,2.84E2,5.97E2,1.8E1,2.86E2,3E1,1.5E2,2.3E1,4.55E2,3.3E1,9E0,1E0,2.99E2,4.65E2,4.16E2,2.68E2,1.05E2,3.37E2,3.2E1,5E1,1E0,2E0,1.93E2,4.8E1,2.9E1,9E1,5.2E1,9.8E1,1.84E2,2.1E1,2.38E2,5.9E1,1.57E2,3.34E2,8.1E1,1.3E1,1.7E1,1E0,3.7E1,1.3E1,9E0,2E0,1E1,3E0,9.7E1,6.4E1,3E0,1.02E2,7E1,1.7E2,6.3E1,1.2E1,1.1E1,5E0,3.8E1,3.7E1,1.4E1,5.7E1,1.74E2,4.52E2,2.48E2,2.02E2,6.29E2,4.79E2,4.32E2,9E0,1.57E2,3.56E2,1.1E1,1.32E2,2.73E2,1.77E2,2.87E2,9.7E1,1.1E1,2.1E1,2E0,3.4E1,4.51E2,5.5E1,3.8E2,2.55E2,1.6E1,1E1,1.07E2,6.47E2,9.52E2,4.79E2,7.6E1,5.4E1,1.07E2,4E0,6.16E2,1.02E2,9E2,8.07E2,1.71E2,7.1E1,3.85E2,7.17E2,4E0,5E0,9E0,7E0,1.9E1,1.7E1,6.3E1,3E0,1.1E1,3.9E1,2.5E1,6E0,2.5E1,3.5E1,2.01E2,9.38E2,2.46E2,4.44E2,1.23E2,1.49E2,1.953E3,6.24E2,6.47E2,5.72E2,2.058E3,1.02E2,1.101E3,4.31E2,4.99E2,1.04E3,1E0,2E0,2.9E1,7.1E1,3.8E1,1.52E2,1.55E2,1.28E2,1.94E2,8E0,1.47E2,2.41E2,2.73E2,1E1,5.11E2,1E0,9.4E1,2.6E1,5.06E2,1.78E2,1.8E2,1.31E2,6.7E1,6.5E1,3.19E2,2.39E2,5.48E2,4.07E2,2.1E1,4.85E2,1.89E2,4.66E2,1.2E1,1.95E2,9E0,3E0,4.62E2,4.4E1,5.11E2,3E1,1.69E2,9.22E2,1.96E2,3.43E2,2.6E1,4E0,4.3E1,1.1E1,3.3E1,2E0,7.8E1,2.16E2,7.5E1,1.09E2,8.5E1,1.15E2,4.9E1,8.6E1,1.02E2,8.8E1,7E1,1E1,1.2E1,1.49E2,7.5E1,4.6E1,1.1E1,1.76E2,1.07E2,9E0,1.16E2,1.01E2,1.5E1,3E0,1.71E2,5.6E1,2.2E2,1.31E2,9.2E1,4.8E1,1.96E2,1.13E2,9.8E1,1.78E2,8.9E1,1.13E2,1.34E2,1.73E2,3.7E1,5E0,2E1,3E0,3.6E1,6.2E1,1.1E2,1.6E1,5.4E1,3.7E1,3E0,4E0,4.85E2,1.49E2,1.43E2,6.9E1,3.8E1,9.4E1,5.06E2,6.1E1,3.3E1,6.6E1,9.3E1,1.91E2,5.88E2,9E0,2.75E2,1.1E1,7E0,1.43E2,2E1,3E0,7.3E1,3.82E2,4E0,2.9E1,1.21E2,1.78E2,5E0,4.6E2,1.74E2,2.42E2,1.65E2,1.03E2,2E0,3.35E2,2.2E1,1E1,1.92E2,1E0,2E0,2.7E1,1.3E1,7.7E1,1.18E2,1.2E2,1.4E1,1.43E2,1.02E2,2.32E2,6.2E1,1.9E1,9E0,4E0,2E0,3.5E1,8E0,2E0,9E0,8.8E1,2.3E1,1.5E1,2.9E1,8E0,1.4E1,4.3E1,3.9E1,1.35E2,1.39E2,3.13E2,2.45E2,3E0,1.81E2,2.1E1,3.53E2,2.76E2,2.35E2,2.44E2,2.77E2,1.55E2,5E0,4E0,7E1,8.7E1,9.1E1,2.65E2,2E1,1.12E2,9.2E1,1.81E2,5.6E1,1.21E2,1.34E2,1.53E2,3E0,9.4E1,4.12E2,3.9E1,2.4E1,3.1E1,1.92E2,1.88E2,7.9E1,1.76E2,2E0,1.4E1,8E0,9.9E1,1.81E2,4.66E2,8.9E1,8.63E2,1.82E2,2.97E2,1.01E2,6E0,4.23E2,1.93E2,9.3E1,9E0,2.13E2,6.87E2,2.21E2,5.86E2,9.5E1,7.6E1,1E1,6.1E1,3.81E2,4E0,2.26E2,4.91E2,1.2E1,5E0,5E1,1.3E1,4E0,3.1E1,2.4E1,1.77E2,9.9E1,8.39E2,7.6E1,1.7E2,2.75E2,1.69E2,1.07E2,1.6E1,2.5E1,1.24E2,7.56E2,1.197E3,4.72E2,1.52E2,6.41E2,6E0,3.15E2,2.57E2,7.72E2,1.286E3,6.2E1,4E1,2.78E2,8.23E2,4.2E1,3.89E2,2.73E2,2.26E2,5.71E2,4.69E2,1.76E2,1.8E1,8.1E1,4.3E2,1.91E2,3.15E2,9.7E1,8.3E1,1.29E2,2E0,2.9E1,3.8E1,1.8E1,4.7E1,1.73E2,1.46E2,2.18E2,2.1E1,3.78E2,1.7E2,3.1E2,9.7E1,1.1E1,1E1,2.41E2,2.44E2,1.08E2,8.1E1,7.6E1,3.9E2,5E0,1.9E2,2.68E2,1.94E2,5E0,3.9E1,2.5E1,4.86E2,5E0,2.5E1,6E1,1.09E2,7.49E2,1.73E2,1.47E2,4.9E1,1.79E2,1.64E2,6.2E1,1.54E2,4E0,1.05E2,1.7E1,8.5E1,2E1,5E1,4.8E1,2.7E1,1.2E1,9.5E1,5.4E1,6.2E1,2.1E1,8E1,1.27E2,4.4E1,5E1,8.1E1,1E1,3.8E1,1.82E2,1.4E1,3.5E1,7.8E1,6.4E1,3.4E1,1.59E2,1.9E1,7.5E1,1.4E1,2.7E1,8.6E1,3.9E1,9.5E1,9.6E1,7.7E1,1.2E1,2.4E1,7.1E1,3.9E1,5E0,4.9E1,1.37E2,3.48E2,4.54E2,5.2E1,4E0,6.2E1,1.13E2,7.8E1,2.19E2,3.69E2,1.72E2,1.03E2,1.29E2,1.4E1,6E0,1.4E1,3.72E2,1E1,5E0,4.55E2,2.9E1,1.45E2,1.67E2,7.5E1,3.31E2,4E0,1.01E2,9.1E1,1.12E2,8E0,9.8E1,4E0,2.27E2,5E0,6E1,2E0,1E0,1E0,3E0,6E0,4.1E1,2E0,2.11E2,1.02E2,1.3E1,2.32E2,2E1,2.15E2,2.26E2,5.1E1,6.9E1,8.6E1,1.16E2,1.49E2,8E0,1.2E1,5E1,1.31E2,2E0,1.32E2,3.2E1,1.21E2,9E1,4E0,7.2E1,3.4E2,1.21E2,7.1E1,1.35E2,5.3E1,7.5E1,4E0,3.5E1,1.41E2,4.2E1,1.39E2,1.7E1,4.49E2,5.2E1,3.7E1,4.84E2,3.79E2,4E0,1.78E2,8.4E1,2.13E2,2.8E1,7.3E1,2.37E2,1.86E2,1.47E2,4.6E1,7.9E1,1.4E1,7.3E1,1.4E2,3.64E2,3.23E2,1.25E2,9.6E1,5.48E2,3.8E1,5.1E1,4.4E1,3.68E2,1.3E1,1.21E2,1.05E2,4.55E2,3.6E1,3.2E1,1.8E1,1.8E1,6E0,1.65E2,1.2E1,4.4E1,5.5E1,4.26E2,4.13E2,4.6E1,3E1,3.6E1,1.34E2,1.78E2,9.7E1,3E0,1.66E2,8.1E1,2.6E1,1.2E1,1.3E1,1.14E2,6.42E2,7.1E2,4.87E2,1.91E2,2.81E2,2.8E1,1.24E2,2E0,6.39E2,1.29E2,1.86E2,2.5E2,7E0,9E0,7.63E2,7.06E2,5.8E2,2.3E1,3.9E1,2.4E1,1.6E1,2.28E2,5E1,2.2E1,8.01E2,2E0,4E1,7.9E1,3.1E2,1.51E2,1.22E2,1.06E2,1.2E2,3.1E2,2.61E2,2.54E2,2.15E2,2.1E1,1.55E2,3.53E2,7.7E1,3.3E1,1.58E2,2.68E2,4.7E1,3.3E1,5E1,5E0,2.4E1,1.42E2,4E0,4.9E1,3.29E2,4.3E1,1.27E2,1.06E2,2.04E2,5.1E1,4.6E1,3.7E1,2.04E2,2.22E2,2.2E1,3E0,7.8E1,5.3E1,2.3E1,1.82E2,2.08E2,2.8E1,1.62E2,1.18E2,1.5E2,1.47E2,4.7E1,1.5E1,1E1,3.49E2,1.37E2,4.3E1,1.7E1,9E0,1E2,4.04E2,3.45E2,1.39E2,3.4E1,2.2E1,1.25E2,2E0,1.62E2,3.8E1,2.4E1,5.2E1,4.3E1,5E1,4E0,1.1E1,2.7E1,1.8E1,1.64E2,4.3E1,3.5E1,3.2E1,2E0,1.28E2,3.1E1,1.9E1,2E1,8.7E1,8E0,5.7E1,3.9E1,2E1,5.7E1,1.9E2,2.64E2,4.6E1,6E0,7.3E1,5E0,1.12E2,2.57E2,1.1E2,6.2E1,1.1E1,3E0,5E0,3.67E2,2.83E2,1.72E2,1.19E2,2.6E1,5.8E1,1.7E1,2E0,2.25E2,2.3E1,2.09E2,1E1,1E1,1.08E2,1.07E2,8E1,1.46E2,1E0,7E0,1E1,2.2E1,1E1,6.2E1,9.5E1,2.45E2,7E0,1.14E2,4.9E1,2.2E1,2.1E1,1.14E2,4.3E1,1E1,2.5E1,5E1,3E0,1E0,1.4E1,2.1E1,2.7E1,1.14E2,1.2E2,1.9E1,1.2E1,5E0,1.34E2,3.15E2,4.3E1,9E0,4.76E2,8E0,3.57E2,2.2E1,1.54E2,2.4E1,1.26E2,1.11E2,4.4E1,1.42E2,2.2E1,1.25E2,2.7E1,1.9E1,4.3E1,3.6E1,1.4E1,1.26E2,2.97E2,6.7E1,2E1,3.03E2,4.6E1,7.9E1,1.94E2,3.54E2,3.4E1,4E0,1.88E2,1.8E2,1E1,3E0,2.21E2,2.34E2,3E0,3E0,5.7E1,1.08E2,2.9E1,1.5E1,3.4E1,2.1E1,2.6E1,4E2,2.78E2,1.35E2,2.1E1,2.5E1,1.3E1,2.3E1,2.7E1,1.07E2,7E0,1.71E2,7.6E1,2.1E1,8.7E1,7.9E1,3.2E1,4.9E1,9.6E1,1.8E1,2E0,6.4E2,2E2,5.1E2,2.22E2,2.65E2,1.83E2,8E0,1.07E2,1.74E2,7E0,2.1E1,2.38E2,4.01E2,1.43E2,4.3E1,5.04E2,2.59E2,3.3E2,3.76E2,4.5E2,1.3E2,3E0,2E1,2.8E1,1.1E1,1.29E2,9.9E1,1.7E1,5E0,2.91E2,5.1E2,5.4E1,2.5E1,2.6E2,5E1,1.13E2,3.8E1,7E0,1.15E2,1.02E2,4E0,1.1E2,1E1,1.55E2,1.55E2,8.8E1,1.73E2,2.35E2,1.9E1,1.79E2,3.6E1,2.17E2,1.36E2,2.2E1,2.7E1,2.37E2,9.2E1,5.1E1,1.53E2,1.53E2,5.5E1,6E0,1.56E2,2.1E1,9.7E1,1.08E2,4.2E1,6.1E1,8.6E1,2.37E2,1.12E2,8.8E1,4.9E1,2.7E1,7.3E1,3.17E2,8.7E1,1.87E2,1.58E2,7.2E1,6.7E1,1.08E2,1.7E1,8.8E1,7.4E1,1.9E1,2.4E1,3.1E1,1E0,8E1,7E0,2.8E1,2.9E1,8E0,1.2E1,5E1,7E0,7.7E1,4.2E1,1.43E2,8.2E1,7.1E1,1.38E2,2E0,1.05E2,5.1E1,1.1E1,4.9E1,4.6E1,2.6E1,2.19E2,1.1E1,1.03E2,1.2E1,3.7E1,1.2E1,9E0,3.6E1,7.8E1,4E1,1E1,1.4E1,1E2,1.05E2,2.9E1,1.59E2,1.56E2,1.4E1,2.9E1,4.39E2,3.7E1,4E0,4E0,2.02E2,1.55E2,1.7E1,5E0,1.4E1,1.4E2,4.8E1,7.8E1,3.3E1,7.8E1,2.9E1,1.5E1,3.1E1,1.11E2,7E0,1.18E2,9.8E1,2.8E1,5.5E1,1.2E1,2.05E2,9.8E1,3.1E1,1.5E1,6E1,1.9E1,3.06E2,4.8E1,1.32E2,4.8E1,2.18E2,3E0,1.07E2,1.27E2,1.06E2,2E0,2.4E1,2E0,3.2E2,8E1,2.46E2,3.2E1,1.1E1,1E1,8E0,1.7E1,8E0,5E0,2E0,2.1E1,2.4E1,3E0,2.5E1,8.2E1,1.9E1,1.52E2,5.4E1,2.2E1,2.5E1,6.2E1,7E0,2.5E1,4E0,9.2E1,1E0,1.7E1,4.21E2,2.19E2,1.98E2,2E0,3.87E2,1.23E2,3.2E1,1.9E2,1.4E1,1.69E2,3.3E2,7.1E1,2E0,5.02E2,2.23E2,3.6E1,3.26E2,4E0,5E0,3.71E2,1E0,4.49E2,1E1,1.2E2,2E0,1.27E2,3.5E1,6.4E1,1.92E2,9.9E1,4.77E2,3.3E1,1.7E1,8E0,1.43E2,1.17E2,2.9E1,8.1E1,9.1E1,6.4E1,2.15E2,2E1,6.1E1,7.5E1,1.71E2,6.6E1,1.37E2,1.6E1,7.5E1,7.8E1,7E0,1.4E1,1.9E1,8.9E1,1.1E1,2.26E2,7E0,4.2E1,5.5E1,2.62E2,3.5E1,1.52E2,2.7E1,2E0,5E1,9.3E1,2.1E1,5E0,4.8E1,1.71E2,2E0,9E0,7.9E1,2.4E1,3.5E1,4.3E1,2.9E1,7.1E1,1.02E2,3E0,6E0,1.53E2,1.47E2,9E0,2E0,1.2E1,3.92E2,4.7E1,1.89E2,1.3E1,1.39E2,1.6E1,7E0,1E1,4E1,3.8E1,5.4E1,2.4E1,1.4E1,1.5E1,8.4E1,3.4E1,2.37E2,6.9E1,1.34E2,8.4E1,3E0,1.04E2,3.17E2,3E0,1E0,7.9E1,2E0,2.44E2,3E0,8E0,2E0,6E0,8E0,1.6E1,5.9E1,9.3E1,1.6E1,9E0,2.1E1,4.1E1,3E0,4.18E2,2.15E2,4E0,1.16E2,7E0,3E0,2.9E1,3.6E1,1.54E2,4E0,1E1,4E0,1.65E2,3.03E2,2.7E1,3.45E2,1.57E2,2.11E2,1.2E1,2.59E2,6.7E1,2E0,2E0,1E0,4.48E2,4E0,6E0,2E0,1.18E2,6.6E1,6.1E1,4.5E1,1.47E2,8.8E1,1.1E1,1.9E2,2.87E2,7.3E1,7E1,4.9E1,6.8E1,1.32E2,5E0,1.8E1,5.7E1,3.3E1,2.2E1,1.01E2,1.61E2,5.1E1,1.01E2,3E0,9E1,1.8E1,3E0,5.3E1,1.18E2,4E0,3.1E1,1.5E1,2.8E1,2.5E1,4.6E1,3.4E1,1.19E2,1.27E2,2E1,1.24E2,2.68E2,1.48E2,4.1E1,7.8E1,1E0,1.1E1,5E0,2.2E1,1.4E1,1.52E2,2E0,1.61E2,4E0,3.02E2,1E0,1.49E2,8E0,1.07E2,1.04E2,5E0,7E0,4.7E1,7.1E1,1.79E2,1.1E1,2.8E1,2.59E2,1.8E1,5.5E1,4.6E1,2.4E1,3.6E1,1.3E1,2.9E1,1.03E2,2E1,1.41E2,4.2E1,4.8E1,2.3E1,3E1,1.5E1,1.03E2,2.5E1,3E0,5.2E1,6.7E1,4E1,2.28E2,2.9E1,1.8E1,1.6E2,1.9E1,2.2E1,6E0,2.5E2,9E0,1.6E1,1.25E2,2.3E1,1.7E1,3.1E1,2.19E2,5E0,4E0],"tree_param":{"num_deleted":"0","num_feature":"78","num_nodes":"1701","size_leaf_vector":"1"}},{"base_weights":[-1.8845804E-4,8.576593E-2,-3.9220956E-1,-9.1770954E-2,1.4447549E-1,-1.0802653E0,-2.9885033E-1,9.290301E-3,-1.7820781E-1,1.7256832E-1,-1.3076208E-2,-1.2991717E0,-8.44902E-1,-2.408593E-1,-5.1810396E-1,-2.7446464E-1,3.7793655E-2,-6.145326E-1,-1.6388024E-1,-2.2858625E-2,1.9667552E-1,7.609186E-2,-7.566933E-2,-3.1611168E-1,-1.330435E0,-9.4560015E-1,-3.5428295E-1,-1.5724654E-1,-2.9770324E-1,-6.541666E-1,-4.4094008E-1,-6.032902E-1,-1.0459073E-1,9.868517E-2,-2.7458021E-2,-7.704082E-1,-3.7486196E-1,-2.4491401E-1,-1.13756776E-1,-2.7765554E-1,-7.066442E-4,2.6698944E-1,1.2015498E-1,9.758653E-2,-1.9219166E-2,-5.7645164E-2,-1.6015466E-1,-6.1437618E-2,9.623289E-2,-1.4680984E0,-1.183934E0,-1.0275685E0,-7.7578646E-1,-2.5748266E-2,-5.956105E-1,-1.11166276E-1,-2.3977044E-1,-2.5757352E-1,-3.754639E-1,-5.536695E-1,-8.452136E-1,-5.560944E-1,