{"learner":{"attributes":{"scikit_learn":"{\"_estimator_type\": \"regressor\"}"},"feature_names":[],"feature_types":[],"gradient_booster":{"model":{"cats":{"enc":[],"feature_segments":[],"sorted_idx":[]},"gbtree_model_param":{"num_parallel_tree":"1","num_trees":"150"},"iteration_indptr":[0,1,2,3,4,5,6,7,8,9,10,11,12,13,14,15,16,17,18,19,20,21,22,23,24,25,26,27,28,29,30,31,32,33,34,35,36,37,38,39,40,41,42,43,44,45,46,47,48,49,50,51,52,53,54,55,56,57,58,59,60,61,62,63,64,65,66,67,68,69,70,71,72,73,74,75,76,77,78,79,80,81,82,83,84,85,86,87,88,89,90,91,92,93,94,95,96,97,98,99,100,101,102,103,104,105,106,107,108,109,110,111,112,113,114,115,116,117,118,119,120,121,122,123,124,125,126,127,128,129,130,131,132,133,134,135,136,137,138,139,140,141,142,143,144,145,146,147,148,149,150],"tree_info":[0,0,0,0,0,0,0,0,0,0,0,0,0,0,0,0,0,0,0,0,0,0,0,0,0,0,0,0,0,0,0,0,0,0,0,0,0,0,0,0,0,0,0,0,0,0,0,0,0,0,0,0,0,0,0,0,0,0,0,0,0,0,0,0,0,0,0,0,0,0,0,0,0,0,0,0,0,0,0,0,0,0,0,0,0,0,0,0,0,0,0,0,0,0,0,0,0,0,0,0,0,0,0,0,0,0,0,0,0,0,0,0,0,0,0,0,0,0,0,0,0,0,0,0,0,0,0,0,0,0,0,0,0,0,0,0,0,0,0,0,0,0,0,0,0,0,0,0,0,0],"trees":[{"base_weights":[-1.0972355E-8,9.429379E-2,-4.189435E-1,1.573601E-1,-4.358597E-2,-1.1385995E0,-3.0214548E-1,-3.2066442E-2,2.0083705E-1,5.098056E-2,-9.671005E-2,-9.7521716E-1,-1.4181364E0,-4.8753133E-1,-2.5477087E-1,-3.180593E-1,2.224627E-3,7.936317E-2,2.6727194E-1,-7.66112E-2,1.0245465E-1,-2.0201813E-1,-6.1777882E-2,-1.0830754E0,-7.9873925E-1,-3.818961E-1,-1.435632E0,-4.0892693E-1,-6.103649E-1,-1.7507362E-1,-3.3389506E-1,-5.298414E-1,-1.9734238E-1,6.76203E-2,-1.3779476E-1,1.0547811E-1,-1.5350181E-1,-1.5201621E-1,2.783198E-1,-4.6499583E-1,-5.0314534E-2,1.3066545E-1,-4.8857607E-2,-1.457153E-1,-3.0861044E-1,-1.6452728E-2,-1.4731172E-1,-1.2856278E-1,-1.0986513E0,-5.802904E-1,-8.7914383E-1,4.9849596E-2,-5.542571E-1,-1.2721591E0,-1.5503874E0,-5.20202E-1,-3.3168355E-1,-5.418806E-1,-7.367015E-1,-2.3181462E-1,-1.0818826E-1,-4.1819885E-1,-2.808627E-1,-4.414358E-1,-1.0977001E0,-1.5985452E-1,-3.4240237E-1,-2.9768996E-2,1.4732502E-1,-1.2586854E-1,-9.4505537E-1,-4.482664E-2,1.3946849E-1,-8.568093E-2,-2.9735062E-1,2.4264045E-2,-2.6702148E-1,3.576744E-1,2.00373E-1,-7.783968E-1,-2.1505049E-1,5.5291604E-2,-8.914662E-2,1.3804895E-1,-1.9712465E-1,-2.2196174E-1,-1.7618655E-3,-2.3072298E-1,-9.680378E-2,-2.7296108E-1,-4.8235288E-1,6.594651E-2,-5.028042E-2,-1.2928927E-1,-2.553751E-1,2.5449393E-2,-3.6250677E-2,-9.746692E-1,-1.218589E0,-3.822671E-1,-6.610758E-2,-8.0064255E-1,-1.0155535E0,1.17495945E-2,-6.67007E-2,-1.17125E-1,-1.435066E-1,-1.5539927E0,-3.0650407E-2,-4.8807895E-1,-9.536232E-1,-2.8326443E-1,-4.0972567E-1,-5.156668E-1,-8.991232E-1,-6.960602E-1,-1.0731982E0,-1.8034281E-1,-3.0455768E-1,-5.73905E-2,-1.570666E-1,-3.9335507E-1,-7.174747E-1,-2.6343662E-1,-5.0293505E-1,-2.9766405E-1,-7.991916E-1,1.3327927E-3,-1.1908411E0,-3.6036085E-2,-1.3160728E-1,4.7538076E-2,-4.0710634E-1,-1.8190627E-1,-9.172482E-3,1.5060091E-1,-8.086734E-2,-2.0260751E-1,-5.571477E-2,7.049594E-3,-9.993577E-1,-2.752645E-1,5.4690577E-3,3.7108142E-2,1.8476795E-1,-1.7196886E-1,-8.715406E-3,-3.2147476E-1,-1.06507845E-1,-1.771304E-1,1.2369903E-1,-6.1281747E-1,-1.8619934E-1,2.719016E-1,4.1186872E-1,2.6022094E-1,1.2866051E-1,-8.100405E-3,-7.960079E-2,-3.941183E-2,-1.6821304E-1,-1.9144695E-1,9.034731E-2,-1.5331455E-1,-5.4636773E-2,7.6698475E-2,1.8647972E-1,-6.926076E-2,-3.126881E-2,-3.6005637E-1,-3.507177E-2,5.3051747E-2,-7.9486854E-2,-4.4820786E-1,-2.1564426E-1,-4.1477397E-2,-1.6346698E-1,-3.9431918E-1,-2.3510583E-1,-8.673432E-4,-5.036116E-1,4.1163377E-2,1.9960088E-1,-1.4766657E-1,-3.36404E-2,-1.45736E-1,5.008465E-2,-3.738328E-1,-1.9693843E-1,-1.1961529E0,-8.81238E-1,-1.2813431E0,-9.5967464E-2,-4.3529946E-2,3.1493914E-3,-8.242278E-2,-5.2107897E-2,-1.0820408E0,-7.1724296E-2,-1.5573053E-1,-3.4800407E-2,-3.1900802E-1,-5.296907E-1,-4.5985365E-1,-1.3440075E0,-2.4855119E-1,-3.4592744E-2,-3.829502E-1,-5.829708E-1,-5.900081E-1,-4.5698005E-1,-1.0123235E-1,-5.178821E-2,-6.125729E-1,-8.612338E-2,-5.5000674E-2,-1.2023201E-1,-2.3160374E-1,-1.4235152E-1,-3.7377602E-1,-2.6742586E-1,-3.8108103E-2,-1.5499051E-1,-1.397881E-1,-3.1755876E-2,-5.31384E-2,-3.7400398E-1,-5.504887E-1,-9.2172585E-2,-2.2566886E-1,-3.1421503E-1,1.3556448E-2,-5.3321415E-1,-5.76277E-1,-2.2224803E-1,1.8199392E-2,-8.671384E-1,-3.997561E-2,-1.2848173E-1,7.934932E-2,-1.5785807E-1,1.576179E-2,-1.8450608E-2,-9.560065E-2,-3.51815E-2,-2.4384978E-1,1.2126803E-1,3.537679E-2,-9.72828E-2,1.7908809E-1,6.2393818E-2,-1.8071368E-1,-3.3810377E-1,-1.5768155E-1,-6.2333974E-3,-1.0742854E-1,-2.1667209E-2,-4.538996E-1,-1.7590939E-1,-1.1319511E-1,4.3750513E-2,-6.623855E-2,7.6105334E-2,2.7700288E-2,2.1818225E-1,-5.819361E-1,-1.4754114E-1,-8.102824E-3,2.9208858E-2,-3.0567628E-1,-6.666739E-1,-4.368821E-2,1.3035712E-3,-2.3565792E-1,7.469269E-3,6.065274E-2,2.0112844E-1,-7.03665E-1,-1.387571E-1,-3.415079E-2,-1.4450121E-1,3.933553E-1,5.02246E-2,2.0082149E-1,4.4204536E-1,1.5911013E-1,3.0002263E-1,6.4349204E-2,1.9646029E-1,-9.186991E-3,-3.541892E-2,-8.320054E-2,-1.3726433E-2,1.839676E-2,5.264241E-2,-2.1829749E-2,-1.3164638E-1,-1.608272E-3,-1.07130535E-1,1.5063679E-1,2.33066E-2,2.5813866E-1,1.6257605E-1,-1.5793887E-1,1.745479E-1,-4.2860318E-2,-2.0581726E-2,1.8315924E-2,-1.0684122E-1,1.2944312E-2,1.5282783E-1,-1.8252974E-2,-5.368858E-3,-5.5553705E-2,-2.8586468E-2,8.921501E-3,-2.2138992E-1,-3.460185E-2,-3.7911832E-1,-1.5238275E-1,-4.2080756E-2,-6.3007446E-3,-4.232016E-1,-1.8091305E-1,-2.9982716E-1,-6.369246E-1,-3.9575797E-1,-1.825989E-1,5.7472512E-2,1.6302982E-1,2.9601289E-2,-4.860665E-2,-1.9999304E-1,-2.0343596E-2,-1.6706826E-1,-9.368145E-2,-1.9501762E-1,1.2313484E-1,-4.0890355E-2,-2.7613837E-2,-4.5306567E-2,-1.3142954E-1,-2.9236603E-1,-1.8300405E-2,-1.2083609E0,-7.546815E-1,-1.0308652E-1,-1.2979386E0,-4.044065E-2,-1.6100407E-2,-1.094708E-1,-2.787338E-2,-4.74579E-2,-3.9367463E-2,-5.6449294E-1,1.6994596E-3,-5.4809827E-2,-1.4798407E-1,-3.5267208E-2,-3.8640786E-2,-2.269539E-1,-3.654683E-2,-5.625409E-2,-3.6842413E-2,-7.0744514E-2,-7.0774126E-1,-5.4010975E-1,-3.8988987E-1,-5.229128E-1,-4.87116E-2,-6.54987E-2,-1.5726697E-1,-2.5840545E-1,-6.1463937E-2,-1.6778094E-1,-3.6132506E-1,-5.4629326E-2,-2.5948754E-1,-5.1431518E-2,2.7762441E-2,-5.5533152E-2,-1.3967769E-1,-6.750055E-2,-1.7714795E-1,-6.696303E-2,-3.4328684E-1,-4.5066503E-1,-6.1052144E-2,-3.772576E-2,-1.8808836E-1,-2.9140863E-1,2.382429E-2,-3.1974798E-1,-7.597221E-1,-4.671042E-1,6.0249593E-2,-6.475278E-1,-1.7161127E-3,-2.8809893E-1,-1.1931614E0,-7.169785E-2,4.6113163E-4,2.6561791E-2,-2.861426E-1,-1.1745186E-2,-1.3231832E-1,-3.197641E-1,2.197423E-2,-8.78073E-3,-3.275379E-2,7.2647266E-2,-8.135061E-2,-9.009305E-2,-8.575793E-3,1.8829687E-1,1.0896753E-1,-4.1930415E-3,-2.415189E-1,-1.413045E-1,-5.7775743E-2,-2.9938152E-2,-1.435943E-1,-3.798647E-2,4.587981E-2,-4.7131326E-2,-3.3913496E-1,-7.7657914E-1,-1.1569281E-1,-2.6384404E-2,2.6549324E-2,-1.21595636E-1,5.4664824E-2,-5.3980756E-1,2.5509757E-1,-7.914271E-2,-7.014102E-2,9.872822E-2,8.276434E-2,-8.964808E-2,2.670723E-1,1.5346095E-1,-7.119073E-1,-2.056065E-2,-1.728724E-1,-2.9621568E-2,8.066469E-3,-4.1908016E-3,-2.4567471E-1,-3.8014486E-1,-7.696321E-2,7.849595E-3,-1.5710784E-1,-4.2846195E-2,-2.1936405E-3,1.383025E-1,2.4010321E-2,2.2881674E-3,-5.4181725E-2,-8.833409E-2,1.5366127E-2,-2.6184011E-2,-2.0013621E-1,-7.951525E-3,2.497867E-1,4.3385756E-1,-2.3532355E-1,1.1111642E-1,6.57697E-2,2.7401215E-1,4.9560454E-1,3.1674212E-1,2.1892953E-1,1.0887593E-1,3.066594E-1,-9.030582E-2,9.595751E-2,-5.54185E-2,2.7534115E-1,1.6343363E-1,-3.018975E-3,7.4679046E-3,-9.679711E-3,-1.7173028E-2,-9.774084E-3,-2.5507897E-2,1.583638E-1,-4.0514983E-2,-3.095701E-1,3.128062E-2,-5.720041E-2,2.619592E-1,1.0803413E-1,2.1038276E-1,-6.714411E-3,-3.878821E-2,3.0953808E-2,-3.2882101E-3,-7.293441E-4,-2.308201E-2,1.1639839E-2,-1.1314627E-3,-1.9767344E-2,1.8428234E-2,1.1969995E-3,-2.3000697E-2,-2.139964E-1,-4.3107897E-2,-9.281712E-2,1.1875915E-2,-4.491321E-2,9.049594E-3,-1.24235176E-1,-2.1355672E-2,-4.543599E-1,-2.0036059E-2,-1.5821941E-1,-2.6706916E-1,-3.331295E-1,-2.1712465E-2,-7.994814E-1,-5.1274117E-2,-3.437666E-1,-7.70007E-2,-2.8091702E-1,1.3427015E-3,-4.428043E-3,1.02456525E-1,-4.575744E-3,1.8238865E-1,1.52392825E-2,-1.6638797E-2,-1.8217279E-1,-5.620074E-1,-2.9321378E-2,1.2310913E-1,-2.818501E-1,-1.0401515E-1,-1.3076265E-1,-1.1728085E-2,-2.612185E-1,-1.4370558E-1,5.033298E-2,1.9826038E-2,-1.2869537E-2,3.6154264E-3,-2.1466011E-2,-7.93238E-2,-3.0990412E-2,3.6193512E-3,-1.2323772E-1,-5.1600613E-2,-1.4734009E-2,-7.8575E-1,-1.3030404E0,-1.7450407E-2,-5.2125937E-1,-7.5212985E-1,-1.4963701E-2,-2.591137E-2,-9.272576E-2,-5.6707453E-2,-1.0920649E-2,-5.542712E-1,-4.144323E-2,-1.5492411E-2,-5.299119E-1,1.0249594E-2,2.0032791E-2,-1.6558986E-2,-3.3927325E-2,-2.4178762E-2,-2.4576453E-2,-1.4343649E-1,-1.3104174E-1,-2.0175355E-2,-3.483872E-1,-5.3050756E-2,-2.2860968E-2,-2.9933253E-2,-7.573198E-3,5.939623E-3,-8.2945585E-2,-2.0861018E-2,-1.6651803E-1,7.7530965E-3,-5.0062288E-2,-1.6663879E-1,-4.092322E-3,-1.3988729E-2,-2.8279912E-1,-3.6710688E-1,-1.4188999E-2,-4.692639E-1,-2.3621583E-1,-1.501259E-1,-2.6912782E-1,-3.6326993E-2,-3.0203533E-1,-4.5862997E-1,-5.957972E-2,-9.9520735E-2,-3.5800796E-2,-5.4114133E-1,-9.459165E-1,-3.855409E-1,-7.255771E-3,2.819935E-2,-1.9875264E-2,-4.1426593E-1,-3.990054E-2,-1.3012801E-1,-2.2895792E-2,-4.400844E-1,-7.259884E-3,-2.9867426E-2,-2.6317015E-1,-7.495628E-2,6.234586E-3,-5.984068E-2,9.9652074E-2,1.6188461E-2,-5.2484464E-2,-1.4960554E-1,1.4428961E-1,2.4463594E-1,1.18792765E-1,-1.1173465E-2,8.053753E-3,-3.2838825E-3,-1.8157186E-2,-2.8060228E-2,-7.401824E-2,-1.6574672E-1,-1.1982372E-1,-2.197302E-2,-7.5302E-2,6.7323506E-2,1.1473441E-3,-8.262389E-3,2.1065991E-2,-3.9016315E-1,-9.1729325E-1,-4.332571E-2,-1.7698945E-2,-2.785406E-3,-1.878904E-1,-6.3964896E-2,2.1016388E-1,4.1050397E-2,-6.631892E-2,-1.6040651E-2,3.7230022E-2,9.930411E-5,-1.7597559E-1,-3.1550948E-2,-1.9619443E-1,-4.8602205E-3,1.3198887E-1,5.0011724E-2,1.3755223E-1,1.925201E-2,-1.22102514E-1,3.9296406E-3,2.8547698E-1,1.120964E-1,2.0856282E-1,1.1710365E-1,-6.2004062E-3,-7.7722944E-2,-1.897665E-2,-2.8325932E-3,-9.88143E-3,1.25706745E-2,-1.3686502E-2,-2.8570464E-1,-4.1771535E-2,-1.3293611E-2,-3.0440731E-2,-7.948392E-3,-7.900731E-3,2.4004228E-1,1.1849607E-3,-2.4271568E-2,3.0507094E-1,7.781302E-2,2.4393569E-1,4.5890242E-1,-1.12540655E-1,-2.0675197E-1,3.5292767E-2,2.1823117E-1,1.09352484E-1,-8.475211E-2,1.9186948E-1,3.3301693E-1,5.976863E-1,4.5156756E-1,2.0440619E-1,3.6752445E-1,-2.7500743E-1,2.3067503E-1,5.514259E-2,1.9330794E-1,2.1500969E-1,3.3345905E-1,-2.891278E-2,1.2973137E-1,1.6870089E-1,1.2067431E-2,-2.4247672E-2,-2.0663511E-2,1.8013373E-1,3.133974E-1,9.31057E-2,2.0499046E-1,1.8738413E-1,9.312439E-3,-4.1667413E-2,9.393504E-4,5.0781276E-2,-7.811695E-3,2.7560595E-1,7.237681E-3,1.2506701E-1,-3.563297E-2,1.0468128E-1,2.3221685E-1,-1.9157255E-1,-2.5812153E-2,-3.290844E-2,-7.589577E-2,-5.9665544E-3,4.1149233E-2,-1.4641121E-1,-5.2762083E-3,-6.2304115E-1,-3.8455233E-2,-2.101133E-2,-1.0733805E-2,-2.3578377E-3,-3.004963E-1,-2.8427067E-1,-4.4036508E-2,-5.0650727E-2,-1.0125073E-1,-4.1471377E-2,-2.335278E-2,-3.450768E-2,-1.4707011E-2,2.5126394E-2,-9.754064E-2,1.3154745E-1,-7.962587E-3,6.9288476E-3,2.1261303E-2,1.6667653E-2,-2.3328008E-2,-2.3020616E-2,-1.4701472E-1,-2.9114982E-2,-7.843401E-2,-2.162839E-1,-1.8057387E-2,2.3267206E-2,5.2207176E-2,-2.9680252E-2,6.149391E-3,-1.5630473E-1,-8.6746254E-4,-1.9634558E-1,-7.973156E-2,-3.0362783E-2,2.4546295E-1,-2.145237E-1,-3.665576E-1,-2.154417E-1,-7.854195E-2,2.639929E-2,2.775889E-4,-4.7951792E-3,-1.934412E-2,-1.29506085E-2,-8.061858E-1,-1.4335011E-1,-1.2080695E-1,-5.0708294E-2,-9.4720654E-2,-2.4480648E-2,-8.0035925E-2,-5.7553746E-2,-3.4477673E-2,-5.4408807E-1,-1.4040651E-2,-5.793009E-3,1.11887045E-2,-8.903817E-3,-3.0860731E-2,-1.7007347E-2,-8.881195E-3,-3.513319E-2,1.3499594E-2,-2.060911E-2,-6.990508E-2,1.3837422E-4,-1.3212553E-2,-1.9234136E-2,-2.9125286E-3,-1.521983E-1,-2.3486717E-2,-2.9142135E-1,4.5993235E-3,-3.5336792E-2,-4.4700798E-2,-4.169814E-2,-5.3690714E-1,-2.1917751E-2,-3.266126E-2,-3.379518E-3,-1.6679493E-1,-3.1068688E-2,-2.2883914E-2,4.708353E-3,-3.0747047E-1,-4.041898E-1,-6.430077E-2,-6.064524E-1,-3.2363262E-2,-1.02110736E-1,-9.700405E-3,9.032794E-3,-4.656998E-2,-5.9989613E-2,-3.236165E-2,-5.4778498E-2,-1.5820649E-2,-3.098046E-1,-7.4757608E-3,-2.1282924E-2,-3.8123075E-2,-2.5967209E-2,1.0239246E-2,-3.5449753E-3,1.331522E-2,-3.0582845E-2,-1.6552012E-2,-1.2635881E-2,-2.6366165E-2,1.9672807E-1,1.0327221E-1,2.673769E-1,1.8065633E-2,7.217299E-2,1.6250435E-2,-6.1650136E-3,-3.492561E-2,-1.560041E-2,-3.28579E-2,3.5209625E-3,-1.41772395E-2,-2.901321E-2,-8.85967E-4,1.24654155E-2,3.048768E-3,-4.9662318E-2,-2.9446242E-2,-9.650075E-2,-1.4850405E-2,-2.2816464E-2,-9.246735E-2,1.875697E-3,-1.676376E-1,2.5262838E-2,-4.440731E-3,5.9364203E-2,-9.7845234E-2,-1.4448898E-1,-3.4050778E-2,6.715767E-3,-1.499171E-1,-2.8622743E-1,8.413365E-4,-1.49167795E-2,3.4838125E-2,1.3695684E-1,-3.5243553E-1,7.453058E-2,-4.596502E-2,5.1116984E-2,1.7562675E-1,-7.6691315E-2,5.4235835E-2,-3.3644296E-2,-1.4962119E-1,2.3126768E-1,3.424588E-1,1.6791786E-1,-1.1678292E-1,2.2529003E-1,1.07491985E-1,6.0891695E-2,1.908787E-1,-1.2820772E-2,-3.2662228E-1,3.7069272E-2,9.944717E-3,3.1233448E-1,-4.9633873E-1,1.2242237E-1,-1.3406646E-1,4.3415427E-2,1.8520969E-1,5.30072E-1,4.0030098E-1,-2.3471333E-2,-2.6568547E-1,2.6581487E-1,-2.5103463E-2,3.244851E-1,1.313179E-1,6.6386454E-2,2.2663312E-2,-2.7772183E-2,8.125486E-3,2.1982801E-1,5.3299884E-3,3.4404922E-2,6.0659456E-3,4.4363007E-1,6.20663E-1,3.7736323E-1,4.9565536E-1,3.1173438E-1,1.3878188E-1,4.0672883E-1,2.502381E-1,1.6066127E-2,-3.782073E-2,3.1053318E-2,2.1321578E-1,-4.1125607E-2,6.014384E-2,2.056601E-2,-4.925744E-3,-7.7340655E-2,2.2270851E-1,2.8098375E-1,3.6152703E-1,3.456179E-2,1.3679887E-2,9.7763106E-2,2.0426443E-1,-1.3845924E-1,3.5421822E-2,-4.261169E-4,-1.5287461E-2,3.55632E-2,-4.2241316E-2,3.723147E-2,2.5712642E-1,-9.1007955E-2,1.1814026E-1,2.5855738E-1,1.5442523E-1,1.6039193E-2,2.2850733E-1,1.5874624E-2,9.730597E-3,2.4608526E-1,3.2955974E-1,-2.530065E-2,1.2888801E-1,-1.4354117E-1,8.558478E-2,-1.8170772E-2,1.7162293E-1,1.3880384E-1,2.5587365E-1,-2.5067875E-2,-1.6711487E-2,-4.076202E-3,-1.4607251E-2,5.1784832E-2,-1.4270732E-2,7.3707337E-3,-1.5394862E-1,-7.0328045E-1,-3.5767388E-1,-3.0006494E-3,-3.2746945E-2,-2.974396E-2,2.2793512E-3,-1.22881E-1,6.591297E-2,-3.8507984E-3,-2.0191697E-2,5.6658607E-2,1.6838181E-1,2.9091986E-3,-1.03330435E-2,9.5834425E-3,-6.263955E-3,-1.3716452E-1,-4.722561E-2,-1.36508E-1,-3.304973E-1,-4.5285974E-2,4.213832E-2,-2.078065E-2,6.8845325E-3,-6.48707E-3,-2.6622742E-2,-2.1577695E-1,-4.752508E-3,-3.0381724E-1,-6.328644E-2,-1.2851993E-2,2.4442269E-2,-6.7756088E-3,3.1742103E-2,-1.1789031E-2,-2.3740613E-1,-1.5585365E-2,-3.905232E-1,-2.859664E-1,-1.3433515E-1,-1.21413335E-1,5.410492E-2,-4.8251143E-3,1.418108E-2,-6.837439E-2,-9.5574474E-1,-4.4318184E-1,-6.185898E-2,-1.9185772E-2,-5.818098E-3,-1.4377191E-2,-2.701441E-2,-2.2573108E-2,-3.215611E-2,-5.4236915E-2,2.6495948E-3,-1.5495724E-2,-2.9980779E-2,-3.4190366E-1,-2.7417177E-1,-3.554339E-2,-5.7562288E-2,-3.2845166E-2,-6.576835E-2,-3.5439573E-2,-8.300738E-2,1.0558247E-3,-7.2041946E-3,-3.7909027E-3,6.7359395E-3,-1.4741684E-2,-1.710652E-2,6.87194E-2,2.1137374E-2,7.097065E-3,1.3183403E-2,-2.1100542E-2,2.70311E-1,8.511809E-3,-1.793401E-2,-1.8910296E-2,3.2345306E-3,-6.9688796E-3,8.5917085E-2,-2.1802968E-1,1.0854835E-2,8.057656E-3,1.0016041E-1,-2.2284541E-2,-1.8418292E-2,-1.5876006E-1,1.3099304E-2,-2.3000678E-2,1.2756876E-2,-2.648602E-3,-1.9880797E-1,2.7935088E-4,-3.1754845E-1,-1.4046192E-1,5.8214206E-2,5.776625E-4,1.5112872E-1,-4.8917342E-2,2.3399595E-2,4.9342252E-2,1.8077461E-2,3.646578E-3,-1.0107941E-2,2.729929E-2,2.6101582E-3,1.5592742E-1,2.955339E-2,2.38618E-3,-1.3553421E-2,1.41563555E-2,3.030733E-3,5.499225E-3,-1.1696429E-2,-1.8443024E-2,-8.123712E-3,1.5631247E-1,2.681496E-1,2.4467154E-1,3.748675E-1,2.4484082E-1,7.982316E-2,7.8219526E-2,-3.3642877E-2,2.2949295E-1,-9.329268E-3,4.017955E-3,1.9673496E-2,1.08129084E-1,2.0222973E-2,1.4835232E-1,2.376605E-1,-3.3994917E-2,8.432792E-3,1.9914693E-1,3.476038E-1,-1.0004059E-3,-7.345041E-2,1.5024914E-1,-8.460731E-3,3.1792694E-3,-3.246321E-2,6.9205323E-3,3.5551205E-2,5.5638665E-1,3.7727248E-2,4.3395466E-1,2.5133067E-1,4.8742138E-2,-2.5220731E-2,-5.35854E-1,-1.9204843E-1,2.4992784E-3,2.8742379E-2,3.6347255E-2,-9.575076E-2,-4.017343E-2,3.3770117E-1,3.5120636E-1,6.441337E-2,1.2411271E-1,7.228078E-4,3.439946E-2,-2.8150685E-3,2.7530238E-2,1.6694586E-1,-3.5300404E-2,4.5468426E-1,6.4569503E-1,5.402015E-1,2.3958103E-1,3.9318144E-1,3.544177E-1,5.088824E-1,1.1810807E-2,3.3622146E-1,-9.16482E-3,1.8260732E-1,3.3650362E-1,4.8133248E-1,2.5595567E-1,-2.0100541E-2,2.3155192E-1,1.3408174E-2,7.252967E-2,-6.9851615E-3,2.709429E-1,9.090157E-2,3.4475276E-1,9.022311E-2,3.9762533E-1,3.2505906E-1,8.806943E-3,-2.315061E-2,2.2693749E-1,5.818973E-2,2.4952038E-1,1.5296477E-1,-6.7296824E-3,-2.1908686E-2,-2.926816E-2,1.0426926E-1,4.1378804E-2,-5.3452488E-2,1.6176173E-2,-9.661212E-3,2.8967617E-2,1.3953055E-2,-1.8121473E-2,3.2037706E-3,2.5856351E-2,9.9515125E-2,1.5561467E-1,2.7685812E-1,9.839063E-2,1.9490057E-1,2.7712435E-2,1.724047E-1,4.322782E-3,-2.5277284E-3,2.5409553E-2,-2.600061E-2,3.3818327E-2,-7.560886E-5,1.4398193E-1,2.9185563E-3,9.070734E-3,-2.0588277E-2,2.1040922E-2,-1.3382606E-3,2.3528294E-1,4.9192156E-3,1.5650284E-1,-3.7907304E-3,2.72922E-1,1.5972972E-1,6.327496E-3,-1.1900738E-2,-1.3422462E-2,-2.5542164E-2,-2.2504062E-3,-7.346268E-2,4.432793E-3,-4.7886413E-2,-1.6847734E-1,3.425909E-3,1.2874953E-1,1.7553484E-3,1.4077607E-2,-8.95962E-2,2.1831982E-2,1.2824835E-2,-1.8877271E-1,-9.158301E-2,-1.9202836E-1,-6.6441105E-4,-4.18524E-2,-1.5053704E-2,-1.34301875E-2,-1.8192044E-1,-1.2133291E-1,5.3698305E-2,-1.8980928E-2,-3.0290157E-2,-3.2560938E-4,-3.537299E-2,-2.1558719E-4,-9.888979E-2,4.7006868E-2,-1.4489655E-2,-3.01968E-2,-1.9892472E-1,-3.6921017E-2,-6.593401E-2,-3.5618103E-1,-2.2890656E-1,-9.450803E-3,-2.8391683E-1,-2.720797E-3,-1.5861835E-1,-2.7583628E-3,1.4215882E-2,-5.2150678E-2,-1.0057352E-1,-4.6064433E-2,-3.933875E-3,-3.1122476E-2,-4.3308592E-1,-4.0072153E-4,-2.8074893E-1,3.8699593E-2,-1.6870731E-2,-1.7179325E-2,-4.9802935E-4,-8.672182E-3,1.740923E-2,3.062676E-1,2.3796389E-2,-2.5700612E-2,1.2066778E-2,-1.8068975E-2,-6.930054E-2,9.163035E-2,-1.2291955E-1,2.1227363E-1,2.7670652E-2,1.3345909E-2,-9.240181E-2,-2.1700798E-2,-1.0989372E-2,3.7910175E-3,-4.0034324E-2,-2.8939242E-2,-1.1367451E-1,-3.394079E-2,4.332793E-3,-3.502065E-2,2.942161E-3,1.0097448E-2,-4.1607795E-3,1.0299639E-1,1.799377E-1,3.457494E-2,2.1403389E-2,2.3633989E-2,1.2088287E-2,1.2970147E-1,2.8943887E-2,3.034646E-1,2.2601064E-1,2.9588452E-1,1.6977105E-1,4.1921788E-1,3.125617E-1,4.310549E-2,1.9942862E-1,-2.1623295E-2,1.7922286E-2,-1.4967344E-2,1.5405118E-2,1.8774085E-1,2.6892608E-1,1.7737357E-2,7.2561475E-3,8.292814E-3,-1.4364796E-2,1.6268382E-2,-6.700749E-3,2.9027287E-2,1.8110693E-2,1.352365E-1,2.9828846E-2,3.5240668E-1,-1.1567208E-2,8.859209E-3,2.2495989E-2,4.170074E-2,5.780786E-1,4.7121382E-1,3.5868973E-2,2.8329292E-1,9.0264976E-2,1.8255489E-1,-8.006646E-3,-6.309488E-1,-3.206073E-2,1.979935E-2,-2.105554E-1,-4.0083513E-2,1.2401371E-2,2.729935E-2,-1.06217645E-1,-2.355061E-2,2.3366125E-2,3.9721984E-2,2.577063E-1,3.789658E-2,6.999351E-3,-6.0744748E-2,1.0996284E-2,-2.3853646E-3,1.632312E-2,-1.2000765E-2,5.771433E-3,5.528389E-3,2.267778E-2,4.9461395E-2,2.9255745E-1,4.4466957E-2,6.5728444E-1,3.8447928E-1,5.8309275E-1,3.5307544E-1,1.2575525E-1,3.30346E-1,4.2471468E-1,3.7930447E-1,-1.028401E-2,5.5405825E-2,4.7541007E-1,-1.08882105E-2,2.502439E-2,3.537506E-1,-2.2926692E-4,3.0111125E-2,-1.7320732E-2,2.559503E-2,8.499199E-2,3.9667662E-2,2.9938346E-2,5.3614236E-2,4.2736694E-2,2.911327E-1,1.7112762E-1,2.3827672E-2,-4.10731E-4,1.0958569E-2,3.7637278E-3,3.1849194E-2,2.3515345E-1,1.3325967E-1,-4.585791E-3,3.0046067E-1,3.9158817E-2,-1.1750253E-1,2.8618988E-1,4.2329845E-1,3.0213384E-2,3.802666E-2,2.747488E-1,-9.580649E-3,2.541293E-2,-6.6250294E-2,8.5178606E-2,2.7729604E-1,1.43142985E-2,3.6559563E-2,2.1013384E-1,2.6126903E-2,-1.10350385E-1,1.3211636E-1,-9.478911E-3,1.4685424E-2,1.2936911E-3,-3.076065E-2,-4.071958E-3,1.0971413E-1,-7.939655E-3,1.7861206E-2,-1.7075611E-2,2.836792E-1,6.1592697E-3,1.9484315E-2,1.5491332E-1,2.2239684E-1,9.323119E-3,1.9194117E-2,-9.26065E-3,2.3882538E-2,1.3071507E-1,1.0080489E-2,2.831921E-2,2.0283949E-2,7.149212E-3,2.8458131E-2,1.3742074E-1,9.449211E-3,2.4391528E-2,-1.958746E-2,1.117935E-2,1.4901469E-2,-3.0590775E-3,-1.7873762E-2,1.362591E-2,-2.7165303E-2,-1.1619212E-2,-1.3474935E-1,2.1253105E-3,9.61599E-3,-2.2696248E-1,5.960677E-3,-1.08925655E-1,-1.9111268E-1,1.0694289E-4,-1.9446611E-2,-1.0948817E-3,1.3999195E-1,3.1427167E-2,-4.7976742E-3,7.0875795E-3,-1.577874E-2,-6.4403005E-3,1.2109371E-1,-1.112643E-3,-1.4941591E-1,-2.6144657E-2,-4.131971E-2,-2.0207012E-2,-1.7602796E-2,-3.4965772E-2,1.1474392E-2,-3.529024E-2,-1.6904622E-2,9.5493235E-3,-4.4656206E-2,-7.550608E-3,-2.7300808E-1,-4.996073E-2,1.1740135E-1,3.2973584E-2,-2.5023146E-2,1.5955445E-1,-1.6367468E-1,-1.9159388E-3,3.6139205E-2,1.2981993E-1,-4.4745646E-2,1.5338704E-1,-1.3359405E-2,1.6499352E-2,8.89299E-3,-7.32047E-2,-4.096229E-3,-2.7878499E-2,1.4758848E-3,1.4097966E-1,1.5358672E-2,2.4833849E-2,1.0412837E-2,1.2122991E-2,5.8890725E-3,1.6322505E-1,2.3605581E-2,3.311387E-1,3.2034922E-2,2.0747864E-1,2.0683132E-1,3.6696172E-1,2.129444E-2,4.936722E-3,4.6060362E-1,3.701177E-1,3.622205E-2,2.7667377E-2,1.5792644E-2,4.1144717E-2,9.73587E-6,-4.2350408E-2,2.2055656E-1,1.3143018E-2,8.784941E-3,2.847722E-1,9.681832E-3,-3.143088E-2,1.817989E-3,1.9315882E-2,3.0096073E-2,3.9000016E-2,6.27559E-2,5.2693665E-1,4.7572201E-1,5.959351E-3,9.824256E-3,3.0435069E-2,-9.543553E-3,1.658674E-2,-8.0006495E-3,2.7674256E-2,-8.571321E-2,-3.869073E-2,-4.259361E-2,-1.7121535E-2,-1.0671628E-2,1.480558E-3,-4.2834077E-2,-8.0758065E-2,2.6957268E-1,-2.3900405E-2,1.445927E-2,-1.2945612E-1,3.3518277E-2,-1.0333876E-2,6.589607E-2,-7.4504064E-3,4.1229766E-2,3.7993917E-3,8.966125E-3,5.9015732E-2,3.7316356E-2,-1.7500406E-2,2.8649256E-2,4.965885E-3,8.874256E-3,3.4332022E-2,4.2925692E-1,-2.3606485E-3,-1.3338745E-3,3.878005E-2,5.014946E-1,4.3070063E-1,3.8625333E-2,2.429232E-2,-6.957916E-3,1.2390135E-2,9.892255E-2,-2.776721E-2,-1.260054E-1,2.9835284E-2,6.5399595E-3,2.5244668E-2,2.9215692E-2,2.0000413E-1,-2.4375608E-2,1.4434679E-1,3.358095E-2,2.6122598E-2,1.14992365E-1,-1.6863468E-1,3.4685355E-2,1.54023385E-2,3.858576E-2,4.5915984E-2,2.9651245E-2,1.813723E-2,2.3122085E-4,-2.4934053E-2,1.158298E-2,-2.0079155E-4,2.3152767E-1,3.357149E-2,8.6009264E-2,-1.3430175E-1,5.567652E-3,2.3109196E-2,1.4339204E-1,-2.553436E-2,-2.8976647E-2,-4.633332E-2,4.3420598E-2,1.6055664E-1,3.9031964E-2,1.4333008E-1,2.6483104E-1,3.7175294E-2,9.360505E-3,-4.672217E-3,1.780173E-2,-2.509829E-3,7.479243E-3,2.3576375E-2,-2.380054E-2,1.3348623E-1,-4.307897E-3,2.9672576E-2,-1.6169423E-2,5.38679E-3,-3.4000766E-2,-1.4319301E-2,-3.1104295E-2,5.2300174E-2,-1.729888E-1,-2.3210546E-2,-2.0701277E-1,-5.860041E-3,5.088789E-3,2.0083023E-2,8.431161E-3,8.8851325E-2,-9.945112E-4,1.6599206E-2,-1.714138E-1,5.89929E-3,-2.816335E-1,-1.37198195E-2,2.2376174E-2,-3.2607303E-3,2.1326534E-2,-7.138297E-2,2.2070841E-1,6.70138E-3,-3.6341E-3,-1.9692987E-2,7.881659E-3,2.04884E-1,-7.7424705E-2,6.0374472E-2,2.6057545E-2,6.616597E-2,-1.374936E-2,1.2844036E-3,1.5740413E-2,-5.6181855E-2,-1.4600608E-2,1.4727318E-1,3.5965794E-3,-5.5656113E-2,1.7161219E-1,-8.48401E-3,3.4226727E-1,1.115759E-2,1.6477073E-2,2.4799196E-2,3.0533588E-2,7.2472207E-3,2.4522297E-2,4.3521162E-2,4.682925E-2,1.4932657E-2,1.3320676E-2,3.8925167E-2,1.9445863E-2,3.245279E-2,-4.2340104E-3,2.92469E-2,-1.9142813E-3,-2.2045167E-2,4.5146185E-1,5.759749E-1,3.124922E-2,4.8724574E-1,-1.0946259E-2,-1.1859009E-3,4.237924E-2,2.157629E-2,-2.0842874E-2,1.871989E-3,4.5882526E-1,3.6503774E-1,5.053531E-2,1.7932657E-2,2.8089702E-2,4.4363003E-2,8.0546335E-4,1.674311E-2,-4.2050403E-2,2.3149595E-2,2.1415194E-2,4.5192423E-3,2.1781784E-3,1.6495423E-2,1.9613532E-2,-1.9775609E-2,-2.3607355E-1,1.168591E-2,5.43002E-3,2.5225196E-2,4.723695E-3,2.673927E-2,-2.0086467E-2,1.3224392E-2,3.1277884E-3,2.7364442E-2,-2.6986409E-2,-9.461745E-4,-1.1703422E-2,1.3079015E-3,-3.5379312E-3,1.6681043E-2,2.717497E-2,1.3280353E-1,1.3699214E-2,-6.9645216E-4,2.319275E-2,1.0472482E-1,2.6935158E-2,-1.6700542E-2,1.4736992E-2,6.616943E-2,-1.4258633E-2,-8.840232E-3,9.230226E-2,-3.252116E-3,-1.2550006E-2,-2.4010317E-2,1.8181679E-3,-1.3128049E-2,-1.8152878E-2,-2.9811904E-2,3.987525E-2,-8.370314E-2,1.7284922E-2,4.727933E-3,-1.8596254E-2,1.11493915E-2,-2.386033E-2,-3.1117475E-2,-2.2425761E-2,-9.983528E-4,-1.6167209E-2,2.3496124E-1,2.4402339E-2,-3.800677E-3,-2.8125709E-2,-6.0512987E-3,3.394939E-2,2.24115E-3,-2.0091112E-3,1.5329658E-2,2.0039352E-2,-8.538888E-3,-5.9007104E-3,1.5709652E-2,-1.6506322E-2,-9.268172E-4,1.2855241E-2,2.2671258E-2,-3.3672084E-3,3.4609925E-2,-1.8500406E-2,4.614798E-2,5.808713E-2,3.9959402E-4,4.4880714E-2,5.3297807E-2,4.702172E-2,2.7321456E-2,2.7615488E-2,4.0387962E-2,-3.7659865E-2,-1.5288292E-2,1.7867087E-3,1.7790106E-1,1.1910064E-2,-1.27340555E-2,-8.8841E-3,1.2670318E-2,1.5029989E-2,-1.9372892E-2,3.811568E-3,1.3027136E-1,-7.893302E-3,6.48122E-2,5.0373085E-2,-9.239656E-3,-1.05072945E-1,2.0449324E-2,1.18146045E-2,3.0501708E-1,-1.2179325E-2,6.961722E-3,2.5142957E-2,1.0660742E-2,-7.25817E-2,6.700247E-3,2.1060748E-2,9.697156E-2,2.2275352E-3,1.4772549E-2,-2.9066782E-2,7.3500606E-3,-6.007803E-4,-1.5258488E-2,-6.506093E-4,3.3045154E-2,1.8885745E-4,-1.3156356E-2,7.717947E-2,-3.337493E-2,2.711927E-2,7.6306583E-3,9.6199784E-4,-2.1067388E-2,-4.4586635E-3,1.0585097E-2,-1.6488262E-2,-1.9495077E-3],"categories":[],"categories_nodes":[],"categories_segments":[],"categories_sizes":[],"default_left":[0,0,0,0,0,0,0,0,0,0,0,0,0,0,0,0,0,0,0,0,0,0,0,0,0,0,0,0,0,0,0,0,0,0,0,0,0,0,0,0,0,0,0,0,0,0,0,0,0,0,0,0,0,0,0,0,0,0,0,0,0,0,0,0,0,0,0,0,0,0,0,0,0,0,0,0,0,0,0,0,0,0,0,0,0,0,0,0,0,0,0,0,0,0,0,0,0,0,0,0,0,0,0,0,0,0,0,0,0,0,0,0,0,0,0,0,0,0,0,0,0,0,0,0,0,0,0,0,0,0,0,0,0,0,0,0,0,0,0,0,0,0,0,0,0,0,0,0,0,0,0,0,0,0,0,0,0,0,0,0,0,0,0,0,0,0,0,0,0,0,0,0,0,0,0,0,0,0,0,0,0,0,0,0,0,0,0,0,0,0,0,0,0,0,0,0,0,0,0,0,0,0,0,0,0,0,0,0,0,0,0,0,0,0,0,0,0,0,0,0,0,0,0,0,0,0,0,0,0,0,0,0,0,0,0,0,0,0,0,0,0,0,0,0,0,0,0,0,0,0,0,0,0,0,0,0,0,0,0,0,0,0,0,0,0,0,0,0,0,0,0,0,0,0,0,0,0,0,0,0,0,0,0,0,0,0,0,0,0,0,0,0,0,0,0,0,0,0,0,0,0,0,0,0,0,0,0,0,0,0,0,0,0,0,0,0,0,0,0,0,0,0,0,0,0,0,0,0,0,0,0,0,0,0,0,0,0,0,0,0,0,0,0,0,0,0,0,0,0,0,0,0,0,0,0,0,0,0,0,0,0,0,0,0,0,0,0,0,0,0,0,0,0,0,0,0,0,0,0,0,0,0,0,0,0,0,0,0,0,0,0,0,0,0,0,0,0,0,0,0,0,0,0,0,0,0,0,0,0,0,0,0,0,0,0,0,0,0,0,0,0,0,0,0,0,0,0,0,0,0,0,0,0,0,0,0,0,0,0,0,0,0,0,0,0,0,0,0,0,0,0,0,0,0,0,0,0,0,0,0,0,0,0,0,0,0,0,0,0,0,0,0,0,0,0,0,0,0,0,0,0,0,0,0,0,0,0,0,0,0,0,0,0,0,0,0,0,0,0,0,0,0,0,0,0,0,0,0,0,0,0,0,0,0,0,0,0,0,0,0,0,0,0,0,0,0,0,0,0,0,0,0,0,0,0,0,0,0,0,0,0,0,0,0,0,0,0,0,0,0,0,0,0,0,0,0,0,0,0,0,0,0,0,0,0,0,0,0,0,0,0,0,0,0,0,0,0,0,0,0,0,0,0,0,0,0,0,0,0,0,0,0,0,0,0,0,0,0,0,0,0,0,0,0,0,0,0,0,0,0,0,0,0,0,0,0,0,0,0,0,0,0,0,0,0,0,0,0,0,0,0,0,0,0,0,0,0,0,0,0,0,0,0,0,0,0,0,0,0,0,0,0,0,0,0,0,0,0,0,0,0,0,0,0,0,0,0,0,0,0,0,0,0,0,0,0,0,0,0,0,0,0,0,0,0,0,0,0,0,0,0,0,0,0,0,0,0,0,0,0,0,0,0,0,0,0,0,0,0,0,0,0,0,0,0,0,0,0,0,0,0,0,0,0,0,0,0,0,0,0,0,0,0,0,0,0,0,0,0,0,0,0,0,0,0,0,0,0,0,0,0,0,0,0,0,0,0,0,0,0,0,0,0,0,0,0,0,0,0,0,0,0,0,0,0,0,0,0,0,0,0,0,0,0,0,0,0,0,0,0,0,0,0,0,0,0,0,0,0,0,0,0,0,0,0,0,0,0,0,0,0,0,0,0,0,0,0,0,0,0,0,0,0,0,0,0,0,0,0,0,0,0,0,0,0,0,0,0,0,0,0,0,0,0,0,0,0,0,0,0,0,0,0,0,0,0,0,0,0,0,0,0,0,0,0,0,0,0,0,0,0,0,0,0,0,0,0,0,0,0,0,0,0,0,0,0,0,0,0,0,0,0,0,0,0,0,0,0,0,0,0,0,0,0,0,0,0,0,0,0,0,0,0,0,0,0,0,0,0,0,0,0,0,0,0,0,0,0,0,0,0,0,0,0,0,0,0,0,0,0,0,0,0,0,0,0,0,0,0,0,0,0,0,0,0,0,0,0,0,0,0,0,0,0,0,0,0,0,0,0,0,0,0,0,0,0,0,0,0,0,0,0,0,0,0,0,0,0,0,0,0,0,0,0,0,0,0,0,0,0,0,0,0,0,0,0,0,0,0,0,0,0,0,0,0,0,0,0,0,0,0,0,0,0,0,0,0,0,0,0,0,0,0,0,0,0,0,0,0,0,0,0,0,0,0,0,0,0,0,0,0,0,0,0,0,0,0,0,0,0,0,0,0,0,0,0,0,0,0,0,0,0,0,0,0,0,0,0,0,0,0,0,0,0,0,0,0,0,0,0,0,0,0,0,0,0,0,0,0,0,0,0,0,0,0,0,0,0,0,0,0,0,0,0,0,0,0,0,0,0,0,0,0,0,0,0,0,0,0,0,0,0,0,0,0,0,0,0,0,0,0,0,0,0,0,0,0,0,0,0,0,0,0,0,0,0,0,0,0,0,0,0,0,0,0,0,0,0,0,0,0,0,0,0,0,0,0,0,0,0,0,0,0,0,0,0,0,0,0,0,0,0,0,0,0,0,0,0,0,0,0,0,0,0,0,0,0,0,0,0,0,0,0,0,0,0,0,0,0,0,0,0,0,0,0,0,0,0,0,0,0,0,0,0,0,0,0,0,0,0,0,0,0,0,0,0,0,0,0,0,0,0,0,0,0,0,0,0,0,0,0,0,0,0,0,0,0,0,0,0,0,0,0,0,0,0,0,0,0,0,0,0,0,0,0,0,0,0,0,0,0,0,0,0,0,0,0,0,0,0,0,0,0,0,0,0,0,0,0,0,0,0,0,0,0,0,0,0,0,0,0,0,0,0,0,0,0,0,0,0,0,0,0,0,0,0,0,0,0,0,0,0,0,0,0,0,0,0,0,0,0,0,0,0,0,0,0,0,0,0,0,0,0,0,0,0,0,0,0,0,0,0,0,0,0,0,0,0,0,0,0,0,0,0,0,0,0,0,0,0,0,0,0,0,0,0,0,0,0,0,0,0,0,0,0,0,0,0,0,0,0,0,0,0,0,0,0,0,0,0,0,0,0,0,0,0,0,0,0,0,0,0,0,0,0,0,0,0,0,0,0,0,0,0,0,0,0,0,0,0,0,0,0,0,0,0,0,0,0,0,0,0,0,0,0,0,0,0,0,0,0,0,0,0,0,0,0,0,0,0,0,0,0,0,0,0,0,0,0,0,0,0,0,0,0,0,0,0,0,0,0,0,0,0,0,0,0,0,0,0,0,0,0,0,0,0,0,0,0,0,0,0,0,0,0,0,0,0,0,0,0,0,0,0,0,0,0,0,0,0,0,0,0,0,0,0,0,0,0,0,0,0,0,0,0,0,0,0,0,0,0,0,0,0,0,0,0,0,0,0,0,0,0,0,0,0,0,0,0,0,0,0,0,0,0,0,0,0,0,0,0,0,0,0,0,0,0,0,0,0,0,0,0,0,0,0,0,0,0,0,0,0,0,0,0,0,0,0,0,0,0,0,0,0,0,0,0,0,0,0,0,0,0,0,0,0,0,0,0,0,0,0,0,0,0,0,0,0,0,0,0,0,0,0,0,0,0,0,0,0,0,0,0,0,0,0,0,0,0,0,0,0,0,0,0,0,0,0,0,0,0,0,0,0,0,0,0,0,0,0,0,0,0,0,0,0,0,0,0,0,0,0,0,0,0,0,0,0,0,0,0,0,0,0,0,0,0,0,0,0,0,0,0,0,0,0,0,0,0,0,0,0,0,0,0,0,0,0,0,0,0,0,0,0,0,0,0,0,0,0,0,0,0,0,0,0,0,0,0,0,0,0,0,0,0,0,0,0,0,0,0,0,0,0,0,0,0,0,0,0,0,0,0,0,0,0,0,0,0,0,0,0,0,0,0,0,0,0,0,0,0,0,0,0,0,0,0,0,0,0,0,0,0,0,0,0,0,0,0,0,0,0,0,0,0,0,0,0,0,0,0,0,0,0,0,0,0,0,0,0,0,0,0,0,0,0,0,0,0,0,0,0,0,0,0],"id":0,"left_children":[1,3,5,7,9,11,13,15,17,19,21,23,25,27,29,31,33,35,37,39,41,43,45,47,49,51,53,55,57,59,61,63,65,67,69,71,73,75,77,79,81,83,85,87,89,91,93,95,97,99,101,-1,103,105,107,109,111,113,115,117,119,121,123,125,127,129,131,133,135,137,139,141,143,145,147,149,151,153,155,157,159,161,163,165,167,169,171,173,175,177,179,181,183,185,187,-1,-1,189,191,193,-1,195,197,-1,-1,-1,-1,199,-1,201,203,205,207,209,211,213,215,217,219,221,223,225,227,229,231,233,235,-1,237,-1,239,241,243,245,247,249,-1,251,253,-1,255,257,259,261,263,265,267,269,271,273,275,277,279,281,283,285,287,-1,-1,-1,289,291,293,295,297,299,301,-1,303,305,307,309,311,313,315,317,319,321,323,-1,325,327,329,331,333,335,337,339,341,343,345,347,-1,-1,-1,-1,-1,349,-1,-1,-1,351,353,355,357,359,-1,361,363,365,367,-1,-1,369,-1,-1,-1,371,373,375,377,379,381,383,-1,-1,385,387,-1,389,391,-1,393,395,397,-1,399,-1,-1,401,403,-1,-1,-1,-1,405,407,409,411,413,415,417,419,421,423,-1,-1,425,427,429,431,433,435,437,439,441,443,-1,445,447,449,-1,-1,451,-1,453,455,457,459,-1,461,463,465,467,469,471,473,475,477,-1,-1,-1,-1,-1,479,-1,481,-1,483,485,487,489,491,493,495,-1,-1,-1,497,499,501,-1,503,-1,-1,-1,505,507,509,511,-1,-1,513,515,517,519,521,523,525,527,-1,529,531,533,535,537,539,541,543,-1,-1,545,547,-1,549,551,-1,553,-1,-1,-1,-1,-1,-1,555,-1,-1,-1,-1,-1,557,-1,-1,-1,-1,559,561,563,565,-1,-1,567,569,571,573,575,-1,577,-1,579,581,583,-1,585,587,589,591,-1,-1,593,595,-1,597,599,601,-1,603,605,607,609,-1,-1,-1,611,-1,613,615,-1,-1,617,619,-1,621,-1,623,625,627,629,631,-1,-1,633,-1,635,637,639,641,643,-1,-1,645,647,649,651,653,655,657,659,661,663,665,667,-1,669,671,-1,-1,673,675,-1,-1,677,-1,-1,679,-1,-1,-1,-1,-1,-1,681,-1,683,685,687,689,691,693,695,697,699,701,703,705,707,709,711,713,-1,-1,-1,-1,-1,-1,715,-1,717,719,-1,721,723,725,-1,-1,-1,-1,-1,-1,-1,-1,-1,-1,-1,-1,727,-1,729,731,-1,-1,733,-1,735,-1,737,739,741,-1,743,-1,745,-1,747,-1,749,751,-1,753,755,-1,757,759,761,763,765,767,769,771,773,775,777,-1,-1,-1,-1,779,-1,-1,-1,-1,-1,781,783,-1,785,787,-1,-1,-1,-1,-1,789,-1,-1,791,-1,-1,-1,-1,-1,793,795,797,-1,799,-1,-1,-1,-1,-1,801,803,805,-1,-1,807,-1,-1,809,811,-1,813,815,817,819,-1,821,823,-1,-1,-1,825,827,829,-1,-1,-1,831,-1,-1,-1,833,-1,-1,835,-1,-1,837,839,841,843,845,847,849,851,-1,-1,-1,-1,-1,853,855,857,-1,859,861,-1,-1,-1,863,865,-1,-1,-1,867,869,871,873,-1,-1,-1,-1,875,877,879,881,883,885,887,889,891,-1,893,895,897,899,-1,-1,-1,-1,-1,-1,-1,901,-1,-1,-1,-1,-1,903,-1,-1,905,907,909,911,-1,913,915,917,919,921,923,925,927,929,931,933,935,937,939,941,943,945,-1,947,949,951,953,-1,955,957,959,961,963,-1,-1,-1,965,-1,967,-1,969,971,973,975,977,-1,-1,979,-1,981,983,-1,985,-1,-1,-1,-1,987,989,-1,-1,-1,-1,-1,-1,-1,991,993,995,997,-1,-1,-1,999,-1,1001,-1,-1,1003,1005,-1,1007,-1,-1,1009,-1,1011,1013,1015,1017,1019,1021,1023,1025,-1,-1,1027,-1,-1,1029,-1,-1,-1,-1,-1,-1,-1,-1,1031,-1,-1,-1,-1,-1,-1,-1,-1,-1,-1,1033,-1,-1,-1,-1,1035,-1,1037,-1,-1,-1,-1,1039,-1,-1,-1,1041,-1,-1,-1,1043,1045,-1,1047,-1,-1,-1,-1,-1,-1,-1,-1,-1,1049,-1,-1,1051,-1,-1,1053,-1,1055,-1,-1,-1,1057,1059,1061,-1,1063,-1,-1,-1,-1,-1,-1,-1,-1,-1,-1,-1,-1,-1,-1,-1,-1,1065,1067,1069,-1,-1,1071,1073,1075,-1,1077,1079,1081,-1,-1,1083,1085,1087,1089,1091,1093,1095,1097,1099,1101,1103,1105,1107,1109,1111,1113,1115,1117,1119,-1,1121,-1,-1,1123,1125,1127,1129,-1,1131,1133,1135,1137,1139,1141,1143,1145,1147,1149,-1,-1,1151,1153,-1,-1,-1,1155,1157,1159,1161,1163,1165,1167,1169,-1,-1,-1,1171,-1,1173,-1,-1,-1,1175,1177,1179,-1,1181,1183,1185,1187,1189,1191,-1,-1,1193,-1,1195,1197,1199,1201,1203,-1,1205,1207,-1,1209,1211,-1,1213,1215,1217,-1,1219,1221,1223,-1,-1,-1,-1,1225,-1,-1,1227,1229,1231,-1,-1,-1,-1,1233,1235,-1,-1,1237,1239,-1,-1,-1,-1,1241,-1,1243,1245,1247,1249,-1,-1,-1,-1,1251,-1,1253,1255,-1,1257,-1,-1,-1,1259,-1,1261,1263,1265,1267,1269,-1,-1,-1,1271,1273,-1,-1,-1,-1,-1,-1,-1,-1,-1,-1,-1,1275,1277,-1,-1,-1,-1,-1,1279,-1,-1,-1,-1,-1,1281,1283,-1,-1,-1,-1,1285,-1,-1,-1,-1,-1,1287,1289,-1,1291,1293,1295,-1,1297,-1,-1,1299,-1,1301,-1,1303,1305,1307,-1,1309,-1,-1,1311,-1,-1,-1,-1,-1,1313,-1,-1,-1,-1,-1,-1,-1,-1,-1,1315,1317,1319,1321,1323,1325,1327,-1,1329,-1,-1,-1,1331,1333,1335,1337,-1,-1,1339,1341,-1,-1,1343,-1,-1,-1,-1,-1,1345,-1,1347,1349,1351,-1,1353,1355,-1,-1,1357,1359,1361,1363,1365,1367,1369,1371,-1,-1,-1,1373,-1,1375,1377,1379,1381,1383,1385,1387,1389,1391,1393,1395,1397,1399,1401,-1,1403,-1,1405,-1,1407,1409,1411,1413,1415,1417,-1,-1,1419,1421,1423,1425,-1,-1,1427,1429,1431,1433,-1,-1,-1,-1,-1,-1,-1,1435,1437,1439,1441,1443,-1,1445,-1,-1,-1,-1,-1,-1,1447,-1,-1,-1,-1,-1,1449,-1,1451,-1,1453,1455,-1,-1,-1,-1,-1,-1,-1,-1,1457,-1,1459,-1,-1,1461,-1,-1,1463,1465,1467,-1,-1,-1,1469,1471,1473,1475,-1,-1,-1,-1,1477,1479,1481,-1,-1,1483,-1,-1,1485,1487,-1,1489,-1,1491,-1,-1,-1,-1,-1,-1,-1,1493,-1,1495,-1,-1,-1,-1,-1,-1,1497,-1,-1,-1,-1,-1,1499,1501,1503,1505,-1,1507,-1,-1,-1,1509,-1,1511,-1,-1,-1,-1,-1,-1,1513,1515,1517,-1,-1,-1,1519,-1,1521,1523,1525,1527,1529,1531,-1,1533,1535,-1,-1,-1,1537,1539,-1,-1,-1,1541,-1,-1,-1,-1,1543,-1,1545,-1,-1,-1,-1,1547,1549,-1,1551,1553,1555,-1,1557,-1,-1,1559,1561,-1,-1,1563,-1,-1,-1,1565,-1,-1,1567,-1,-1,-1,-1,-1,-1,-1,-1,1569,-1,1571,1573,1575,1577,1579,1581,1583,1585,-1,-1,1587,-1,-1,1589,-1,1591,-1,-1,1593,-1,-1,-1,-1,1595,1597,-1,-1,-1,-1,-1,1599,1601,-1,1603,-1,1605,1607,1609,-1,-1,1611,-1,-1,1613,1615,1617,-1,1619,1621,1623,1625,1627,-1,-1,-1,-1,-1,1629,-1,-1,-1,1631,-1,1633,1635,1637,-1,-1,-1,-1,1639,-1,-1,-1,-1,-1,1641,-1,-1,-1,-1,-1,-1,-1,-1,-1,-1,1643,-1,-1,1645,1647,1649,1651,-1,-1,-1,1653,1655,-1,-1,-1,-1,1657,-1,1659,-1,-1,-1,-1,-1,-1,-1,-1,-1,-1,-1,1661,-1,1663,-1,1665,1667,1669,-1,-1,1671,1673,1675,-1,-1,-1,1677,-1,-1,1679,1681,-1,-1,-1,1683,-1,1685,-1,1687,-1,1689,1691,1693,-1,-1,1695,1697,-1,-1,-1,-1,-1,-1,1699,-1,-1,1701,-1,1703,-1,-1,-1,-1,-1,1705,1707,-1,-1,-1,-1,-1,-1,-1,-1,-1,-1,-1,-1,-1,-1,1709,1711,-1,-1,1713,-1,-1,-1,-1,-1,-1,-1,-1,-1,-1,-1,-1,-1,-1,1715,-1,-1,-1,1717,1719,-1,-1,-1,-1,1721,-1,1723,-1,-1,-1,-1,1725,-1,1727,-1,-1,1729,1731,-1,-1,-1,-1,-1,-1,-1,-1,-1,-1,1733,-1,1735,1737,-1,-1,1739,1741,-1,1743,1745,1747,1749,1751,1753,-1,-1,-1,-1,-1,-1,-1,-1,1755,-1,-1,-1,-1,-1,-1,1757,1759,1761,1763,1765,-1,-1,-1,1767,1769,-1,-1,1771,-1,1773,-1,-1,-1,-1,1775,1777,-1,-1,-1,-1,1779,1781,1783,-1,1785,-1,-1,-1,1787,-1,1789,-1,1791,1793,-1,1795,-1,-1,-1,-1,-1,-1,-1,-1,-1,-1,-1,-1,-1,-1,-1,-1,-1,1797,1799,-1,1801,-1,-1,-1,-1,-1,-1,1803,1805,-1,-1,-1,-1,-1,-1,-1,-1,-1,-1,-1,-1,-1,-1,1807,-1,-1,-1,-1,-1,-1,-1,-1,-1,-1,-1,-1,-1,-1,-1,-1,1809,-1,-1,-1,1811,-1,-1,-1,1813,-1,1815,1817,1819,-1,-1,-1,-1,-1,-1,1821,1823,-1,-1,-1,-1,-1,-1,-1,-1,-1,1825,-1,-1,-1,-1,-1,-1,-1,-1,-1,-1,-1,-1,-1,1827,-1,-1,-1,-1,-1,-1,-1,-1,-1,-1,-1,-1,-1,-1,-1,-1,-1,1829,-1,-1,-1,-1,-1,1831,-1,1833,-1,1835,1837,-1,1839,-1,-1,1841,-1,-1,-1,-1,1843,1845,-1,1847,-1,-1,1849,-1,-1,-1,-1,-1,-1,-1,1851,1853,-1,-1,-1,-1,-1,-1,-1,-1],"loss_changes":[1.9299963E3,3.467861E2,7.541283E2,2.253678E2,6.288733E1,5.584326E1,6.771246E1,5.0104675E1,1.7958698E2,2.9582062E1,2.9471817E1,1.4248291E1,7.791382E0,1.4918793E1,3.8748505E1,1.3879868E1,4.179117E1,4.7875668E1,6.668652E1,1.3202724E1,1.37044525E1,1.1933929E1,2.3336119E1,7.143738E0,4.8469543E0,1.6420022E0,6.506897E0,8.087509E0,4.887207E0,1.1618423E1,1.3684021E1,9.455406E0,1.8485632E0,2.4153175E1,1.3869898E1,3.6162056E1,7.720749E0,7.5075474E0,8.6635864E1,6.2559204E0,4.9834294E0,6.5739517E0,4.116605E0,5.4161377E0,4.1358643E0,1.0974428E1,4.0276566E0,8.9878017E-1,5.9796753E0,1.1070709E0,1.5534363E0,0E0,6.842911E-1,1.4754333E0,6.9415283E-1,4.9922867E0,2.037819E0,3.2822342E0,2.152237E0,6.1567307E0,3.49189E0,8.565613E0,7.212509E0,8.660397E0,2.7064133E0,1.538424E0,1.8107319E0,4.3883615E0,5.4802017E0,7.703308E0,1.2285328E0,1.5138089E1,2.6757141E1,3.591388E0,1.1351547E0,2.965682E0,6.1462393E0,3.217108E1,3.0327026E1,3.7766647E-1,3.2789683E-1,2.8457143E0,1.9580331E0,7.8476257E0,4.909067E0,2.774691E0,1.699851E0,1.467619E0,3.06183E0,2.5442734E0,1.1637363E0,3.7877645E0,4.5178685E0,5.2850494E0,1.9822922E0,0E0,0E0,3.9537506E0,2.6860962E0,6.061628E-1,0E0,5.265732E-1,7.5112915E-1,0E0,0E0,0E0,0E0,4.9676514E-1,0E0,2.4129944E0,4.393711E0,6.862297E-1,7.787132E-1,1.3664398E0,5.9780693E-1,2.1200943E0,7.5737953E-1,1.8638649E0,1.6631927E0,1.2982934E0,1.9466686E0,2.742035E0,2.5622406E0,3.3082352E0,2.7209282E0,2.4984083E0,3.4245663E0,0E0,1.2706223E0,0E0,1.3803577E0,3.1005862E-1,1.5149775E0,3.1657777E0,4.8511252E0,4.275612E0,0E0,1.968008E0,3.78311E0,0E0,9.4013023E-1,4.0732594E0,4.879202E0,7.1466093E0,2.0992432E1,2.4678555E0,7.8943866E-1,1.0232754E0,1.1905186E0,7.3979247E-1,4.7108293E-1,1.7111835E0,1.1357732E0,7.245828E1,2.7003723E1,1.5466248E1,1.40275E1,0E0,0E0,0E0,5.2118266E-1,1.3087881E0,1.0034091E0,4.0776062E-1,1.1700844E0,4.6113567E0,2.4897156E0,0E0,1.2268252E0,5.672865E-1,7.5569797E-1,9.3443424E-1,1.2591798E0,3.639164E-1,8.044739E-1,1.0454705E0,1.01124E0,1.2651634E0,1.4890251E0,0E0,1.3439236E0,3.5430837E0,5.828748E-1,2.099946E0,4.2279816E0,4.18631E0,1.008542E0,6.257305E-1,1.2180967E0,6.322861E-1,2.5169373E0,2.2547302E0,0E0,0E0,0E0,0E0,0E0,5.354233E-1,0E0,0E0,0E0,3.3763123E-1,1.1647415E0,5.5634546E-1,1.3632889E0,6.0304356E-1,0E0,3.9093208E-1,4.6041012E-1,5.6944275E-1,7.4274063E-1,0E0,0E0,3.780136E-1,0E0,0E0,0E0,7.8220177E-1,1.1456785E0,3.1168747E-1,7.484932E-1,6.6726434E-1,8.134866E-1,1.7566137E0,0E0,0E0,2.1271057E0,3.104515E-1,0E0,2.4503098E0,2.3656616E0,0E0,1.606781E0,2.5738325E0,1.4517279E0,0E0,1.3964844E0,0E0,0E0,3.8857275E-1,1.10676E0,0E0,0E0,0E0,0E0,1.1345797E0,6.163627E-1,2.0871112E0,2.063737E0,3.1599007E0,1.2967571E0,1.3820763E0,6.993437E-1,7.122917E-1,1.0806115E0,0E0,0E0,2.8103065E0,7.7433395E-1,8.6575246E-1,5.2012453E0,2.0354235E0,4.264982E0,4.5499783E0,1.0397781E1,5.383949E-1,7.177453E-1,0E0,6.9500285E-1,8.76215E-1,7.509055E-1,0E0,0E0,5.3847575E-1,0E0,3.6216342E-1,3.0017984E-1,5.39196E-1,3.281685E-1,0E0,5.1194835E-1,1.0003662E1,1.6613867E1,5.260317E0,2.4815186E1,3.2545967E0,7.1904907E0,6.2667904E0,4.0373E0,0E0,0E0,0E0,0E0,0E0,3.7827522E-1,0E0,3.1164694E-1,0E0,3.1542015E-1,2.168499E0,1.8146514E0,1.3169956E0,2.8741703E0,5.7940763E-1,5.141965E-1,0E0,0E0,0E0,4.426221E-1,4.2294428E-1,7.7509236E-1,0E0,3.80565E-1,0E0,0E0,0E0,5.89901E-1,1.213263E0,3.3655977E-1,5.985174E-1,0E0,0E0,7.699394E-1,4.3090105E-1,4.7575188E-1,5.5904007E-1,9.805918E-1,1.2757833E0,2.5148895E0,5.4187346E-1,0E0,1.0703554E0,1.6136341E0,2.798325E0,1.5339513E0,2.426571E0,2.819254E0,4.4944036E-1,4.6466637E-1,0E0,0E0,5.0772405E-1,4.7796345E-1,0E0,4.947815E-1,1.7334023E0,0E0,8.444214E-1,0E0,0E0,0E0,0E0,0E0,0E0,1.4818726E0,0E0,0E0,0E0,0E0,0E0,4.6598625E-1,0E0,0E0,0E0,0E0,8.637161E-1,6.5953445E-1,5.7012177E-1,5.1392937E-1,0E0,0E0,3.6650896E-1,3.2381058E-1,4.0770638E-1,5.0651264E-1,3.0548286E-1,0E0,4.7045326E-1,0E0,4.0391642E-1,4.3452513E-1,6.658654E-1,0E0,1.3749409E0,4.1583878E-1,8.9899445E-1,1.5069618E0,0E0,0E0,1.1484585E0,4.89851E-1,0E0,1.6867752E0,4.8791122E-1,6.4629364E-1,0E0,1.5896587E0,5.028234E-1,7.8565025E-1,5.97002E-1,0E0,0E0,0E0,3.5700083E-1,0E0,5.545286E-1,1.7973051E0,0E0,0E0,7.533333E-1,8.0798054E-1,0E0,9.1427875E-1,0E0,3.0539436E0,5.467124E-1,4.2254573E-1,4.902668E-1,5.814414E-1,0E0,0E0,3.9354372E-1,0E0,5.845542E-1,5.9167755E-1,1.849659E0,6.1709213E-1,4.9041831E-1,0E0,0E0,9.6987987E-1,1.680763E0,5.9578705E-1,5.654831E-1,2.1512012E0,1.4226402E0,1.8000813E0,1.6641314E0,9.463829E-1,5.324585E0,2.8243484E0,3.7633944E-1,0E0,4.8057938E-1,4.8531562E-1,0E0,0E0,4.9664116E-1,8.2680607E-1,0E0,0E0,3.1882334E-1,0E0,0E0,6.601276E-1,0E0,0E0,0E0,0E0,0E0,0E0,7.06923E-1,0E0,3.6366234E0,6.333206E0,4.0397396E0,6.384181E0,1.2491379E0,1.6131E0,1.1440552E1,6.2970047E0,2.9468021E0,2.6887445E0,6.6066437E0,2.0936756E0,7.986067E0,1.6258765E0,1.6138611E0,3.216238E0,0E0,0E0,0E0,0E0,0E0,0E0,8.9889145E-1,0E0,5.5051017E-1,1.4226279E0,0E0,9.2954826E-1,1.279377E0,1.3396568E0,0E0,0E0,0E0,0E0,0E0,0E0,0E0,0E0,0E0,0E0,0E0,0E0,3.7304878E-1,0E0,7.7061796E-1,5.260191E-1,0E0,0E0,3.9010787E-1,0E0,1.0321331E0,0E0,4.8969078E-1,3.9173532E-1,6.083355E-1,0E0,6.7296886E-1,0E0,3.5677862E-1,0E0,3.2710314E-1,0E0,1.0509211E0,1.681025E0,0E0,3.988924E-1,5.470569E-1,0E0,3.967905E-1,4.9428535E-1,4.298538E0,9.821856E-1,4.08422E-1,7.015737E-1,1.8250675E0,1.2056223E0,1.7216415E0,2.2081823E0,4.4635314E-1,0E0,0E0,0E0,0E0,6.4545333E-1,0E0,0E0,0E0,0E0,0E0,1.1428108E0,5.727844E-1,0E0,6.730194E-1,8.0724907E-1,0E0,0E0,0E0,0E0,0E0,3.0945587E-1,0E0,0E0,4.9785995E-1,0E0,0E0,0E0,0E0,0E0,4.3887925E-1,3.4989274E-1,3.277421E-1,0E0,3.4776688E-1,0E0,0E0,0E0,0E0,0E0,3.966986E-1,5.050935E-1,3.4919167E-1,0E0,0E0,3.751049E-1,0E0,0E0,5.8322334E-1,3.8652802E-1,0E0,6.8855286E-1,3.6583328E-1,7.021408E-1,4.0442085E-1,0E0,1.2687263E0,5.6318283E-1,0E0,0E0,0E0,6.5607643E-1,6.030836E-1,6.1424255E-1,0E0,0E0,0E0,3.2750988E-1,0E0,0E0,0E0,3.079965E-1,0E0,0E0,6.270418E-1,0E0,0E0,7.461041E-1,3.8009238E-1,3.9977273E-1,6.2375647E-1,3.8826203E-1,1.4896078E0,7.44648E-1,4.69198E-1,0E0,0E0,0E0,0E0,0E0,3.1207693E-1,3.675537E-1,6.140888E-1,0E0,4.8273912E-1,3.9744574E-1,0E0,0E0,0E0,4.4468498E-1,3.7024307E-1,0E0,0E0,0E0,4.362297E-1,9.491107E-1,7.0307374E-1,1.8754337E0,0E0,0E0,0E0,0E0,7.4860764E-1,1.4277941E0,1.0892742E0,6.640055E-1,1.6414385E0,1.0717969E0,8.368044E-1,7.5265104E-1,4.331317E-1,0E0,5.1040497E0,2.5876617E0,9.293022E-1,3.550684E0,0E0,0E0,0E0,0E0,0E0,0E0,0E0,5.316763E-1,0E0,0E0,0E0,0E0,0E0,3.3051193E-1,0E0,0E0,1.8489513E0,9.1433424E-1,1.7069149E0,4.7759094E0,0E0,1.7651892E0,6.438945E0,2.9679585E0,7.256999E-1,7.7292687E-1,5.5779076E-1,5.800743E-1,2.4927063E0,5.7801514E0,2.4219046E0,3.4295883E0,6.0029465E-1,6.114006E-1,8.7612474E-1,7.022543E-1,4.874996E0,2.9944153E0,0E0,5.715128E-1,1.7485142E0,2.145819E0,8.823939E-1,0E0,5.244564E0,9.916954E-1,1.9143529E0,1.8425655E0,3.340912E-1,0E0,0E0,0E0,9.160274E-1,0E0,4.6362114E-1,0E0,7.058015E-1,7.447868E-1,2.0058346E0,1.0451031E0,3.7299442E-1,0E0,0E0,4.551078E-1,0E0,3.554556E-1,3.2823896E-1,0E0,3.8724136E-1,0E0,0E0,0E0,0E0,3.0390024E-1,4.071064E-1,0E0,0E0,0E0,0E0,0E0,0E0,0E0,1.7587469E0,5.5909294E-1,1.1324711E0,3.9172575E-1,0E0,0E0,0E0,3.5733745E-1,0E0,4.157772E-1,0E0,0E0,1.011816E0,3.1619847E0,0E0,3.5607207E-1,0E0,0E0,8.9734125E-1,0E0,6.83774E-1,1.1268438E0,1.2619462E0,4.0466404E-1,5.380802E-1,4.9964523E-1,1.2543087E0,1.4339447E0,0E0,0E0,3.0627504E-1,0E0,0E0,9.946213E-1,0E0,0E0,0E0,0E0,0E0,0E0,0E0,0E0,4.776249E-1,0E0,0E0,0E0,0E0,0E0,0E0,0E0,0E0,0E0,0E0,3.219775E-1,0E0,0E0,0E0,0E0,3.0603027E-1,0E0,3.1547165E-1,0E0,0E0,0E0,0E0,3.497982E-1,0E0,0E0,0E0,4.5582962E-1,0E0,0E0,0E0,6.5268326E-1,3.4705734E-1,0E0,4.248867E-1,0E0,0E0,0E0,0E0,0E0,0E0,0E0,0E0,0E0,5.672579E-1,0E0,0E0,3.3100373E-1,0E0,0E0,3.6560118E-1,0E0,3.344196E-1,0E0,0E0,0E0,5.6102943E-1,3.5598993E-1,6.184864E-1,0E0,3.9294493E-1,0E0,0E0,0E0,0E0,0E0,0E0,0E0,0E0,0E0,0E0,0E0,0E0,0E0,0E0,0E0,0E0,4.5238647E-1,5.232241E-1,7.752162E-1,0E0,0E0,1.3597162E0,5.5693674E-1,5.3581333E-1,0E0,3.4472007E-1,4.5940268E-1,3.720367E-1,0E0,0E0,3.8107923E-1,1.2186775E0,6.757764E-1,9.598317E-1,4.261963E-1,4.368996E-1,3.7437057E-1,3.582443E-1,3.3840746E-1,3.3138072E-1,3.1113005E-1,2.3438454E0,2.4943085E0,1.0782495E0,1.7395746E0,6.681328E-1,4.8468256E-1,9.3722343E-1,7.0283127E-1,0E0,4.12035E-1,0E0,0E0,1.0844765E0,3.401361E-1,4.6782863E-1,5.4764086E-1,0E0,2.425118E0,1.9493103E0,3.1997604E0,6.8952364E-1,2.3639965E0,4.923916E-1,1.5967472E0,7.171936E-1,2.6401653E0,4.130766E-1,0E0,0E0,3.7520504E-1,3.1193924E-1,0E0,0E0,0E0,1.0851517E0,1.0167542E0,1.3965607E0,1.9512024E0,9.6547127E-1,1.4216328E0,2.845253E0,5.545521E-1,0E0,0E0,0E0,5.5225945E-1,0E0,5.879233E-1,0E0,0E0,0E0,3.8789558E0,8.934216E0,1.6689911E0,0E0,3.1221697E-1,1.1931949E0,1.043705E0,4.557439E-1,2.3546262E0,5.43102E-1,0E0,0E0,6.811367E-1,0E0,6.141205E-1,5.6078327E-1,9.262748E-1,5.899143E-1,7.973099E-1,0E0,3.0680227E-1,3.657989E-1,0E0,9.7819996E-1,3.3637524E-1,0E0,6.9106245E-1,4.5677793E-1,3.363616E-1,0E0,6.431172E-1,3.2182133E-1,5.940132E-1,0E0,0E0,0E0,0E0,3.3917975E-1,0E0,0E0,3.359847E-1,4.5294476E-1,4.5969534E-1,0E0,0E0,0E0,0E0,4.571678E-1,6.905737E-1,0E0,0E0,1.7103693E0,5.2716017E-1,0E0,0E0,0E0,0E0,3.2851148E-1,0E0,5.034305E-1,6.815381E-1,5.777807E0,1.1422402E0,0E0,0E0,0E0,0E0,4.2214012E-1,0E0,3.1388617E-1,6.5342903E-1,0E0,5.837917E-1,0E0,0E0,0E0,4.51725E-1,0E0,3.237667E-1,3.9923954E-1,6.1061025E-1,6.616175E-1,4.4988695E-1,0E0,0E0,0E0,3.0039597E-1,3.062744E-1,0E0,0E0,0E0,0E0,0E0,0E0,0E0,0E0,0E0,0E0,0E0,7.4918365E-1,5.9591866E-1,0E0,0E0,0E0,0E0,0E0,5.083608E-1,0E0,0E0,0E0,0E0,0E0,3.611673E-1,5.556142E-1,0E0,0E0,0E0,0E0,3.90028E-1,0E0,0E0,0E0,0E0,0E0,5.0768507E-1,6.9061685E-1,0E0,3.1746912E0,2.936122E0,5.2558684E-1,0E0,3.319478E-1,0E0,0E0,3.1223997E-1,0E0,3.912506E-1,0E0,3.0658245E-1,4.0225726E-1,3.49943E-1,0E0,8.0236053E-1,0E0,0E0,7.076233E-1,0E0,0E0,0E0,0E0,0E0,4.0822363E-1,0E0,0E0,0E0,0E0,0E0,0E0,0E0,0E0,0E0,9.791937E-1,7.9006577E-1,7.399578E-1,1.5573425E0,6.4128494E-1,7.8032386E-1,4.032504E-1,0E0,7.3485374E-1,0E0,0E0,0E0,5.43736E-1,5.7376283E-1,6.18927E-1,4.681282E-1,0E0,0E0,4.0952945E-1,5.280514E-1,0E0,0E0,3.025216E-1,0E0,0E0,0E0,0E0,0E0,1.137619E0,0E0,1.3369064E0,6.127839E-1,5.6617594E-1,0E0,3.2990313E-1,7.563195E-1,0E0,0E0,1.3249526E0,6.889893E-1,3.7596178E-1,5.689602E-1,3.013401E-1,8.048035E-1,3.3961034E-1,3.6471796E-1,0E0,0E0,0E0,4.2172456E-1,0E0,5.285568E-1,9.0057373E-1,8.912239E-1,8.986554E-1,1.072319E0,1.1883535E0,1.31073E0,3.4379613E-1,7.24741E-1,3.3380455E-1,1.1881843E0,5.4909515E-1,5.872345E-1,5.2608967E-1,0E0,5.1602554E-1,0E0,4.2384946E-1,0E0,6.891899E-1,9.677274E-1,1.0274353E0,7.6051903E0,1.5440674E0,1.798111E0,0E0,0E0,5.070269E-1,6.1688936E-1,6.871643E-1,1.4630232E0,0E0,0E0,1.2290776E0,1.4315822E0,4.0908936E-1,3.3697537E-1,0E0,0E0,0E0,0E0,0E0,0E0,0E0,5.980959E-1,4.2829955E-1,3.9953804E-1,6.793612E-1,5.607357E-1,0E0,3.4395003E-1,0E0,0E0,0E0,0E0,0E0,0E0,4.7335052E-1,0E0,0E0,0E0,0E0,0E0,3.2580304E-1,0E0,3.478968E-1,0E0,4.806633E-1,3.1196797E-1,0E0,0E0,0E0,0E0,0E0,0E0,0E0,0E0,3.9815152E-1,0E0,3.242352E-1,0E0,0E0,1.051141E0,0E0,0E0,3.7749028E-1,3.9252168E-1,5.151371E-1,0E0,0E0,0E0,1.9968246E0,4.2240906E-1,3.2078046E-1,1.0756844E0,0E0,0E0,0E0,0E0,3.6331347E-1,3.6763918E-1,5.7847357E-1,0E0,0E0,3.695259E-1,0E0,0E0,3.734188E-1,3.790257E-1,0E0,6.455343E-1,0E0,3.7652135E-1,0E0,0E0,0E0,0E0,0E0,0E0,0E0,3.3732796E-1,0E0,4.1928673E-1,0E0,0E0,0E0,0E0,0E0,0E0,7.812748E-1,0E0,0E0,0E0,0E0,0E0,1.4064672E0,4.747138E-1,1.6990256E0,2.0188289E0,0E0,3.7193084E-1,0E0,0E0,0E0,3.3162227E-1,0E0,3.4874684E-1,0E0,0E0,0E0,0E0,0E0,0E0,8.63554E-1,6.269541E-1,4.2193392E-1,0E0,0E0,0E0,5.624809E-1,0E0,5.01997E-1,4.0032673E-1,6.899891E-1,4.3653584E-1,5.488663E-1,3.595791E-1,0E0,5.59767E-1,3.404766E-1,0E0,0E0,0E0,4.0526295E-1,6.722374E-1,0E0,0E0,0E0,3.2750887E-1,0E0,0E0,0E0,0E0,3.0159694E-1,0E0,3.0231094E-1,0E0,0E0,0E0,0E0,6.6127014E-1,6.322632E-1,0E0,3.7146378E-1,3.246966E-1,4.1782194E-1,0E0,6.0673714E-1,0E0,0E0,7.3201656E-1,3.8926572E-1,0E0,0E0,1.3349953E0,0E0,0E0,0E0,4.3576002E-1,0E0,0E0,5.54861E-1,0E0,0E0,0E0,0E0,0E0,0E0,0E0,0E0,4.227667E-1,0E0,6.403656E-1,3.6024284E-1,3.9676666E-1,4.4719744E-1,4.5057124E-1,6.2467E-1,8.3283234E-1,3.2542038E-1,0E0,0E0,4.89563E-1,0E0,0E0,3.2402515E-1,0E0,4.0131986E-1,0E0,0E0,4.0132445E-1,0E0,0E0,0E0,0E0,4.4418812E-1,4.9075472E-1,0E0,0E0,0E0,0E0,0E0,4.6251106E-1,5.6604815E-1,0E0,3.1170464E-1,0E0,1.1011963E0,7.1627617E-1,5.411606E-1,0E0,0E0,6.8188095E-1,0E0,0E0,4.148296E-1,4.0108824E-1,4.409771E-1,0E0,6.3678026E-1,4.6622944E-1,9.9112606E-1,1.2614856E0,5.6059813E-1,0E0,0E0,0E0,0E0,0E0,7.214768E-1,0E0,0E0,0E0,3.580551E-1,0E0,3.2334617E-1,3.7461758E-1,3.0396843E-1,0E0,0E0,0E0,0E0,3.9348078E-1,0E0,0E0,0E0,0E0,0E0,8.179088E-1,0E0,0E0,0E0,0E0,0E0,0E0,0E0,0E0,0E0,0E0,3.034817E-1,0E0,0E0,3.6798167E-1,1.5422889E0,9.953797E-1,4.9143124E-1,0E0,0E0,0E0,6.13188E-1,5.9084654E-1,0E0,0E0,0E0,0E0,3.4877306E-1,0E0,3.5853863E-1,0E0,0E0,0E0,0E0,0E0,0E0,0E0,0E0,0E0,0E0,0E0,3.3504105E-1,0E0,3.583058E-1,0E0,7.4432635E-1,6.190429E-1,3.3583832E-1,0E0,0E0,3.3990395E-1,4.8904142E-1,7.4003494E-1,0E0,0E0,0E0,3.3921662E-1,0E0,0E0,5.6625235E-1,3.1590557E-1,0E0,0E0,0E0,3.3490673E-1,0E0,3.5369015E-1,0E0,4.9447823E-1,0E0,3.5017204E-1,7.190306E-1,4.4164753E-1,0E0,0E0,3.8002014E-1,7.051697E-1,0E0,0E0,0E0,0E0,0E0,0E0,3.3576822E-1,0E0,0E0,5.7383347E-1,0E0,3.4186238E-1,0E0,0E0,0E0,0E0,0E0,4.7650146E-1,5.098572E-1,0E0,0E0,0E0,0E0,0E0,0E0,0E0,0E0,0E0,0E0,0E0,0E0,0E0,0E0,3.0722535E-1,4.2307043E-1,0E0,0E0,3.4325534E-1,0E0,0E0,0E0,0E0,0E0,0E0,0E0,0E0,0E0,0E0,0E0,0E0,0E0,0E0,5.9204865E-1,0E0,0E0,0E0,3.7677765E-1,3.2086945E-1,0E0,0E0,0E0,0E0,4.4686788E-1,0E0,4.1319597E-1,0E0,0E0,0E0,0E0,3.495221E-1,0E0,3.0959964E-1,0E0,0E0,4.702016E-1,1.471591E0,0E0,0E0,0E0,0E0,0E0,0E0,0E0,0E0,0E0,0E0,3.9766932E-1,0E0,3.9526328E-1,3.281781E-1,0E0,0E0,7.215977E-1,4.4512665E-1,0E0,3.5017264E-1,5.503957E-1,4.8852253E-1,4.5153648E-1,6.837187E-1,4.9397087E-1,0E0,0E0,0E0,0E0,0E0,0E0,0E0,0E0,3.192296E-1,0E0,0E0,0E0,0E0,0E0,0E0,1.237279E0,8.869611E-1,3.0133367E-1,3.5577404E-1,4.4041634E-1,0E0,0E0,0E0,9.333001E-1,4.3879867E-1,0E0,0E0,3.0473423E-1,0E0,3.0583E-1,0E0,0E0,0E0,0E0,5.2340055E-1,4.031365E-1,0E0,0E0,0E0,0E0,3.6101866E-1,3.552732E-1,3.5266238E-1,0E0,3.48799E-1,0E0,0E0,0E0,3.6182627E-1,0E0,3.3348727E-1,0E0,3.2318678E-1,3.4572744E-1,0E0,3.098507E-1,0E0,0E0,0E0,0E0,0E0,0E0,0E0,0E0,0E0,0E0,0E0,0E0,0E0,0E0,0E0,0E0,0E0,6.145878E-1,3.2535172E-1,0E0,3.3561707E-1,0E0,0E0,0E0,0E0,0E0,0E0,4.4243622E-1,3.4072876E-1,0E0,0E0,0E0,0E0,0E0,0E0,0E0,0E0,0E0,0E0,0E0,0E0,0E0,0E0,6.5553737E-1,0E0,0E0,0E0,0E0,0E0,0E0,0E0,0E0,0E0,0E0,0E0,0E0,0E0,0E0,0E0,0E0,7.1212363E-1,0E0,0E0,0E0,5.0224173E-1,0E0,0E0,0E0,5.9302485E-1,0E0,7.018741E-1,4.723549E-1,8.705121E-1,0E0,0E0,0E0,0E0,0E0,0E0,3.3791053E-1,5.265001E-1,0E0,0E0,0E0,0E0,0E0,0E0,0E0,0E0,0E0,4.9589682E-1,0E0,0E0,0E0,0E0,0E0,0E0,0E0,0E0,0E0,0E0,0E0,0E0,0E0,3.2395595E-1,0E0,0E0,0E0,0E0,0E0,0E0,0E0,0E0,0E0,0E0,0E0,0E0,0E0,0E0,0E0,0E0,0E0,4.9216485E-1,0E0,0E0,0E0,0E0,0E0,5.4431593E-1,0E0,3.434012E-1,0E0,3.1060082E-1,4.1184247E-1,0E0,3.615051E-1,0E0,0E0,3.1908703E-1,0E0,0E0,0E0,0E0,5.668675E-1,7.482353E-1,0E0,3.3213317E-1,0E0,0E0,3.60342E-1,0E0,0E0,0E0,0E0,0E0,0E0,0E0,3.3987623E-1,3.0526257E-1,0E0,0E0,0E0,0E0,0E0,0E0,0E0,0E0],"parents":[2147483647,0,0,1,1,2,2,3,3,4,4,5,5,6,6,7,7,8,8,9,9,10,10,11,11,12,12,13,13,14,14,15,15,16,16,17,17,18,18,19,19,20,20,21,21,22,22,23,23,24,24,25,25,26,26,27,27,28,28,29,29,30,30,31,31,32,32,33,33,34,34,35,35,36,36,37,37,38,38,39,39,40,40,41,41,42,42,43,43,44,44,45,45,46,46,47,47,48,48,49,49,50,50,52,52,53,53,54,54,55,55,56,56,57,57,58,58,59,59,60,60,61,61,62,62,63,63,64,64,65,65,66,66,67,67,68,68,69,69,70,70,71,71,72,72,73,73,74,74,75,75,76,76,77,77,78,78,79,79,80,80,81,81,82,82,83,83,84,84,85,85,86,86,87,87,88,88,89,89,90,90,91,91,92,92,93,93,94,94,97,97,98,98,99,99,101,101,102,102,107,107,109,109,110,110,111,111,112,112,113,113,114,114,115,115,116,116,117,117,118,118,119,119,120,120,121,121,122,122,123,123,124,124,125,125,126,126,128,128,130,130,131,131,132,132,133,133,134,134,135,135,137,137,138,138,140,140,141,141,142,142,143,143,144,144,145,145,146,146,147,147,148,148,149,149,150,150,151,151,152,152,153,153,154,154,155,155,156,156,160,160,161,161,162,162,163,163,164,164,165,165,166,166,168,168,169,169,170,170,171,171,172,172,173,173,174,174,175,175,176,176,177,177,178,178,180,180,181,181,182,182,183,183,184,184,185,185,186,186,187,187,188,188,189,189,190,190,191,191,197,197,201,201,202,202,203,203,204,204,205,205,207,207,208,208,209,209,210,210,213,213,217,217,218,218,219,219,220,220,221,221,222,222,223,223,226,226,227,227,229,229,230,230,232,232,233,233,234,234,236,236,239,239,240,240,245,245,246,246,247,247,248,248,249,249,250,250,251,251,252,252,253,253,254,254,257,257,258,258,259,259,260,260,261,261,262,262,263,263,264,264,265,265,266,266,268,268,269,269,270,270,273,273,275,275,276,276,277,277,278,278,280,280,281,281,282,282,283,283,284,284,285,285,286,286,287,287,288,288,294,294,296,296,298,298,299,299,300,300,301,301,302,302,303,303,304,304,308,308,309,309,310,310,312,312,316,316,317,317,318,318,319,319,322,322,323,323,324,324,325,325,326,326,327,327,328,328,329,329,331,331,332,332,333,333,334,334,335,335,336,336,337,337,338,338,341,341,342,342,344,344,345,345,347,347,354,354,360,360,365,365,366,366,367,367,368,368,371,371,372,372,373,373,374,374,375,375,377,377,379,379,380,380,381,381,383,383,384,384,385,385,386,386,389,389,390,390,392,392,393,393,394,394,396,396,397,397,398,398,399,399,403,403,405,405,406,406,409,409,410,410,412,412,414,414,415,415,416,416,417,417,418,418,421,421,423,423,424,424,425,425,426,426,427,427,430,430,431,431,432,432,433,433,434,434,435,435,436,436,437,437,438,438,439,439,440,440,441,441,443,443,444,444,447,447,448,448,451,451,454,454,461,461,463,463,464,464,465,465,466,466,467,467,468,468,469,469,470,470,471,471,472,472,473,473,474,474,475,475,476,476,477,477,478,478,485,485,487,487,488,488,490,490,491,491,492,492,505,505,507,507,508,508,511,511,513,513,515,515,516,516,517,517,519,519,521,521,523,523,525,525,526,526,528,528,529,529,531,531,532,532,533,533,534,534,535,535,536,536,537,537,538,538,539,539,540,540,541,541,546,546,552,552,553,553,555,555,556,556,562,562,565,565,571,571,572,572,573,573,575,575,581,581,582,582,583,583,586,586,589,589,590,590,592,592,593,593,594,594,595,595,597,597,598,598,602,602,603,603,604,604,608,608,612,612,615,615,618,618,619,619,620,620,621,621,622,622,623,623,624,624,625,625,631,631,632,632,633,633,635,635,636,636,640,640,641,641,645,645,646,646,647,647,648,648,653,653,654,654,655,655,656,656,657,657,658,658,659,659,660,660,661,661,663,663,664,664,665,665,666,666,674,674,680,680,683,683,684,684,685,685,686,686,688,688,689,689,690,690,691,691,692,692,693,693,694,694,695,695,696,696,697,697,698,698,699,699,700,700,701,701,702,702,703,703,704,704,706,706,707,707,708,708,709,709,711,711,712,712,713,713,714,714,715,715,719,719,721,721,723,723,724,724,725,725,726,726,727,727,730,730,732,732,733,733,735,735,740,740,741,741,749,749,750,750,751,751,752,752,756,756,758,758,761,761,762,762,764,764,767,767,769,769,770,770,771,771,772,772,773,773,774,774,775,775,776,776,779,779,782,782,791,791,802,802,807,807,809,809,814,814,818,818,822,822,823,823,825,825,835,835,838,838,841,841,843,843,847,847,848,848,849,849,851,851,868,868,869,869,870,870,873,873,874,874,875,875,877,877,878,878,879,879,882,882,883,883,884,884,885,885,886,886,887,887,888,888,889,889,890,890,891,891,892,892,893,893,894,894,895,895,896,896,897,897,898,898,899,899,900,900,902,902,905,905,906,906,907,907,908,908,910,910,911,911,912,912,913,913,914,914,915,915,916,916,917,917,918,918,919,919,922,922,923,923,927,927,928,928,929,929,930,930,931,931,932,932,933,933,934,934,938,938,940,940,944,944,945,945,946,946,948,948,949,949,950,950,951,951,952,952,953,953,956,956,958,958,959,959,960,960,961,961,962,962,964,964,965,965,967,967,968,968,970,970,971,971,972,972,974,974,975,975,976,976,981,981,984,984,985,985,986,986,991,991,992,992,995,995,996,996,1001,1001,1003,1003,1004,1004,1005,1005,1006,1006,1011,1011,1013,1013,1014,1014,1016,1016,1020,1020,1022,1022,1023,1023,1024,1024,1025,1025,1026,1026,1030,1030,1031,1031,1043,1043,1044,1044,1050,1050,1056,1056,1057,1057,1062,1062,1068,1068,1069,1069,1071,1071,1072,1072,1073,1073,1075,1075,1078,1078,1080,1080,1082,1082,1083,1083,1084,1084,1086,1086,1089,1089,1095,1095,1105,1105,1106,1106,1107,1107,1108,1108,1109,1109,1110,1110,1111,1111,1113,1113,1117,1117,1118,1118,1119,1119,1120,1120,1123,1123,1124,1124,1127,1127,1133,1133,1135,1135,1136,1136,1137,1137,1139,1139,1140,1140,1143,1143,1144,1144,1145,1145,1146,1146,1147,1147,1148,1148,1149,1149,1150,1150,1154,1154,1156,1156,1157,1157,1158,1158,1159,1159,1160,1160,1161,1161,1162,1162,1163,1163,1164,1164,1165,1165,1166,1166,1167,1167,1168,1168,1169,1169,1171,1171,1173,1173,1175,1175,1176,1176,1177,1177,1178,1178,1179,1179,1180,1180,1183,1183,1184,1184,1185,1185,1186,1186,1189,1189,1190,1190,1191,1191,1192,1192,1200,1200,1201,1201,1202,1202,1203,1203,1204,1204,1206,1206,1213,1213,1219,1219,1221,1221,1223,1223,1224,1224,1233,1233,1235,1235,1238,1238,1241,1241,1242,1242,1243,1243,1247,1247,1248,1248,1249,1249,1250,1250,1255,1255,1256,1256,1257,1257,1260,1260,1263,1263,1264,1264,1266,1266,1268,1268,1276,1276,1278,1278,1285,1285,1291,1291,1292,1292,1293,1293,1294,1294,1296,1296,1300,1300,1302,1302,1309,1309,1310,1310,1311,1311,1315,1315,1317,1317,1318,1318,1319,1319,1320,1320,1321,1321,1322,1322,1324,1324,1325,1325,1329,1329,1330,1330,1334,1334,1339,1339,1341,1341,1346,1346,1347,1347,1349,1349,1350,1350,1351,1351,1353,1353,1356,1356,1357,1357,1360,1360,1364,1364,1367,1367,1376,1376,1378,1378,1379,1379,1380,1380,1381,1381,1382,1382,1383,1383,1384,1384,1385,1385,1388,1388,1391,1391,1393,1393,1396,1396,1401,1401,1402,1402,1408,1408,1409,1409,1411,1411,1413,1413,1414,1414,1415,1415,1418,1418,1421,1421,1422,1422,1423,1423,1425,1425,1426,1426,1427,1427,1428,1428,1429,1429,1435,1435,1439,1439,1441,1441,1442,1442,1443,1443,1448,1448,1454,1454,1465,1465,1468,1468,1469,1469,1470,1470,1471,1471,1475,1475,1476,1476,1481,1481,1483,1483,1495,1495,1497,1497,1499,1499,1500,1500,1501,1501,1504,1504,1505,1505,1506,1506,1510,1510,1513,1513,1514,1514,1518,1518,1520,1520,1522,1522,1524,1524,1525,1525,1526,1526,1529,1529,1530,1530,1537,1537,1540,1540,1542,1542,1548,1548,1549,1549,1564,1564,1565,1565,1568,1568,1583,1583,1587,1587,1588,1588,1593,1593,1595,1595,1600,1600,1602,1602,1605,1605,1606,1606,1617,1617,1619,1619,1620,1620,1623,1623,1624,1624,1626,1626,1627,1627,1628,1628,1629,1629,1630,1630,1631,1631,1640,1640,1647,1647,1648,1648,1649,1649,1650,1650,1651,1651,1655,1655,1656,1656,1659,1659,1661,1661,1666,1666,1667,1667,1672,1672,1673,1673,1674,1674,1676,1676,1680,1680,1682,1682,1684,1684,1685,1685,1687,1687,1705,1705,1706,1706,1708,1708,1715,1715,1716,1716,1731,1731,1748,1748,1752,1752,1756,1756,1758,1758,1759,1759,1760,1760,1767,1767,1768,1768,1778,1778,1792,1792,1810,1810,1816,1816,1818,1818,1820,1820,1821,1821,1823,1823,1826,1826,1831,1831,1832,1832,1834,1834,1837,1837,1845,1845,1846,1846],"right_children":[2,4,6,8,10,12,14,16,18,20,22,24,26,28,30,32,34,36,38,40,42,44,46,48,50,52,54,56,58,60,62,64,66,68,70,72,74,76,78,80,82,84,86,88,90,92,94,96,98,100,102,-1,104,106,108,110,112,114,116,118,120,122,124,126,128,130,132,134,136,138,140,142,144,146,148,150,152,154,156,158,160,162,164,166,168,170,172,174,176,178,180,182,184,186,188,-1,-1,190,192,194,-1,196,198,-1,-1,-1,-1,200,-1,202,204,206,208,210,212,214,216,218,220,222,224,226,228,230,232,234,236,-1,238,-1,240,242,244,246,248,250,-1,252,254,-1,256,258,260,262,264,266,268,270,272,274,276,278,280,282,284,286,288,-1,-1,-1,290,292,294,296,298,300,302,-1,304,306,308,310,312,314,316,318,320,322,324,-1,326,328,330,332,334,336,338,340,342,344,346,348,-1,-1,-1,-1,-1,350,-1,-1,-1,352,354,356,358,360,-1,362,364,366,368,-1,-1,370,-1,-1,-1,372,374,376,378,380,382,384,-1,-1,386,388,-1,390,392,-1,394,396,398,-1,400,-1,-1,402,404,-1,-1,-1,-1,406,408,410,412,414,416,418,420,422,424,-1,-1,426,428,430,432,434,436,438,440,442,444,-1,446,448,450,-1,-1,452,-1,454,456,458,460,-1,462,464,466,468,470,472,474,476,478,-1,-1,-1,-1,-1,480,-1,482,-1,484,486,488,490,492,494,496,-1,-1,-1,498,500,502,-1,504,-1,-1,-1,506,508,510,512,-1,-1,514,516,518,520,522,524,526,528,-1,530,532,534,536,538,540,542,544,-1,-1,546,548,-1,550,552,-1,554,-1,-1,-1,-1,-1,-1,556,-1,-1,-1,-1,-1,558,-1,-1,-1,-1,560,562,564,566,-1,-1,568,570,572,574,576,-1,578,-1,580,582,584,-1,586,588,590,592,-1,-1,594,596,-1,598,600,602,-1,604,606,608,610,-1,-1,-1,612,-1,614,616,-1,-1,618,620,-1,622,-1,624,626,628,630,632,-1,-1,634,-1,636,638,640,642,644,-1,-1,646,648,650,652,654,656,658,660,662,664,666,668,-1,670,672,-1,-1,674,676,-1,-1,678,-1,-1,680,-1,-1,-1,-1,-1,-1,682,-1,684,686,688,690,692,694,696,698,700,702,704,706,708,710,712,714,-1,-1,-1,-1,-1,-1,716,-1,718,720,-1,722,724,726,-1,-1,-1,-1,-1,-1,-1,-1,-1,-1,-1,-1,728,-1,730,732,-1,-1,734,-1,736,-1,738,740,742,-1,744,-1,746,-1,748,-1,750,752,-1,754,756,-1,758,760,762,764,766,768,770,772,774,776,778,-1,-1,-1,-1,780,-1,-1,-1,-1,-1,782,784,-1,786,788,-1,-1,-1,-1,-1,790,-1,-1,792,-1,-1,-1,-1,-1,794,796,798,-1,800,-1,-1,-1,-1,-1,802,804,806,-1,-1,808,-1,-1,810,812,-1,814,816,818,820,-1,822,824,-1,-1,-1,826,828,830,-1,-1,-1,832,-1,-1,-1,834,-1,-1,836,-1,-1,838,840,842,844,846,848,850,852,-1,-1,-1,-1,-1,854,856,858,-1,860,862,-1,-1,-1,864,866,-1,-1,-1,868,870,872,874,-1,-1,-1,-1,876,878,880,882,884,886,888,890,892,-1,894,896,898,900,-1,-1,-1,-1,-1,-1,-1,902,-1,-1,-1,-1,-1,904,-1,-1,906,908,910,912,-1,914,916,918,920,922,924,926,928,930,932,934,936,938,940,942,944,946,-1,948,950,952,954,-1,956,958,960,962,964,-1,-1,-1,966,-1,968,-1,970,972,974,976,978,-1,-1,980,-1,982,984,-1,986,-1,-1,-1,-1,988,990,-1,-1,-1,-1,-1,-1,-1,992,994,996,998,-1,-1,-1,1000,-1,1002,-1,-1,1004,1006,-1,1008,-1,-1,1010,-1,1012,1014,1016,1018,1020,1022,1024,1026,-1,-1,1028,-1,-1,1030,-1,-1,-1,-1,-1,-1,-1,-1,1032,-1,-1,-1,-1,-1,-1,-1,-1,-1,-1,1034,-1,-1,-1,-1,1036,-1,1038,-1,-1,-1,-1,1040,-1,-1,-1,1042,-1,-1,-1,1044,1046,-1,1048,-1,-1,-1,-1,-1,-1,-1,-1,-1,1050,-1,-1,1052,-1,-1,1054,-1,1056,-1,-1,-1,1058,1060,1062,-1,1064,-1,-1,-1,-1,-1,-1,-1,-1,-1,-1,-1,-1,-1,-1,-1,-1,1066,1068,1070,-1,-1,1072,1074,1076,-1,1078,1080,1082,-1,-1,1084,1086,1088,1090,1092,1094,1096,1098,1100,1102,1104,1106,1108,1110,1112,1114,1116,1118,1120,-1,1122,-1,-1,1124,1126,1128,1130,-1,1132,1134,1136,1138,1140,1142,1144,1146,1148,1150,-1,-1,1152,1154,-1,-1,-1,1156,1158,1160,1162,1164,1166,1168,1170,-1,-1,-1,1172,-1,1174,-1,-1,-1,1176,1178,1180,-1,1182,1184,1186,1188,1190,1192,-1,-1,1194,-1,1196,1198,1200,1202,1204,-1,1206,1208,-1,1210,1212,-1,1214,1216,1218,-1,1220,1222,1224,-1,-1,-1,-1,1226,-1,-1,1228,1230,1232,-1,-1,-1,-1,1234,1236,-1,-1,1238,1240,-1,-1,-1,-1,1242,-1,1244,1246,1248,1250,-1,-1,-1,-1,1252,-1,1254,1256,-1,1258,-1,-1,-1,1260,-1,1262,1264,1266,1268,1270,-1,-1,-1,1272,1274,-1,-1,-1,-1,-1,-1,-1,-1,-1,-1,-1,1276,1278,-1,-1,-1,-1,-1,1280,-1,-1,-1,-1,-1,1282,1284,-1,-1,-1,-1,1286,-1,-1,-1,-1,-1,1288,1290,-1,1292,1294,1296,-1,1298,-1,-1,1300,-1,1302,-1,1304,1306,1308,-1,1310,-1,-1,1312,-1,-1,-1,-1,-1,1314,-1,-1,-1,-1,-1,-1,-1,-1,-1,1316,1318,1320,1322,1324,1326,1328,-1,1330,-1,-1,-1,1332,1334,1336,1338,-1,-1,1340,1342,-1,-1,1344,-1,-1,-1,-1,-1,1346,-1,1348,1350,1352,-1,1354,1356,-1,-1,1358,1360,1362,1364,1366,1368,1370,1372,-1,-1,-1,1374,-1,1376,1378,1380,1382,1384,1386,1388,1390,1392,1394,1396,1398,1400,1402,-1,1404,-1,1406,-1,1408,1410,1412,1414,1416,1418,-1,-1,1420,1422,1424,1426,-1,-1,1428,1430,1432,1434,-1,-1,-1,-1,-1,-1,-1,1436,1438,1440,1442,1444,-1,1446,-1,-1,-1,-1,-1,-1,1448,-1,-1,-1,-1,-1,1450,-1,1452,-1,1454,1456,-1,-1,-1,-1,-1,-1,-1,-1,1458,-1,1460,-1,-1,1462,-1,-1,1464,1466,1468,-1,-1,-1,1470,1472,1474,1476,-1,-1,-1,-1,1478,1480,1482,-1,-1,1484,-1,-1,1486,1488,-1,1490,-1,1492,-1,-1,-1,-1,-1,-1,-1,1494,-1,1496,-1,-1,-1,-1,-1,-1,1498,-1,-1,-1,-1,-1,1500,1502,1504,1506,-1,1508,-1,-1,-1,1510,-1,1512,-1,-1,-1,-1,-1,-1,1514,1516,1518,-1,-1,-1,1520,-1,1522,1524,1526,1528,1530,1532,-1,1534,1536,-1,-1,-1,1538,1540,-1,-1,-1,1542,-1,-1,-1,-1,1544,-1,1546,-1,-1,-1,-1,1548,1550,-1,1552,1554,1556,-1,1558,-1,-1,1560,1562,-1,-1,1564,-1,-1,-1,1566,-1,-1,1568,-1,-1,-1,-1,-1,-1,-1,-1,1570,-1,1572,1574,1576,1578,1580,1582,1584,1586,-1,-1,1588,-1,-1,1590,-1,1592,-1,-1,1594,-1,-1,-1,-1,1596,1598,-1,-1,-1,-1,-1,1600,1602,-1,1604,-1,1606,1608,1610,-1,-1,1612,-1,-1,1614,1616,1618,-1,1620,1622,1624,1626,1628,-1,-1,-1,-1,-1,1630,-1,-1,-1,1632,-1,1634,1636,1638,-1,-1,-1,-1,1640,-1,-1,-1,-1,-1,1642,-1,-1,-1,-1,-1,-1,-1,-1,-1,-1,1644,-1,-1,1646,1648,1650,1652,-1,-1,-1,1654,1656,-1,-1,-1,-1,1658,-1,1660,-1,-1,-1,-1,-1,-1,-1,-1,-1,-1,-1,1662,-1,1664,-1,1666,1668,1670,-1,-1,1672,1674,1676,-1,-1,-1,1678,-1,-1,1680,1682,-1,-1,-1,1684,-1,1686,-1,1688,-1,1690,1692,1694,-1,-1,1696,1698,-1,-1,-1,-1,-1,-1,1700,-1,-1,1702,-1,1704,-1,-1,-1,-1,-1,1706,1708,-1,-1,-1,-1,-1,-1,-1,-1,-1,-1,-1,-1,-1,-1,1710,1712,-1,-1,1714,-1,-1,-1,-1,-1,-1,-1,-1,-1,-1,-1,-1,-1,-1,1716,-1,-1,-1,1718,1720,-1,-1,-1,-1,1722,-1,1724,-1,-1,-1,-1,1726,-1,1728,-1,-1,1730,1732,-1,-1,-1,-1,-1,-1,-1,-1,-1,-1,1734,-1,1736,1738,-1,-1,1740,1742,-1,1744,1746,1748,1750,1752,1754,-1,-1,-1,-1,-1,-1,-1,-1,1756,-1,-1,-1,-1,-1,-1,1758,1760,1762,1764,1766,-1,-1,-1,1768,1770,-1,-1,1772,-1,1774,-1,-1,-1,-1,1776,1778,-1,-1,-1,-1,1780,1782,1784,-1,1786,-1,-1,-1,1788,-1,1790,-1,1792,1794,-1,1796,-1,-1,-1,-1,-1,-1,-1,-1,-1,-1,-1,-1,-1,-1,-1,-1,-1,1798,1800,-1,1802,-1,-1,-1,-1,-1,-1,1804,1806,-1,-1,-1,-1,-1,-1,-1,-1,-1,-1,-1,-1,-1,-1,1808,-1,-1,-1,-1,-1,-1,-1,-1,-1,-1,-1,-1,-1,-1,-1,-1,1810,-1,-1,-1,1812,-1,-1,-1,1814,-1,1816,1818,1820,-1,-1,-1,-1,-1,-1,1822,1824,-1,-1,-1,-1,-1,-1,-1,-1,-1,1826,-1,-1,-1,-1,-1,-1,-1,-1,-1,-1,-1,-1,-1,1828,-1,-1,-1,-1,-1,-1,-1,-1,-1,-1,-1,-1,-1,-1,-1,-1,-1,1830,-1,-1,-1,-1,-1,1832,-1,1834,-1,1836,1838,-1,1840,-1,-1,1842,-1,-1,-1,-1,1844,1846,-1,1848,-1,-1,1850,-1,-1,-1,-1,-1,-1,-1,1852,1854,-1,-1,-1,-1,-1,-1,-1,-1],"split_conditions":[-7.94823E-1,-2.57205E-1,4.10225E-1,6.2067E-1,1.5353E-1,-5.0265E-1,4.8378E-1,4.69691E-1,-1.50266E-1,6.25143E-1,6.69685E-1,3.89574E-1,7.185E-2,1.1351E-1,1.25052E-1,3.120797E0,4.21708E-1,6.4871025E0,-9.66041E1,-1.006483E0,-1.9902E-1,6.136045E-1,-1.9902E-1,8.2563E-1,-4.47E-4,-9.758981E1,-4.43661E-1,4.36367E-1,2.703E-2,5.28134E-1,5.12537E-1,9.860665E-1,4.887001E0,5.5576E-1,1.228594E0,9.89507E-1,6.742183E0,-4.55019E-1,-3.124155E-1,2.1228945E0,5.56587E-1,6.40671E-1,3.802016E0,6.22857E-1,2.48746E-1,1.9062E-1,6.3220325E0,-7.1783E-1,-6.58113E-1,-7.0921E-1,2.6682E-2,4.9849596E-2,-6.58312E-1,8.86365E-2,5.802863E0,-4.7549E-1,-7.13585E-1,-6.2463E-1,7.2191E-1,3.61468E-1,1.02877E-1,7.1906E-1,5.7988176E0,-9.286955E1,-9.73598E-1,5.94356E-1,3.26415E-1,6.29608E-1,1.141255E0,5.78984E-1,-1.190235E0,-9.3715805E1,-2.0913E-1,2.259991E0,1.295625E-1,-9.706968E1,7.38462E-1,3.1285763E0,1.64515E-1,-9.286955E1,4.0185E0,5.25486E-1,1.07946E0,6.83922E-1,6.76039E-1,-1.11595E0,5.1822534E0,5.40014E-1,-2.1617E-1,6.31935E-1,-2.32416E0,8.9424E-1,7.31656E-1,2.14532E0,6.7103E-1,2.5449393E-2,-3.6250677E-2,4.3192E0,-6.29281E-1,-2.94136E-1,-6.610758E-2,4.63262E-1,-3.58477E-1,1.17495945E-2,-6.67007E-2,-1.17125E-1,-1.435066E-1,-6.6855E-1,-3.0650407E-2,-1.2182E-2,3.10185E-2,3.8095E-1,-6.2463E-1,4.4104E-1,4.4104E-1,-6.78254E-1,-8.90612E-1,5.00757E-1,4.78684E-1,-7.43458E-1,5.2207355E0,4.59107E-1,-7.43458E-1,1.5434E-1,-1.401363E0,-4.55019E-1,-2.9128E-2,1.3327927E-3,4.7469E-2,-3.6036085E-2,-8.55679E-1,-9.19603E-1,-1.49218E-1,9.8896E-2,3.87557E-1,8.08297E-1,-8.086734E-2,7.02256E-1,-4.52194E-1,7.049594E-3,5.876E-1,7.84552E-1,1.28081E-1,2.259991E0,7.19261E-1,7.70776E-1,8.55576E-1,-1.65074E0,1.472917E0,1.8711E-2,1.351615E0,-9.6890175E1,-9.602004E1,-9.0579956E1,5.7541E-2,4.2455E-2,9.10608E-1,-8.100405E-3,-7.960079E-2,-3.941183E-2,6.054504E0,-9.5701E-1,8.22741E-1,1.034241E0,1.33816E-1,4.48911E-1,9.8372E-1,-6.926076E-2,8.23343E-1,6.9776E-1,-8.58723E-1,7.33432E-1,1.2605E0,5.046736E0,8.83681E-1,1.856984E0,6.1779E-1,-2.1771E0,-1.9763E-1,-8.673432E-4,-6.7783E-1,-1.25485E0,9.68654E-1,1.924657E0,6.35132E0,2.2449E-1,1.22773E-1,-1.116145E0,6.591163E0,-8.6586E-1,-6.00296E-1,-1.22326E-1,-9.5967464E-2,-4.3529946E-2,3.1493914E-3,-8.242278E-2,-5.2107897E-2,-9.535E-3,-7.1724296E-2,-1.5573053E-1,-3.4800407E-2,7.5914E-2,-7.38187E-1,4.5428947E-1,4.63262E-1,-4.09E-1,-3.4592744E-2,7.57186E-1,6.3318E-2,3.5554454E0,-7.17529E-1,-1.0123235E-1,-5.178821E-2,-7.407445E-1,-8.612338E-2,-5.5000674E-2,-1.2023201E-1,2.6389E-1,4.09021E-1,5.877269E0,9.62329E-1,4.49061E-1,-6.35824E-1,5.7495E-1,-3.1755876E-2,-5.31384E-2,-7.35361E-1,1.88553E-1,-9.2172585E-2,-7.60311E-1,-2.10969E0,1.3556448E-2,5.48746E-1,-8.046E-3,-8.52583E-1,1.8199392E-2,4.5428947E-1,-3.997561E-2,-1.2848173E-1,5.802E-2,-3.1567E-1,1.576179E-2,-1.8450608E-2,-9.560065E-2,-3.51815E-2,-6.18956E-1,-8.8269E-1,5.26094E-1,-9.2735E-1,4.340815E-1,-8.3662E-1,5.496595E-1,-9.444068E1,7.5299E-2,-8.54212E-1,-1.0742854E-1,-2.1667209E-2,9.634E-2,2.15303E-1,7.1906E-1,1.856992E0,8.66172E-1,-2.9295E-1,3.103E-1,-3.6264E-1,9.2947E-2,1.09998E-1,-8.102824E-3,8.33836E0,1.6283E-1,-1.223329E0,-4.368821E-2,1.3035712E-3,2.00051E-1,7.469269E-3,-1.61264E-1,2.893615E0,1.281768E0,1.903067E0,-3.415079E-2,9.4039E-1,6.4696E-2,2.7758555E0,-1.09772E-1,5.470282E0,1.22987E-1,6.87919E-1,-9.15815E-1,1.98747E-1,-9.186991E-3,-3.541892E-2,-8.320054E-2,-1.3726433E-2,1.839676E-2,5.85226E-1,-2.1829749E-2,9.72269E-1,-1.608272E-3,6.400902E0,1.20511E0,-1.070714E0,-1.300269E0,4.6665E-2,1.483436E0,2.21394E0,-4.2860318E-2,-2.0581726E-2,1.8315924E-2,-9.312007E1,6.167E-3,1.11654E-1,-1.8252974E-2,5.82188E0,-5.5553705E-2,-2.8586468E-2,8.921501E-3,5.93804E-1,6.58685E-1,4.504458E0,5.446222E0,-4.2080756E-2,-6.3007446E-3,4.7123E-2,1.75209E0,1.295761E0,7.02818E-1,-9.84985E-1,2.997729E0,7.72101E-1,-1.341766E0,2.9601289E-2,5.77393E0,2.8395E-1,2.23699E0,7.06781E-1,8.29861E-1,1.6183155E0,8.0176E-1,2.305078E0,-2.7613837E-2,-4.5306567E-2,1.924358E0,1.74356E-1,-1.8300405E-2,-5.4501E-1,9.37755E-1,-1.0308652E-1,1.011738E0,-4.044065E-2,-1.6100407E-2,-1.094708E-1,-2.787338E-2,-4.74579E-2,-3.9367463E-2,-5.84894E-1,1.6994596E-3,-5.4809827E-2,-1.4798407E-1,-3.5267208E-2,-3.8640786E-2,1.2725E-1,-3.654683E-2,-5.625409E-2,-3.6842413E-2,-7.0744514E-2,-7.95795E-1,3.7019877E0,-8.20715E-2,-1.371313E0,-4.87116E-2,-6.54987E-2,9.023E-2,4.525835E-1,4.0849442E0,-7.62353E-1,7.76667E-1,-5.4629326E-2,-7.43458E-1,-5.1431518E-2,4.943535E-1,5.61785E-1,5.91302E-1,-6.750055E-2,-9.51546E-1,4.93607E0,5.67042E-1,5.181745E-1,-6.1052144E-2,-3.772576E-2,5.69425E-1,5.808339E0,2.382429E-2,-7.25148E-1,-9.18037E-1,-7.74226E-1,6.0249593E-2,4.4104E-1,1.019922E0,1.10282E-1,3.4401E-2,-7.169785E-2,4.6113163E-4,2.6561791E-2,2.378E-2,-1.1745186E-2,7.15778E-1,1.7103E-2,2.197423E-2,-8.78073E-3,2.64291E-1,4.28004E-1,-8.135061E-2,1.08387E-1,-8.575793E-3,5.83114E-1,6.29547E-1,5.33641E-1,2.1283E-2,4.45362E-1,-5.7775743E-2,-2.9938152E-2,1.731239E0,-3.798647E-2,5.89253E-1,1.5478E-2,5.9721E-1,-9.688898E1,9.0839E-1,-2.6384404E-2,2.6549324E-2,6.78734E-1,-2.11465E-1,1.7070105E0,7.71784E-1,7.6864E-1,1.455667E0,-1.606224E0,-3.1137E-1,2.39321E-1,1.7223E-1,3.103E-1,-1.423532E0,-2.056065E-2,3.03108E-1,9.8356E-2,8.066469E-3,-4.1908016E-3,-2.303335E0,-1.509745E0,-7.696321E-2,7.849595E-3,1.027436E0,-4.2846195E-2,-2.1936405E-3,4.007E-3,2.4010321E-2,2.2881674E-3,-5.4181725E-2,-8.833409E-2,1.5366127E-2,-2.6184011E-2,1.08202E-1,-7.951525E-3,1.7383E-1,-9.578481E1,5.89645E-1,2.2186463E0,6.6883245E0,4.2862E-2,-3.8791E-1,6.93367E-1,-1.108147E0,6.98045E-1,6.34161E-1,8.939E-1,1.283031E0,8.0923E-1,4.2937946E0,1.009659E0,-3.018975E-3,7.4679046E-3,-9.679711E-3,-1.7173028E-2,-9.774084E-3,-2.5507897E-2,-8.3327E-1,-4.0514983E-2,4.34471E0,5.763388E0,-5.720041E-2,5.4227085E0,6.03316E-1,1.48407E-1,-6.714411E-3,-3.878821E-2,3.0953808E-2,-3.2882101E-3,-7.293441E-4,-2.308201E-2,1.1639839E-2,-1.1314627E-3,-1.9767344E-2,1.8428234E-2,1.1969995E-3,-2.3000697E-2,5.53368E-1,-4.3107897E-2,-2.004249E0,3.5745E-2,-4.491321E-2,9.049594E-3,6.51169E-1,-2.1355672E-2,5.48746E-1,-2.0036059E-2,6.36455E-1,-1.317492E0,5.7988176E0,-2.1712465E-2,9.1657E-1,-5.1274117E-2,5.9496E-2,-7.70007E-2,7.88221E-1,1.3427015E-3,5.947404E0,6.1028366E0,-4.575744E-3,1.42221E-1,-9.199321E1,-1.6638797E-2,7.46415E-1,-9.0579956E1,-1.99732E-1,3.66912E-1,2.58709E-1,2.23699E0,-5.81664E-1,1.748265E0,7.079E-2,-1.69829E-1,1.201664E0,1.9826038E-2,-1.2869537E-2,3.6154264E-3,-2.1466011E-2,1.24782E-1,-3.0990412E-2,3.6193512E-3,-1.2323772E-1,-5.1600613E-2,-1.4734009E-2,-7.90153E-1,3.486E-1,-1.7450407E-2,1.38503E0,2.64291E-1,-1.4963701E-2,-2.591137E-2,-9.272576E-2,-5.6707453E-2,-1.0920649E-2,4.68697E-1,-4.144323E-2,-1.5492411E-2,1.404641E0,1.0249594E-2,2.0032791E-2,-1.6558986E-2,-3.3927325E-2,-2.4178762E-2,8.353995E-1,-6.64848E-1,3.8134193E0,-2.0175355E-2,6.3279E-2,-5.3050756E-2,-2.2860968E-2,-2.9933253E-2,-7.573198E-3,5.939623E-3,-1.637017E0,5.7279105E0,-1.435356E0,7.7530965E-3,-5.0062288E-2,-7.407445E-1,-4.092322E-3,-1.3988729E-2,-1.467708E0,1.72915E-1,-1.4188999E-2,5.365213E0,1.408713E0,5.80417E-1,5.496595E-1,-3.6326993E-2,5.69061E-1,-8.8487E-1,-5.957972E-2,-9.9520735E-2,-3.5800796E-2,6.31738E-1,-9.491919E1,1.11654E-1,-7.255771E-3,2.819935E-2,-1.9875264E-2,4.45258E-1,-3.990054E-2,-1.3012801E-1,-2.2895792E-2,4.59107E-1,-7.259884E-3,-2.9867426E-2,2.3295E-2,-7.495628E-2,6.234586E-3,-4.23845E-1,-9.602004E1,-1.420788E0,-7.1783E-1,5.026423E0,4.44515E-1,-8.4923E-1,5.97274E-1,-1.1173465E-2,8.053753E-3,-3.2838825E-3,-1.8157186E-2,-2.8060228E-2,-7.1783E-1,6.202185E0,-1.931722E0,-2.197302E-2,-1.514635E0,4.82176E-1,1.1473441E-3,-8.262389E-3,2.1065991E-2,7.0981E-1,1.83002E-1,-4.332571E-2,-1.7698945E-2,-2.785406E-3,-1.45936E0,1.07281E-1,1.395462E0,-9.73391E-1,-6.631892E-2,-1.6040651E-2,3.7230022E-2,9.930411E-5,-1.37756E0,1.44384E-1,-1.631385E0,6.01095E-2,2.2799E-1,4.47343E-1,6.8602E-1,6.78734E-1,3.19605E-1,3.9296406E-3,-1.78804E-1,9.00975E-1,6.4672422E0,7.87912E-1,-6.2004062E-3,-7.7722944E-2,-1.897665E-2,-2.8325932E-3,-9.88143E-3,1.25706745E-2,-1.3686502E-2,1.290169E0,-4.1771535E-2,-1.3293611E-2,-3.0440731E-2,-7.948392E-3,-7.900731E-3,1.083285E0,1.1849607E-3,-2.4271568E-2,-8.52583E-1,-9.83566E-1,6.2302E-1,-3.6599E-1,-1.12540655E-1,1.42221E-1,-4.66218E-1,-3.71092E-1,8.74773E-1,1.52163E0,-8.89982E-1,-8.7358E-1,1.07416E-1,-1.1122E-1,6.551153E0,6.247869E0,-9.352536E1,-9.13619E-1,-1.108147E0,-8.77525E-1,-1.002385E0,3.4262793E0,-2.891278E-2,1.52345E-1,7.60573E-1,-1.29445E0,5.612242E0,-2.0663511E-2,-9.325828E1,5.551132E0,-1.38438E0,2.32134E-1,4.3863E-2,9.312439E-3,-4.1667413E-2,9.393504E-4,6.58685E-1,-7.811695E-3,7.19986E-1,7.237681E-3,5.87799E-1,3.589635E0,4.8404055E0,6.75148E-1,5.76845E-1,-2.5812153E-2,-3.290844E-2,5.3293204E0,-5.9665544E-3,8.9485E-2,-9.09498E-1,-5.2762083E-3,4.09555E-2,-3.8455233E-2,-2.101133E-2,-1.0733805E-2,-2.3578377E-3,1.25779E0,-1.07594E0,-4.4036508E-2,-5.0650727E-2,-1.0125073E-1,-4.1471377E-2,-2.335278E-2,-3.450768E-2,-1.4707011E-2,-1.13212E0,-8.77525E-1,4.1559396E0,-2.19177E-1,6.9288476E-3,2.1261303E-2,1.6667653E-2,-9.27262E-1,-2.3020616E-2,6.4672422E0,-2.9114982E-2,-7.843401E-2,1.19425E-1,6.87919E-1,2.3267206E-2,-2.9295E-1,-2.9680252E-2,6.149391E-3,8.776282E0,-8.6746254E-4,1.445014E0,-1.25485E0,1.42569E-1,6.09645E-1,4.4043E-2,2.303975E-1,7.1076E-1,1.854672E0,2.639929E-2,2.775889E-4,8.37324E-1,-1.934412E-2,-1.29506085E-2,2.3025E-2,-1.4335011E-1,-1.2080695E-1,-5.0708294E-2,-9.4720654E-2,-2.4480648E-2,-8.0035925E-2,-5.7553746E-2,-3.4477673E-2,7.442265E-1,-1.4040651E-2,-5.793009E-3,1.11887045E-2,-8.903817E-3,-3.0860731E-2,-1.7007347E-2,-8.881195E-3,-3.513319E-2,1.3499594E-2,-2.060911E-2,8.74366E-1,1.3837422E-4,-1.3212553E-2,-1.9234136E-2,-2.9125286E-3,5.0741E-2,-2.3486717E-2,-8.18703E-1,4.5993235E-3,-3.5336792E-2,-4.4700798E-2,-4.169814E-2,5.2257E-2,-2.1917751E-2,-3.266126E-2,-3.379518E-3,5.5148892E0,-3.1068688E-2,-2.2883914E-2,4.708353E-3,5.58975E-1,7.664E-2,-6.430077E-2,7.5811734E0,-3.2363262E-2,-1.02110736E-1,-9.700405E-3,9.032794E-3,-4.656998E-2,-5.9989613E-2,-3.236165E-2,-5.4778498E-2,-1.5820649E-2,-5.26079E-1,-7.4757608E-3,-2.1282924E-2,3.92934E-1,-2.5967209E-2,1.0239246E-2,1.114053E0,1.331522E-2,4.8449E-1,-1.6552012E-2,-1.2635881E-2,-2.6366165E-2,6.58678E-1,5.67621E-1,-9.758981E1,1.8065633E-2,6.1521196E0,1.6250435E-2,-6.1650136E-3,-3.492561E-2,-1.560041E-2,-3.28579E-2,3.5209625E-3,-1.41772395E-2,-2.901321E-2,-8.85967E-4,1.24654155E-2,3.048768E-3,-4.9662318E-2,-2.9446242E-2,-9.650075E-2,-1.4850405E-2,-2.2816464E-2,1.276394E0,7.06781E-1,2.508146E0,2.5262838E-2,-4.440731E-3,5.0301747E0,5.0634165E0,-1.086182E0,-3.4050778E-2,-9.634506E1,3.01099E0,-1.73843E0,8.413365E-4,-1.49167795E-2,2.069076E0,7.9464E-1,1.364009E0,1.9414E0,-2.068443E0,9.1234E-2,2.1499E-1,2.81497E-1,2.70772E-1,-3.2119E-1,1.351615E0,2.23699E0,2.071497E0,1.34903E-1,-4.60132E-1,8.48902E-1,1.845645E0,3.32992E-1,2.31589E0,-1.2820772E-2,7.855E-2,3.7069272E-2,9.944717E-3,4.3863E-2,-9.4909355E1,9.66514E-1,5.86401E-1,4.3415427E-2,1.1162035E0,-9.2273285E1,-9.3213455E1,1.8585151E0,1.791431E0,1.054403E0,-3.64298E-1,-9.535E-3,6.94913E-1,4.55035E-2,2.2663312E-2,-2.7772183E-2,4.7469E-2,1.3451E-1,5.3299884E-3,3.4404922E-2,6.0659456E-3,3.4561002E0,5.5982556E0,4.0257707E0,7.53935E-1,-1.3786E-1,1.6183155E0,1.72068E-1,-1.559545E0,1.6066127E-2,-3.782073E-2,3.1053318E-2,6.1038E-1,-4.1125607E-2,5.39565E-1,2.056601E-2,-4.925744E-3,-7.7340655E-2,4.67166E-1,-9.3034615E1,-9.70878E-1,3.456179E-2,7.5221E-1,1.113075E0,1.207478E0,-6.13547E-1,8.4705E-1,-8.84426E-1,-1.5287461E-2,3.55632E-2,1.462067E0,3.723147E-2,-1.052914E0,8.84138E-1,-9.285698E1,6.60181E-1,1.818307E0,1.6039193E-2,1.08387E-1,4.89689E-1,9.730597E-3,1.224429E0,4.85458E-1,-2.530065E-2,-8.57275E-1,-9.277433E1,6.99754E-1,-1.8170772E-2,5.348224E0,1.779614E0,5.7894554E0,-2.5067875E-2,-1.6711487E-2,-4.076202E-3,-1.4607251E-2,1.162958E0,-1.4270732E-2,7.3707337E-3,-1.66863E-1,7.34259E-1,4.1453E-2,-3.0006494E-3,-3.2746945E-2,-2.974396E-2,2.2793512E-3,5.046736E0,-9.01234E-1,-3.8507984E-3,-2.0191697E-2,-9.238612E1,5.756107E0,2.9091986E-3,-1.03330435E-2,9.5834425E-3,-6.263955E-3,4.596904E0,-4.722561E-2,7.5221E-1,1.377622E0,2.64291E-1,1.57971E0,-2.078065E-2,6.8845325E-3,-6.48707E-3,-2.6622742E-2,7.10719E-1,-4.752508E-3,1.3694835E0,6.22275E-2,-1.2851993E-2,6.78734E-1,-6.7756088E-3,3.1742103E-2,-1.1789031E-2,1.451246E0,-1.5585365E-2,1.60525E0,1.801695E0,4.02384E-1,2.47016E-1,1.11654E-1,-4.8251143E-3,1.418108E-2,-6.837439E-2,-8.0059E-1,7.26525E-1,-6.185898E-2,-1.9185772E-2,-5.818098E-3,-1.4377191E-2,-2.701441E-2,-2.2573108E-2,-3.215611E-2,-5.4236915E-2,2.6495948E-3,-1.5495724E-2,-2.9980779E-2,1.480834E0,4.85057E-1,-3.554339E-2,-5.7562288E-2,-3.2845166E-2,-6.576835E-2,-3.5439573E-2,2.5522387E0,1.0558247E-3,-7.2041946E-3,-3.7909027E-3,6.7359395E-3,-1.4741684E-2,-2.3805E-2,-3.1494E-2,2.1137374E-2,7.097065E-3,1.3183403E-2,-2.1100542E-2,4.6798E-1,8.511809E-3,-1.793401E-2,-1.8910296E-2,3.2345306E-3,-6.9688796E-3,6.3532E-2,1.68901E-1,1.0854835E-2,-9.22599E1,5.344567E0,6.26056E-1,-1.8418292E-2,2.2497E-1,1.3099304E-2,-2.3000678E-2,4.16123E-1,-2.648602E-3,2.005937E0,2.7935088E-4,-1.94306E0,-1.63307E0,5.9741E-2,5.776625E-4,-2.49293E-1,-4.8917342E-2,2.3399595E-2,-1.205014E0,1.8077461E-2,3.646578E-3,-1.0107941E-2,2.729929E-2,2.6101582E-3,9.8025E-1,2.955339E-2,2.38618E-3,-1.3553421E-2,1.41563555E-2,3.030733E-3,5.499225E-3,-1.1696429E-2,-1.8443024E-2,-8.123712E-3,1.26438E-1,6.271052E0,6.7734146E0,-4.11608E-1,-8.49482E-1,1.070946E0,3.5064E-2,-3.3642877E-2,7.47263E-1,-9.329268E-3,4.017955E-3,1.9673496E-2,-3.30574E-1,-1.511515E0,6.35132E0,3.54868E-1,-3.3994917E-2,8.432792E-3,6.51169E-1,9.1657E-1,-1.0004059E-3,-7.345041E-2,7.9448E-1,-8.460731E-3,3.1792694E-3,-3.246321E-2,6.9205323E-3,3.5551205E-2,9.5814E-2,3.7727248E-2,1.9062E-1,-9.210542E1,6.919245E-1,-2.5220731E-2,-3.74491E-1,-5.4429E-1,2.4992784E-3,2.8742379E-2,1.3594923E0,1.622234E0,-7.118575E-1,-4.06778E-1,-8.95546E-1,8.53394E-1,1.2372E0,1.7277E-1,3.439946E-2,-2.8150685E-3,2.7530238E-2,1.295761E0,-3.5300404E-2,5.2518873E0,3.394228E0,1.923644E0,4.4617E-2,1.01242E-1,8.5916E-2,-3.47923E-1,1.188375E-1,-9.62257E-1,-1.850889E0,7.1501E-2,5.9007163E0,-4.09E-1,7.4275427E0,-2.0100541E-2,5.454101E0,1.3408174E-2,-8.77525E-1,-6.9851615E-3,3.996835E-1,4.6467805E0,6.0567E-2,2.633664E0,5.1495166E0,1.19511E-1,8.806943E-3,-2.315061E-2,1.49864E-1,1.275312E0,5.743234E0,6.18935E-1,-6.7296824E-3,-2.1908686E-2,6.49456E-1,8.132547E0,2.3406E-2,-1.36955E-1,1.6176173E-2,-9.661212E-3,2.8967617E-2,1.3953055E-2,-1.8121473E-2,3.2037706E-3,2.5856351E-2,6.742979E0,8.9754E-2,-6.42057E-1,1.39278E-1,2.6645E-1,2.7712435E-2,6.9563E-2,4.322782E-3,-2.5277284E-3,2.5409553E-2,-2.600061E-2,3.3818327E-2,-7.560886E-5,3.3531E-2,2.9185563E-3,9.070734E-3,-2.0588277E-2,2.1040922E-2,-1.3382606E-3,1.31023E-1,4.9192156E-3,-8.8269E-1,-3.7907304E-3,6.16142E-1,7.99753E-1,6.327496E-3,-1.1900738E-2,-1.3422462E-2,-2.5542164E-2,-2.2504062E-3,-7.346268E-2,4.432793E-3,-4.7886413E-2,6.4696E-2,3.425909E-3,1.903316E0,1.7553484E-3,1.4077607E-2,-1.190235E0,2.1831982E-2,1.2824835E-2,-2.032994E0,1.76055E-1,8.113165E-1,-6.6441105E-4,-4.18524E-2,-1.5053704E-2,5.979326E0,2.214E-1,5.1373477E0,1.0058E-1,-1.8980928E-2,-3.0290157E-2,-3.2560938E-4,-3.537299E-2,1.642E-1,7.33432E-1,6.1990476E0,-1.4489655E-2,-3.01968E-2,8.18173E-1,-3.6921017E-2,-6.593401E-2,-8.95008E-1,3.58743E-1,-9.450803E-3,-1.501355E0,-2.720797E-3,7.5221E-1,-2.7583628E-3,1.4215882E-2,-5.2150678E-2,-1.0057352E-1,-4.6064433E-2,-3.933875E-3,-3.1122476E-2,6.11722E-1,-4.0072153E-4,6.94746E-1,3.8699593E-2,-1.6870731E-2,-1.7179325E-2,-4.9802935E-4,-8.672182E-3,1.740923E-2,5.94356E-1,2.3796389E-2,-2.5700612E-2,1.2066778E-2,-1.8068975E-2,-6.930054E-2,-9.3959915E1,4.0437784E0,-3.29379E-1,1.739813E0,1.3345909E-2,5.935645E0,-2.1700798E-2,-1.0989372E-2,3.7910175E-3,1.043887E0,-2.8939242E-2,2.22895E-1,-3.394079E-2,4.332793E-3,-3.502065E-2,2.942161E-3,1.0097448E-2,-4.1607795E-3,2.382083E0,2.217333E0,3.80415E-1,2.1403389E-2,2.3633989E-2,1.2088287E-2,7.5721E-1,2.8943887E-2,7.98302E-1,-3.90463E0,7.17445E0,3.03998E-1,6.151829E0,8.7666E-2,4.310549E-2,-1.479611E0,6.239894E0,1.7922286E-2,-1.4967344E-2,1.5405118E-2,-3.0488E-1,1.12016E-1,1.7737357E-2,7.2561475E-3,8.292814E-3,-8.956915E1,1.6268382E-2,-6.700749E-3,2.9027287E-2,1.8110693E-2,-9.49878E-1,2.9828846E-2,6.8944E-1,-1.1567208E-2,8.859209E-3,2.2495989E-2,4.170074E-2,9.1657E-1,7.21593E-1,3.5868973E-2,8.5819E-1,1.088356E0,7.291737E-1,-8.006646E-3,1.094418E0,-3.206073E-2,1.979935E-2,8.8305E-2,1.66866E-1,1.2401371E-2,2.729935E-2,7.80885E-1,-2.355061E-2,2.3366125E-2,3.9721984E-2,-8.3351E-1,3.789658E-2,6.999351E-3,1.231456E0,1.0996284E-2,-2.3853646E-3,1.632312E-2,-1.2000765E-2,5.771433E-3,5.528389E-3,2.267778E-2,4.9461395E-2,-1.296201E0,4.4466957E-2,-1.20558E0,9.6225E-1,6.9087E-2,2.14611E-1,-3.59365E-1,1.34766E-1,-1.048976E0,-5.2439E-1,-1.028401E-2,5.5405825E-2,1.51985E-1,-1.08882105E-2,2.502439E-2,-3.23103E-1,-2.2926692E-4,-1.34825E-1,-1.7320732E-2,2.559503E-2,9.68211E-1,3.9667662E-2,2.9938346E-2,5.3614236E-2,4.2736694E-2,5.997391E0,1.464276E0,2.3827672E-2,-4.10731E-4,1.0958569E-2,3.7637278E-3,3.1849194E-2,-8.95546E-1,-1.091952E0,-4.585791E-3,1.31196E-1,3.9158817E-2,1.285218E0,5.9544E-1,7.0285E-2,3.0213384E-2,3.802666E-2,4.876713E0,-9.580649E-3,2.541293E-2,5.1201E-2,1.093171E0,8.0989E-1,1.43142985E-2,1.374804E0,1.52637E-1,-9.112213E1,7.1575E-1,-1.25485E0,-9.478911E-3,1.4685424E-2,1.2936911E-3,-3.076065E-2,-4.071958E-3,4.7300377E0,-7.939655E-3,1.7861206E-2,-1.7075611E-2,1.863976E0,6.1592697E-3,6.532039E0,1.61181E0,2.1367E-2,9.323119E-3,1.9194117E-2,-9.26065E-3,2.3882538E-2,5.96597E-1,1.0080489E-2,2.831921E-2,2.0283949E-2,7.149212E-3,2.8458131E-2,6.8416615E0,9.449211E-3,2.4391528E-2,-1.958746E-2,1.117935E-2,1.4901469E-2,-3.0590775E-3,-1.7873762E-2,1.362591E-2,-2.7165303E-2,-1.1619212E-2,6.52985E-1,2.1253105E-3,9.61599E-3,1.953332E0,1.557541E0,1.595095E0,1.56329E-1,1.0694289E-4,-1.9446611E-2,-1.0948817E-3,1.003594E0,2.004696E0,-4.7976742E-3,7.0875795E-3,-1.577874E-2,-6.4403005E-3,4.5501537E0,-1.112643E-3,9.44258E-1,-2.6144657E-2,-4.131971E-2,-2.0207012E-2,-1.7602796E-2,-3.4965772E-2,1.1474392E-2,-3.529024E-2,-1.6904622E-2,9.5493235E-3,-4.4656206E-2,-7.550608E-3,6.75148E-1,-4.996073E-2,7.4701E-1,3.2973584E-2,2.6645E-1,-9.258491E1,-9.171435E1,-1.9159388E-3,3.6139205E-2,1.66283E-1,1.76811E-1,5.5724626E0,-1.3359405E-2,1.6499352E-2,8.89299E-3,5.0328E-2,-4.096229E-3,-2.7878499E-2,1.9509E-1,-9.634506E1,1.5358672E-2,2.4833849E-2,1.0412837E-2,-1.52855E0,5.8890725E-3,-1.331192E0,2.3605581E-2,3.85022E-1,3.2034922E-2,2.027971E0,-9.299955E1,1.18211E-1,2.129444E-2,4.936722E-3,1.6799E-1,1.722426E0,3.622205E-2,2.7667377E-2,1.5792644E-2,4.1144717E-2,9.73587E-6,-4.2350408E-2,-1.589088E0,1.3143018E-2,8.784941E-3,8.0696E-1,9.681832E-3,1.26993E-1,1.817989E-3,1.9315882E-2,3.0096073E-2,3.9000016E-2,6.27559E-2,1.56485E-1,6.43673E-1,5.959351E-3,9.824256E-3,3.0435069E-2,-9.543553E-3,1.658674E-2,-8.0006495E-3,2.7674256E-2,-8.571321E-2,-3.869073E-2,-4.259361E-2,-1.7121535E-2,-1.0671628E-2,1.480558E-3,-4.2834077E-2,2.2494507E0,1.748265E0,-2.3900405E-2,1.445927E-2,6.8405E-1,3.3518277E-2,-1.0333876E-2,6.589607E-2,-7.4504064E-3,4.1229766E-2,3.7993917E-3,8.966125E-3,5.9015732E-2,3.7316356E-2,-1.7500406E-2,2.8649256E-2,4.965885E-3,8.874256E-3,3.4332022E-2,5.4368873E0,-2.3606485E-3,-1.3338745E-3,3.878005E-2,7.0087E-1,6.8868E-2,3.8625333E-2,2.429232E-2,-6.957916E-3,1.2390135E-2,6.69203E-1,-2.776721E-2,7.111679E0,2.9835284E-2,6.5399595E-3,2.5244668E-2,2.9215692E-2,5.219222E0,-2.4375608E-2,6.298695E-1,3.358095E-2,2.6122598E-2,-9.29739E-1,7.76577E-1,3.4685355E-2,1.54023385E-2,3.858576E-2,4.5915984E-2,2.9651245E-2,1.813723E-2,2.3122085E-4,-2.4934053E-2,1.158298E-2,-2.0079155E-4,-1.148234E0,3.357149E-2,8.6555E-1,-1.925136E0,5.567652E-3,2.3109196E-2,6.6749E-2,-6.69188E-1,-2.8976647E-2,7.63465E-1,8.15262E-1,-9.155635E1,-9.299955E1,6.1624756E0,1.69075E0,3.7175294E-2,9.360505E-3,-4.672217E-3,1.780173E-2,-2.509829E-3,7.479243E-3,2.3576375E-2,-2.380054E-2,1.804132E0,-4.307897E-3,2.9672576E-2,-1.6169423E-2,5.38679E-3,-3.4000766E-2,-1.4319301E-2,-6.7329E-1,8.12253E-1,6.93197E-1,7.619917E0,1.37302E-1,-5.860041E-3,5.088789E-3,2.0083023E-2,3.01365E-1,8.563E-2,-9.945112E-4,1.6599206E-2,-1.277485E0,5.89929E-3,6.81626E-1,-1.37198195E-2,2.2376174E-2,-3.2607303E-3,2.1326534E-2,8.3837E-2,2.7925E-2,6.70138E-3,-3.6341E-3,-1.9692987E-2,7.881659E-3,5.3817077E0,1.489098E0,-4.2079E-1,2.6057545E-2,-1.6856E-1,-1.374936E-2,1.2844036E-3,1.5740413E-2,-1.73843E0,-1.4600608E-2,8.37324E-1,3.5965794E-3,2.305078E0,-1.118042E0,-8.48401E-3,8.79265E-1,1.115759E-2,1.6477073E-2,2.4799196E-2,3.0533588E-2,7.2472207E-3,2.4522297E-2,4.3521162E-2,4.682925E-2,1.4932657E-2,1.3320676E-2,3.8925167E-2,1.9445863E-2,3.245279E-2,-4.2340104E-3,2.92469E-2,-1.9142813E-3,-2.2045167E-2,-5.4429E-1,1.22802E0,3.124922E-2,8.5916E-2,-1.0946259E-2,-1.1859009E-3,4.237924E-2,2.157629E-2,-2.0842874E-2,1.871989E-3,9.4403E-1,6.93367E-1,5.053531E-2,1.7932657E-2,2.8089702E-2,4.4363003E-2,8.0546335E-4,1.674311E-2,-4.2050403E-2,2.3149595E-2,2.1415194E-2,4.5192423E-3,2.1781784E-3,1.6495423E-2,1.9613532E-2,-1.9775609E-2,7.51155E-1,1.168591E-2,5.43002E-3,2.5225196E-2,4.723695E-3,2.673927E-2,-2.0086467E-2,1.3224392E-2,3.1277884E-3,2.7364442E-2,-2.6986409E-2,-9.461745E-4,-1.1703422E-2,1.3079015E-3,-3.5379312E-3,1.6681043E-2,2.717497E-2,5.8672624E0,1.3699214E-2,-6.9645216E-4,2.319275E-2,9.825925E-1,2.6935158E-2,-1.6700542E-2,1.4736992E-2,1.89533E0,-1.4258633E-2,-9.3510086E1,9.5063E-1,1.690366E0,-1.2550006E-2,-2.4010317E-2,1.8181679E-3,-1.3128049E-2,-1.8152878E-2,-2.9811904E-2,7.229043E0,7.87912E-1,1.7284922E-2,4.727933E-3,-1.8596254E-2,1.11493915E-2,-2.386033E-2,-3.1117475E-2,-2.2425761E-2,-9.983528E-4,-1.6167209E-2,1.6701E-1,2.4402339E-2,-3.800677E-3,-2.8125709E-2,-6.0512987E-3,3.394939E-2,2.24115E-3,-2.0091112E-3,1.5329658E-2,2.0039352E-2,-8.538888E-3,-5.9007104E-3,1.5709652E-2,-1.6506322E-2,1.937334E0,1.2855241E-2,2.2671258E-2,-3.3672084E-3,3.4609925E-2,-1.8500406E-2,4.614798E-2,5.808713E-2,3.9959402E-4,4.4880714E-2,5.3297807E-2,4.702172E-2,2.7321456E-2,2.7615488E-2,4.0387962E-2,-3.7659865E-2,-1.5288292E-2,1.7867087E-3,5.8939915E0,1.1910064E-2,-1.27340555E-2,-8.8841E-3,1.2670318E-2,1.5029989E-2,5.241395E0,3.811568E-3,7.43629E-1,-7.893302E-3,6.74745E-1,4.8500957E0,-9.239656E-3,6.7008047E0,2.0449324E-2,1.18146045E-2,-1.38438E0,-1.2179325E-2,6.961722E-3,2.5142957E-2,1.0660742E-2,-9.321891E1,5.222561E0,2.1060748E-2,-2.265674E0,2.2275352E-3,1.4772549E-2,7.39767E-1,7.3500606E-3,-6.007803E-4,-1.5258488E-2,-6.506093E-4,3.3045154E-2,1.8885745E-4,-1.3156356E-2,7.8676E-1,1.396448E0,2.711927E-2,7.6306583E-3,9.6199784E-4,-2.1067388E-2,-4.4586635E-3,1.0585097E-2,-1.6488262E-2,-1.9495077E-3],"split_indices":[61,48,34,35,71,14,35,34,28,35,34,34,67,71,71,2,67,11,1,14,48,67,48,38,29,0,14,34,29,35,34,36,6,35,44,34,11,48,48,1,19,57,9,35,71,71,11,14,61,61,29,0,48,71,0,14,61,14,19,67,71,19,11,0,13,44,34,44,44,35,14,2,28,36,17,5,34,11,71,0,0,34,36,35,19,14,11,35,48,35,24,35,34,36,57,0,0,3,26,48,0,35,27,0,0,0,0,23,0,29,71,18,14,34,34,61,14,35,34,61,1,34,61,71,13,48,18,0,29,0,61,26,28,28,18,59,0,19,27,0,34,34,17,36,57,34,57,13,44,74,35,9,2,0,50,50,35,0,0,0,0,14,62,36,71,67,59,0,34,34,61,35,36,0,59,46,57,73,48,0,27,14,35,46,11,71,29,61,11,14,14,48,0,0,0,0,0,50,0,0,0,71,61,0,35,48,0,52,71,1,61,0,0,61,0,0,0,67,19,0,56,19,14,35,0,0,61,17,0,61,23,0,34,17,61,0,0,0,0,50,27,0,0,0,0,13,61,35,14,44,61,35,5,50,61,0,0,29,17,19,44,18,28,71,48,29,17,0,6,29,14,0,0,71,0,74,45,52,38,0,34,50,2,28,11,71,57,61,71,0,0,0,0,0,35,0,56,0,4,44,14,14,50,44,46,0,0,0,0,29,17,0,1,0,0,0,57,35,0,11,0,0,74,45,36,18,13,9,35,14,0,6,71,36,57,35,36,57,36,0,0,44,17,0,13,38,0,44,0,0,0,0,0,0,14,0,0,0,0,0,17,0,0,0,0,14,1,28,31,0,0,17,34,9,61,58,0,61,0,34,35,35,0,14,11,19,19,0,0,35,6,0,61,14,61,0,34,44,71,50,0,0,0,29,0,49,71,0,0,18,19,0,71,0,35,19,19,29,67,0,0,38,0,35,29,18,0,34,0,0,57,28,0,57,57,35,61,48,50,17,71,13,0,50,29,0,0,13,27,0,0,34,0,0,50,0,0,0,0,0,0,32,0,71,11,34,11,6,50,48,57,14,35,34,34,62,19,0,35,0,0,0,0,0,0,61,0,0,0,0,6,57,17,0,0,0,0,0,0,0,0,0,0,0,0,67,0,73,50,0,0,34,0,34,0,34,14,11,0,19,0,50,0,34,0,6,6,0,17,2,0,35,0,28,71,50,36,27,36,29,28,67,0,0,0,0,29,0,0,0,0,0,61,34,0,49,18,0,0,0,0,0,57,0,0,45,0,0,0,0,0,44,14,1,0,32,0,0,0,0,0,73,4,31,0,0,61,0,0,73,71,0,6,45,19,35,0,19,13,0,0,0,34,1,17,0,0,0,34,0,0,0,34,0,0,28,0,0,48,2,73,14,0,19,61,35,0,0,0,0,0,14,0,31,0,23,18,0,0,0,34,32,0,0,0,26,29,19,61,0,0,0,0,61,29,27,74,17,71,57,57,71,0,28,57,9,57,0,0,0,0,0,0,0,67,0,0,0,0,0,19,0,0,61,14,57,48,0,17,48,48,35,36,61,61,50,28,0,9,0,61,14,61,61,11,0,29,35,14,1,0,1,9,14,71,50,0,0,0,35,0,35,0,19,0,3,34,35,0,0,6,0,50,61,0,74,0,0,0,0,62,26,0,0,0,0,0,0,0,14,61,1,48,0,0,0,61,0,9,0,0,29,57,0,28,0,0,4,0,36,14,17,57,29,71,57,36,0,0,57,0,0,29,0,0,0,0,0,0,0,0,52,0,0,0,0,0,0,0,0,0,0,44,0,0,0,0,50,0,13,0,0,0,0,29,0,0,0,1,0,0,0,34,32,0,3,0,0,0,0,0,0,0,0,0,48,0,0,19,0,0,45,0,34,0,0,0,44,35,0,0,3,0,0,0,0,0,0,0,0,0,0,0,0,0,0,0,0,58,57,52,0,0,2,11,27,0,0,45,61,0,0,44,57,18,60,14,32,50,71,71,48,35,36,36,32,48,57,44,71,36,0,74,0,0,50,0,19,18,0,35,0,9,5,2,34,48,50,19,29,0,0,29,71,0,0,0,0,9,11,35,28,36,50,13,0,0,0,19,0,67,0,0,0,67,6,61,0,57,59,59,27,35,61,0,0,44,0,61,34,6,57,36,0,71,67,0,44,67,0,61,0,19,0,9,46,6,0,0,0,0,59,0,0,48,19,74,0,0,0,0,0,61,0,0,0,6,0,0,0,0,1,0,57,35,71,36,0,0,0,0,67,0,36,32,0,57,0,0,0,36,0,59,36,71,71,17,0,0,0,14,54,0,0,0,0,0,0,0,0,0,0,0,45,18,0,0,0,0,0,0,0,0,0,0,0,74,27,0,0,0,0,19,0,0,0,0,0,50,29,0,6,11,18,0,50,0,0,71,0,44,0,14,61,17,0,28,0,0,27,0,0,0,0,0,67,0,0,0,0,0,0,0,0,0,17,1,0,48,27,34,74,0,57,0,0,0,48,61,11,71,0,0,34,19,0,0,35,0,0,0,0,0,50,0,71,6,34,0,48,48,0,0,11,45,13,48,61,34,36,17,0,0,0,36,0,1,11,36,29,50,50,48,50,61,24,29,9,48,0,0,0,0,61,0,67,1,50,11,11,71,0,0,17,36,0,18,0,0,57,10,29,28,0,0,0,0,0,0,0,6,29,27,17,71,0,50,0,0,0,0,0,0,32,0,0,0,0,0,17,0,61,0,57,34,0,0,0,0,0,0,0,0,50,0,49,0,0,14,0,0,23,17,18,0,0,0,1,50,0,32,0,0,0,0,17,35,6,0,0,67,0,0,27,71,0,61,0,57,0,0,0,0,0,0,0,35,0,67,0,0,0,0,0,0,44,0,0,0,0,0,0,2,48,36,0,0,0,0,0,34,0,32,0,0,0,0,0,0,36,54,71,0,0,0,57,0,57,31,2,71,9,29,0,14,0,0,0,0,48,50,0,0,0,2,0,0,0,0,26,0,35,0,0,0,0,19,57,0,34,34,1,0,35,0,0,50,50,0,0,34,0,0,0,13,0,0,59,0,0,0,0,0,0,0,0,13,0,13,67,17,71,48,17,61,27,0,0,71,0,0,48,0,28,0,0,18,0,0,0,0,1,35,0,0,0,0,0,61,13,0,71,0,44,57,50,0,0,11,0,0,29,52,35,0,44,17,2,34,14,0,0,0,0,0,1,0,0,0,36,0,0,44,74,0,0,0,0,19,0,0,0,0,0,2,0,0,0,0,0,0,0,0,0,0,57,0,0,36,36,36,17,0,0,0,35,36,0,0,0,0,0,0,35,0,0,0,0,0,0,0,0,0,0,0,34,0,38,0,71,0,6,0,0,17,17,11,0,0,0,17,0,0,32,0,0,0,0,61,0,61,0,71,0,44,1,17,0,0,17,44,0,0,0,0,0,0,26,0,0,18,0,29,0,0,0,0,0,50,34,0,0,0,0,0,0,0,0,0,0,0,0,0,0,9,36,0,0,18,0,0,0,0,0,0,0,0,0,0,0,0,0,0,1,0,0,0,57,50,0,0,0,0,57,0,0,0,0,0,0,0,0,35,0,0,61,19,0,0,0,0,0,0,0,0,0,0,14,0,35,24,0,0,50,27,0,34,34,3,1,0,44,0,0,0,0,0,0,0,0,46,0,0,0,0,0,0,27,67,18,5,32,0,0,0,71,29,0,0,13,0,19,0,0,0,0,50,50,0,0,0,0,1,36,48,0,28,0,0,0,61,0,57,0,36,27,0,18,0,0,0,0,0,0,0,0,0,0,0,0,0,0,0,0,0,48,19,0,50,0,0,0,0,0,0,67,57,0,0,0,0,0,0,0,0,0,0,0,0,0,0,34,0,0,0,0,0,0,0,0,0,0,0,0,0,0,0,0,3,0,0,0,19,0,0,0,38,0,9,35,36,0,0,0,0,0,0,0,57,0,0,0,0,0,0,0,0,0,17,0,0,0,0,0,0,0,0,0,0,0,0,0,44,0,0,0,0,0,0,0,0,0,0,0,0,0,0,0,0,0,6,0,0,0,0,0,0,0,67,0,57,0,0,0,0,0,14,0,0,0,0,11,11,0,24,0,0,57,0,0,0,0,0,0,0,35,36,0,0,0,0,0,0,0,0],"split_type":[0,0,0,0,0,0,0,0,0,0,0,0,0,0,0,0,0,0,0,0,0,0,0,0,0,0,0,0,0,0,0,0,0,0,0,0,0,0,0,0,0,0,0,0,0,0,0,0,0,0,0,0,0,0,0,0,0,0,0,0,0,0,0,0,0,0,0,0,0,0,0,0,0,0,0,0,0,0,0,0,0,0,0,0,0,0,0,0,0,0,0,0,0,0,0,0,0,0,0,0,0,0,0,0,0,0,0,0,0,0,0,0,0,0,0,0,0,0,0,0,0,0,0,0,0,0,0,0,0,0,0,0,0,0,0,0,0,0,0,0,0,0,0,0,0,0,0,0,0,0,0,0,0,0,0,0,0,0,0,0,0,0,0,0,0,0,0,0,0,0,0,0,0,0,0,0,0,0,0,0,0,0,0,0,0,0,0,0,0,0,0,0,0,0,0,0,0,0,0,0,0,0,0,0,0,0,0,0,0,0,0,0,0,0,0,0,0,0,0,0,0,0,0,0,0,0,0,0,0,0,0,0,0,0,0,0,0,0,0,0,0,0,0,0,0,0,0,0,0,0,0,0,0,0,0,0,0,0,0,0,0,0,0,0,0,0,0,0,0,0,0,0,0,0,0,0,0,0,0,0,0,0,0,0,0,0,0,0,0,0,0,0,0,0,0,0,0,0,0,0,0,0,0,0,0,0,0,0,0,0,0,0,0,0,0,0,0,0,0,0,0,0,0,0,0,0,0,0,0,0,0,0,0,0,0,0,0,0,0,0,0,0,0,0,0,0,0,0,0,0,0,0,0,0,0,0,0,0,0,0,0,0,0,0,0,0,0,0,0,0,0,0,0,0,0,0,0,0,0,0,0,0,0,0,0,0,0,0,0,0,0,0,0,0,0,0,0,0,0,0,0,0,0,0,0,0,0,0,0,0,0,0,0,0,0,0,0,0,0,0,0,0,0,0,0,0,0,0,0,0,0,0,0,0,0,0,0,0,0,0,0,0,0,0,0,0,0,0,0,0,0,0,0,0,0,0,0,0,0,0,0,0,0,0,0,0,0,0,0,0,0,0,0,0,0,0,0,0,0,0,0,0,0,0,0,0,0,0,0,0,0,0,0,0,0,0,0,0,0,0,0,0,0,0,0,0,0,0,0,0,0,0,0,0,0,0,0,0,0,0,0,0,0,0,0,0,0,0,0,0,0,0,0,0,0,0,0,0,0,0,0,0,0,0,0,0,0,0,0,0,0,0,0,0,0,0,0,0,0,0,0,0,0,0,0,0,0,0,0,0,0,0,0,0,0,0,0,0,0,0,0,0,0,0,0,0,0,0,0,0,0,0,0,0,0,0,0,0,0,0,0,0,0,0,0,0,0,0,0,0,0,0,0,0,0,0,0,0,0,0,0,0,0,0,0,0,0,0,0,0,0,0,0,0,0,0,0,0,0,0,0,0,0,0,0,0,0,0,0,0,0,0,0,0,0,0,0,0,0,0,0,0,0,0,0,0,0,0,0,0,0,0,0,0,0,0,0,0,0,0,0,0,0,0,0,0,0,0,0,0,0,0,0,0,0,0,0,0,0,0,0,0,0,0,0,0,0,0,0,0,0,0,0,0,0,0,0,0,0,0,0,0,0,0,0,0,0,0,0,0,0,0,0,0,0,0,0,0,0,0,0,0,0,0,0,0,0,0,0,0,0,0,0,0,0,0,0,0,0,0,0,0,0,0,0,0,0,0,0,0,0,0,0,0,0,0,0,0,0,0,0,0,0,0,0,0,0,0,0,0,0,0,0,0,0,0,0,0,0,0,0,0,0,0,0,0,0,0,0,0,0,0,0,0,0,0,0,0,0,0,0,0,0,0,0,0,0,0,0,0,0,0,0,0,0,0,0,0,0,0,0,0,0,0,0,0,0,0,0,0,0,0,0,0,0,0,0,0,0,0,0,0,0,0,0,0,0,0,0,0,0,0,0,0,0,0,0,0,0,0,0,0,0,0,0,0,0,0,0,0,0,0,0,0,0,0,0,0,0,0,0,0,0,0,0,0,0,0,0,0,0,0,0,0,0,0,0,0,0,0,0,0,0,0,0,0,0,0,0,0,0,0,0,0,0,0,0,0,0,0,0,0,0,0,0,0,0,0,0,0,0,0,0,0,0,0,0,0,0,0,0,0,0,0,0,0,0,0,0,0,0,0,0,0,0,0,0,0,0,0,0,0,0,0,0,0,0,0,0,0,0,0,0,0,0,0,0,0,0,0,0,0,0,0,0,0,0,0,0,0,0,0,0,0,0,0,0,0,0,0,0,0,0,0,0,0,0,0,0,0,0,0,0,0,0,0,0,0,0,0,0,0,0,0,0,0,0,0,0,0,0,0,0,0,0,0,0,0,0,0,0,0,0,0,0,0,0,0,0,0,0,0,0,0,0,0,0,0,0,0,0,0,0,0,0,0,0,0,0,0,0,0,0,0,0,0,0,0,0,0,0,0,0,0,0,0,0,0,0,0,0,0,0,0,0,0,0,0,0,0,0,0,0,0,0,0,0,0,0,0,0,0,0,0,0,0,0,0,0,0,0,0,0,0,0,0,0,0,0,0,0,0,0,0,0,0,0,0,0,0,0,0,0,0,0,0,0,0,0,0,0,0,0,0,0,0,0,0,0,0,0,0,0,0,0,0,0,0,0,0,0,0,0,0,0,0,0,0,0,0,0,0,0,0,0,0,0,0,0,0,0,0,0,0,0,0,0,0,0,0,0,0,0,0,0,0,0,0,0,0,0,0,0,0,0,0,0,0,0,0,0,0,0,0,0,0,0,0,0,0,0,0,0,0,0,0,0,0,0,0,0,0,0,0,0,0,0,0,0,0,0,0,0,0,0,0,0,0,0,0,0,0,0,0,0,0,0,0,0,0,0,0,0,0,0,0,0,0,0,0,0,0,0,0,0,0,0,0,0,0,0,0,0,0,0,0,0,0,0,0,0,0,0,0,0,0,0,0,0,0,0,0,0,0,0,0,0,0,0,0,0,0,0,0,0,0,0,0,0,0,0,0,0,0,0,0,0,0,0,0,0,0,0,0,0,0,0,0,0,0,0,0,0,0,0,0,0,0,0,0,0,0,0,0,0,0,0,0,0,0,0,0,0,0,0,0,0,0,0,0,0,0,0,0,0,0,0,0,0,0,0,0,0,0,0,0,0,0,0,0,0,0,0,0,0,0,0,0,0,0,0,0,0,0,0,0,0,0,0,0,0,0,0,0,0,0,0,0,0,0,0,0,0,0,0,0,0,0,0,0,0,0,0,0,0,0,0,0,0,0,0,0,0,0,0,0,0,0,0,0,0,0,0,0,0,0,0,0,0,0,0,0,0,0,0,0,0,0,0,0,0,0,0,0,0,0,0,0,0,0,0,0,0,0,0,0,0,0,0,0,0,0,0,0,0,0,0,0,0,0,0,0,0,0,0,0,0,0,0,0,0,0,0,0,0,0,0,0,0,0,0,0,0,0,0,0,0,0,0,0,0,0,0,0,0,0,0,0,0,0,0,0,0,0,0,0,0,0,0,0,0,0,0,0,0,0,0,0,0,0,0,0,0,0,0,0,0,0,0,0,0,0,0,0,0,0,0,0,0,0,0,0,0,0,0,0,0,0,0,0,0,0,0,0,0,0,0,0,0,0,0,0,0,0,0,0,0,0,0,0,0,0,0,0,0,0,0,0,0,0,0,0,0,0,0,0,0,0,0,0,0,0,0,0,0,0,0,0,0,0,0,0,0,0,0,0,0,0,0,0,0,0,0,0,0,0,0,0,0,0,0,0,0,0,0,0,0,0,0,0,0,0,0,0,0,0,0,0,0,0,0,0,0,0,0,0,0,0,0,0,0,0,0,0,0,0,0,0,0,0,0,0,0,0,0,0,0,0,0,0,0,0,0,0,0,0,0,0,0,0,0,0,0,0,0,0,0,0,0,0,0,0,0,0,0,0,0,0,0,0,0,0,0,0,0,0,0,0,0,0,0,0,0,0,0,0,0,0,0,0,0,0,0,0,0,0,0,0,0,0,0,0,0,0,0,0,0,0,0,0,0,0,0,0,0,0,0,0,0,0,0,0,0,0,0,0,0,0,0,0,0,0,0,0,0,0,0,0,0,0,0,0,0,0,0,0,0,0,0,0,0,0,0,0,0],"sum_hessian":[4.8854E4,3.9879E4,8.975E3,2.7363E4,1.2516E4,1.252E3,7.723E3,5.108E3,2.2255E4,4.502E3,8.014E3,7.93E2,4.59E2,1.57E3,6.153E3,5.46E2,4.562E3,7.869E3,1.4386E4,1.294E3,3.208E3,1.995E3,6.019E3,4.89E2,3.04E2,8E0,4.51E2,9.6E2,6.1E2,3.067E3,3.086E3,1.97E2,3.49E2,3.11E3,1.452E3,7.076E3,7.93E2,3.69E2,1.4017E4,8.1E1,1.213E3,2.704E3,5.04E2,1.307E3,6.88E2,3.935E3,2.084E3,8E0,4.81E2,8.4E1,2.2E2,1E0,7E0,1.91E2,2.6E2,3.91E2,5.69E2,3.99E2,2.11E2,1.658E3,1.409E3,1.189E3,1.897E3,1.72E2,2.5E1,2.79E2,7E1,1.4E3,1.71E3,1.432E3,2E1,1.305E3,5.771E3,5.4E2,2.53E2,1.46E2,2.23E2,6.944E3,7.073E3,3.5E1,4.6E1,3.26E2,8.87E2,2.645E3,5.9E1,1.07E2,3.97E2,4.76E2,8.31E2,5.73E2,1.15E2,1.145E3,2.79E3,1.788E3,2.96E2,3E0,5E0,2.41E2,2.4E2,2.6E1,5.8E1,1.44E2,7.6E1,1E0,6E0,1.23E2,6.8E1,2.59E2,1E0,3.66E2,2.5E1,3.54E2,2.15E2,3.74E2,2.5E1,1.91E2,2E1,9.73E2,6.85E2,6.92E2,7.17E2,1.1E3,8.9E1,1.761E3,1.36E2,1.24E2,4.8E1,2E0,2.3E1,3.3E1,2.46E2,1E1,6E1,1.66E2,1.234E3,1.705E3,5E0,6.83E2,7.49E2,1E0,1.9E1,2.33E2,1.072E3,1.771E3,4E3,2.54E2,2.86E2,2.24E2,2.9E1,4.8E1,9.8E1,4.1E1,1.82E2,2.691E3,4.253E3,3.854E3,3.219E3,1E0,3.4E1,8E0,3.8E1,4E1,2.86E2,3.09E2,5.78E2,1.168E3,1.477E3,1.4E1,4.5E1,6.1E1,4.6E1,2.33E2,1.64E2,2.9E1,4.47E2,4.55E2,3.76E2,1.34E2,4.39E2,5E0,1.1E2,9.67E2,1.78E2,4.06E2,2.384E3,1.638E3,1.5E2,9.6E1,2E2,6.8E1,1.73E2,1.9E2,5E1,2.3E1,3E0,1.31E2,1.3E1,6E1,1.6E1,2.58E2,1E0,7.4E1,2.92E2,1.2E1,1.3E1,2.31E2,1.23E2,1.89E2,2.6E1,1.61E2,2.13E2,1.8E1,7E0,1.3E2,6.1E1,5E0,1.5E1,4.12E2,5.61E2,2.36E2,4.49E2,5.79E2,1.13E2,6.49E2,6.8E1,1.32E2,9.68E2,5.1E1,3.8E1,1.013E3,7.48E2,6E0,1.3E2,2.5E1,9.9E1,3E0,4.5E1,3E0,2E1,2.7E1,2.19E2,7E0,3E0,4E0,5.6E1,1.38E2,2.8E1,8.2E2,4.14E2,1.288E3,4.17E2,5.9E2,9.3E1,2.44E2,5.05E2,1.7E1,2E0,8.2E1,1.51E2,2.61E2,8.11E2,4.85E2,1.286E3,7.02E2,3.298E3,1.3E1,2.41E2,9.8E1,1.88E2,2.16E2,8E0,7E0,2.2E1,3.9E1,9E0,5.5E1,4.3E1,3.4E1,7E0,3.7E1,1.45E2,1.738E3,9.53E2,5.33E2,3.72E3,1.09E3,2.764E3,1.653E3,1.566E3,2.8E1,1E1,2E0,3.8E1,8.1E1,2.05E2,7.5E1,2.34E2,3.34E2,2.44E2,4.89E2,6.79E2,3.67E2,1.11E3,2.8E1,1.7E1,4.1E1,2E1,1.1E1,3.5E1,1.67E2,6.6E1,6.8E1,9.6E1,1.6E1,1.3E1,8E0,4.39E2,4.47E2,8E0,3.62E2,1.4E1,1.1E1,1.23E2,2.41E2,1.98E2,4.7E1,6.3E1,6.5E1,9.02E2,1.31E2,4.7E1,1.41E2,2.65E2,2.169E3,2.15E2,7.98E2,8.4E2,8.3E1,6.7E1,4.5E1,5.1E1,1.2E2,8E1,1E0,6.7E1,9.7E1,7.6E1,1.86E2,4E0,1E0,5.9E1,6.1E1,1.3E1,6.2E1,2.3E2,2E0,1E1,1.1E1,2E0,2.9E1,2.02E2,1.75E2,1.4E1,1.1E1,1.5E1,4.4E1,1.17E2,1.09E2,1.04E2,3.6E1,9.4E1,1.11E2,3.01E2,1.35E2,4.26E2,2.23E2,1.3E1,4.37E2,1.2E1,1.21E2,4.58E2,1.11E2,2E0,4.28E2,2.21E2,6.95E2,2.73E2,3.6E1,1.5E1,6.47E2,3.66E2,7E0,7.41E2,2.7E1,1.03E2,1E0,2.4E1,2.3E1,7.6E1,1.2E1,3.3E1,2E1,7E0,5.1E1,1.68E2,5.7E1,8.1E1,1.9E1,9E0,2.9E2,5.3E2,3E0,4.11E2,4.3E1,1.245E3,2.45E2,1.72E2,2.3E2,3.6E2,1.1E1,8.2E1,2.31E2,1.3E1,2.22E2,2.83E2,6.2E1,2E1,9.1E1,6E1,5E0,2.56E2,7.97E2,1.4E1,1.8E1,4.67E2,1.72E2,1.114E3,4.78E2,2.24E2,1.877E3,1.421E3,9E0,4E0,1.98E2,4.3E1,1.09E2,7.9E1,1.22E2,9.4E1,7E0,1E0,2.9E1,1E1,2.7E1,2.8E1,3.5E1,8E0,2E1,1.4E1,2E0,5E0,7.7E1,6.8E1,3.84E2,1.354E3,1.67E2,7.86E2,1.88E2,3.45E2,2.604E3,1.116E3,4.96E2,5.94E2,2.718E3,4.6E1,1.308E3,3.45E2,4.6E2,1.106E3,4.3E1,1.62E2,1.27E2,1.07E2,2.31E2,1.3E1,